################################################################################
# Neural network connection values (weights and biases).
################################################################################
# Col  Name       Description
################################################################################
# 1    connection Neural network connection value.
# 2    t          Connection type (a = weight, b = bias).
# 3    index      Index enumerating weights.
# 4    l_s        Starting point layer (end point layer for biases).
# 5    n_s        Starting point neuron in starting layer (end point neuron for biases).
# 6    l_e        End point layer.
# 7    n_e        End point neuron in end layer.
################################################################################
#                      1 2         3     4     5     6     7
#             connection t     index   l_s   n_s   l_e   n_e
############################################################
  9.5008279975086943E-02 a         1     0     1     1     1
  1.3190025540228576E+00 a         2     0     1     1     2
  2.7701382545952509E+00 a         3     0     1     1     3
 -6.4292722887855858E-01 a         4     0     1     1     4
  9.6976196885283328E-01 a         5     0     1     1     5
  4.1947223096012332E-01 a         6     0     1     1     6
 -8.5872099104716060E-01 a         7     0     1     1     7
  3.0885451110778739E-01 a         8     0     1     1     8
 -7.2074163084386311E-01 a         9     0     1     1     9
 -1.1004222030432629E+00 a        10     0     1     1    10
 -1.0354398786068331E+00 a        11     0     1     1    11
 -4.5680046260623115E-02 a        12     0     1     1    12
 -3.3514044428717873E+00 a        13     0     1     1    13
  5.2702035889789411E-01 a        14     0     1     1    14
 -1.4409489816964587E+00 a        15     0     1     1    15
 -5.1482454322926730E-01 a        16     0     1     1    16
  8.3912695947396287E-01 a        17     0     1     1    17
 -1.2848028969282745E+00 a        18     0     1     1    18
  1.6838689608337269E+00 a        19     0     1     1    19
 -1.6784533596160847E+00 a        20     0     1     1    20
  3.1609657118771373E-01 a        21     0     2     1     1
 -2.3213549912866605E-01 a        22     0     2     1     2
 -1.9493240005663273E+00 a        23     0     2     1     3
 -5.3655376625577544E-01 a        24     0     2     1     4
 -2.0026437638166747E+00 a        25     0     2     1     5
  5.5973408888242260E-01 a        26     0     2     1     6
  8.2222993892409046E-01 a        27     0     2     1     7
  1.2443073504760978E+00 a        28     0     2     1     8
  7.8471372089526570E-01 a        29     0     2     1     9
  6.3589501072641652E-01 a        30     0     2     1    10
 -5.9207579723062298E-01 a        31     0     2     1    11
  7.3352513501423677E-01 a        32     0     2     1    12
  3.0495111664912278E+00 a        33     0     2     1    13
 -8.1341741385778366E-01 a        34     0     2     1    14
  2.8315297172832554E-01 a        35     0     2     1    15
 -1.3468536520611851E+00 a        36     0     2     1    16
 -9.4088771518760372E-01 a        37     0     2     1    17
 -1.8294931297180446E+00 a        38     0     2     1    18
 -8.5979271686019976E-01 a        39     0     2     1    19
  1.2305182929018973E-01 a        40     0     2     1    20
 -1.2444065114358773E+00 a        41     0     3     1     1
 -1.3172314247479748E+00 a        42     0     3     1     2
 -4.0084688038340444E+00 a        43     0     3     1     3
  1.8881623748530505E+00 a        44     0     3     1     4
 -2.2435762746856023E+00 a        45     0     3     1     5
 -1.7785285941832656E+00 a        46     0     3     1     6
  2.8875183952817287E+00 a        47     0     3     1     7
 -5.6713063121847862E-01 a        48     0     3     1     8
  1.3907555149436908E+00 a        49     0     3     1     9
  3.2802592115814924E+00 a        50     0     3     1    10
  2.7903376521075782E+00 a        51     0     3     1    11
 -9.0387100640098972E-02 a        52     0     3     1    12
  2.4316125184712751E+00 a        53     0     3     1    13
 -8.2285824776348038E-01 a        54     0     3     1    14
  2.7019521413794898E+00 a        55     0     3     1    15
  1.8893514389065922E+00 a        56     0     3     1    16
 -2.7932088015619527E-01 a        57     0     3     1    17
  3.1377906405946936E+00 a        58     0     3     1    18
 -4.4159569536055449E-01 a        59     0     3     1    19
  3.5549808771100042E+00 a        60     0     3     1    20
 -2.6521420632018572E-01 a        61     0     4     1     1
 -1.7117517096661927E-01 a        62     0     4     1     2
  3.1081124967989409E+00 a        63     0     4     1     3
  4.6710597694780709E-01 a        64     0     4     1     4
  3.5535260732574470E+00 a        65     0     4     1     5
 -5.4653618282824279E-01 a        66     0     4     1     6
 -2.5556320736510081E+00 a        67     0     4     1     7
 -3.0931925825853503E+00 a        68     0     4     1     8
 -8.0603212213394237E-01 a        69     0     4     1     9
 -1.8098508096420940E+00 a        70     0     4     1    10
  1.6974211618308035E+00 a        71     0     4     1    11
 -8.5543497360037102E-01 a        72     0     4     1    12
 -3.7373504824741759E+00 a        73     0     4     1    13
  1.3667089515570245E+00 a        74     0     4     1    14
 -5.9544078344546258E-01 a        75     0     4     1    15
  1.8763814874840619E+00 a        76     0     4     1    16
  3.0078924417517355E-01 a        77     0     4     1    17
  4.3841547623012636E+00 a        78     0     4     1    18
  2.5025538553993870E-01 a        79     0     4     1    19
 -3.3436059986636651E-01 a        80     0     4     1    20
  2.7720521559541478E+00 a        81     0     5     1     1
  9.3272109091779953E-01 a        82     0     5     1     2
  3.2769232947582734E+00 a        83     0     5     1     3
 -2.3057169290704982E+00 a        84     0     5     1     4
  2.4579779742544678E+00 a        85     0     5     1     5
  1.8642593081401444E+00 a        86     0     5     1     6
 -3.6368129425435187E+00 a        87     0     5     1     7
  1.3504399091721364E+00 a        88     0     5     1     8
 -1.6186998223467592E+00 a        89     0     5     1     9
 -3.5263762397277683E+00 a        90     0     5     1    10
 -2.9751279159932804E+00 a        91     0     5     1    11
  6.4671629639524197E-01 a        92     0     5     1    12
  1.9973604473408659E+00 a        93     0     5     1    13
  5.1782991537763023E-01 a        94     0     5     1    14
 -2.9435410732797176E+00 a        95     0     5     1    15
 -1.7850911350929768E+00 a        96     0     5     1    16
 -8.8416082524913689E-02 a        97     0     5     1    17
 -4.1762808784458771E+00 a        98     0     5     1    18
 -3.4947398958599165E+00 a        99     0     5     1    19
 -4.0664752654616834E+00 a       100     0     5     1    20
 -7.8071027356090728E-01 a       101     0     6     1     1
  6.6046076449579527E-01 a       102     0     6     1     2
 -2.7364026173529354E+00 a       103     0     6     1     3
  4.2791587879355514E-01 a       104     0     6     1     4
 -2.5929540005574685E+00 a       105     0     6     1     5
  9.6711181020900405E-01 a       106     0     6     1     6
  3.0714817144660991E+00 a       107     0     6     1     7
  3.5930484933399862E+00 a       108     0     6     1     8
  9.6976408167158445E-01 a       109     0     6     1     9
  1.6687961665092765E+00 a       110     0     6     1    10
 -1.2690876311467851E+00 a       111     0     6     1    11
 -8.0113747171465755E-01 a       112     0     6     1    12
  1.1526061924875159E+00 a       113     0     6     1    13
 -1.1625908420500390E+00 a       114     0     6     1    14
  1.3239847569883942E-01 a       115     0     6     1    15
 -4.5419048624956920E-01 a       116     0     6     1    16
  1.1990981919384460E+00 a       117     0     6     1    17
 -5.6870645021271056E+00 a       118     0     6     1    18
  9.9367826522704550E-01 a       119     0     6     1    19
  1.3910050939265189E-01 a       120     0     6     1    20
 -2.2532893819798727E+00 a       121     0     7     1     1
 -2.6143326151001705E+00 a       122     0     7     1     2
 -4.2032877511313815E+00 a       123     0     7     1     3
  2.8151834012710180E+00 a       124     0     7     1     4
 -6.9535392293917642E-01 a       125     0     7     1     5
 -1.1581322279008732E+00 a       126     0     7     1     6
  4.7001769661836903E+00 a       127     0     7     1     7
 -2.8655261292524044E+00 a       128     0     7     1     8
  3.2845051365466144E-01 a       129     0     7     1     9
  2.4303866023619323E+00 a       130     0     7     1    10
  1.8807923947846490E+00 a       131     0     7     1    11
 -1.0975394710177409E+00 a       132     0     7     1    12
 -2.7495006357256964E+00 a       133     0     7     1    13
  3.2594866277618922E-01 a       134     0     7     1    14
  3.6897520903673016E+00 a       135     0     7     1    15
  4.8677041475262728E-01 a       136     0     7     1    16
  1.1202391798562077E+00 a       137     0     7     1    17
  4.1265645556734274E+00 a       138     0     7     1    18
  4.2611193980546762E+00 a       139     0     7     1    19
  4.7425324770500543E+00 a       140     0     7     1    20
  1.8657063887653962E+00 a       141     0     8     1     1
 -1.5315637940762172E+00 a       142     0     8     1     2
  1.4979194486720318E-01 a       143     0     8     1     3
 -1.4625719917202897E+00 a       144     0     8     1     4
  1.1381144242894092E+00 a       145     0     8     1     5
 -1.9086431698518009E+00 a       146     0     8     1     6
 -3.3783408390430170E+00 a       147     0     8     1     7
 -2.3572512460096617E+00 a       148     0     8     1     8
 -2.5256802639417870E+00 a       149     0     8     1     9
  2.0020137675510466E-01 a       150     0     8     1    10
 -8.2574293783099684E-01 a       151     0     8     1    11
  2.2722652382532158E+00 a       152     0     8     1    12
  1.6757507314585089E+00 a       153     0     8     1    13
 -1.4295837047157969E-01 a       154     0     8     1    14
  5.0049482848623283E-01 a       155     0     8     1    15
 -1.4329128579435766E+00 a       156     0     8     1    16
  2.0383916113641237E-01 a       157     0     8     1    17
  5.3751978307342947E+00 a       158     0     8     1    18
 -1.9088093386081355E+00 a       159     0     8     1    19
  1.8579648679299629E-01 a       160     0     8     1    20
 -1.3581757775982481E+00 a       161     0     9     1     1
  1.4000677928382377E-01 a       162     0     9     1     2
 -3.1725337517370375E-02 a       163     0     9     1     3
 -2.1970784286655964E-01 a       164     0     9     1     4
  5.6384215911622915E-01 a       165     0     9     1     5
  1.0611354355563385E+00 a       166     0     9     1     6
  2.0506891737004715E+00 a       167     0     9     1     7
  1.8460093308442285E+00 a       168     0     9     1     8
  1.4605126225268867E+00 a       169     0     9     1     9
 -1.4990831354189822E+00 a       170     0     9     1    10
  1.5758887565024473E+00 a       171     0     9     1    11
 -2.3382975264313854E+00 a       172     0     9     1    12
  8.5445910536571734E-01 a       173     0     9     1    13
  2.0019844596431642E+00 a       174     0     9     1    14
 -7.9373598373394816E-01 a       175     0     9     1    15
  1.6916683889580666E+00 a       176     0     9     1    16
  1.2344680697257908E+00 a       177     0     9     1    17
 -3.1062528473170774E+00 a       178     0     9     1    18
 -1.4365458814691012E+00 a       179     0     9     1    19
 -1.3764058373645056E+00 a       180     0     9     1    20
  6.8773281306984269E-01 a       181     0    10     1     1
  1.8891383395303860E+00 a       182     0    10     1     2
  1.9299106237940553E+00 a       183     0    10     1     3
 -1.3385285793515618E+00 a       184     0    10     1     4
 -1.6520971212842744E-01 a       185     0    10     1     5
  3.2056066063273397E-01 a       186     0    10     1     6
 -1.8667701311311280E+00 a       187     0    10     1     7
  1.6359998239239695E+00 a       188     0    10     1     8
  2.7968932834995003E-01 a       189     0    10     1     9
 -1.2268476271080593E+00 a       190     0    10     1    10
 -2.7440787991295529E-01 a       191     0    10     1    11
  2.0121626434313228E-01 a       192     0    10     1    12
  1.2703956015413482E+00 a       193     0    10     1    13
  2.3528765195945930E-01 a       194     0    10     1    14
 -1.1066038675431076E+00 a       195     0    10     1    15
  6.7604779960612871E-01 a       196     0    10     1    16
 -4.5780100362827758E-01 a       197     0    10     1    17
 -1.3992098755750160E+00 a       198     0    10     1    18
 -1.9450969007050279E-04 a       199     0    10     1    19
 -1.4060679102075861E+00 a       200     0    10     1    20
  6.2441284898608163E-01 a       201     0    11     1     1
  9.2363040554474218E-01 a       202     0    11     1     2
 -6.5227371297969028E-01 a       203     0    11     1     3
  1.1003999101442528E+00 a       204     0    11     1     4
 -7.6496567011575622E-01 a       205     0    11     1     5
 -1.2801829873674258E+00 a       206     0    11     1     6
 -2.1591968560263259E+00 a       207     0    11     1     7
 -1.7205300620207639E-01 a       208     0    11     1     8
 -6.4626308090171869E-01 a       209     0    11     1     9
  1.8065086162404012E+00 a       210     0    11     1    10
 -5.6172839928045148E-01 a       211     0    11     1    11
  1.5133010391464310E+00 a       212     0    11     1    12
 -3.2454309764517092E-01 a       213     0    11     1    13
 -1.2885226496699036E+00 a       214     0    11     1    14
 -1.1215300752850918E-01 a       215     0    11     1    15
 -1.3381864812871884E+00 a       216     0    11     1    16
  4.7011221250030194E-01 a       217     0    11     1    17
  2.2968223367644045E+00 a       218     0    11     1    18
 -1.8688979784462314E+00 a       219     0    11     1    19
  2.2781522767532300E-01 a       220     0    11     1    20
  1.4677334007369217E-01 a       221     0    12     1     1
 -9.8711009840985664E-01 a       222     0    12     1     2
 -3.9784215837369480E-01 a       223     0    12     1     3
  5.9371959898738280E-01 a       224     0    12     1     4
  6.7730595976773139E-02 a       225     0    12     1     5
  1.4609423822695353E-01 a       226     0    12     1     6
  8.0517540863567671E-01 a       227     0    12     1     7
 -4.6852008714531118E-01 a       228     0    12     1     8
 -1.7289043438051371E-01 a       229     0    12     1     9
  1.7168086601940888E-01 a       230     0    12     1    10
 -2.0742018902196996E-01 a       231     0    12     1    11
  1.2869296793662996E-01 a       232     0    12     1    12
 -5.9442935271698180E-02 a       233     0    12     1    13
 -4.3543028234635694E-01 a       234     0    12     1    14
  2.6679215213037710E-01 a       235     0    12     1    15
 -4.7323989153590035E-01 a       236     0    12     1    16
 -4.7292714055016849E-01 a       237     0    12     1    17
 -3.6212621025460406E-01 a       238     0    12     1    18
 -1.0185485940458292E+00 a       239     0    12     1    19
  1.6888864915534837E-01 a       240     0    12     1    20
 -3.5379341483101634E-01 a       241     0    13     1     1
 -1.2312999794841872E+00 a       242     0    13     1     2
 -7.9893747436817431E-02 a       243     0    13     1     3
  9.4293689371143130E-01 a       244     0    13     1     4
 -1.4173657777422838E-01 a       245     0    13     1     5
  1.2273389368379186E+00 a       246     0    13     1     6
  8.5919385228461886E-01 a       247     0    13     1     7
  3.4086183373826895E-01 a       248     0    13     1     8
  4.1753846089425417E-01 a       249     0    13     1     9
  4.5970328663302024E-01 a       250     0    13     1    10
 -4.6195237228750580E-01 a       251     0    13     1    11
  9.2303121296366553E-01 a       252     0    13     1    12
  1.1955721190706388E-01 a       253     0    13     1    13
  1.1030226082974137E+00 a       254     0    13     1    14
  5.2275930803785113E-02 a       255     0    13     1    15
  2.8522882953744522E-01 a       256     0    13     1    16
 -2.4677821567077198E+00 a       257     0    13     1    17
 -2.7007182030634831E+00 a       258     0    13     1    18
  3.3954905285471854E-01 a       259     0    13     1    19
 -2.7161632763710425E-01 a       260     0    13     1    20
 -3.7227782319284648E-02 a       261     0    14     1     1
  1.2274389752871970E+00 a       262     0    14     1     2
  3.2946099087633524E-01 a       263     0    14     1     3
  5.6142649866267424E-01 a       264     0    14     1     4
 -2.4769214625346175E-01 a       265     0    14     1     5
 -2.8290282483661021E-02 a       266     0    14     1     6
 -4.5918175169605370E-02 a       267     0    14     1     7
  3.4783528722930940E-01 a       268     0    14     1     8
 -1.2438550693183426E-01 a       269     0    14     1     9
 -2.1656166966543222E-01 a       270     0    14     1    10
  1.2146205205097015E-01 a       271     0    14     1    11
 -2.1045108957880707E-01 a       272     0    14     1    12
 -1.3194049279504679E-02 a       273     0    14     1    13
  4.4340228082117317E-01 a       274     0    14     1    14
  7.6721931214239494E-02 a       275     0    14     1    15
  2.8342182209750422E-01 a       276     0    14     1    16
  7.2238694370324630E-01 a       277     0    14     1    17
  9.1808674174026203E-02 a       278     0    14     1    18
  2.3954481729023563E-01 a       279     0    14     1    19
 -8.2712963988941013E-02 a       280     0    14     1    20
  1.0394348426846953E-02 a       281     0    15     1     1
 -2.9225809929438218E-01 a       282     0    15     1     2
  8.4901894950842327E-01 a       283     0    15     1     3
 -1.4447114154386986E-01 a       284     0    15     1     4
  1.4463335081485343E-01 a       285     0    15     1     5
 -3.5583815563199417E-01 a       286     0    15     1     6
 -2.5243267728535335E-01 a       287     0    15     1     7
 -1.4777100983838262E-01 a       288     0    15     1     8
 -1.8705243784603945E-01 a       289     0    15     1     9
 -2.2434974529451410E-01 a       290     0    15     1    10
  2.4418384045938818E-01 a       291     0    15     1    11
 -8.0645909838364505E-01 a       292     0    15     1    12
 -3.2820963165214978E-01 a       293     0    15     1    13
 -5.2954251775047356E-01 a       294     0    15     1    14
  2.3389476735303063E-03 a       295     0    15     1    15
 -6.4940758518719222E-02 a       296     0    15     1    16
  1.1967978414061906E+00 a       297     0    15     1    17
  1.5519955970671242E+00 a       298     0    15     1    18
  2.6067938134275764E-01 a       299     0    15     1    19
  3.6330849786759273E-01 a       300     0    15     1    20
  1.0524348702419088E-01 a       301     0    16     1     1
 -1.0743500351310009E-01 a       302     0    16     1     2
  5.9911092976816338E-01 a       303     0    16     1     3
 -3.5845970376896003E-01 a       304     0    16     1     4
 -1.8354075939984005E-01 a       305     0    16     1     5
  5.3944355678318900E-02 a       306     0    16     1     6
  6.4247036394778401E-01 a       307     0    16     1     7
 -1.0226241700864290E-01 a       308     0    16     1     8
  2.8680071606566199E-01 a       309     0    16     1     9
 -2.5231135804577148E-01 a       310     0    16     1    10
 -2.1768024656782498E-01 a       311     0    16     1    11
  3.7220180625920457E-01 a       312     0    16     1    12
  4.3406991892220699E-02 a       313     0    16     1    13
  1.0808962079027143E-02 a       314     0    16     1    14
  4.8893818083176810E-01 a       315     0    16     1    15
 -6.1952120668508290E-02 a       316     0    16     1    16
 -1.4208784307078628E+00 a       317     0    16     1    17
 -4.7107534054157035E-01 a       318     0    16     1    18
 -6.4158042589408504E-01 a       319     0    16     1    19
 -5.2237017365200811E-02 a       320     0    16     1    20
  5.8473991442721966E-02 a       321     0    17     1     1
 -7.4756483083381160E-03 a       322     0    17     1     2
 -2.4617904426400619E-02 a       323     0    17     1     3
  2.4781186330797872E-01 a       324     0    17     1     4
  1.6198203546321146E-03 a       325     0    17     1     5
 -9.8268965115926005E-02 a       326     0    17     1     6
  1.8365679539484303E-01 a       327     0    17     1     7
  1.8782006725115170E-02 a       328     0    17     1     8
  2.1550853690854738E-01 a       329     0    17     1     9
 -3.6591646995463090E-01 a       330     0    17     1    10
 -4.6007549712231290E-02 a       331     0    17     1    11
 -8.2882738963228619E-03 a       332     0    17     1    12
  4.5801712136367800E-01 a       333     0    17     1    13
  1.6471165570291679E-01 a       334     0    17     1    14
  2.7036732991588086E-01 a       335     0    17     1    15
  3.7620145753182897E-03 a       336     0    17     1    16
 -1.0316989291765449E-01 a       337     0    17     1    17
 -4.0792413292772452E-03 a       338     0    17     1    18
 -8.1817379208711974E-02 a       339     0    17     1    19
  9.5400172192465132E-02 a       340     0    17     1    20
  7.3174228087065946E-02 a       341     0    18     1     1
 -4.4600972316573939E-01 a       342     0    18     1     2
 -6.2491086167881271E-01 a       343     0    18     1     3
  8.4416455310294663E-03 a       344     0    18     1     4
  2.0572904872181180E-01 a       345     0    18     1     5
 -1.5060943250494657E-01 a       346     0    18     1     6
 -2.2054331255574086E-01 a       347     0    18     1     7
 -1.5881442550808969E-01 a       348     0    18     1     8
  6.5756139722399493E-02 a       349     0    18     1     9
 -9.1504071411702137E-03 a       350     0    18     1    10
 -7.6791415991422460E-02 a       351     0    18     1    11
 -3.4852195280448271E-02 a       352     0    18     1    12
  7.5087531449128242E-01 a       353     0    18     1    13
 -2.8173130925815748E-01 a       354     0    18     1    14
  2.6716857334301097E-01 a       355     0    18     1    15
  7.6968342320466954E-02 a       356     0    18     1    16
  1.1196439204998861E-01 a       357     0    18     1    17
  1.3347510590866499E-01 a       358     0    18     1    18
 -2.4606081260437423E-01 a       359     0    18     1    19
  6.9039607608437858E-02 a       360     0    18     1    20
 -8.3945913370131436E-02 a       361     0    19     1     1
  6.2531506049659000E-02 a       362     0    19     1     2
  1.1759090740740495E-01 a       363     0    19     1     3
 -6.8509059375441869E-02 a       364     0    19     1     4
  1.8429695065812875E-02 a       365     0    19     1     5
  3.0766219247602627E-01 a       366     0    19     1     6
  4.8786931343062216E-02 a       367     0    19     1     7
 -1.1904788636838827E-01 a       368     0    19     1     8
 -5.4277260470427533E-03 a       369     0    19     1     9
  1.8177312137768789E-01 a       370     0    19     1    10
  1.9275789863658022E-01 a       371     0    19     1    11
  1.7498084029363614E-01 a       372     0    19     1    12
 -1.8037273021519196E-01 a       373     0    19     1    13
 -2.1189058897395367E-03 a       374     0    19     1    14
 -3.6295845888764422E-01 a       375     0    19     1    15
 -6.2778786175237702E-02 a       376     0    19     1    16
 -5.2213530893505800E-01 a       377     0    19     1    17
  3.9520599374126338E-02 a       378     0    19     1    18
 -1.9949914606304175E-01 a       379     0    19     1    19
  6.4237404297212933E-02 a       380     0    19     1    20
 -1.9979484845206777E-01 a       381     0    20     1     1
  2.5369349383867673E-01 a       382     0    20     1     2
  8.3764929132596799E-01 a       383     0    20     1     3
 -4.8606652731487204E-01 a       384     0    20     1     4
 -4.0088996069452298E-01 a       385     0    20     1     5
  7.9621818467411495E-02 a       386     0    20     1     6
 -7.7042125775475942E-03 a       387     0    20     1     7
  6.1089470575676064E-01 a       388     0    20     1     8
 -4.2943937127710452E-01 a       389     0    20     1     9
 -2.8926633144472846E-01 a       390     0    20     1    10
 -3.5364167002661129E-01 a       391     0    20     1    11
 -3.8151044337351175E-01 a       392     0    20     1    12
 -1.0556127878408208E+00 a       393     0    20     1    13
 -2.4311911365843375E-01 a       394     0    20     1    14
  2.7358353611434100E-01 a       395     0    20     1    15
 -2.7993922134823070E-02 a       396     0    20     1    16
 -1.0061340268988371E-01 a       397     0    20     1    17
 -7.2976040478753446E-02 a       398     0    20     1    18
  1.3409512038943412E+00 a       399     0    20     1    19
 -1.1139632108750210E-01 a       400     0    20     1    20
 -2.0866954080010794E-01 a       401     0    21     1     1
 -1.9472251528878229E-01 a       402     0    21     1     2
 -1.1873222297454851E+00 a       403     0    21     1     3
 -1.7265587012499763E+00 a       404     0    21     1     4
  2.3400704656884780E-01 a       405     0    21     1     5
 -1.0195308342313740E-01 a       406     0    21     1     6
  2.4040904176033029E-01 a       407     0    21     1     7
 -5.2657674395675491E-01 a       408     0    21     1     8
  6.5784910136962649E-01 a       409     0    21     1     9
 -9.3869199726882913E-01 a       410     0    21     1    10
 -3.3543280787289103E-03 a       411     0    21     1    11
  9.0569383649912558E-02 a       412     0    21     1    12
  1.8008943275290843E+00 a       413     0    21     1    13
 -3.6211976374939486E-01 a       414     0    21     1    14
  1.8222739964758333E-01 a       415     0    21     1    15
 -2.7348107533780430E-01 a       416     0    21     1    16
 -3.2136530919047290E-01 a       417     0    21     1    17
  3.2784710279024437E-01 a       418     0    21     1    18
 -3.7699475742072525E-01 a       419     0    21     1    19
  2.9544672215291229E-01 a       420     0    21     1    20
 -1.0244462711827751E-01 a       421     0    22     1     1
 -1.6299365958322254E-01 a       422     0    22     1     2
  3.6668953146062933E-01 a       423     0    22     1     3
  1.4081435127661157E+00 a       424     0    22     1     4
 -1.3292371549761147E-02 a       425     0    22     1     5
 -6.0375062330428732E-04 a       426     0    22     1     6
 -7.5745188136911057E-01 a       427     0    22     1     7
 -3.3444347461858770E-01 a       428     0    22     1     8
 -1.5257363417741086E+00 a       429     0    22     1     9
  8.1066879291852534E-01 a       430     0    22     1    10
 -2.6426430737686263E-01 a       431     0    22     1    11
 -4.8917838731574764E-01 a       432     0    22     1    12
 -1.7639034612052085E+00 a       433     0    22     1    13
 -3.4547831896402742E-01 a       434     0    22     1    14
  9.9996061807444109E-02 a       435     0    22     1    15
  2.0298555070083124E-01 a       436     0    22     1    16
  6.3488620726820855E-01 a       437     0    22     1    17
 -1.7603546265505179E-01 a       438     0    22     1    18
  1.3599887751855997E+00 a       439     0    22     1    19
 -8.3793650783768825E-02 a       440     0    22     1    20
 -3.3440530650560096E-01 a       441     0    23     1     1
  1.4037331197877372E+00 a       442     0    23     1     2
  2.7244505058335999E+00 a       443     0    23     1     3
  1.6602056793589370E+00 a       444     0    23     1     4
 -1.3122733436110261E+00 a       445     0    23     1     5
  1.7344185607806747E-01 a       446     0    23     1     6
 -6.7949148891325861E-01 a       447     0    23     1     7
  2.8476409256922680E-01 a       448     0    23     1     8
  1.1771638509611515E+00 a       449     0    23     1     9
  2.2966543687510494E+00 a       450     0    23     1    10
  3.3535793479596410E-01 a       451     0    23     1    11
  1.5923862583669424E+00 a       452     0    23     1    12
 -2.6710870865985830E+00 a       453     0    23     1    13
  3.2807750862665513E-01 a       454     0    23     1    14
 -2.0975446560474738E+00 a       455     0    23     1    15
 -2.5768273898431215E-01 a       456     0    23     1    16
 -2.5170918271260692E+00 a       457     0    23     1    17
 -5.7285953115539900E-01 a       458     0    23     1    18
 -1.8489671185409993E+00 a       459     0    23     1    19
 -1.3077415681316915E+00 a       460     0    23     1    20
  8.7012111386329249E-02 a       461     0    24     1     1
  2.9705008738804872E-01 a       462     0    24     1     2
 -6.6565008270411685E-01 a       463     0    24     1     3
 -4.3774822541219303E-02 a       464     0    24     1     4
  3.1898440433873532E-01 a       465     0    24     1     5
 -2.3235411447535919E-02 a       466     0    24     1     6
  8.2123330262412764E-01 a       467     0    24     1     7
 -8.8553621576281799E-02 a       468     0    24     1     8
  6.2973978858882684E-01 a       469     0    24     1     9
 -9.4113728606391756E-01 a       470     0    24     1    10
  5.8405886731116097E-01 a       471     0    24     1    11
 -2.4908261654237612E-01 a       472     0    24     1    12
  1.2070359301075704E+00 a       473     0    24     1    13
 -1.1856875315314967E-01 a       474     0    24     1    14
  4.7472990651016367E-01 a       475     0    24     1    15
 -5.2245831713724496E-02 a       476     0    24     1    16
  1.9147119809820475E-02 a       477     0    24     1    17
  2.0920416111598755E-01 a       478     0    24     1    18
 -6.5687732183001390E-02 a       479     0    24     1    19
  3.9087259065952046E-01 a       480     0    24     1    20
  1.0441811945510178E-01 a       481     0    25     1     1
  1.3717273646407313E-02 a       482     0    25     1     2
  1.1329820696946709E+00 a       483     0    25     1     3
  6.4959351068330107E-01 a       484     0    25     1     4
 -2.3363185733804864E-01 a       485     0    25     1     5
 -7.3845368571897343E-02 a       486     0    25     1     6
 -1.0371899292464080E+00 a       487     0    25     1     7
  9.7394429961186535E-01 a       488     0    25     1     8
 -5.2764252531104461E-01 a       489     0    25     1     9
  5.7902888528904006E-01 a       490     0    25     1    10
 -2.3196673390632849E-01 a       491     0    25     1    11
  6.6277824403967858E-02 a       492     0    25     1    12
 -1.0668692699950328E+00 a       493     0    25     1    13
  2.2757669945991568E-02 a       494     0    25     1    14
 -5.0309640749672668E-01 a       495     0    25     1    15
 -1.5021269861928660E-01 a       496     0    25     1    16
  1.6501084342004460E-03 a       497     0    25     1    17
 -2.2335449263559151E-01 a       498     0    25     1    18
  5.2895049305289665E-01 a       499     0    25     1    19
 -3.2866336165054200E-01 a       500     0    25     1    20
  3.6019748854999888E-03 a       501     0    26     1     1
 -1.3475393743707424E+00 a       502     0    26     1     2
 -1.5196801239881348E+00 a       503     0    26     1     3
 -1.0723166198947782E+00 a       504     0    26     1     4
  1.3165138850023179E+00 a       505     0    26     1     5
 -1.1884600414636748E-01 a       506     0    26     1     6
  5.1877002254606031E-01 a       507     0    26     1     7
 -4.1867452662346671E-01 a       508     0    26     1     8
 -2.6390345044623842E-01 a       509     0    26     1     9
 -8.3288135667482244E-01 a       510     0    26     1    10
  2.8248026291049815E-02 a       511     0    26     1    11
 -6.4841283414306639E-01 a       512     0    26     1    12
  4.6059500915498092E-01 a       513     0    26     1    13
 -3.0517520996682923E-01 a       514     0    26     1    14
  8.5250064214825005E-01 a       515     0    26     1    15
  4.0155721585637738E-01 a       516     0    26     1    16
  1.9609943531011584E+00 a       517     0    26     1    17
  2.5527554859445173E-01 a       518     0    26     1    18
  8.1213567040724033E-01 a       519     0    26     1    19
  4.3347269077417200E-01 a       520     0    26     1    20
  3.7203847910827266E-02 a       521     0    27     1     1
  6.8181025099178094E-01 a       522     0    27     1     2
 -1.3698720200579523E-01 a       523     0    27     1     3
  7.8364315899228554E-01 a       524     0    27     1     4
 -1.2346178401273840E-01 a       525     0    27     1     5
  7.8268374685006494E-03 a       526     0    27     1     6
 -1.7739185050537157E-01 a       527     0    27     1     7
  1.7814893085142949E-01 a       528     0    27     1     8
  4.4836627814265798E-02 a       529     0    27     1     9
 -2.4184621747883367E-01 a       530     0    27     1    10
  6.3181696285662850E-02 a       531     0    27     1    11
 -1.2281507913302583E-01 a       532     0    27     1    12
  3.1748086603817854E-01 a       533     0    27     1    13
 -4.7918692515895998E-02 a       534     0    27     1    14
 -4.9856198077042013E-01 a       535     0    27     1    15
 -1.0656066078817014E-01 a       536     0    27     1    16
  7.3815137096671909E-02 a       537     0    27     1    17
  2.0675560131188267E-01 a       538     0    27     1    18
  4.2824433358816394E-01 a       539     0    27     1    19
  1.8568155513480572E-01 a       540     0    27     1    20
 -4.6243576583611484E-01 b       541     1     1
 -7.0506745893865741E-01 b       542     1     2
 -7.9500983415332338E-01 b       543     1     3
  1.2996854745583644E+00 b       544     1     4
  5.1286010539240035E-01 b       545     1     5
 -3.4274814632231154E-01 b       546     1     6
  1.6359485684641850E-01 b       547     1     7
 -6.2762019752329445E-01 b       548     1     8
  1.2457710255477632E-02 b       549     1     9
 -5.8904800227429874E-02 b       550     1    10
  5.5712691059947472E-01 b       551     1    11
 -7.2843184402155509E-02 b       552     1    12
 -6.0637130344551227E-01 b       553     1    13
 -1.6716301833618656E+00 b       554     1    14
  1.4428603700286662E+00 b       555     1    15
 -7.4960904890240665E-01 b       556     1    16
 -1.0407522551756407E+00 b       557     1    17
  2.3379625048699573E-01 b       558     1    18
  1.4418762784147185E+00 b       559     1    19
 -4.9186397197187787E-01 b       560     1    20
  1.6019614619978000E+00 a       561     1     1     2     1
  6.5689073248009100E-01 a       562     1     1     2     2
  7.4454220873694896E-02 a       563     1     1     2     3
 -3.3985293137112715E-01 a       564     1     1     2     4
  2.8655193687210287E+00 a       565     1     1     2     5
 -6.2244169658310056E-01 a       566     1     1     2     6
  1.7740901759176608E+00 a       567     1     1     2     7
  6.7143089459715666E-01 a       568     1     1     2     8
 -2.7363045250827867E-01 a       569     1     1     2     9
  1.2480569715507185E-02 a       570     1     1     2    10
 -9.9813626872577632E-01 a       571     1     1     2    11
 -7.3335205405539716E-01 a       572     1     1     2    12
 -3.8789870929266940E-01 a       573     1     1     2    13
  3.7525475337339947E-01 a       574     1     1     2    14
 -5.8857760320242945E-02 a       575     1     1     2    15
  5.5233380232690166E-01 a       576     1     1     2    16
 -2.0514391202427090E-01 a       577     1     1     2    17
  3.8993630688998898E-01 a       578     1     1     2    18
  5.7576795933614267E-01 a       579     1     1     2    19
  1.0759860896650919E-01 a       580     1     1     2    20
  7.3395787687203659E-02 a       581     1     2     2     1
 -3.7051761458134069E-01 a       582     1     2     2     2
  4.4529507707775862E-01 a       583     1     2     2     3
  1.8046880178371197E-01 a       584     1     2     2     4
  5.5850712174391326E-01 a       585     1     2     2     5
 -1.2890224424209801E-01 a       586     1     2     2     6
 -9.0764164340525100E-01 a       587     1     2     2     7
  2.4801727682656302E-01 a       588     1     2     2     8
 -4.7031388736343654E-01 a       589     1     2     2     9
  7.2086536734858001E-02 a       590     1     2     2    10
  5.8055216653332842E-01 a       591     1     2     2    11
  3.9907266862914775E-01 a       592     1     2     2    12
 -2.1689965651140789E-02 a       593     1     2     2    13
  1.0912208755383841E-01 a       594     1     2     2    14
  6.3347829712565473E-01 a       595     1     2     2    15
  9.2133128546755441E-02 a       596     1     2     2    16
 -3.8955614441731867E-01 a       597     1     2     2    17
  3.0500935676849372E-02 a       598     1     2     2    18
 -3.2780298340868247E-01 a       599     1     2     2    19
 -1.1466630055709558E-01 a       600     1     2     2    20
 -1.4652867444211621E+00 a       601     1     3     2     1
 -6.9849238032578664E-01 a       602     1     3     2     2
  9.1332939144095626E-02 a       603     1     3     2     3
 -1.3089559416329145E-02 a       604     1     3     2     4
 -1.2552687267913258E+00 a       605     1     3     2     5
 -2.2975412551537724E-01 a       606     1     3     2     6
 -2.5014540364191942E+00 a       607     1     3     2     7
 -1.7255850330813621E-01 a       608     1     3     2     8
 -3.0374126913595678E-01 a       609     1     3     2     9
 -5.3940223917919340E-02 a       610     1     3     2    10
  2.7784218013280892E-01 a       611     1     3     2    11
  6.6955525241981728E-01 a       612     1     3     2    12
  3.9967897274833220E-01 a       613     1     3     2    13
 -5.7185596259327565E-01 a       614     1     3     2    14
 -4.0007415612048602E-01 a       615     1     3     2    15
 -3.6520565591949861E-01 a       616     1     3     2    16
 -3.5241481577349637E-01 a       617     1     3     2    17
  2.5631484934292958E-01 a       618     1     3     2    18
 -4.8291323940281705E-01 a       619     1     3     2    19
  9.4688662174423011E-02 a       620     1     3     2    20
 -7.4477019359739216E-02 a       621     1     4     2     1
  8.1645118843932141E-01 a       622     1     4     2     2
 -3.3723112515455234E-01 a       623     1     4     2     3
 -5.9015235495033436E-01 a       624     1     4     2     4
  8.2276415705190301E-02 a       625     1     4     2     5
  2.5299881466897167E-01 a       626     1     4     2     6
  2.7561874317751847E+00 a       627     1     4     2     7
  5.8978978404053062E-01 a       628     1     4     2     8
  2.1018480186022517E-01 a       629     1     4     2     9
  7.1659093024802611E-02 a       630     1     4     2    10
  3.3609829451670248E-01 a       631     1     4     2    11
 -4.4741991912615681E-01 a       632     1     4     2    12
  7.4184913912166722E-02 a       633     1     4     2    13
  8.9645955930094900E-01 a       634     1     4     2    14
 -1.1008975342705094E+00 a       635     1     4     2    15
  1.0192017392851929E-01 a       636     1     4     2    16
  4.9491798449786108E-02 a       637     1     4     2    17
  1.4093351960934664E-01 a       638     1     4     2    18
 -3.4432972757161806E-01 a       639     1     4     2    19
  2.2071570497979334E-01 a       640     1     4     2    20
 -1.2980193084485776E+00 a       641     1     5     2     1
 -4.0580818304373151E-01 a       642     1     5     2     2
  2.4318945085463620E-01 a       643     1     5     2     3
  2.3693279383047181E-01 a       644     1     5     2     4
  9.0991389452718885E-01 a       645     1     5     2     5
  1.8275729208502740E+00 a       646     1     5     2     6
  4.5924666706753919E-01 a       647     1     5     2     7
  1.6261756591628243E-01 a       648     1     5     2     8
 -1.0279680465219954E+00 a       649     1     5     2     9
 -3.3121268727495615E-02 a       650     1     5     2    10
  1.3311471773782646E+00 a       651     1     5     2    11
 -2.9162526560486773E-01 a       652     1     5     2    12
  7.1231097728050044E-02 a       653     1     5     2    13
  1.1651687699991746E+00 a       654     1     5     2    14
  4.3354573706986793E-01 a       655     1     5     2    15
 -2.1976819716669430E-01 a       656     1     5     2    16
 -7.4379926728146162E-01 a       657     1     5     2    17
  6.4697175436947840E-01 a       658     1     5     2    18
 -6.4517726870512337E-01 a       659     1     5     2    19
  1.1362951658972642E-02 a       660     1     5     2    20
 -4.7790880077512160E-01 a       661     1     6     2     1
  6.6239354058059297E-01 a       662     1     6     2     2
 -4.1057898380600105E-01 a       663     1     6     2     3
 -2.8469929603350097E-01 a       664     1     6     2     4
  8.6186740168479281E-01 a       665     1     6     2     5
  1.9078341678436414E-01 a       666     1     6     2     6
  7.1883318444081090E-01 a       667     1     6     2     7
 -2.3961756099711698E-01 a       668     1     6     2     8
 -1.3307867713375499E-01 a       669     1     6     2     9
 -2.6115213655749753E-01 a       670     1     6     2    10
  1.0789022202045249E+00 a       671     1     6     2    11
  3.1398899955542886E-01 a       672     1     6     2    12
 -2.0808172262131500E-01 a       673     1     6     2    13
  9.7145840048275334E-01 a       674     1     6     2    14
  5.5253401102145061E-01 a       675     1     6     2    15
  7.7426898784875145E-02 a       676     1     6     2    16
 -1.5556239594883692E-01 a       677     1     6     2    17
  2.2815574410402392E-01 a       678     1     6     2    18
 -6.7985814378001691E-02 a       679     1     6     2    19
 -3.5902370797048076E-02 a       680     1     6     2    20
  2.4208725731124570E-01 a       681     1     7     2     1
  1.0248220751940145E+00 a       682     1     7     2     2
  2.0367521873753427E-01 a       683     1     7     2     3
 -3.8258682990299508E-01 a       684     1     7     2     4
 -5.9356578102244439E-01 a       685     1     7     2     5
 -5.7113184835334685E-01 a       686     1     7     2     6
 -4.5195762644228088E-02 a       687     1     7     2     7
 -1.8665264727928679E-01 a       688     1     7     2     8
 -8.6951331154149672E-02 a       689     1     7     2     9
  2.0809301955999038E-01 a       690     1     7     2    10
 -2.6878756462790093E-01 a       691     1     7     2    11
  3.9695051763833189E-01 a       692     1     7     2    12
 -5.5403786020104297E-02 a       693     1     7     2    13
 -2.9575061990271662E-01 a       694     1     7     2    14
  2.7312509024512271E-01 a       695     1     7     2    15
  2.7296146531977428E-01 a       696     1     7     2    16
  1.5508377388193936E-01 a       697     1     7     2    17
 -2.8418405079068276E-01 a       698     1     7     2    18
  1.5155203542942780E-01 a       699     1     7     2    19
 -1.1011061043163682E-01 a       700     1     7     2    20
 -9.3924326291336142E-04 a       701     1     8     2     1
 -5.5997617874799156E-02 a       702     1     8     2     2
  1.4434776105287588E-02 a       703     1     8     2     3
 -1.4686448029190105E-01 a       704     1     8     2     4
  1.6662585629681770E+00 a       705     1     8     2     5
  1.9204888266885226E-01 a       706     1     8     2     6
  9.4807492305070484E-01 a       707     1     8     2     7
  2.0946654203040696E-01 a       708     1     8     2     8
 -6.9542801443948055E-01 a       709     1     8     2     9
  4.7612801489078116E-01 a       710     1     8     2    10
  1.0300672649931335E+00 a       711     1     8     2    11
  2.6779045445856531E-01 a       712     1     8     2    12
 -5.3951087027048450E-01 a       713     1     8     2    13
  1.0471858755595329E+00 a       714     1     8     2    14
  6.6910686399767627E-01 a       715     1     8     2    15
 -6.2182141974098559E-01 a       716     1     8     2    16
 -5.7126951789179548E-01 a       717     1     8     2    17
 -1.4076522700783023E+00 a       718     1     8     2    18
 -2.2675147081452618E-01 a       719     1     8     2    19
 -2.3183666857297336E-01 a       720     1     8     2    20
  4.2413308456017407E-01 a       721     1     9     2     1
 -2.2009139363798375E-01 a       722     1     9     2     2
  4.1967561562938439E-02 a       723     1     9     2     3
  9.3476935954578094E-02 a       724     1     9     2     4
  1.1078287790595896E-01 a       725     1     9     2     5
 -5.0765244950029847E-02 a       726     1     9     2     6
 -1.3856914486154823E+00 a       727     1     9     2     7
 -1.0451597803461336E-01 a       728     1     9     2     8
 -2.1045053020053375E-01 a       729     1     9     2     9
 -6.7653131215739515E-02 a       730     1     9     2    10
  5.0976753238761341E-01 a       731     1     9     2    11
  1.0121988567480952E-01 a       732     1     9     2    12
 -6.7018930772756086E-02 a       733     1     9     2    13
 -1.8580379996282081E-01 a       734     1     9     2    14
  3.4003724201831220E-01 a       735     1     9     2    15
 -2.2735560099031257E-01 a       736     1     9     2    16
 -2.5628791147912677E-01 a       737     1     9     2    17
  3.1853764879063806E-01 a       738     1     9     2    18
 -1.2097046952758532E-01 a       739     1     9     2    19
 -1.2271971073185077E-01 a       740     1     9     2    20
  2.8850086783528578E-01 a       741     1    10     2     1
  8.7794508342211153E-01 a       742     1    10     2     2
  4.6136371965422929E-01 a       743     1    10     2     3
 -3.8589452519144746E-01 a       744     1    10     2     4
 -1.5192591916012175E+00 a       745     1    10     2     5
 -8.4972708230158100E-01 a       746     1    10     2     6
 -2.3006586697407183E+00 a       747     1    10     2     7
  3.4756426813414132E-01 a       748     1    10     2     8
 -3.8490831091600214E-01 a       749     1    10     2     9
  4.6414267308338697E-01 a       750     1    10     2    10
 -8.4535143043781111E-02 a       751     1    10     2    11
  5.5011392510857149E-01 a       752     1    10     2    12
  2.2628011416106808E-01 a       753     1    10     2    13
  5.3227062879638937E-02 a       754     1    10     2    14
  3.8279091434541654E-02 a       755     1    10     2    15
  1.8070989755185898E-01 a       756     1    10     2    16
 -2.3645040248999635E-01 a       757     1    10     2    17
  4.1988384216054497E-02 a       758     1    10     2    18
 -2.9802327749845425E-01 a       759     1    10     2    19
 -3.5657219715440630E-01 a       760     1    10     2    20
 -2.8911541169925742E-01 a       761     1    11     2     1
 -8.3006695624089022E-01 a       762     1    11     2     2
 -1.1014888178421067E+00 a       763     1    11     2     3
  3.0266061159489877E-01 a       764     1    11     2     4
  1.3952075608649168E+00 a       765     1    11     2     5
 -3.6120438247174552E-01 a       766     1    11     2     6
 -1.1997601184520827E+00 a       767     1    11     2     7
  1.2743498807951816E+00 a       768     1    11     2     8
 -8.3450479036793840E-02 a       769     1    11     2     9
  1.3076566308362364E-01 a       770     1    11     2    10
 -1.4597897957272536E+00 a       771     1    11     2    11
  8.3691252171890096E-01 a       772     1    11     2    12
  2.1001966082273271E-01 a       773     1    11     2    13
 -1.4428615336210451E-01 a       774     1    11     2    14
 -4.9732461533255395E-01 a       775     1    11     2    15
 -5.5928619666045239E-02 a       776     1    11     2    16
  1.9529708569252807E-01 a       777     1    11     2    17
 -8.9244207287330224E-01 a       778     1    11     2    18
 -1.6095591208127033E-01 a       779     1    11     2    19
  1.2576196120274213E-01 a       780     1    11     2    20
 -9.2544820986550458E-01 a       781     1    12     2     1
  6.7658470565265194E-02 a       782     1    12     2     2
 -2.7307549943217602E-01 a       783     1    12     2     3
  6.9369359542923525E-01 a       784     1    12     2     4
  6.8177285305428637E-01 a       785     1    12     2     5
  3.8342667555813320E-01 a       786     1    12     2     6
  3.4277334120047370E-01 a       787     1    12     2     7
 -7.5547452385360570E-01 a       788     1    12     2     8
  2.8621716047205958E-01 a       789     1    12     2     9
 -6.3935647831336295E-01 a       790     1    12     2    10
 -6.3713360063586841E-02 a       791     1    12     2    11
  2.7084931780424182E-01 a       792     1    12     2    12
  2.5724986509562819E-01 a       793     1    12     2    13
 -9.7384990402829885E-01 a       794     1    12     2    14
  1.0466910718634907E-01 a       795     1    12     2    15
 -3.9523929786954926E-01 a       796     1    12     2    16
 -2.5684782664684291E-01 a       797     1    12     2    17
  6.4770267500936540E-01 a       798     1    12     2    18
  7.9324620585094752E-01 a       799     1    12     2    19
  4.0830515580828758E-01 a       800     1    12     2    20
 -3.1486287772434435E-01 a       801     1    13     2     1
  7.4068063727959188E-01 a       802     1    13     2     2
  1.3172885679318505E-01 a       803     1    13     2     3
 -1.3127717745909415E-01 a       804     1    13     2     4
 -2.2428346396350083E+00 a       805     1    13     2     5
  4.5571023791247302E-03 a       806     1    13     2     6
 -1.2347529950101346E+00 a       807     1    13     2     7
  3.2789100200188742E-01 a       808     1    13     2     8
 -6.7426408462750678E-02 a       809     1    13     2     9
  4.3656927306213739E-01 a       810     1    13     2    10
 -2.6319614219083126E-01 a       811     1    13     2    11
 -4.9050711177021873E-02 a       812     1    13     2    12
  5.2299254231971271E-01 a       813     1    13     2    13
  2.9177461455292436E-01 a       814     1    13     2    14
 -3.7880290098777986E-01 a       815     1    13     2    15
  8.9670674340318821E-02 a       816     1    13     2    16
  4.9740866193362911E-02 a       817     1    13     2    17
  5.3369189940259953E-01 a       818     1    13     2    18
 -2.4883561340278090E-01 a       819     1    13     2    19
 -2.6924950823141659E-02 a       820     1    13     2    20
  1.9505499607703691E+00 a       821     1    14     2     1
  1.1389636793982263E+00 a       822     1    14     2     2
 -1.9954149909912831E+00 a       823     1    14     2     3
  2.6142009103076558E+00 a       824     1    14     2     4
  2.6115820546859680E-01 a       825     1    14     2     5
  2.1455511599065180E-01 a       826     1    14     2     6
  1.8428150864300255E-01 a       827     1    14     2     7
  1.3304541746634921E+00 a       828     1    14     2     8
  1.0594384937002109E-01 a       829     1    14     2     9
  4.2841937596972746E-01 a       830     1    14     2    10
  1.3856348601231958E+00 a       831     1    14     2    11
  1.1945740898546462E+00 a       832     1    14     2    12
 -1.6430208107270221E+00 a       833     1    14     2    13
  2.4914665357569390E-01 a       834     1    14     2    14
  1.5729154985866225E+00 a       835     1    14     2    15
  3.3529591457505997E-01 a       836     1    14     2    16
  9.1817687649315505E-01 a       837     1    14     2    17
 -1.9227070898464016E+00 a       838     1    14     2    18
  1.8310918168710795E+00 a       839     1    14     2    19
 -4.6591642262768684E-01 a       840     1    14     2    20
 -1.9125880539355256E+00 a       841     1    15     2     1
  1.9256976391816316E+00 a       842     1    15     2     2
 -1.7146503907058277E+00 a       843     1    15     2     3
  8.1880321999182548E-01 a       844     1    15     2     4
  1.0031664077913327E+00 a       845     1    15     2     5
  3.2635208708817025E-02 a       846     1    15     2     6
 -1.7725588807826484E+00 a       847     1    15     2     7
  1.2351703754349084E+00 a       848     1    15     2     8
  7.9535993603393618E-01 a       849     1    15     2     9
 -7.3314686347477565E-01 a       850     1    15     2    10
  1.6740499125847639E+00 a       851     1    15     2    11
  4.4599677092072652E+00 a       852     1    15     2    12
 -7.1955369781767675E-01 a       853     1    15     2    13
  2.4763348079961611E+00 a       854     1    15     2    14
  2.5901968803404434E+00 a       855     1    15     2    15
 -7.3575273688429199E-01 a       856     1    15     2    16
  8.8666861204912784E-01 a       857     1    15     2    17
 -2.7941225320565549E-01 a       858     1    15     2    18
 -6.5097402312558494E-01 a       859     1    15     2    19
 -1.2987039496905901E+00 a       860     1    15     2    20
 -3.2594180275321116E-01 a       861     1    16     2     1
  1.8360707556922418E+00 a       862     1    16     2     2
  5.2951427709310184E-01 a       863     1    16     2     3
  4.8572795042584977E-03 a       864     1    16     2     4
 -1.6860487076370241E+00 a       865     1    16     2     5
  5.0471088326288627E-01 a       866     1    16     2     6
  5.9577474942970419E+00 a       867     1    16     2     7
 -8.6116742666136070E-01 a       868     1    16     2     8
 -1.4521646839943425E-01 a       869     1    16     2     9
  9.6689301806802141E-01 a       870     1    16     2    10
  3.7391321507428810E-01 a       871     1    16     2    11
 -1.6704178801684122E+00 a       872     1    16     2    12
  2.6754358202444783E-01 a       873     1    16     2    13
 -1.3697115700923985E+00 a       874     1    16     2    14
 -5.2657605811061925E-01 a       875     1    16     2    15
  7.8887496367326859E-01 a       876     1    16     2    16
 -6.9459820572419229E-02 a       877     1    16     2    17
 -3.8686167576655606E-02 a       878     1    16     2    18
 -1.9633185076415346E-01 a       879     1    16     2    19
  4.0722113277556771E-01 a       880     1    16     2    20
 -3.2725429476031626E-01 a       881     1    17     2     1
  2.8347627885027754E-01 a       882     1    17     2     2
 -2.3807848643089177E-01 a       883     1    17     2     3
  3.4404075528702699E-01 a       884     1    17     2     4
  3.4444882625699419E-01 a       885     1    17     2     5
 -5.3003398020989211E-02 a       886     1    17     2     6
 -2.6455328340692073E+00 a       887     1    17     2     7
 -6.2779267047551346E-01 a       888     1    17     2     8
  2.1558416695197108E-01 a       889     1    17     2     9
 -7.3508004535547078E-01 a       890     1    17     2    10
 -2.7724211235726121E-01 a       891     1    17     2    11
  7.3751189733690325E-01 a       892     1    17     2    12
  5.9820095591731896E-02 a       893     1    17     2    13
 -5.9137486355726820E-01 a       894     1    17     2    14
  1.8890729798297567E-01 a       895     1    17     2    15
 -7.5137411825143696E-01 a       896     1    17     2    16
  1.3983508501451250E-01 a       897     1    17     2    17
  1.9475268334485885E-01 a       898     1    17     2    18
  3.8688675150977098E-01 a       899     1    17     2    19
  4.1628195152840046E-02 a       900     1    17     2    20
  4.4105577162315661E-02 a       901     1    18     2     1
  5.3726156169896033E-01 a       902     1    18     2     2
  1.0291352307329414E-01 a       903     1    18     2     3
 -1.0751807140950802E-02 a       904     1    18     2     4
 -5.7112942063874232E-02 a       905     1    18     2     5
  1.6948881786203235E-01 a       906     1    18     2     6
  2.4406459086141528E+00 a       907     1    18     2     7
 -2.2223831503885283E-01 a       908     1    18     2     8
  9.7903384510612410E-02 a       909     1    18     2     9
  1.6985403089010898E-01 a       910     1    18     2    10
  1.6399131144412499E-01 a       911     1    18     2    11
 -5.5718543874561632E-01 a       912     1    18     2    12
 -2.6699086173097963E-01 a       913     1    18     2    13
  2.0906330321818087E-01 a       914     1    18     2    14
  4.9391979495754551E-01 a       915     1    18     2    15
  2.0036416795085199E-01 a       916     1    18     2    16
  1.4435055592345011E-01 a       917     1    18     2    17
 -3.8885214245081506E-01 a       918     1    18     2    18
  1.0836603880753264E+00 a       919     1    18     2    19
 -8.6165796878436667E-03 a       920     1    18     2    20
  1.5181755491138265E+00 a       921     1    19     2     1
  2.5157397990211283E+00 a       922     1    19     2     2
 -1.8555879435431943E-01 a       923     1    19     2     3
  2.8686494812942587E-01 a       924     1    19     2     4
 -7.4246398884862608E-01 a       925     1    19     2     5
 -1.7295107762924394E-02 a       926     1    19     2     6
  1.4900015655417309E+00 a       927     1    19     2     7
  3.5111691067664669E-01 a       928     1    19     2     8
  3.9652137877370741E-01 a       929     1    19     2     9
  4.1980039574283340E-01 a       930     1    19     2    10
 -9.7771159062575930E-01 a       931     1    19     2    11
  2.5897025386084394E-01 a       932     1    19     2    12
  8.9622440926291613E-01 a       933     1    19     2    13
  1.4874389792056639E+00 a       934     1    19     2    14
 -7.2077806505691200E-01 a       935     1    19     2    15
  3.5225614819448781E-01 a       936     1    19     2    16
 -1.4597665522347416E+00 a       937     1    19     2    17
  1.4772814368833542E+00 a       938     1    19     2    18
  1.1987949137994705E-01 a       939     1    19     2    19
 -6.3263413513852063E-01 a       940     1    19     2    20
 -7.2769979764057857E-01 a       941     1    20     2     1
 -2.0526200833715946E-01 a       942     1    20     2     2
  4.0110561345069173E-01 a       943     1    20     2     3
  5.9845075499781930E-01 a       944     1    20     2     4
  1.3183259964452579E-01 a       945     1    20     2     5
 -2.1215737690907238E-01 a       946     1    20     2     6
 -2.3630322059013364E+00 a       947     1    20     2     7
  3.2549128694983975E-01 a       948     1    20     2     8
 -5.1368345756290912E-01 a       949     1    20     2     9
 -3.5191322722964047E-02 a       950     1    20     2    10
  4.7712304395467503E-01 a       951     1    20     2    11
  3.2966773252981957E-01 a       952     1    20     2    12
  8.1805497896312931E-02 a       953     1    20     2    13
 -7.9123637061228691E-01 a       954     1    20     2    14
  4.8837480194458348E-02 a       955     1    20     2    15
  9.2324711108247845E-02 a       956     1    20     2    16
 -2.4104222538286527E-01 a       957     1    20     2    17
  3.9535552344702451E-01 a       958     1    20     2    18
 -3.5287919017814234E-01 a       959     1    20     2    19
  1.0398531713278709E-01 a       960     1    20     2    20
 -4.8978155290574454E-01 b       961     2     1
 -4.4301061486161508E+00 b       962     2     2
  1.3399231472675184E+00 b       963     2     3
  2.7721897379025466E+00 b       964     2     4
 -3.7136491859102039E+00 b       965     2     5
  1.0215632388885767E+00 b       966     2     6
 -1.8387106012055328E+00 b       967     2     7
 -2.3615975042363543E-01 b       968     2     8
  4.8040552506755074E-01 b       969     2     9
 -5.5293878124651752E-01 b       970     2    10
  1.4225234408421655E-01 b       971     2    11
 -3.8215512931259787E-01 b       972     2    12
 -3.5865059207561234E-01 b       973     2    13
 -3.3839179971386129E+00 b       974     2    14
 -3.0718936800301122E-01 b       975     2    15
  2.1660853670031366E+00 b       976     2    16
  1.9877253212915187E+00 b       977     2    17
 -4.4293769999819164E+00 b       978     2    18
  3.8241657316384564E-01 b       979     2    19
 -2.9422628255245037E-01 b       980     2    20
 -2.3246163406459539E+00 a       981     2     1     3     1
 -2.5928743442065150E+00 a       982     2     2     3     1
  4.8887780440767320E-01 a       983     2     3     3     1
  5.8367081139852939E-01 a       984     2     4     3     1
 -1.0495163676567592E+00 a       985     2     5     3     1
  1.3271306952444804E+00 a       986     2     6     3     1
 -1.3395900896840290E-01 a       987     2     7     3     1
  9.7981901179697217E-01 a       988     2     8     3     1
  1.4822583379847079E+00 a       989     2     9     3     1
 -1.6265450044961736E+00 a       990     2    10     3     1
 -1.6125031806944115E-01 a       991     2    11     3     1
  2.3767640887102246E+00 a       992     2    12     3     1
  7.5747785301773884E-01 a       993     2    13     3     1
  1.0080191662825575E+00 a       994     2    14     3     1
 -3.7480886984963846E-01 a       995     2    15     3     1
  1.8787551240147229E+00 a       996     2    16     3     1
  7.5882186890487713E-01 a       997     2    17     3     1
 -1.1367011258571185E+00 a       998     2    18     3     1
 -1.8598177505733842E+00 a       999     2    19     3     1
 -1.3375286988778847E+00 a      1000     2    20     3     1
  1.2792145987771621E+00 b      1001     3     1
