################################################################################
# Neural network connection values (weights and biases).
################################################################################
# Col  Name       Description
################################################################################
# 1    connection Neural network connection value.
# 2    t          Connection type (a = weight, b = bias).
# 3    index      Index enumerating weights.
# 4    l_s        Starting point layer (end point layer for biases).
# 5    n_s        Starting point neuron in starting layer (end point neuron for biases).
# 6    l_e        End point layer.
# 7    n_e        End point neuron in end layer.
################################################################################
#                      1 2         3     4     5     6     7
#             connection t     index   l_s   n_s   l_e   n_e
############################################################
 -4.0529092031466183E+00 a         1     0     1     1     1
  2.1552977853320474E+00 a         2     0     1     1     2
  2.0700571412610365E+00 a         3     0     1     1     3
 -7.9157743063593395E+00 a         4     0     1     1     4
  5.3398995563722025E+00 a         5     0     1     1     5
 -7.9432015043475146E-01 a         6     0     1     1     6
  1.6615552334790606E+00 a         7     0     1     1     7
  9.9782147200409543E+00 a         8     0     1     1     8
 -5.4721748402182655E+00 a         9     0     1     1     9
 -2.9878082431126169E+00 a        10     0     1     1    10
  2.5827273960972345E-02 a        11     0     1     1    11
 -2.2335925086166353E-01 a        12     0     1     1    12
  1.9141662727939264E+00 a        13     0     1     1    13
  2.0481091678255141E+00 a        14     0     1     1    14
 -1.7326616573974181E+00 a        15     0     1     1    15
  3.2874128913068685E+00 a        16     0     1     1    16
  6.6715312043374941E-01 a        17     0     2     1     1
 -4.5043785358562811E+00 a        18     0     2     1     2
 -7.8944278935910328E-01 a        19     0     2     1     3
 -3.5427410836407138E+00 a        20     0     2     1     4
 -2.4949288031698544E+00 a        21     0     2     1     5
 -6.9517820245787065E-01 a        22     0     2     1     6
 -7.2277069725382797E+00 a        23     0     2     1     7
 -5.8594917265866886E-01 a        24     0     2     1     8
  1.9529583193309466E-01 a        25     0     2     1     9
 -7.7502781433689627E+00 a        26     0     2     1    10
 -1.3493036361229245E+00 a        27     0     2     1    11
  1.9252498406441836E+00 a        28     0     2     1    12
 -3.1875122791166626E+00 a        29     0     2     1    13
  1.2683937536998811E+00 a        30     0     2     1    14
 -8.5491656426330564E-01 a        31     0     2     1    15
  1.2919182148256543E+00 a        32     0     2     1    16
 -5.7353659163692816E+00 a        33     0     3     1     1
 -1.4206941432847836E+01 a        34     0     3     1     2
 -1.0781316830198644E+01 a        35     0     3     1     3
 -1.1077760362727435E+01 a        36     0     3     1     4
 -1.4338020326932080E+01 a        37     0     3     1     5
 -7.1327268543807083E+00 a        38     0     3     1     6
 -5.2425693505342306E+00 a        39     0     3     1     7
  1.8309279004591570E+01 a        40     0     3     1     8
  2.3696013782541165E+01 a        41     0     3     1     9
  1.8908954522547081E+01 a        42     0     3     1    10
  1.6465327625985669E+01 a        43     0     3     1    11
  5.7254133410081200E+00 a        44     0     3     1    12
 -2.3154034833610769E+01 a        45     0     3     1    13
  9.5872796799605133E+00 a        46     0     3     1    14
 -9.5625980182546311E+00 a        47     0     3     1    15
 -4.0481312467420878E+01 a        48     0     3     1    16
  2.9720269490072870E+00 a        49     0     4     1     1
  3.3230061174310187E+01 a        50     0     4     1     2
  2.2282323984686414E+01 a        51     0     4     1     3
  5.8976069060643059E+00 a        52     0     4     1     4
  1.7930949635478999E+01 a        53     0     4     1     5
  6.9198024133456366E+00 a        54     0     4     1     6
  6.2091103679950175E+00 a        55     0     4     1     7
 -3.7634328177516778E+01 a        56     0     4     1     8
 -4.1579740697046645E+01 a        57     0     4     1     9
 -1.5601472199428281E+01 a        58     0     4     1    10
 -2.5912395407929367E+01 a        59     0     4     1    11
 -2.1292151923245726E+01 a        60     0     4     1    12
  3.0177259258356120E+01 a        61     0     4     1    13
 -5.2310899613390465E+00 a        62     0     4     1    14
  9.7023987246764261E+00 a        63     0     4     1    15
  7.6474536364297961E+01 a        64     0     4     1    16
  3.0687429676215183E+00 a        65     0     5     1     1
 -2.7192235145473670E-01 a        66     0     5     1     2
  1.3445021813835261E+00 a        67     0     5     1     3
  1.4370722476551416E+00 a        68     0     5     1     4
 -1.5579665475508460E+00 a        69     0     5     1     5
 -1.0454138086359473E-02 a        70     0     5     1     6
 -8.8088377903111359E-01 a        71     0     5     1     7
 -2.8624794444091384E+00 a        72     0     5     1     8
 -3.7501184521603330E-02 a        73     0     5     1     9
  5.3649328291750585E-02 a        74     0     5     1    10
  1.2865079657182295E+00 a        75     0     5     1    11
  7.4532146906900076E-01 a        76     0     5     1    12
  5.5648493432549928E-01 a        77     0     5     1    13
  2.9632321530638391E-02 a        78     0     5     1    14
  5.9716338512027833E-01 a        79     0     5     1    15
  1.2693257428842128E+00 a        80     0     5     1    16
  1.5840748149454285E+00 a        81     0     6     1     1
  1.6271027734769123E+00 a        82     0     6     1     2
  3.7373921438559163E+00 a        83     0     6     1     3
  2.9636320020986444E+00 a        84     0     6     1     4
  6.1730202697023084E-01 a        85     0     6     1     5
 -3.9904906441915838E-01 a        86     0     6     1     6
  2.7252027164109149E+00 a        87     0     6     1     7
 -4.6314362907295947E-01 a        88     0     6     1     8
 -3.4414548136191603E+00 a        89     0     6     1     9
  9.0076066988889159E-01 a        90     0     6     1    10
  1.9823015012277803E+00 a        91     0     6     1    11
  2.5108096530639690E-01 a        92     0     6     1    12
  1.8578663104802773E+00 a        93     0     6     1    13
  3.4992839596915681E-01 a        94     0     6     1    14
  3.3123746371266927E-01 a        95     0     6     1    15
  1.9564775423461975E-01 a        96     0     6     1    16
  4.1636933595560599E+00 a        97     0     7     1     1
 -2.6674596267998687E+01 a        98     0     7     1     2
 -1.7487103070669164E+01 a        99     0     7     1     3
  5.4424731018308279E+00 a       100     0     7     1     4
 -1.4295673128118775E+00 a       101     0     7     1     5
  7.0284667546583168E-01 a       102     0     7     1     6
 -4.0817564323986115E+00 a       103     0     7     1     7
  2.2666487766021692E+01 a       104     0     7     1     8
  2.7686797892549400E+01 a       105     0     7     1     9
  3.3322726307683981E+00 a       106     0     7     1    10
  1.8080007198166289E+01 a       107     0     7     1    11
  2.2657398080561162E+01 a       108     0     7     1    12
 -3.6468617009931967E+00 a       109     0     7     1    13
 -3.4130942927041499E+00 a       110     0     7     1    14
 -8.7338139733171116E-02 a       111     0     7     1    15
 -5.4428144286263581E+01 a       112     0     7     1    16
 -1.6965610160040099E+00 a       113     0     8     1     1
  1.0831571871393690E+01 a       114     0     8     1     2
  1.0932998569802665E+01 a       115     0     8     1     3
 -1.2512621333463116E+00 a       116     0     8     1     4
 -3.6230816709411720E+00 a       117     0     8     1     5
 -2.1501455299066250E+00 a       118     0     8     1     6
  2.4936889153336397E+00 a       119     0     8     1     7
 -5.4449071972994227E+00 a       120     0     8     1     8
 -1.0822017749720553E+01 a       121     0     8     1     9
  2.0755939712074772E-01 a       122     0     8     1    10
 -4.8976498465170897E+00 a       123     0     8     1    11
 -1.1448478847836881E+01 a       124     0     8     1    12
 -4.8102555879829536E+00 a       125     0     8     1    13
  3.1127461702227328E+00 a       126     0     8     1    14
 -9.7527507949071490E-01 a       127     0     8     1    15
  2.1427093700966882E+01 a       128     0     8     1    16
  1.8928520368358033E+01 a       129     0     9     1     1
 -9.6188479315884621E+00 a       130     0     9     1     2
 -2.4482732158148663E+00 a       131     0     9     1     3
  3.6150024761582479E+01 a       132     0     9     1     4
  1.4853441845331572E+01 a       133     0     9     1     5
  4.6945000716754990E+00 a       134     0     9     1     6
 -4.4260722980210048E+00 a       135     0     9     1     7
 -2.4929423519564736E+01 a       136     0     9     1     8
  3.1690772101773323E+01 a       137     0     9     1     9
 -4.2148625170962113E+00 a       138     0     9     1    10
 -3.5157960649017014E+01 a       139     0     9     1    11
 -1.1299316461983357E+01 a       140     0     9     1    12
 -1.6639871656627307E+01 a       141     0     9     1    13
 -1.9385388565301135E+01 a       142     0     9     1    14
 -1.2079422794404933E+00 a       143     0     9     1    15
 -7.3141989464874840E+01 a       144     0     9     1    16
 -1.0882665214245946E+00 a       145     0    10     1     1
 -5.7978860385630702E+00 a       146     0    10     1     2
 -2.5133381589592274E-01 a       147     0    10     1     3
 -1.1720504389826136E+01 a       148     0    10     1     4
 -5.1707397572294251E+00 a       149     0    10     1     5
 -7.7864988534018069E+00 a       150     0    10     1     6
 -3.8882062164269739E+00 a       151     0    10     1     7
  1.2292961873156214E+01 a       152     0    10     1     8
 -2.4674226062006563E+00 a       153     0    10     1     9
 -6.9522875896834115E+00 a       154     0    10     1    10
  5.6452125032975597E-01 a       155     0    10     1    11
  5.4391472042795561E+00 a       156     0    10     1    12
 -2.4436721051732695E+00 a       157     0    10     1    13
 -1.9057940725232645E+00 a       158     0    10     1    14
 -9.4122481982813042E+00 a       159     0    10     1    15
 -1.1829795229755982E+01 a       160     0    10     1    16
  1.3756220559753292E+00 a       161     0    11     1     1
 -7.2039586141663577E+01 a       162     0    11     1     2
  5.9986462121689001E+00 a       163     0    11     1     3
 -2.2048068555535841E-01 a       164     0    11     1     4
 -1.1013750828609160E+01 a       165     0    11     1     5
 -8.2262509199428351E+00 a       166     0    11     1     6
  1.3626152296007366E+01 a       167     0    11     1     7
 -4.3246057775198761E+00 a       168     0    11     1     8
  4.6861443428577578E+00 a       169     0    11     1     9
 -2.6017810397053641E+01 a       170     0    11     1    10
  3.8046951084103826E+00 a       171     0    11     1    11
  4.3065010131867574E+01 a       172     0    11     1    12
 -1.2927307259589174E+00 a       173     0    11     1    13
 -8.0141218027195293E+00 a       174     0    11     1    14
 -7.6301189794150936E-01 a       175     0    11     1    15
 -4.7103616613906908E+01 a       176     0    11     1    16
  1.2872932802491921E+00 a       177     0    12     1     1
  2.3661693865794003E+01 a       178     0    12     1     2
 -1.0629811015689333E+01 a       179     0    12     1     3
  4.1911284369435073E+01 a       180     0    12     1     4
 -2.7609492959589648E+01 a       181     0    12     1     5
 -8.5713910892732521E+00 a       182     0    12     1     6
 -1.9065622536833466E+01 a       183     0    12     1     7
 -4.4933756242521447E+01 a       184     0    12     1     8
  1.4210895279153275E+01 a       185     0    12     1     9
 -1.8318467583418730E+01 a       186     0    12     1    10
  3.3610142540954641E+01 a       187     0    12     1    11
  3.7832163834838042E+01 a       188     0    12     1    12
  1.7294019079458756E+01 a       189     0    12     1    13
  1.6938680061783625E+01 a       190     0    12     1    14
 -7.4993752214145477E+00 a       191     0    12     1    15
  2.5362344409092907E+00 a       192     0    12     1    16
  1.7116130456078618E+00 a       193     0    13     1     1
 -7.4371680459137810E+00 a       194     0    13     1     2
 -1.8045842827976308E+01 a       195     0    13     1     3
 -2.3050561170463495E+00 a       196     0    13     1     4
 -2.2370185010373813E+00 a       197     0    13     1     5
  2.4991061049388201E+00 a       198     0    13     1     6
 -1.2551326647769976E+01 a       199     0    13     1     7
 -9.3456923452513436E+00 a       200     0    13     1     8
  4.6019307736169122E+00 a       201     0    13     1     9
 -7.7929950125676939E-01 a       202     0    13     1    10
  9.9079360540478838E+00 a       203     0    13     1    11
  8.3565248243852963E+00 a       204     0    13     1    12
 -3.3563672278177847E+00 a       205     0    13     1    13
  1.1800541989873992E+00 a       206     0    13     1    14
  4.7883281877032253E+00 a       207     0    13     1    15
  4.1573841289883786E+00 a       208     0    13     1    16
 -3.6618495819059493E+00 a       209     0    14     1     1
 -4.0050084796670539E+01 a       210     0    14     1     2
  4.0472772702411170E+01 a       211     0    14     1     3
  7.5208579562299235E+01 a       212     0    14     1     4
 -4.0421612038554599E+01 a       213     0    14     1     5
 -4.7499637314262955E+01 a       214     0    14     1     6
  1.0733427241399880E+01 a       215     0    14     1     7
  1.1555918344898708E+02 a       216     0    14     1     8
 -2.0230281968139066E+00 a       217     0    14     1     9
 -2.4261692573729011E+01 a       218     0    14     1    10
 -3.0825159363889963E+01 a       219     0    14     1    11
  4.6379416335121192E+01 a       220     0    14     1    12
 -1.4151674941805916E+00 a       221     0    14     1    13
 -7.4466763307812769E+01 a       222     0    14     1    14
  4.7243573800671669E+01 a       223     0    14     1    15
  3.0304907882733524E+01 a       224     0    14     1    16
 -1.7495104478109289E+00 a       225     0    15     1     1
  4.0666012654908350E+00 a       226     0    15     1     2
 -2.3119950184451596E+00 a       227     0    15     1     3
  2.7210196157418300E+00 a       228     0    15     1     4
  6.8712902079659011E-01 a       229     0    15     1     5
 -9.4966704476513630E-01 a       230     0    15     1     6
  7.9371622579178180E-01 a       231     0    15     1     7
 -2.6128396426893516E+00 a       232     0    15     1     8
 -7.6259138174162833E-01 a       233     0    15     1     9
 -4.6523989006361184E+00 a       234     0    15     1    10
  1.7434079581641007E-01 a       235     0    15     1    11
  6.5215218001195199E+00 a       236     0    15     1    12
  1.8297792945914946E+00 a       237     0    15     1    13
 -6.9328369077947608E-02 a       238     0    15     1    14
 -3.4940168348513327E+00 a       239     0    15     1    15
 -3.6207842759391040E-01 a       240     0    15     1    16
  3.6447689239098729E-01 a       241     0    16     1     1
 -4.5459215836647768E+00 a       242     0    16     1     2
 -1.1373641633280828E+01 a       243     0    16     1     3
 -3.6541688327675508E+00 a       244     0    16     1     4
 -2.7411184244387572E+00 a       245     0    16     1     5
 -1.8161337234260231E+00 a       246     0    16     1     6
 -4.9564448166453134E+00 a       247     0    16     1     7
 -6.2985639396349669E+00 a       248     0    16     1     8
 -4.0825830745847087E+00 a       249     0    16     1     9
 -3.2906608979818328E+00 a       250     0    16     1    10
  7.7350677445407423E-01 a       251     0    16     1    11
  7.4545098543968331E+00 a       252     0    16     1    12
  1.9219659663685149E+00 a       253     0    16     1    13
 -1.8790886447135084E+00 a       254     0    16     1    14
  1.4548916321491329E-01 a       255     0    16     1    15
  3.2754278833557655E+00 a       256     0    16     1    16
 -8.5446068442346554E+00 a       257     0    17     1     1
 -6.5520215206355576E+00 a       258     0    17     1     2
  2.1675173674241339E+00 a       259     0    17     1     3
  6.4682452702801099E+00 a       260     0    17     1     4
 -7.4433337942635784E+00 a       261     0    17     1     5
 -7.7254161998188415E+00 a       262     0    17     1     6
  1.0674621012627350E+00 a       263     0    17     1     7
  9.9111022229806292E+00 a       264     0    17     1     8
  1.2143275514989857E+00 a       265     0    17     1     9
  4.5072417095905788E+00 a       266     0    17     1    10
 -1.4773526753886190E+00 a       267     0    17     1    11
  8.1338751952549977E+00 a       268     0    17     1    12
 -1.5386150316277676E+00 a       269     0    17     1    13
 -4.7102626225635662E+00 a       270     0    17     1    14
  7.2889658147402550E+00 a       271     0    17     1    15
  3.1908617200438338E+00 a       272     0    17     1    16
 -1.3615620898775438E+01 a       273     0    18     1     1
  3.8587757428945189E+00 a       274     0    18     1     2
  2.0990347095392687E+00 a       275     0    18     1     3
 -7.2762956433702072E+01 a       276     0    18     1     4
 -5.6643130010240576E+01 a       277     0    18     1     5
 -1.6574232074247334E+01 a       278     0    18     1     6
 -1.9600263193426148E+01 a       279     0    18     1     7
  4.1149497316039991E+01 a       280     0    18     1     8
 -6.6400872769265277E+01 a       281     0    18     1     9
 -1.4315750883025695E+01 a       282     0    18     1    10
  9.4433613632447688E+01 a       283     0    18     1    11
  3.1470927502510314E+01 a       284     0    18     1    12
  3.6461709547744796E+01 a       285     0    18     1    13
  5.6048626304133485E+01 a       286     0    18     1    14
 -8.5243145505450890E+00 a       287     0    18     1    15
  1.5506416498268260E+02 a       288     0    18     1    16
 -2.8189953963865104E+00 a       289     0    19     1     1
  1.9530139276852022E+01 a       290     0    19     1     2
  3.3046043128805032E+01 a       291     0    19     1     3
  1.6045861319469129E+01 a       292     0    19     1     4
  6.1072141533694095E+00 a       293     0    19     1     5
 -9.6226074260389638E-01 a       294     0    19     1     6
  2.7184815934173006E+01 a       295     0    19     1     7
  1.1063581176741360E+01 a       296     0    19     1     8
 -7.6390052298940656E+00 a       297     0    19     1     9
  1.0794303143160233E+01 a       298     0    19     1    10
 -1.5101975139704590E+01 a       299     0    19     1    11
 -2.0699079398669539E+01 a       300     0    19     1    12
  5.7969835385346835E+00 a       301     0    19     1    13
 -1.5595096014204557E-01 a       302     0    19     1    14
 -5.6260627737397574E-02 a       303     0    19     1    15
 -2.7634386465637767E-01 a       304     0    19     1    16
  1.5448851385816535E+01 a       305     0    20     1     1
  1.8774185032324681E+02 a       306     0    20     1     2
 -9.8546986119969802E+00 a       307     0    20     1     3
  1.5773000523148182E+01 a       308     0    20     1     4
  3.2710014581919047E+01 a       309     0    20     1     5
  1.1110286839027269E+01 a       310     0    20     1     6
 -3.5784718377258116E+01 a       311     0    20     1     7
  8.1265699114345111E+01 a       312     0    20     1     8
 -2.9369007701015661E+01 a       313     0    20     1     9
 -4.9189831073465012E-01 a       314     0    20     1    10
 -4.3765300252024488E+01 a       315     0    20     1    11
 -9.5881411629082024E+01 a       316     0    20     1    12
  1.5022034317647849E+01 a       317     0    20     1    13
 -9.5701568780726163E+00 a       318     0    20     1    14
 -4.1400415091004499E+00 a       319     0    20     1    15
  1.2349532341252831E+02 a       320     0    20     1    16
  1.1343811626047575E+01 a       321     0    21     1     1
 -1.1350980517389974E+01 a       322     0    21     1     2
  2.5423638948471430E+00 a       323     0    21     1     3
  1.5909744845604484E+01 a       324     0    21     1     4
  2.8992800848876140E+01 a       325     0    21     1     5
  9.8834593676964122E+00 a       326     0    21     1     6
  1.1847572921681786E+01 a       327     0    21     1     7
 -6.0068971926215982E+00 a       328     0    21     1     8
  1.9561586152498865E+01 a       329     0    21     1     9
  1.6922380090833240E+01 a       330     0    21     1    10
 -4.5689351597689814E+01 a       331     0    21     1    11
 -2.9716501954945048E+01 a       332     0    21     1    12
 -2.0855945252467421E+01 a       333     0    21     1    13
 -2.8174646478401982E+01 a       334     0    21     1    14
  9.6629789198000466E+00 a       335     0    21     1    15
 -5.8275155245085962E+01 a       336     0    21     1    16
  6.4115058781562011E+00 a       337     0    22     1     1
 -6.8639415108557003E+01 a       338     0    22     1     2
 -1.5754557619037739E+01 a       339     0    22     1     3
 -3.4011762221415474E+01 a       340     0    22     1     4
  5.9828793881625799E+00 a       341     0    22     1     5
  1.5420101318333741E+01 a       342     0    22     1     6
  1.1975965814174311E+01 a       343     0    22     1     7
 -7.8058903684665637E+01 a       344     0    22     1     8
  7.3416212883049727E+00 a       345     0    22     1     9
 -1.0308025106277637E-01 a       346     0    22     1    10
  3.0345367846041217E+01 a       347     0    22     1    11
  2.4669465644612696E+01 a       348     0    22     1    12
 -8.3551564530869393E-01 a       349     0    22     1    13
  2.8519570814911638E+01 a       350     0    22     1    14
 -1.8654723810710358E+01 a       351     0    22     1    15
 -6.4646211864567505E+01 a       352     0    22     1    16
  4.8393719406204178E-01 a       353     0    23     1     1
  1.6504249488285943E+00 a       354     0    23     1     2
  8.1771284446405124E-01 a       355     0    23     1     3
  6.4357621642342462E+00 a       356     0    23     1     4
  9.0519313841150293E+00 a       357     0    23     1     5
  3.3603361478121760E+00 a       358     0    23     1     6
  3.7197253238098256E+00 a       359     0    23     1     7
 -8.6643176190382620E-01 a       360     0    23     1     8
  3.7267203352127187E+00 a       361     0    23     1     9
 -8.2009648133431312E-01 a       362     0    23     1    10
 -9.7504725925429003E+00 a       363     0    23     1    11
 -4.9175246869256500E-01 a       364     0    23     1    12
 -3.3345152881078999E+00 a       365     0    23     1    13
 -5.0488692210261883E+00 a       366     0    23     1    14
 -9.8310643217158142E-02 a       367     0    23     1    15
 -1.1638335795586014E+01 a       368     0    23     1    16
  2.9526851862843612E-01 a       369     0    24     1     1
 -2.6720711755046476E+00 a       370     0    24     1     2
 -5.3034731096980883E+00 a       371     0    24     1     3
 -4.0073134931166177E+00 a       372     0    24     1     4
  1.5033178392132345E+00 a       373     0    24     1     5
  3.8235762911595778E-01 a       374     0    24     1     6
 -4.5043276363602001E+00 a       375     0    24     1     7
 -3.5851432082555572E+00 a       376     0    24     1     8
 -3.5061433190463949E+00 a       377     0    24     1     9
 -3.1929277148901849E+00 a       378     0    24     1    10
 -1.0182693924737662E+00 a       379     0    24     1    11
  3.8492232140569844E+00 a       380     0    24     1    12
  1.1542476319125410E+00 a       381     0    24     1    13
 -7.0175728746407984E-01 a       382     0    24     1    14
 -2.4805176294098660E-01 a       383     0    24     1    15
 -6.3424781165623323E-01 a       384     0    24     1    16
 -8.5261276673951747E-01 a       385     0    25     1     1
 -1.6136839145653820E+01 a       386     0    25     1     2
 -1.9499345903950778E+00 a       387     0    25     1     3
 -2.2263987090151387E+00 a       388     0    25     1     4
 -4.1068055336702602E-01 a       389     0    25     1     5
 -1.3835674563721942E-01 a       390     0    25     1     6
  1.0848306785268986E+00 a       391     0    25     1     7
 -5.0956718493227315E+00 a       392     0    25     1     8
  1.3517409510925067E+00 a       393     0    25     1     9
  2.0126825156831849E+00 a       394     0    25     1    10
  5.8547810814240835E+00 a       395     0    25     1    11
  9.3317999891146872E+00 a       396     0    25     1    12
 -1.9193646823863841E+00 a       397     0    25     1    13
  2.5888052802255488E+00 a       398     0    25     1    14
  1.2575175534817800E+00 a       399     0    25     1    15
 -1.1807885722457113E+01 a       400     0    25     1    16
 -9.8032321134956607E-02 a       401     0    26     1     1
 -2.7019284254640374E+00 a       402     0    26     1     2
 -1.4940980385304176E-01 a       403     0    26     1     3
  5.5981192533645805E+00 a       404     0    26     1     4
 -2.9869509948009059E+00 a       405     0    26     1     5
 -7.9499469469453299E-01 a       406     0    26     1     6
 -1.7416155834732869E+00 a       407     0    26     1     7
 -4.8567055211990198E+00 a       408     0    26     1     8
  6.9470554575824393E+00 a       409     0    26     1     9
  2.8747281619393203E+00 a       410     0    26     1    10
 -1.5920990946654163E+00 a       411     0    26     1    11
 -3.7204155622674242E+00 a       412     0    26     1    12
 -1.2149516836014265E+00 a       413     0    26     1    13
 -7.9911599803540700E-01 a       414     0    26     1    14
  1.8865488460595066E+00 a       415     0    26     1    15
 -1.0137722439878772E+01 a       416     0    26     1    16
  4.4293091105194998E-01 a       417     0    27     1     1
 -1.7918928513583632E+00 a       418     0    27     1     2
  2.8775010185208165E+00 a       419     0    27     1     3
  2.3014304739719504E+00 a       420     0    27     1     4
  3.1352216444741027E-01 a       421     0    27     1     5
  2.3089319073453174E+00 a       422     0    27     1     6
  7.9316163369949755E-01 a       423     0    27     1     7
  6.3372353266397958E+00 a       424     0    27     1     8
  8.5931897658180194E+00 a       425     0    27     1     9
  2.3872842684550060E+00 a       426     0    27     1    10
  3.1140638614150422E+00 a       427     0    27     1    11
 -5.2545276427507268E+00 a       428     0    27     1    12
 -4.4585848623884008E+00 a       429     0    27     1    13
  1.9738477336748410E+00 a       430     0    27     1    14
  3.2913648900611259E-01 a       431     0    27     1    15
 -3.2912976252125072E+00 a       432     0    27     1    16
  3.7358483866236503E-01 a       433     0    28     1     1
 -1.1758811794046865E+01 a       434     0    28     1     2
  7.4112652592941668E+00 a       435     0    28     1     3
  3.8771683396842977E+00 a       436     0    28     1     4
 -3.1810755131281216E+00 a       437     0    28     1     5
 -1.4003448453343916E+00 a       438     0    28     1     6
  5.1905256056005484E+00 a       439     0    28     1     7
  1.0523873717685486E+00 a       440     0    28     1     8
  3.2072977258255078E+00 a       441     0    28     1     9
 -3.8888255660712923E+00 a       442     0    28     1    10
 -4.0928255044519712E+00 a       443     0    28     1    11
  2.5268982432781759E+00 a       444     0    28     1    12
 -5.3259801445842747E-02 a       445     0    28     1    13
 -5.5440710166048781E+00 a       446     0    28     1    14
  1.2265197503379697E+00 a       447     0    28     1    15
 -4.8254839547723405E+00 a       448     0    28     1    16
 -1.1709265499516542E+01 a       449     0    29     1     1
 -1.5129979824768977E+01 a       450     0    29     1     2
  7.4180124464263653E+00 a       451     0    29     1     3
 -3.2526799368810380E+01 a       452     0    29     1     4
  2.9641041744188264E+01 a       453     0    29     1     5
  7.7881973164557756E+00 a       454     0    29     1     6
  2.3809638337995537E+01 a       455     0    29     1     7
  4.2891924895851631E+01 a       456     0    29     1     8
 -7.6659467851919976E+00 a       457     0    29     1     9
  1.8373584068415337E+01 a       458     0    29     1    10
 -3.4803333716630576E+01 a       459     0    29     1    11
 -2.9623672789345353E+01 a       460     0    29     1    12
 -1.5878798781539105E+01 a       461     0    29     1    13
 -1.8549516257813206E+01 a       462     0    29     1    14
  6.5592132219918167E+00 a       463     0    29     1    15
 -1.0514068415145248E+01 a       464     0    29     1    16
 -9.9290645156996451E+00 a       465     0    30     1     1
  1.7806160980404638E+01 a       466     0    30     1     2
 -3.1171323598706110E+01 a       467     0    30     1     3
 -6.6275698797189420E+01 a       468     0    30     1     4
  2.5446578752105776E+01 a       469     0    30     1     5
  3.7699942008257736E+01 a       470     0    30     1     6
 -6.6523715955661746E+00 a       471     0    30     1     7
 -1.1061570520963977E+02 a       472     0    30     1     8
  1.4484456578953171E+01 a       473     0    30     1     9
  3.8320573348079030E+01 a       474     0    30     1    10
  3.6581796617763921E+01 a       475     0    30     1    11
 -3.0208298870247472E+01 a       476     0    30     1    12
 -6.6490174424786082E+00 a       477     0    30     1    13
  6.8582299517699084E+01 a       478     0    30     1    14
 -3.5514462400267135E+01 a       479     0    30     1    15
 -3.3716409513206088E+01 a       480     0    30     1    16
  1.0884403721536691E+00 a       481     0    31     1     1
 -1.3772891621915975E+00 a       482     0    31     1     2
 -6.5517553803935324E-01 a       483     0    31     1     3
 -2.3841760747012983E-02 a       484     0    31     1     4
  1.1459337613944798E+00 a       485     0    31     1     5
 -6.7947492383344921E-01 a       486     0    31     1     6
 -9.2905054621495664E-01 a       487     0    31     1     7
  1.9220921800206878E-01 a       488     0    31     1     8
 -1.7185483219195943E+00 a       489     0    31     1     9
 -9.1916675378073043E-01 a       490     0    31     1    10
  4.3035810825699106E-01 a       491     0    31     1    11
  7.3415981172263789E-01 a       492     0    31     1    12
  6.0590968578441184E-01 a       493     0    31     1    13
  4.9241631551299209E-01 a       494     0    31     1    14
 -6.9443916400727301E-01 a       495     0    31     1    15
 -2.6923577858794373E-01 a       496     0    31     1    16
 -5.6712017238961021E-01 a       497     0    32     1     1
  7.4617452811880550E-02 a       498     0    32     1     2
 -2.5846679752307461E-01 a       499     0    32     1     3
 -1.7072262769179403E+00 a       500     0    32     1     4
 -1.6222974949110467E+00 a       501     0    32     1     5
 -1.7530993328657429E+00 a       502     0    32     1     6
  1.0158373229024911E+00 a       503     0    32     1     7
 -7.4221083251737285E-01 a       504     0    32     1     8
 -2.8126914627174040E+00 a       505     0    32     1     9
  5.6018602554433339E-01 a       506     0    32     1    10
 -8.8271181041437041E-01 a       507     0    32     1    11
  3.5330621649485167E-02 a       508     0    32     1    12
 -2.5253269758382643E-02 a       509     0    32     1    13
 -6.8481260801382726E-01 a       510     0    32     1    14
 -3.6781876108036543E-02 a       511     0    32     1    15
 -3.7011777508950378E-01 a       512     0    32     1    16
 -3.8355915069967456E-01 a       513     0    33     1     1
  1.5073975844037404E+00 a       514     0    33     1     2
  3.2376571577007385E-01 a       515     0    33     1     3
 -1.6491662776401814E+00 a       516     0    33     1     4
 -4.2080112317205592E-01 a       517     0    33     1     5
 -9.0886069588263485E-01 a       518     0    33     1     6
 -4.7333263021309507E-01 a       519     0    33     1     7
  2.9699885182670314E+00 a       520     0    33     1     8
  1.6153594416024177E+00 a       521     0    33     1     9
 -8.4740374247233338E-02 a       522     0    33     1    10
 -1.4451868615513801E+00 a       523     0    33     1    11
  2.3033217957574878E-01 a       524     0    33     1    12
 -1.1199558777820118E+00 a       525     0    33     1    13
 -8.1219041814864534E-01 a       526     0    33     1    14
 -1.0776096583946915E+00 a       527     0    33     1    15
 -1.2939662511879517E+00 a       528     0    33     1    16
  6.8051265655001791E-01 a       529     0    34     1     1
  8.8408508180970025E-01 a       530     0    34     1     2
 -3.7808933191443633E-01 a       531     0    34     1     3
 -2.1041536867939219E+00 a       532     0    34     1     4
  2.0641115737148968E-01 a       533     0    34     1     5
  1.0269368144479459E-01 a       534     0    34     1     6
 -8.6559937587122593E-01 a       535     0    34     1     7
  1.5116857343896382E+00 a       536     0    34     1     8
  7.2851378288360402E-01 a       537     0    34     1     9
  9.8457655025402180E-01 a       538     0    34     1    10
 -1.1739721797674189E-01 a       539     0    34     1    11
 -1.5137760688233244E+00 a       540     0    34     1    12
 -2.1355719890613628E-01 a       541     0    34     1    13
  3.7053153281138573E-01 a       542     0    34     1    14
 -1.2342626353525570E+00 a       543     0    34     1    15
 -2.1865906711982497E+00 a       544     0    34     1    16
  8.9866290298335505E-01 a       545     0    35     1     1
  3.5082818511611080E-01 a       546     0    35     1     2
  2.5898480397584760E+00 a       547     0    35     1     3
  1.8479889457697624E-01 a       548     0    35     1     4
  1.6099432958857696E+00 a       549     0    35     1     5
  1.2246234048151488E+00 a       550     0    35     1     6
  1.4095148864474325E+00 a       551     0    35     1     7
  1.9244185478238871E+00 a       552     0    35     1     8
 -3.3064454993679332E-01 a       553     0    35     1     9
 -2.2746465057654497E+00 a       554     0    35     1    10
 -2.6219623707686854E+00 a       555     0    35     1    11
  1.7223330143627449E-01 a       556     0    35     1    12
 -9.5109591003271265E-01 a       557     0    35     1    13
 -1.2746610759103194E+00 a       558     0    35     1    14
  1.0275200255493147E+00 a       559     0    35     1    15
  3.8152883123922248E+00 a       560     0    35     1    16
 -6.2575242937578979E-01 a       561     0    36     1     1
 -2.1398382868196459E+00 a       562     0    36     1     2
 -1.4195620656180126E+00 a       563     0    36     1     3
  2.2817726646466978E+00 a       564     0    36     1     4
 -2.7496089802943541E-01 a       565     0    36     1     5
 -3.4923385189795891E-01 a       566     0    36     1     6
  1.4995540392762545E+00 a       567     0    36     1     7
 -4.7975212291418423E-01 a       568     0    36     1     8
 -3.9891820932212141E-01 a       569     0    36     1     9
  1.0633099359802320E+00 a       570     0    36     1    10
  1.0147027424092638E+00 a       571     0    36     1    11
  5.6373279275289634E-01 a       572     0    36     1    12
  1.1079541634196968E+00 a       573     0    36     1    13
 -1.1307396319729450E+00 a       574     0    36     1    14
  3.9615435441514685E-01 a       575     0    36     1    15
  2.4257412171201448E-01 a       576     0    36     1    16
  4.1540263769965451E+00 a       577     0    37     1     1
  3.7444027943499574E+00 a       578     0    37     1     2
 -1.5814997517415361E+00 a       579     0    37     1     3
  2.4644339319789514E+00 a       580     0    37     1     4
 -1.1585897149718692E+01 a       581     0    37     1     5
 -2.5534615051664806E+00 a       582     0    37     1     6
  5.1442448729231138E+00 a       583     0    37     1     7
 -7.2355230660667642E+00 a       584     0    37     1     8
 -2.2061630759187256E+00 a       585     0    37     1     9
  1.6777806958491581E+01 a       586     0    37     1    10
  1.2440243086429225E+01 a       587     0    37     1    11
  2.2353161690651913E+00 a       588     0    37     1    12
 -7.4992804071949957E+00 a       589     0    37     1    13
 -4.7740378377335979E+00 a       590     0    37     1    14
  7.9753906253470552E-01 a       591     0    37     1    15
  6.2110831924044732E+00 a       592     0    37     1    16
 -2.1962823916245906E+00 a       593     0    38     1     1
  6.1343380901269540E-01 a       594     0    38     1     2
 -1.0919877340566884E-01 a       595     0    38     1     3
  1.3276057317676113E+00 a       596     0    38     1     4
 -2.4769756198531829E+00 a       597     0    38     1     5
 -6.9704362161093658E-01 a       598     0    38     1     6
  9.7485675342921596E-01 a       599     0    38     1     7
 -1.5790527449889762E+00 a       600     0    38     1     8
  2.6969089994619071E+00 a       601     0    38     1     9
  2.0846383287119696E+00 a       602     0    38     1    10
 -3.2995490501254682E-01 a       603     0    38     1    11
 -1.1293497154581613E+00 a       604     0    38     1    12
 -2.3832736737328251E+00 a       605     0    38     1    13
 -1.5882729391835084E+00 a       606     0    38     1    14
 -2.0276611325322684E+00 a       607     0    38     1    15
 -7.2249806505043968E-01 a       608     0    38     1    16
 -8.1691375274899727E+00 a       609     0    39     1     1
  9.3742767647886929E+00 a       610     0    39     1     2
  6.0618458092300465E+00 a       611     0    39     1     3
  2.1930442167920492E+00 a       612     0    39     1     4
  1.0538425181249216E+00 a       613     0    39     1     5
 -4.2418896182306129E+00 a       614     0    39     1     6
  3.0674888544335142E+00 a       615     0    39     1     7
 -4.5557721250842285E+00 a       616     0    39     1     8
  4.8850117774574855E+00 a       617     0    39     1     9
  1.1103666572746178E+01 a       618     0    39     1    10
  5.7023317568561893E+00 a       619     0    39     1    11
 -4.9712469162890299E-01 a       620     0    39     1    12
  4.8530821478804462E+00 a       621     0    39     1    13
  5.3740243779219043E-01 a       622     0    39     1    14
 -1.9425657857565188E+00 a       623     0    39     1    15
 -4.8999393812935432E+00 a       624     0    39     1    16
  3.8272996870656488E+00 a       625     0    40     1     1
 -3.6727748525040695E+00 a       626     0    40     1     2
 -1.4107496926720604E+01 a       627     0    40     1     3
 -4.8335016954067997E+00 a       628     0    40     1     4
  5.8896029286445994E+00 a       629     0    40     1     5
  3.6940021228515527E+00 a       630     0    40     1     6
 -7.8693336563316016E+00 a       631     0    40     1     7
 -7.4657573142044220E-01 a       632     0    40     1     8
  1.5231755314221415E+01 a       633     0    40     1     9
  1.0457446127946866E+01 a       634     0    40     1    10
  4.8524513933599831E+00 a       635     0    40     1    11
 -2.3743126193467825E+00 a       636     0    40     1    12
 -2.7524296428620239E+00 a       637     0    40     1    13
 -2.4314557930678897E+00 a       638     0    40     1    14
 -5.7666036205502591E+00 a       639     0    40     1    15
 -2.4378128198845332E+00 a       640     0    40     1    16
  2.6194761973014491E+00 a       641     0    41     1     1
 -2.4420390872274886E+00 a       642     0    41     1     2
 -5.0699779797655804E+00 a       643     0    41     1     3
 -1.9799500905259688E+00 a       644     0    41     1     4
  1.5401952643494541E+00 a       645     0    41     1     5
  1.7836678938933455E+00 a       646     0    41     1     6
 -2.3198471293042053E+00 a       647     0    41     1     7
  1.8056719687656710E+00 a       648     0    41     1     8
  2.9072728532008227E+00 a       649     0    41     1     9
  3.6242638975086696E+00 a       650     0    41     1    10
  3.1685263103019734E+00 a       651     0    41     1    11
 -4.4619147370208125E+00 a       652     0    41     1    12
 -2.9065513289797957E+00 a       653     0    41     1    13
  3.2290051209679888E-01 a       654     0    41     1    14
 -2.2987393990794405E+00 a       655     0    41     1    15
  1.0178827942523778E+00 a       656     0    41     1    16
 -1.1695638729423735E+01 a       657     0    42     1     1
  1.0987894107345252E+01 a       658     0    42     1     2
  1.0759093345736598E+01 a       659     0    42     1     3
  3.5591166199145592E+00 a       660     0    42     1     4
  1.4629134677343684E+01 a       661     0    42     1     5
 -1.3131842369296689E+00 a       662     0    42     1     6
  3.9735147155286872E+00 a       663     0    42     1     7
  1.1310111445085690E+01 a       664     0    42     1     8
  4.2510063910061362E+00 a       665     0    42     1     9
 -5.8845540379907977E+00 a       666     0    42     1    10
 -8.7422501157626762E+00 a       667     0    42     1    11
  4.8613280775343561E+00 a       668     0    42     1    12
  1.1876931297393893E+01 a       669     0    42     1    13
 -9.8057532229902300E-01 a       670     0    42     1    14
 -5.5859585440439430E+00 a       671     0    42     1    15
 -4.2456084941533847E+00 a       672     0    42     1    16
  3.5847024081390133E+00 a       673     0    43     1     1
  3.2669763472503681E+00 a       674     0    43     1     2
  3.3236776608942686E+00 a       675     0    43     1     3
 -1.4283014174334403E+00 a       676     0    43     1     4
  2.2823345127313805E+00 a       677     0    43     1     5
  1.5442252224313622E+00 a       678     0    43     1     6
 -1.0419648430937953E+00 a       679     0    43     1     7
 -2.2858648622295239E+00 a       680     0    43     1     8
 -3.2075060580892316E+00 a       681     0    43     1     9
 -1.4033642723791415E+00 a       682     0    43     1    10
  3.5496791939805949E-01 a       683     0    43     1    11
 -1.0716877547644936E+00 a       684     0    43     1    12
  7.0532770955064203E-02 a       685     0    43     1    13
  3.5014675812286539E-01 a       686     0    43     1    14
  5.8007824958002141E-01 a       687     0    43     1    15
  1.4846000902087779E+00 a       688     0    43     1    16
  2.0828025673339550E+01 a       689     0    44     1     1
 -6.3123103790816950E+00 a       690     0    44     1     2
 -4.6967951398514568E-01 a       691     0    44     1     3
  1.3746386223418789E+00 a       692     0    44     1     4
  5.1362796527931840E+00 a       693     0    44     1     5
  7.6597027479718962E+00 a       694     0    44     1     6
  5.3183625588725969E-01 a       695     0    44     1     7
 -8.0339522261733798E+00 a       696     0    44     1     8
 -1.9284460059578549E+01 a       697     0    44     1     9
 -2.6724284392675091E+00 a       698     0    44     1    10
  5.0536342214412668E+00 a       699     0    44     1    11
 -4.1319079494119695E+00 a       700     0    44     1    12
  1.4856090384705822E+00 a       701     0    44     1    13
 -1.0499084827708904E+00 a       702     0    44     1    14
  1.8638213267529238E+00 a       703     0    44     1    15
  8.7116935790520174E+00 a       704     0    44     1    16
 -2.6625411916187836E+00 a       705     0    45     1     1
  6.8560309854098547E+00 a       706     0    45     1     2
  1.0676147301094334E+01 a       707     0    45     1     3
  9.6018121548227597E+00 a       708     0    45     1     4
 -1.5975212408108954E+00 a       709     0    45     1     5
  3.0410814712459938E-01 a       710     0    45     1     6
  7.4038827032053947E+00 a       711     0    45     1     7
 -2.2594330766605952E+00 a       712     0    45     1     8
 -8.9009034707805963E+00 a       713     0    45     1     9
 -5.7729894238365222E+00 a       714     0    45     1    10
 -1.8362181235500858E+00 a       715     0    45     1    11
  2.7823988482423103E+00 a       716     0    45     1    12
  5.0343771070214638E+00 a       717     0    45     1    13
  2.6398499645367521E+00 a       718     0    45     1    14
  8.3318122254194940E+00 a       719     0    45     1    15
  7.2058869463986417E+00 a       720     0    45     1    16
 -3.7301530398218179E+00 a       721     0    46     1     1
  1.1000507885786673E+01 a       722     0    46     1     2
  1.0255663681941732E+01 a       723     0    46     1     3
  5.8488868160703396E+00 a       724     0    46     1     4
  6.3603412269533521E-01 a       725     0    46     1     5
  4.4916207036108874E-01 a       726     0    46     1     6
  3.8265630669481845E+00 a       727     0    46     1     7
 -1.0916727332532680E+01 a       728     0    46     1     8
 -3.6824793533017979E+00 a       729     0    46     1     9
  9.5761704156103178E-01 a       730     0    46     1    10
  4.5422166885850368E-01 a       731     0    46     1    11
  5.6582147968832563E+00 a       732     0    46     1    12
  7.5780542464943217E+00 a       733     0    46     1    13
  1.3524064271087364E+00 a       734     0    46     1    14
  4.6996355616188064E+00 a       735     0    46     1    15
 -4.0687930897088878E+00 a       736     0    46     1    16
  1.4703871430853006E+01 a       737     0    47     1     1
 -1.3452273829907333E+00 a       738     0    47     1     2
  5.9216629569827424E+00 a       739     0    47     1     3
  4.7389652384526997E+00 a       740     0    47     1     4
  2.8819383273993009E+00 a       741     0    47     1     5
  4.3108081821108852E+00 a       742     0    47     1     6
  1.0953012837393649E+01 a       743     0    47     1     7
 -3.1394439461151316E+00 a       744     0    47     1     8
 -4.5264837723265119E+00 a       745     0    47     1     9
  6.7917040894528942E+00 a       746     0    47     1    10
  2.1804913636321439E+00 a       747     0    47     1    11
 -3.1711632591644996E+00 a       748     0    47     1    12
  6.1962416443776265E+00 a       749     0    47     1    13
 -1.0469569755619125E+01 a       750     0    47     1    14
  1.5674946268794525E+00 a       751     0    47     1    15
 -8.9288533966062344E-01 a       752     0    47     1    16
 -2.5196245101919335E+00 a       753     0    48     1     1
  9.7216818066217570E-01 a       754     0    48     1     2
  9.6500048990042426E+00 a       755     0    48     1     3
 -3.8747536842850847E+00 a       756     0    48     1     4
  1.1838307496913574E+00 a       757     0    48     1     5
  3.2416894137305614E+00 a       758     0    48     1     6
 -7.9078918451769675E-01 a       759     0    48     1     7
  2.4728109963451579E+00 a       760     0    48     1     8
 -5.3570172795909921E-01 a       761     0    48     1     9
 -7.1006196803410038E-01 a       762     0    48     1    10
 -2.7022595528251729E+00 a       763     0    48     1    11
 -7.9067193416790591E+00 a       764     0    48     1    12
 -7.7382013699487961E+00 a       765     0    48     1    13
  2.2942741390212462E+00 a       766     0    48     1    14
  3.3603509392730406E+00 a       767     0    48     1    15
  1.4249913941729449E+01 a       768     0    48     1    16
 -1.1124446706942241E+00 a       769     0    49     1     1
  1.5663154216706709E-01 a       770     0    49     1     2
 -3.6964120803681960E-01 a       771     0    49     1     3
  8.4660370216747860E-01 a       772     0    49     1     4
  7.5187639799879102E-01 a       773     0    49     1     5
 -1.6658001087077307E-01 a       774     0    49     1     6
  7.5185398535111991E-01 a       775     0    49     1     7
  1.4073685341855879E+00 a       776     0    49     1     8
 -3.1759539529866293E-01 a       777     0    49     1     9
 -8.8629622922983953E-01 a       778     0    49     1    10
 -4.7367445484777032E-01 a       779     0    49     1    11
  1.5313264268948723E+00 a       780     0    49     1    12
 -1.7389740494686629E-01 a       781     0    49     1    13
 -1.0971162961119596E+00 a       782     0    49     1    14
 -1.6298959211790987E+00 a       783     0    49     1    15
 -1.5292009007906062E+00 a       784     0    49     1    16
  3.4025660526437351E-01 a       785     0    50     1     1
 -8.3889897396962854E-01 a       786     0    50     1     2
 -2.3520916870111550E-01 a       787     0    50     1     3
 -7.3048916797192953E-01 a       788     0    50     1     4
  1.0157744939969580E+00 a       789     0    50     1     5
  1.5832269770982099E-01 a       790     0    50     1     6
 -4.5290185098548746E-01 a       791     0    50     1     7
  6.6748425038440828E-01 a       792     0    50     1     8
  3.9766760107162352E-01 a       793     0    50     1     9
  6.2265119646117839E-01 a       794     0    50     1    10
 -2.0381610471779241E-01 a       795     0    50     1    11
 -5.0108735630088719E-01 a       796     0    50     1    12
  4.3278066929416775E-01 a       797     0    50     1    13
  2.0624155026329874E-01 a       798     0    50     1    14
 -2.5825109037507255E-01 a       799     0    50     1    15
  1.2713349740824054E-01 a       800     0    50     1    16
  1.4589835584082085E+00 a       801     0    51     1     1
 -1.3499826342113916E+00 a       802     0    51     1     2
 -7.0805311080653022E-01 a       803     0    51     1     3
  3.8117663149027224E-02 a       804     0    51     1     4
  4.5590618808357414E-01 a       805     0    51     1     5
  1.4866727210696051E+00 a       806     0    51     1     6
 -7.4359699716556726E-01 a       807     0    51     1     7
  1.6815525753695298E-01 a       808     0    51     1     8
  7.0693549984433490E-01 a       809     0    51     1     9
 -8.3391361417428533E-01 a       810     0    51     1    10
  1.6432773433244699E-01 a       811     0    51     1    11
 -7.5376992809300949E-02 a       812     0    51     1    12
 -1.4454927508576629E+00 a       813     0    51     1    13
  7.5217400504384260E-02 a       814     0    51     1    14
 -2.9117230420326962E-01 a       815     0    51     1    15
  1.7554202683520664E-01 a       816     0    51     1    16
  3.4184683334298298E+00 a       817     0    52     1     1
 -2.9432546843412770E+00 a       818     0    52     1     2
 -2.8465733639863053E+00 a       819     0    52     1     3
 -1.9282506816719769E+00 a       820     0    52     1     4
  8.2390605496787594E-01 a       821     0    52     1     5
  2.3075135620279110E+00 a       822     0    52     1     6
  9.2595902958369475E-02 a       823     0    52     1     7
 -1.5633472467377698E+00 a       824     0    52     1     8
 -6.6289608819815948E-01 a       825     0    52     1     9
 -2.9952126397708732E+00 a       826     0    52     1    10
 -1.5467770221358321E+00 a       827     0    52     1    11
 -5.7682581064490823E-01 a       828     0    52     1    12
  5.7702800899070017E-01 a       829     0    52     1    13
  2.8109229012481374E-01 a       830     0    52     1    14
  2.6396212311163536E-01 a       831     0    52     1    15
 -2.3465318414703247E+00 a       832     0    52     1    16
  8.9834698290852391E+00 a       833     0    53     1     1
 -9.1021190165529431E-01 a       834     0    53     1     2
  2.2560319438857901E-01 a       835     0    53     1     3
 -6.2462022851924575E+00 a       836     0    53     1     4
 -4.3830308598395833E+00 a       837     0    53     1     5
  2.8499821544928228E+00 a       838     0    53     1     6
 -2.6891877516350950E+00 a       839     0    53     1     7
 -1.0372229435742737E+01 a       840     0    53     1     8
 -5.3191575107867761E+00 a       841     0    53     1     9
  2.8866016378228343E-01 a       842     0    53     1    10
  1.0112498129678664E+00 a       843     0    53     1    11
 -5.7889725238592487E+00 a       844     0    53     1    12
 -4.5902667877044765E+00 a       845     0    53     1    13
  1.7213275621512234E+00 a       846     0    53     1    14
  4.6119922685735801E+00 a       847     0    53     1    15
  7.9666164281300382E+00 a       848     0    53     1    16
 -3.3199028025158794E+00 a       849     0    54     1     1
 -8.9105872565426292E-01 a       850     0    54     1     2
 -8.9071618774743144E-01 a       851     0    54     1     3
  2.2038317799437350E+00 a       852     0    54     1     4
 -2.2168869266294875E+00 a       853     0    54     1     5
 -4.0420438512657872E+00 a       854     0    54     1     6
 -2.5947524036223726E+00 a       855     0    54     1     7
  4.1032051285526994E-01 a       856     0    54     1     8
  1.3099912087591636E+00 a       857     0    54     1     9
 -6.5502910991887973E+00 a       858     0    54     1    10
 -6.7564639283149557E+00 a       859     0    54     1    11
  1.2964407606571389E+00 a       860     0    54     1    12
  1.0585357257886341E+00 a       861     0    54     1    13
  7.4782473784422643E-01 a       862     0    54     1    14
  1.7527319644504962E+00 a       863     0    54     1    15
  5.5404304894083423E-01 a       864     0    54     1    16
  5.8141192762064069E+00 a       865     0    55     1     1
 -1.2944947421569200E+00 a       866     0    55     1     2
  4.4339758513716241E+00 a       867     0    55     1     3
  5.2945117574952461E+00 a       868     0    55     1     4
 -1.0347347343065179E+00 a       869     0    55     1     5
 -3.1235633491384429E+00 a       870     0    55     1     6
  1.7254062166666302E+00 a       871     0    55     1     7
  1.3598526454733399E+01 a       872     0    55     1     8
 -2.7292561289349204E+00 a       873     0    55     1     9
 -4.4094784845144197E+00 a       874     0    55     1    10
 -4.8459820886538569E+00 a       875     0    55     1    11
 -5.5913052621510806E+00 a       876     0    55     1    12
 -1.9215758471191871E+00 a       877     0    55     1    13
 -4.0884973251321899E+00 a       878     0    55     1    14
  9.9873916504234606E-01 a       879     0    55     1    15
  4.1109218976857189E+00 a       880     0    55     1    16
 -5.1279933636358086E+00 a       881     0    56     1     1
  4.4132769397971296E+00 a       882     0    56     1     2
 -9.6882021550064348E+00 a       883     0    56     1     3
  2.1684622247876022E+00 a       884     0    56     1     4
 -1.8008245877498945E+00 a       885     0    56     1     5
 -7.0851737329347788E+00 a       886     0    56     1     6
 -6.6801102820858267E+00 a       887     0    56     1     7
  4.8504137610238587E+00 a       888     0    56     1     8
  1.2954950489134889E+00 a       889     0    56     1     9
  4.2065336036385874E+00 a       890     0    56     1    10
  1.9148351651229643E+00 a       891     0    56     1    11
  1.5734685535607731E+00 a       892     0    56     1    12
  2.2824580235308249E+00 a       893     0    56     1    13
  1.4147281391949804E+00 a       894     0    56     1    14
 -4.9157035059211358E+00 a       895     0    56     1    15
 -7.1556834596288130E+00 a       896     0    56     1    16
 -3.4541996458071860E+00 a       897     0    57     1     1
 -2.5219988503051032E+00 a       898     0    57     1     2
  6.5044231125604735E-01 a       899     0    57     1     3
 -4.2103035920711962E+00 a       900     0    57     1     4
  5.2766972578700297E+00 a       901     0    57     1     5
  3.6272383979495344E+00 a       902     0    57     1     6
 -1.9314790467798872E+00 a       903     0    57     1     7
 -6.9559322383113675E-01 a       904     0    57     1     8
  4.1773271583371923E+00 a       905     0    57     1     9
 -1.0458446424041609E+01 a       906     0    57     1    10
 -1.0787137946401543E+01 a       907     0    57     1    11
 -5.6905860436820097E+00 a       908     0    57     1    12
  3.8965596261265687E+00 a       909     0    57     1    13
  4.5105498616786601E+00 a       910     0    57     1    14
  6.5017412245800188E-01 a       911     0    57     1    15
  4.6647878462259362E-01 a       912     0    57     1    16
  2.3237294635510439E+00 a       913     0    58     1     1
 -4.6852363718832661E+00 a       914     0    58     1     2
 -6.3471765588429783E+00 a       915     0    58     1     3
  3.6623943827764134E-02 a       916     0    58     1     4
 -4.4546816950599650E+00 a       917     0    58     1     5
  1.8358943986620109E+00 a       918     0    58     1     6
 -2.2766035073421009E+00 a       919     0    58     1     7
  2.4096770873504196E+00 a       920     0    58     1     8
 -3.2731110546617215E+00 a       921     0    58     1     9
 -8.4767502767834184E+00 a       922     0    58     1    10
 -7.7411015627285469E+00 a       923     0    58     1    11
  1.0672075866497188E+00 a       924     0    58     1    12
 -5.3950567559238740E+00 a       925     0    58     1    13
 -2.6758473771011335E+00 a       926     0    58     1    14
  8.4454833289446229E-01 a       927     0    58     1    15
  6.1131984880049881E+00 a       928     0    58     1    16
 -3.0336915638377810E+00 a       929     0    59     1     1
  5.0341748541638180E+00 a       930     0    59     1     2
 -1.3996901152586977E+01 a       931     0    59     1     3
  5.0179724909524150E+00 a       932     0    59     1     4
 -4.0226504829893086E+00 a       933     0    59     1     5
 -7.3853783698294952E+00 a       934     0    59     1     6
 -3.0095309287700238E+00 a       935     0    59     1     7
 -1.3492464471753229E+00 a       936     0    59     1     8
  5.2925067003833099E+00 a       937     0    59     1     9
  9.5012460513217523E+00 a       938     0    59     1    10
  1.0307853610567813E+01 a       939     0    59     1    11
  8.7187654521550577E+00 a       940     0    59     1    12
  6.5863956602528297E+00 a       941     0    59     1    13
 -1.3577357599239674E+00 a       942     0    59     1    14
 -9.9930435782997638E+00 a       943     0    59     1    15
 -1.9603497321505618E+01 a       944     0    59     1    16
  1.1458484929519486E+00 a       945     0    60     1     1
 -8.4276666146953065E+00 a       946     0    60     1     2
 -9.2432786402778415E+00 a       947     0    60     1     3
  5.3547178465583842E+00 a       948     0    60     1     4
 -5.4695316007506021E+00 a       949     0    60     1     5
 -1.6129739725331851E+00 a       950     0    60     1     6
 -1.4793442913917554E+00 a       951     0    60     1     7
  4.3439054907502115E+00 a       952     0    60     1     8
  1.1458081947458503E+00 a       953     0    60     1     9
  5.6408975413253639E+00 a       954     0    60     1    10
  7.0399763053333286E+00 a       955     0    60     1    11
  3.3510881072348142E+00 a       956     0    60     1    12
 -5.7264820361323006E+00 a       957     0    60     1    13
 -2.5224463603963283E+00 a       958     0    60     1    14
  3.9203523849965266E-01 a       959     0    60     1    15
 -7.5582753265752354E+00 a       960     0    60     1    16
 -2.1181701956687879E+00 a       961     0    61     1     1
 -3.4214265639018167E+00 a       962     0    61     1     2
 -3.7573395162267751E+00 a       963     0    61     1     3
  1.0020582988380975E+00 a       964     0    61     1     4
 -5.3997336500900051E-01 a       965     0    61     1     5
 -3.0062408865470880E-01 a       966     0    61     1     6
  7.8594225946809892E-01 a       967     0    61     1     7
  2.5182002240549584E+00 a       968     0    61     1     8
  2.8884242735351764E+00 a       969     0    61     1     9
  1.3819107394925383E+00 a       970     0    61     1    10
 -3.4742903593008106E-01 a       971     0    61     1    11
  1.8711568243697898E+00 a       972     0    61     1    12
  1.3242303040169161E+00 a       973     0    61     1    13
 -1.7772696492673165E-01 a       974     0    61     1    14
  1.0151571524638858E+00 a       975     0    61     1    15
 -1.6624730138681354E-01 a       976     0    61     1    16
 -1.2855304515513227E+01 a       977     0    62     1     1
  5.9814260119167741E+00 a       978     0    62     1     2
  2.4353960124979679E+00 a       979     0    62     1     3
 -4.0990451914801866E+00 a       980     0    62     1     4
  3.3609304783830903E-02 a       981     0    62     1     5
  4.4563262344815152E-01 a       982     0    62     1     6
  2.4658434167502432E+00 a       983     0    62     1     7
  5.2195785359417064E+00 a       984     0    62     1     8
  1.9138720453854241E+01 a       985     0    62     1     9
  1.1251027911172804E+01 a       986     0    62     1    10
  3.8349366934202846E+00 a       987     0    62     1    11
  4.6101907697590938E-01 a       988     0    62     1    12
 -1.2322194598175651E+00 a       989     0    62     1    13
  1.6787386769306123E+00 a       990     0    62     1    14
 -1.3950351964813668E-01 a       991     0    62     1    15
 -8.9120859333114737E+00 a       992     0    62     1    16
 -6.5751473942234124E+00 a       993     0    63     1     1
 -5.5892448619315838E+00 a       994     0    63     1     2
  1.1066301705452105E+01 a       995     0    63     1     3
 -5.6357571349189612E+00 a       996     0    63     1     4
  1.8148790616457977E+00 a       997     0    63     1     5
  7.5034654620070107E+00 a       998     0    63     1     6
 -2.9161958856550996E+00 a       999     0    63     1     7
 -6.2241412993575675E+00 a      1000     0    63     1     8
 -1.5720331305458242E+00 a      1001     0    63     1     9
 -1.6563816412034825E+01 a      1002     0    63     1    10
 -1.0036309976124111E+01 a      1003     0    63     1    11
 -2.7397928322105130E+00 a      1004     0    63     1    12
 -9.0639740220083898E+00 a      1005     0    63     1    13
  9.9150547103778024E+00 a      1006     0    63     1    14
  1.2413653699106108E+01 a      1007     0    63     1    15
  1.8814160377498762E+01 a      1008     0    63     1    16
 -3.9462655386802279E+00 a      1009     0    64     1     1
 -8.7990088714151788E+00 a      1010     0    64     1     2
 -1.0880611220773133E+01 a      1011     0    64     1     3
 -6.0278978535104590E+00 a      1012     0    64     1     4
  4.5707906532450421E-01 a      1013     0    64     1     5
  3.6082323826488318E+00 a      1014     0    64     1     6
 -3.9204329757260830E+00 a      1015     0    64     1     7
 -9.5849446313060671E+00 a      1016     0    64     1     8
  4.5374051757608012E+00 a      1017     0    64     1     9
  7.4813614453348709E-01 a      1018     0    64     1    10
  1.7305958607254683E+00 a      1019     0    64     1    11
  2.2810279521683072E+00 a      1020     0    64     1    12
 -8.2460031284413138E-01 a      1021     0    64     1    13
  3.4353138745493146E+00 a      1022     0    64     1    14
 -3.2919765678908425E-01 a      1023     0    64     1    15
  2.7963187649114314E+00 a      1024     0    64     1    16
 -1.1221476045273722E-01 b      1025     1     1
  2.0017069453130004E-01 b      1026     1     2
 -1.3429102951314786E-01 b      1027     1     3
  6.0925379659077339E-01 b      1028     1     4
 -2.5668465723696010E-01 b      1029     1     5
  2.0608225067174479E-01 b      1030     1     6
 -2.5757007146460387E-01 b      1031     1     7
  6.1838351240524159E-01 b      1032     1     8
 -1.9455705768352713E-01 b      1033     1     9
  6.2678956306708083E-02 b      1034     1    10
  2.6367205217061379E-01 b      1035     1    11
 -1.0055623085221257E-01 b      1036     1    12
  1.2216286445422889E-01 b      1037     1    13
  1.8140389081925354E-01 b      1038     1    14
 -6.9915047349841733E-02 b      1039     1    15
 -1.5723420651143374E-01 b      1040     1    16
 -4.2167860249446198E-01 a      1041     1     1     2     1
 -8.4675479211127877E-02 a      1042     1     1     2     2
 -4.7111620291015471E-01 a      1043     1     1     2     3
  6.0563312328128033E-02 a      1044     1     1     2     4
  9.6112738992752036E-02 a      1045     1     1     2     5
  4.7131202570449210E-01 a      1046     1     1     2     6
  8.7735705021423374E-02 a      1047     1     1     2     7
  4.9533337012490347E-01 a      1048     1     1     2     8
  2.4447687764560594E-01 a      1049     1     1     2     9
  2.2489092326150768E+00 a      1050     1     1     2    10
 -1.4835788559674075E+00 a      1051     1     1     2    11
  6.7344912997312023E-01 a      1052     1     1     2    12
  9.9992321214447211E-01 a      1053     1     1     2    13
 -1.4767652848921651E+00 a      1054     1     1     2    14
 -1.0845595159120052E+00 a      1055     1     1     2    15
 -6.0661965049773670E-01 a      1056     1     1     2    16
 -8.3753907307807046E-02 a      1057     1     2     2     1
 -7.0543767934524149E-01 a      1058     1     2     2     2
 -2.7805750468758739E-01 a      1059     1     2     2     3
  5.5492217553046075E-01 a      1060     1     2     2     4
  6.0882409196955412E-01 a      1061     1     2     2     5
  1.1721590964267561E+00 a      1062     1     2     2     6
  2.2110943949377310E-01 a      1063     1     2     2     7
  6.5901034925675217E-01 a      1064     1     2     2     8
 -7.3880479879359295E-01 a      1065     1     2     2     9
  9.1492477199800215E-01 a      1066     1     2     2    10
  4.9322842350105650E-01 a      1067     1     2     2    11
  1.0411317140938980E+00 a      1068     1     2     2    12
  1.4212074238815450E-01 a      1069     1     2     2    13
 -8.0281385897295360E-02 a      1070     1     2     2    14
  3.5363324357945436E-01 a      1071     1     2     2    15
 -3.3976245759947865E-01 a      1072     1     2     2    16
  2.4775144136528840E-01 a      1073     1     3     2     1
  2.9017357629177420E-01 a      1074     1     3     2     2
  3.5417201108374102E-01 a      1075     1     3     2     3
  5.8892424714180894E-02 a      1076     1     3     2     4
  3.9063154801872391E-01 a      1077     1     3     2     5
 -3.7510986009337291E-02 a      1078     1     3     2     6
  2.7231713857493828E-01 a      1079     1     3     2     7
 -8.8986283805544875E-01 a      1080     1     3     2     8
 -1.1112365426129762E-02 a      1081     1     3     2     9
  2.0661601530601237E+00 a      1082     1     3     2    10
  1.5960159817709483E+00 a      1083     1     3     2    11
 -9.6198761335450678E-01 a      1084     1     3     2    12
 -1.9600991913486879E-01 a      1085     1     3     2    13
  4.6018471552617246E-01 a      1086     1     3     2    14
 -1.8454425080099084E-02 a      1087     1     3     2    15
  7.5022180287181897E-02 a      1088     1     3     2    16
  2.8589751476863084E-01 a      1089     1     4     2     1
  4.3597940239029870E-01 a      1090     1     4     2     2
 -1.8117885421429911E-01 a      1091     1     4     2     3
  6.3099208737724966E-01 a      1092     1     4     2     4
  7.7695401840047182E-02 a      1093     1     4     2     5
  4.7656512030919795E-01 a      1094     1     4     2     6
 -1.3635765464315538E-02 a      1095     1     4     2     7
 -9.9802817863727272E-02 a      1096     1     4     2     8
 -4.6174089397947898E-01 a      1097     1     4     2     9
  3.4501553197875852E-02 a      1098     1     4     2    10
 -9.9660948579538877E-01 a      1099     1     4     2    11
  8.2183602729204652E-01 a      1100     1     4     2    12
  8.6072472927918486E-01 a      1101     1     4     2    13
 -7.4501517609798548E-02 a      1102     1     4     2    14
  2.4775320619451435E-01 a      1103     1     4     2    15
 -2.6408677971675293E-01 a      1104     1     4     2    16
  1.3163662735275778E+00 a      1105     1     5     2     1
  9.3311214634198525E-01 a      1106     1     5     2     2
  1.2189752886056735E+00 a      1107     1     5     2     3
  7.0563961228083849E-01 a      1108     1     5     2     4
  1.6561469102626417E-01 a      1109     1     5     2     5
  8.6099200985305469E-01 a      1110     1     5     2     6
 -6.5658960970598623E-01 a      1111     1     5     2     7
  1.1324930740829389E+00 a      1112     1     5     2     8
 -8.9973214845902771E-01 a      1113     1     5     2     9
  2.6579841986188346E+00 a      1114     1     5     2    10
 -3.4197096415207556E-01 a      1115     1     5     2    11
 -1.4293581546500509E+00 a      1116     1     5     2    12
  1.5442104131514145E-02 a      1117     1     5     2    13
  1.7710470269719383E+00 a      1118     1     5     2    14
  2.5608812644621759E-01 a      1119     1     5     2    15
  4.7250753766092357E-01 a      1120     1     5     2    16
 -8.2949926899845896E-03 a      1121     1     6     2     1
  5.2585998307199115E-02 a      1122     1     6     2     2
  1.4349614158628479E-01 a      1123     1     6     2     3
  5.4617478619098703E-01 a      1124     1     6     2     4
  1.1970379929410280E+00 a      1125     1     6     2     5
 -2.2201093702197186E-01 a      1126     1     6     2     6
  9.7260803769510928E-01 a      1127     1     6     2     7
 -2.5645511228735018E+00 a      1128     1     6     2     8
  2.5791814961254373E+00 a      1129     1     6     2     9
  4.2655051662462207E-01 a      1130     1     6     2    10
  2.3608765502509015E+00 a      1131     1     6     2    11
 -1.5939987263723643E+00 a      1132     1     6     2    12
 -5.8942889867211454E-02 a      1133     1     6     2    13
  1.2313275994891795E+00 a      1134     1     6     2    14
  5.1276562635169687E-01 a      1135     1     6     2    15
  1.5972290262510784E-02 a      1136     1     6     2    16
  3.1825061278371680E-01 a      1137     1     7     2     1
  9.2531431186095525E-02 a      1138     1     7     2     2
  2.4973986005396628E-01 a      1139     1     7     2     3
 -1.0024817256279117E+00 a      1140     1     7     2     4
  9.6431241270223372E-02 a      1141     1     7     2     5
 -5.6075009922766361E-01 a      1142     1     7     2     6
  2.7409945375846789E-01 a      1143     1     7     2     7
 -3.5979814742968708E-01 a      1144     1     7     2     8
 -8.1266328575757085E-01 a      1145     1     7     2     9
 -4.6931034298168517E-01 a      1146     1     7     2    10
  8.6285435484440487E-01 a      1147     1     7     2    11
 -3.3888612879954150E-01 a      1148     1     7     2    12
 -1.5111771824306706E+00 a      1149     1     7     2    13
 -6.1888616282203746E-01 a      1150     1     7     2    14
  6.2959806486376824E-01 a      1151     1     7     2    15
  5.2354340628119667E-01 a      1152     1     7     2    16
  5.0073698829086077E-01 a      1153     1     8     2     1
 -3.1054701263323677E-03 a      1154     1     8     2     2
  1.4489843282907314E-01 a      1155     1     8     2     3
 -1.8878734166416022E-01 a      1156     1     8     2     4
  5.6497386442454112E-01 a      1157     1     8     2     5
  3.3463109283807890E-01 a      1158     1     8     2     6
  5.8342376045275768E-01 a      1159     1     8     2     7
 -2.6390936043407986E-01 a      1160     1     8     2     8
  2.0835012127075550E-01 a      1161     1     8     2     9
 -1.3236417564797945E-01 a      1162     1     8     2    10
  1.2948725093439921E+00 a      1163     1     8     2    11
 -2.4407077993508258E-01 a      1164     1     8     2    12
 -9.3011925241487700E-02 a      1165     1     8     2    13
  1.0094013847676520E-01 a      1166     1     8     2    14
 -4.3680578185240587E-01 a      1167     1     8     2    15
  5.1085042081810583E-02 a      1168     1     8     2    16
  1.0898995366355730E+00 a      1169     1     9     2     1
 -5.7219950885331883E-01 a      1170     1     9     2     2
 -1.8740384266370377E-01 a      1171     1     9     2     3
 -1.2594388944754059E-01 a      1172     1     9     2     4
  1.4901545256428778E-01 a      1173     1     9     2     5
  8.3713199225735768E-01 a      1174     1     9     2     6
  6.3708164281912227E-02 a      1175     1     9     2     7
 -6.4351370118070156E-02 a      1176     1     9     2     8
 -1.1329999508959228E+00 a      1177     1     9     2     9
 -1.7670225375668441E-01 a      1178     1     9     2    10
  6.9401276527758216E-01 a      1179     1     9     2    11
  2.8443606991217474E-01 a      1180     1     9     2    12
  7.0796412527703501E-01 a      1181     1     9     2    13
 -1.4455213517043666E+00 a      1182     1     9     2    14
 -1.7307840874623340E-01 a      1183     1     9     2    15
  3.6001983417522720E-01 a      1184     1     9     2    16
 -4.0909730646077563E-01 a      1185     1    10     2     1
  8.1230939837764737E-01 a      1186     1    10     2     2
 -1.0259939040516819E-01 a      1187     1    10     2     3
  1.3150662039645270E-02 a      1188     1    10     2     4
 -4.3040351528995163E-01 a      1189     1    10     2     5
 -3.2345767986039020E-01 a      1190     1    10     2     6
 -9.0931988843091838E-02 a      1191     1    10     2     7
  8.5023029376951509E-01 a      1192     1    10     2     8
 -4.5490697946560889E-02 a      1193     1    10     2     9
  2.5797855616532024E+00 a      1194     1    10     2    10
 -1.4791966591048233E-01 a      1195     1    10     2    11
  6.2489990208222512E-01 a      1196     1    10     2    12
 -1.2034953259129122E+00 a      1197     1    10     2    13
 -5.0042329396055785E-01 a      1198     1    10     2    14
 -1.0177305005952435E+00 a      1199     1    10     2    15
 -7.1534308906546173E-01 a      1200     1    10     2    16
  1.8306865845555806E-01 a      1201     1    11     2     1
 -3.1960668981983903E-01 a      1202     1    11     2     2
  3.1476598401349154E-01 a      1203     1    11     2     3
  3.3395277528491618E-01 a      1204     1    11     2     4
  7.7302684781153919E-01 a      1205     1    11     2     5
 -3.8954058170039585E-01 a      1206     1    11     2     6
  2.0960433698757175E-01 a      1207     1    11     2     7
 -1.4197779659691059E-01 a      1208     1    11     2     8
  1.4534310006042328E+00 a      1209     1    11     2     9
 -1.8276638166306947E+00 a      1210     1    11     2    10
 -7.1656078157062930E-01 a      1211     1    11     2    11
 -2.5941342057713865E+00 a      1212     1    11     2    12
 -3.0538949352531086E-01 a      1213     1    11     2    13
  5.6966283292251518E-01 a      1214     1    11     2    14
  9.6995953673930657E-01 a      1215     1    11     2    15
  1.0636651566506994E+00 a      1216     1    11     2    16
 -4.8526884232725481E-01 a      1217     1    12     2     1
  2.9280877734580768E-01 a      1218     1    12     2     2
  4.0701126778163198E-02 a      1219     1    12     2     3
 -5.9873125459659537E-01 a      1220     1    12     2     4
 -5.1184340485062929E-01 a      1221     1    12     2     5
 -1.4068675016465962E-02 a      1222     1    12     2     6
 -1.8912142481010744E-01 a      1223     1    12     2     7
  7.1067074485882953E-01 a      1224     1    12     2     8
 -3.2273036757321072E-02 a      1225     1    12     2     9
  1.4611566838349774E+00 a      1226     1    12     2    10
  4.5661367197808028E-01 a      1227     1    12     2    11
  1.7034135172378079E-01 a      1228     1    12     2    12
 -1.8703919450376587E+00 a      1229     1    12     2    13
 -7.5075950583244705E-02 a      1230     1    12     2    14
 -1.1765735693131107E+00 a      1231     1    12     2    15
 -7.7586888899570128E-01 a      1232     1    12     2    16
 -1.2164553272064943E-01 a      1233     1    13     2     1
 -5.6454222186518188E-01 a      1234     1    13     2     2
 -6.3099586342498126E-01 a      1235     1    13     2     3
  2.2680298877313945E-01 a      1236     1    13     2     4
  5.7560199807831836E-01 a      1237     1    13     2     5
 -6.5126623738577882E-01 a      1238     1    13     2     6
  8.8621244443629965E-01 a      1239     1    13     2     7
 -9.5807165656774607E-01 a      1240     1    13     2     8
  6.1256950574411861E-01 a      1241     1    13     2     9
 -1.2438590878347247E+00 a      1242     1    13     2    10
 -8.0224639632724776E-02 a      1243     1    13     2    11
 -3.0090914876825009E-01 a      1244     1    13     2    12
 -6.0850569802764015E-02 a      1245     1    13     2    13
 -1.6559112869534962E-01 a      1246     1    13     2    14
  7.6731394715449353E-01 a      1247     1    13     2    15
  2.7163223449291263E-01 a      1248     1    13     2    16
 -8.2833334954784139E-03 a      1249     1    14     2     1
 -7.3167886267139423E-02 a      1250     1    14     2     2
 -7.8379714831241243E-01 a      1251     1    14     2     3
 -4.3594018721071673E-02 a      1252     1    14     2     4
 -6.1067613317031932E-01 a      1253     1    14     2     5
  1.8249724186498389E-01 a      1254     1    14     2     6
 -3.3574887180900370E-01 a      1255     1    14     2     7
  3.0062793028298906E-01 a      1256     1    14     2     8
 -1.3666666610764160E+00 a      1257     1    14     2     9
  1.3921289839515227E+00 a      1258     1    14     2    10
 -1.3027815580069984E+00 a      1259     1    14     2    11
  2.0957802497458515E+00 a      1260     1    14     2    12
 -2.6068285745774805E-01 a      1261     1    14     2    13
 -1.9692609938340413E+00 a      1262     1    14     2    14
 -2.0982056789839763E+00 a      1263     1    14     2    15
 -3.7730656681625507E-01 a      1264     1    14     2    16
 -2.8152948878201228E-01 a      1265     1    15     2     1
 -8.5488383054563810E-01 a      1266     1    15     2     2
  3.8508806670127271E-01 a      1267     1    15     2     3
  1.5620736330960576E+00 a      1268     1    15     2     4
  1.1726133102749283E+00 a      1269     1    15     2     5
 -9.4083245943319307E-02 a      1270     1    15     2     6
  2.4075716556872109E-01 a      1271     1    15     2     7
 -7.0704805368072288E-01 a      1272     1    15     2     8
  9.2324566787482831E-01 a      1273     1    15     2     9
  2.0031548255304082E-01 a      1274     1    15     2    10
 -5.9626489391806747E-01 a      1275     1    15     2    11
 -1.9189644216114652E+00 a      1276     1    15     2    12
 -5.3062721115993217E-01 a      1277     1    15     2    13
  3.9720846037071256E-01 a      1278     1    15     2    14
 -5.3529853548413131E-01 a      1279     1    15     2    15
 -4.4247835042537723E-02 a      1280     1    15     2    16
 -3.4297326204066531E-01 a      1281     1    16     2     1
  5.8760290497960166E-02 a      1282     1    16     2     2
  3.2519951267788998E-02 a      1283     1    16     2     3
  1.1080098376788172E+00 a      1284     1    16     2     4
  1.6151623988356303E-01 a      1285     1    16     2     5
 -1.4570468501208747E-01 a      1286     1    16     2     6
 -4.1621309059431899E-01 a      1287     1    16     2     7
  8.1930281143398942E-01 a      1288     1    16     2     8
  3.5337655977586186E-03 a      1289     1    16     2     9
 -2.3542456738061399E+00 a      1290     1    16     2    10
 -6.3762905994364316E-01 a      1291     1    16     2    11
  2.8472748090777428E-01 a      1292     1    16     2    12
 -2.5128084609257523E-01 a      1293     1    16     2    13
 -7.8512270317684707E-02 a      1294     1    16     2    14
  6.3168379480135706E-01 a      1295     1    16     2    15
  4.4923254061903971E-02 a      1296     1    16     2    16
 -5.9261446260045447E-01 b      1297     2     1
  8.2974253441719101E-04 b      1298     2     2
  3.6622695391166060E-01 b      1299     2     3
 -2.0883430719753301E-01 b      1300     2     4
  6.5772262095973297E-02 b      1301     2     5
  4.8945145020626823E-01 b      1302     2     6
 -5.0980542741703105E-01 b      1303     2     7
  1.0984875197941026E+00 b      1304     2     8
 -3.2391603964920468E-01 b      1305     2     9
 -3.5076747596927076E+00 b      1306     2    10
 -3.5702221655754141E+00 b      1307     2    11
  8.3612308480690165E-02 b      1308     2    12
 -1.1759962814560363E+00 b      1309     2    13
  1.6578984197039113E+00 b      1310     2    14
  2.2640614445596206E+00 b      1311     2    15
  9.1839452671788530E-02 b      1312     2    16
  1.7109384262981397E-01 a      1313     2     1     3     1
  2.2210734720545430E-01 a      1314     2     2     3     1
 -7.0386515434734587E-01 a      1315     2     3     3     1
 -3.0369572808629480E-01 a      1316     2     4     3     1
  8.0375093096181704E-01 a      1317     2     5     3     1
 -2.4464846833888471E-01 a      1318     2     6     3     1
 -7.7879451876650274E-01 a      1319     2     7     3     1
 -4.7547219162396542E-02 a      1320     2     8     3     1
 -9.0242171552036218E-02 a      1321     2     9     3     1
 -1.6443484280041651E-02 a      1322     2    10     3     1
  3.6490508622664716E-02 a      1323     2    11     3     1
  1.8639308694541257E-01 a      1324     2    12     3     1
 -2.0528043635267529E-01 a      1325     2    13     3     1
  1.3757517805961517E-01 a      1326     2    14     3     1
 -8.8887906617656789E-02 a      1327     2    15     3     1
 -4.4972734773656670E-01 a      1328     2    16     3     1
  1.6929022296979221E-01 b      1329     3     1
