################################################################################
# Neural network connection values (weights and biases).
################################################################################
# Col  Name       Description
################################################################################
# 1    connection Neural network connection value.
# 2    t          Connection type (a = weight, b = bias).
# 3    index      Index enumerating weights.
# 4    l_s        Starting point layer (end point layer for biases).
# 5    n_s        Starting point neuron in starting layer (end point neuron for biases).
# 6    l_e        End point layer.
# 7    n_e        End point neuron in end layer.
################################################################################
#                      1 2         3     4     5     6     7
#             connection t     index   l_s   n_s   l_e   n_e
############################################################
  1.3612735982023474E-01 a         1     0     1     1     1
 -3.0529297360464958E-01 a         2     0     1     1     2
 -2.5224758048801182E-01 a         3     0     1     1     3
  1.1979146555055231E+00 a         4     0     1     1     4
  1.0101935080894773E+00 a         5     0     1     1     5
  2.5007861062267628E-01 a         6     0     1     1     6
 -3.9827678332182228E+00 a         7     0     1     1     7
 -1.3708998976203346E+00 a         8     0     1     1     8
  9.1043189871057240E-01 a         9     0     1     1     9
  6.8954628882843727E-01 a        10     0     1     1    10
  1.2818121901146249E+00 a        11     0     1     1    11
  2.4419121081919967E-01 a        12     0     1     1    12
  2.1459793968307103E-01 a        13     0     1     1    13
  4.2475060456142127E-01 a        14     0     1     1    14
 -1.0405767245097179E+00 a        15     0     1     1    15
  4.7856992700213558E-01 a        16     0     1     1    16
  6.5657428937999462E-01 a        17     0     1     1    17
  3.1738899169198954E-02 a        18     0     1     1    18
 -1.1454948639143101E+00 a        19     0     1     1    19
  6.9595069638765061E-01 a        20     0     1     1    20
  1.1631478316351616E+00 a        21     0     2     1     1
 -1.2804149147201480E+00 a        22     0     2     1     2
 -1.3085956616721675E-01 a        23     0     2     1     3
 -1.6044688941655580E+00 a        24     0     2     1     4
 -5.4231290957560652E-01 a        25     0     2     1     5
 -8.8722229226495475E-01 a        26     0     2     1     6
  1.9986971297595995E+00 a        27     0     2     1     7
 -1.0553264388110504E+00 a        28     0     2     1     8
 -6.6976228413659089E-01 a        29     0     2     1     9
  9.5753095068652616E-01 a        30     0     2     1    10
 -3.1239302647079831E-01 a        31     0     2     1    11
 -1.0511008818749370E+00 a        32     0     2     1    12
  5.8767211198240743E-01 a        33     0     2     1    13
 -9.1849283613852195E-01 a        34     0     2     1    14
  6.0419097578748882E-01 a        35     0     2     1    15
 -1.2913403950490498E+00 a        36     0     2     1    16
 -3.1770465724524799E+00 a        37     0     2     1    17
 -1.5180241664632885E+00 a        38     0     2     1    18
  1.3018047537748245E+00 a        39     0     2     1    19
  1.6302897759030497E+00 a        40     0     2     1    20
 -1.3421652085621854E+00 a        41     0     3     1     1
  6.4823324076151079E-01 a        42     0     3     1     2
  1.1975532427141251E+00 a        43     0     3     1     3
 -1.0732524490019155E+00 a        44     0     3     1     4
  1.1423462980588471E-01 a        45     0     3     1     5
  6.3753631109210984E-01 a        46     0     3     1     6
  5.9088471288065065E+00 a        47     0     3     1     7
  2.9854336470378158E+00 a        48     0     3     1     8
 -9.0872520054011396E-01 a        49     0     3     1     9
 -1.7086025718622431E+00 a        50     0     3     1    10
 -2.9268320720375378E+00 a        51     0     3     1    11
  1.4104339477918266E+00 a        52     0     3     1    12
 -8.8682886206351275E-01 a        53     0     3     1    13
 -2.7935846376291285E-01 a        54     0     3     1    14
  7.1879356652563353E-01 a        55     0     3     1    15
 -1.4691983526873511E+00 a        56     0     3     1    16
  1.4944504273885950E+00 a        57     0     3     1    17
  1.4844124019223259E+00 a        58     0     3     1    18
  2.6318310323080802E+00 a        59     0     3     1    19
 -4.8009980475701008E-01 a        60     0     3     1    20
  3.5896615198174546E-02 a        61     0     4     1     1
  2.9766757100615209E+00 a        62     0     4     1     2
 -9.9521410173040253E-02 a        63     0     4     1     3
  1.6641311817886917E+00 a        64     0     4     1     4
  1.6274175002898028E-01 a        65     0     4     1     5
  1.6793257462528275E+00 a        66     0     4     1     6
 -2.7837005475937024E+00 a        67     0     4     1     7
  6.7244320746740938E-01 a        68     0     4     1     8
 -8.2070421002773530E-01 a        69     0     4     1     9
 -3.0234064753514520E+00 a        70     0     4     1    10
  1.2483570027818547E+00 a        71     0     4     1    11
  1.4198329378779013E+00 a        72     0     4     1    12
 -1.7016019679426762E+00 a        73     0     4     1    13
  8.8701772092059372E-01 a        74     0     4     1    14
 -1.1841755302110771E-02 a        75     0     4     1    15
  7.1560328987892097E-01 a        76     0     4     1    16
  3.1177524266545289E+00 a        77     0     4     1    17
  2.2826005050475850E+00 a        78     0     4     1    18
 -3.1002931842295469E+00 a        79     0     4     1    19
 -3.2229371638345281E+00 a        80     0     4     1    20
  1.5246632602313248E+00 a        81     0     5     1     1
 -1.3818901255304601E+00 a        82     0     5     1     2
 -2.5104556526211588E+00 a        83     0     5     1     3
  2.0131594591417817E-01 a        84     0     5     1     4
 -1.5840014841999055E+00 a        85     0     5     1     5
 -6.8116676693609812E-01 a        86     0     5     1     6
 -2.9352845851739775E+00 a        87     0     5     1     7
 -3.2407572527648800E+00 a        88     0     5     1     8
 -1.1890413412572176E+00 a        89     0     5     1     9
  3.0383855807560614E+00 a        90     0     5     1    10
  2.0483047950628093E+00 a        91     0     5     1    11
 -3.5408595626958519E+00 a        92     0     5     1    12
  1.9195961056143342E+00 a        93     0     5     1    13
  1.3150717540809265E-01 a        94     0     5     1    14
 -3.8001065625278102E-01 a        95     0     5     1    15
  3.3468568494159125E+00 a        96     0     5     1    16
 -2.8401898250493498E+00 a        97     0     5     1    17
 -2.1586718517179779E+00 a        98     0     5     1    18
 -1.6368685705410315E+00 a        99     0     5     1    19
  6.5626577672884312E-01 a       100     0     5     1    20
 -3.8724132474991140E+00 a       101     0     6     1     1
 -4.0441760061617877E+00 a       102     0     6     1     2
  1.2111719110178687E+00 a       103     0     6     1     3
  5.7614274678783395E-01 a       104     0     6     1     4
 -6.8606485548287766E-01 a       105     0     6     1     5
 -7.8733625315870337E-01 a       106     0     6     1     6
  1.9918763851910775E+00 a       107     0     6     1     7
 -4.7214274295973280E-01 a       108     0     6     1     8
  1.4443992753052970E+00 a       109     0     6     1     9
  5.3442392214688619E+00 a       110     0     6     1    10
 -1.8660304763309760E-01 a       111     0     6     1    11
 -2.6069556400253806E-02 a       112     0     6     1    12
  2.0291704549505609E+00 a       113     0     6     1    13
  2.6374945344101286E-01 a       114     0     6     1    14
 -6.3547906502329743E-01 a       115     0     6     1    15
  6.2834470403433340E-01 a       116     0     6     1    16
  1.9843083652881921E-01 a       117     0     6     1    17
 -1.8985722387155204E+00 a       118     0     6     1    18
  3.4944341216044084E+00 a       119     0     6     1    19
  2.3123895117257365E+00 a       120     0     6     1    20
 -1.0988323280329597E+00 a       121     0     7     1     1
  3.5490799458073514E+00 a       122     0     7     1     2
  2.7743489014098603E+00 a       123     0     7     1     3
 -1.0623923506608686E+00 a       124     0     7     1     4
  2.2446857986274442E+00 a       125     0     7     1     5
 -2.4979205862343243E+00 a       126     0     7     1     6
  1.5156202400806675E+00 a       127     0     7     1     7
  4.1829708784042756E+00 a       128     0     7     1     8
  4.0092143212493454E+00 a       129     0     7     1     9
 -4.3113880259359316E+00 a       130     0     7     1    10
 -1.9244940480568076E+00 a       131     0     7     1    11
  4.1643798525770883E+00 a       132     0     7     1    12
 -1.5358689393657980E+00 a       133     0     7     1    13
 -4.3397048606677500E-02 a       134     0     7     1    14
 -1.8819433554889284E-02 a       135     0     7     1    15
 -1.0079975550234073E+00 a       136     0     7     1    16
  2.2291436923491639E+00 a       137     0     7     1    17
  1.9690197861541825E+00 a       138     0     7     1    18
 -1.4921619764720628E+00 a       139     0     7     1    19
 -1.7427677056279198E+00 a       140     0     7     1    20
  6.7747585565229542E+00 a       141     0     8     1     1
  3.5283350643235067E+00 a       142     0     8     1     2
  5.5656089157370947E-01 a       143     0     8     1     3
 -1.5518357567653751E+00 a       144     0     8     1     4
  2.7270515961943991E+00 a       145     0     8     1     5
 -3.4272221924822466E-01 a       146     0     8     1     6
  1.4035508745942034E+00 a       147     0     8     1     7
  1.2653456408682200E+00 a       148     0     8     1     8
 -1.0563933347479282E+00 a       149     0     8     1     9
 -6.0742604547922801E+00 a       150     0     8     1    10
 -1.3137347670739747E+00 a       151     0     8     1    11
 -3.0263118963917428E+00 a       152     0     8     1    12
 -1.0215999071381621E+00 a       153     0     8     1    13
  5.5177761875948483E-01 a       154     0     8     1    14
  1.0777325671439555E+00 a       155     0     8     1    15
 -1.3011618622237313E+00 a       156     0     8     1    16
 -8.2345577147998661E-01 a       157     0     8     1    17
  4.8614233260685058E-01 a       158     0     8     1    18
 -2.2276682219307293E+00 a       159     0     8     1    19
  3.6904974486608977E-01 a       160     0     8     1    20
 -3.2859880844220979E+00 a       161     0     9     1     1
 -3.0573119571012781E+00 a       162     0     9     1     2
 -3.7044939144473366E-01 a       163     0     9     1     3
 -8.9699874284525927E-01 a       164     0     9     1     4
 -1.9217535535023202E+00 a       165     0     9     1     5
  2.2814707956550300E+00 a       166     0     9     1     6
 -5.5189133372242916E-01 a       167     0     9     1     7
 -3.2476275856531824E+00 a       168     0     9     1     8
 -6.9550948145968650E-01 a       169     0     9     1     9
  3.9814577442724555E+00 a       170     0     9     1    10
 -3.6544612683432937E-01 a       171     0     9     1    11
  1.9041754587993263E+00 a       172     0     9     1    12
  8.9458388050448936E-02 a       173     0     9     1    13
 -1.1884234469731583E+00 a       174     0     9     1    14
 -1.6536703440223022E+00 a       175     0     9     1    15
  9.2957243605054551E-01 a       176     0     9     1    16
  4.3232905319115494E-01 a       177     0     9     1    17
  2.6700981325126250E-01 a       178     0     9     1    18
  1.2991720076838462E+00 a       179     0     9     1    19
 -9.8430810489928078E-01 a       180     0     9     1    20
  7.4176329856310330E-01 a       181     0    10     1     1
 -2.1699708606818211E+00 a       182     0    10     1     2
  8.1686061614561312E-01 a       183     0    10     1     3
  3.1876263154435899E-03 a       184     0    10     1     4
 -6.7928483748984206E-02 a       185     0    10     1     5
  2.7225832754157326E+00 a       186     0    10     1     6
 -8.3432025870095805E-01 a       187     0    10     1     7
 -2.9996041886280449E+00 a       188     0    10     1     8
 -3.8728261539689535E+00 a       189     0    10     1     9
  1.9121854129505851E+00 a       190     0    10     1    10
  1.4485445373646932E+00 a       191     0    10     1    11
 -8.9061148999820516E-01 a       192     0    10     1    12
  6.1828004107286194E-01 a       193     0    10     1    13
 -5.9768234188777480E-01 a       194     0    10     1    14
  4.2482708571078864E-01 a       195     0    10     1    15
 -1.0146803663210511E+00 a       196     0    10     1    16
 -3.1489930364716323E-01 a       197     0    10     1    17
 -6.2797553561657382E-01 a       198     0    10     1    18
  1.9826948567197022E+00 a       199     0    10     1    19
  1.4716285425240565E+00 a       200     0    10     1    20
  2.2179717851732139E+00 a       201     0    11     1     1
  1.4585668770878077E+00 a       202     0    11     1     2
 -9.3710246823026355E-01 a       203     0    11     1     3
  1.7952300915848727E+00 a       204     0    11     1     4
  6.2616650137787500E-01 a       205     0    11     1     5
 -3.0183948280931006E+00 a       206     0    11     1     6
  1.6389233592455483E+00 a       207     0    11     1     7
  2.0105970621592846E+00 a       208     0    11     1     8
  3.6342041163672736E+00 a       209     0    11     1     9
 -2.9227059912314113E+00 a       210     0    11     1    10
 -1.3833552253314032E+00 a       211     0    11     1    11
 -2.1465149556219822E+00 a       212     0    11     1    12
 -5.5229808715168272E-01 a       213     0    11     1    13
  4.1766121036781451E-01 a       214     0    11     1    14
 -1.4360899647461256E+00 a       215     0    11     1    15
 -1.4455825903874500E-01 a       216     0    11     1    16
 -2.1447915680928109E-01 a       217     0    11     1    17
  3.9037433118440157E-01 a       218     0    11     1    18
 -1.1987482116902288E+00 a       219     0    11     1    19
  2.1677227576161956E-01 a       220     0    11     1    20
 -5.8623737410652932E-01 a       221     0    12     1     1
  4.8758401183389272E-01 a       222     0    12     1     2
 -1.6905076346053922E+00 a       223     0    12     1     3
 -9.8303679375865469E-02 a       224     0    12     1     4
 -1.0274191337274692E+00 a       225     0    12     1     5
 -1.2037941538718504E+00 a       226     0    12     1     6
 -1.1663642754932650E-01 a       227     0    12     1     7
  6.5131679894022554E-01 a       228     0    12     1     8
  9.4805811430959996E-01 a       229     0    12     1     9
 -8.4419359340209582E-02 a       230     0    12     1    10
 -6.9410399477208495E-01 a       231     0    12     1    11
 -2.9064489246067782E-01 a       232     0    12     1    12
 -3.3111663856457180E-01 a       233     0    12     1    13
  6.2353709462481532E-01 a       234     0    12     1    14
  1.4269385236989948E-01 a       235     0    12     1    15
  3.2880732009434471E-01 a       236     0    12     1    16
 -4.8524360551026080E-01 a       237     0    12     1    17
 -1.6260609334881421E-01 a       238     0    12     1    18
 -8.4211346725224767E-01 a       239     0    12     1    19
 -9.2289539111102648E-01 a       240     0    12     1    20
 -1.6659047768461548E+00 a       241     0    13     1     1
 -1.4231843109817550E+00 a       242     0    13     1     2
  2.0847238771703323E+00 a       243     0    13     1     3
 -8.7657807920040798E-01 a       244     0    13     1     4
 -8.3415166564768584E-01 a       245     0    13     1     5
  1.3457819822521191E+00 a       246     0    13     1     6
 -9.2867763632471356E-01 a       247     0    13     1     7
 -1.4085329329824023E+00 a       248     0    13     1     8
 -1.6464131779386524E+00 a       249     0    13     1     9
  2.7287081516853608E+00 a       250     0    13     1    10
  1.4508051139540046E+00 a       251     0    13     1    11
  1.0332346088256434E+00 a       252     0    13     1    12
  4.7810900638866344E-01 a       253     0    13     1    13
 -2.0884977789006859E-02 a       254     0    13     1    14
  1.1121360639385165E+00 a       255     0    13     1    15
  8.7793037118199996E-02 a       256     0    13     1    16
 -1.5660266678835322E+00 a       257     0    13     1    17
 -9.9615850807303852E-01 a       258     0    13     1    18
  2.2352844411676648E-01 a       259     0    13     1    19
 -3.4301256366130678E-01 a       260     0    13     1    20
 -9.6143982042378229E-02 a       261     0    14     1     1
 -1.3718100659163197E-02 a       262     0    14     1     2
  4.5388694881637470E-01 a       263     0    14     1     3
 -6.4310931438297259E-01 a       264     0    14     1     4
  4.5689399208229724E-02 a       265     0    14     1     5
 -1.9600305277418534E-01 a       266     0    14     1     6
  2.0897292943885937E-01 a       267     0    14     1     7
 -1.3077645137586116E-01 a       268     0    14     1     8
  6.5233963187391142E-01 a       269     0    14     1     9
  2.3789910635370190E-01 a       270     0    14     1    10
 -1.8154959436197068E-01 a       271     0    14     1    11
 -1.9507900558427135E-01 a       272     0    14     1    12
 -5.5191261154153126E-02 a       273     0    14     1    13
  1.7774749941174428E-01 a       274     0    14     1    14
 -1.1841199422781974E+00 a       275     0    14     1    15
 -1.0030327175902777E-01 a       276     0    14     1    16
  1.0311490940113364E+00 a       277     0    14     1    17
 -4.9985570343819348E-02 a       278     0    14     1    18
  1.0616588788542718E-01 a       279     0    14     1    19
 -1.0147490282270924E-01 a       280     0    14     1    20
  7.0501011244705064E-02 a       281     0    15     1     1
  6.2684867129028710E-01 a       282     0    15     1     2
 -1.4851986224973546E+00 a       283     0    15     1     3
 -1.4548042779211245E-01 a       284     0    15     1     4
  4.7543654884145470E-01 a       285     0    15     1     5
 -1.7928389035067713E-01 a       286     0    15     1     6
  2.3700678233384995E-02 a       287     0    15     1     7
  1.2328368091498121E+00 a       288     0    15     1     8
  5.1998414821457384E-01 a       289     0    15     1     9
 -1.4932934348849061E+00 a       290     0    15     1    10
  8.9229856877629160E-02 a       291     0    15     1    11
  4.1181368051811479E-01 a       292     0    15     1    12
 -1.8680174198903224E-01 a       293     0    15     1    13
  1.0845892778958257E-02 a       294     0    15     1    14
  1.4337972918219632E-01 a       295     0    15     1    15
  2.3126033916802616E-01 a       296     0    15     1    16
  1.1300886106305770E+00 a       297     0    15     1    17
  3.4346294246556219E-01 a       298     0    15     1    18
 -1.5453797011396750E-02 a       299     0    15     1    19
  2.1694279769950170E-01 a       300     0    15     1    20
  1.3036788741701116E-01 a       301     0    16     1     1
 -5.6328030578610092E-02 a       302     0    16     1     2
 -2.2845726516600207E-01 a       303     0    16     1     3
 -8.2554280783325162E-01 a       304     0    16     1     4
  6.7683005548650171E-02 a       305     0    16     1     5
  6.8773716117252537E-01 a       306     0    16     1     6
 -8.1372166651983224E-01 a       307     0    16     1     7
 -1.1476796687698732E-01 a       308     0    16     1     8
 -1.9993148988978221E-01 a       309     0    16     1     9
  3.7478237795170360E-01 a       310     0    16     1    10
  5.0500959806048085E-01 a       311     0    16     1    11
  3.5207341246262791E-01 a       312     0    16     1    12
 -1.1058587833856681E-01 a       313     0    16     1    13
 -2.9958217944107995E-01 a       314     0    16     1    14
  3.8388664648209797E-01 a       315     0    16     1    15
 -5.1120399454119808E-02 a       316     0    16     1    16
 -9.9965489203724966E-01 a       317     0    16     1    17
  3.9026664103267203E-02 a       318     0    16     1    18
  1.6687346259623070E-01 a       319     0    16     1    19
  1.3167562958596812E-02 a       320     0    16     1    20
  2.0362227648687330E-02 a       321     0    17     1     1
 -9.5363549274262951E-02 a       322     0    17     1     2
  2.2346476537090726E-01 a       323     0    17     1     3
 -2.4974941130916309E-01 a       324     0    17     1     4
  9.8021477832370876E-02 a       325     0    17     1     5
 -4.0057184300358961E-01 a       326     0    17     1     6
  1.5344836662536496E-01 a       327     0    17     1     7
  1.0170556205261946E-01 a       328     0    17     1     8
  5.7644482733180358E-01 a       329     0    17     1     9
  4.2480511516873520E-03 a       330     0    17     1    10
 -1.5633010381141374E-01 a       331     0    17     1    11
 -1.4439725183442090E-01 a       332     0    17     1    12
 -2.9616058239007505E-02 a       333     0    17     1    13
 -8.9363912115612773E-02 a       334     0    17     1    14
  4.2783477192024376E-02 a       335     0    17     1    15
  4.0381867178664377E-01 a       336     0    17     1    16
 -3.1279427919350022E-01 a       337     0    17     1    17
 -9.1517980434666524E-02 a       338     0    17     1    18
  2.3528083794468805E-02 a       339     0    17     1    19
  8.0199963988193228E-03 a       340     0    17     1    20
  1.6406276687091076E-01 a       341     0    18     1     1
  8.9155741754911547E-02 a       342     0    18     1     2
  4.3066408090719654E-01 a       343     0    18     1     3
 -4.4835064792385519E-02 a       344     0    18     1     4
 -2.3759381645516026E-02 a       345     0    18     1     5
 -3.3952073633112506E-01 a       346     0    18     1     6
  7.7909416402502951E-01 a       347     0    18     1     7
  2.2091549887881110E-01 a       348     0    18     1     8
 -1.6191147008026036E-01 a       349     0    18     1     9
  8.6398811622040144E-03 a       350     0    18     1    10
  1.2923240821374429E-01 a       351     0    18     1    11
 -2.7064681964768417E-01 a       352     0    18     1    12
  2.5560368130648797E-01 a       353     0    18     1    13
 -1.7979242017897046E-01 a       354     0    18     1    14
  7.5155632473308046E-02 a       355     0    18     1    15
  3.1754194882833370E-01 a       356     0    18     1    16
 -2.6106760739572782E-01 a       357     0    18     1    17
 -7.6952152085738301E-02 a       358     0    18     1    18
 -2.6367587689887301E-01 a       359     0    18     1    19
  1.8634999685289017E-01 a       360     0    18     1    20
  1.2093695344077947E-01 a       361     0    19     1     1
 -1.5013294667708749E-01 a       362     0    19     1     2
  1.2004337707528547E-01 a       363     0    19     1     3
  2.9063700874543608E-01 a       364     0    19     1     4
 -3.0202609170071476E-02 a       365     0    19     1     5
  3.2226057248219864E-01 a       366     0    19     1     6
  2.1628594776539459E-01 a       367     0    19     1     7
 -2.9808027344569382E-01 a       368     0    19     1     8
 -3.8982355459777673E-01 a       369     0    19     1     9
 -2.8807049356167815E-03 a       370     0    19     1    10
 -2.5222445536013844E-02 a       371     0    19     1    11
  1.6116154959440052E-01 a       372     0    19     1    12
  4.7878640735353570E-02 a       373     0    19     1    13
 -8.9113937763337439E-02 a       374     0    19     1    14
  1.7921975755638031E-01 a       375     0    19     1    15
 -2.0117251375369231E-02 a       376     0    19     1    16
 -3.1367915691684178E-01 a       377     0    19     1    17
  2.2135350916305241E-01 a       378     0    19     1    18
 -1.3484095716384592E-01 a       379     0    19     1    19
  4.9918036051332493E-02 a       380     0    19     1    20
  4.3204194985299127E-01 a       381     0    20     1     1
 -5.0659854775488733E-01 a       382     0    20     1     2
 -3.6198774561734814E-01 a       383     0    20     1     3
 -1.1852610585761960E+00 a       384     0    20     1     4
  1.4901702444209081E-01 a       385     0    20     1     5
  1.0044161674673024E+00 a       386     0    20     1     6
 -2.6009040909024028E+00 a       387     0    20     1     7
 -1.0434150133964101E-01 a       388     0    20     1     8
  8.7183437236037276E-01 a       389     0    20     1     9
 -1.4814351456059111E-01 a       390     0    20     1    10
 -5.0916811512083382E-01 a       391     0    20     1    11
  1.4138067716743899E-01 a       392     0    20     1    12
 -7.9577671973678032E-01 a       393     0    20     1    13
 -2.0281595189804863E-01 a       394     0    20     1    14
  3.1116227303044508E-01 a       395     0    20     1    15
 -1.0063420553798541E+00 a       396     0    20     1    16
  6.8342972356159215E-01 a       397     0    20     1    17
 -4.3770440934149335E-01 a       398     0    20     1    18
  1.7000098253087184E+00 a       399     0    20     1    19
 -4.8568543961284699E-01 a       400     0    20     1    20
  1.7279755481917718E+00 a       401     0    21     1     1
 -3.4767548932303660E-01 a       402     0    21     1     2
  9.7862116799823637E-02 a       403     0    21     1     3
 -1.5034533598623943E+00 a       404     0    21     1     4
 -1.9762141988621980E-02 a       405     0    21     1     5
  6.9938955115795953E-02 a       406     0    21     1     6
  2.0468217782321165E+00 a       407     0    21     1     7
  2.0245677814928906E-01 a       408     0    21     1     8
  8.4854942089061469E-01 a       409     0    21     1     9
 -9.1201196251007990E-02 a       410     0    21     1    10
 -1.0779911916346188E+00 a       411     0    21     1    11
 -1.8568565447276992E+00 a       412     0    21     1    12
 -8.1690554516855751E-02 a       413     0    21     1    13
 -8.9291726969359486E-01 a       414     0    21     1    14
  7.4987995066229274E-01 a       415     0    21     1    15
 -1.7743964375844168E-01 a       416     0    21     1    16
 -9.8625630129677411E-01 a       417     0    21     1    17
 -1.3688339139170355E-01 a       418     0    21     1    18
  6.4084002510326277E-01 a       419     0    21     1    19
  1.1847820877546604E-01 a       420     0    21     1    20
 -7.6782942970397450E-01 a       421     0    22     1     1
  7.1023664155212463E-01 a       422     0    22     1     2
  2.8884052622065404E-01 a       423     0    22     1     3
  9.6730948018748031E-01 a       424     0    22     1     4
 -2.1831300261258915E-01 a       425     0    22     1     5
  6.3253576719179416E-01 a       426     0    22     1     6
 -1.5632091513922362E+00 a       427     0    22     1     7
  6.6558129999660198E-01 a       428     0    22     1     8
 -7.3622009730581950E-01 a       429     0    22     1     9
  1.7656619984135721E-01 a       430     0    22     1    10
  7.0180972393315411E-01 a       431     0    22     1    11
  7.9736120471928629E-01 a       432     0    22     1    12
 -7.3369285919630003E-02 a       433     0    22     1    13
 -1.3472382814971862E-01 a       434     0    22     1    14
  4.7533977022766204E-02 a       435     0    22     1    15
 -3.0992069730495175E-01 a       436     0    22     1    16
  1.1326864740988973E+00 a       437     0    22     1    17
 -3.3599125184213552E-01 a       438     0    22     1    18
 -8.2494661776634823E-02 a       439     0    22     1    19
  3.4803339729968835E-01 a       440     0    22     1    20
 -2.7484181088106596E+00 a       441     0    23     1     1
  2.8977937746187438E-01 a       442     0    23     1     2
 -3.1739038649594904E+00 a       443     0    23     1     3
  4.4467068011458384E+00 a       444     0    23     1     4
 -2.2094347834019334E+00 a       445     0    23     1     5
 -8.8532779146402396E-01 a       446     0    23     1     6
 -5.6570297150857984E-01 a       447     0    23     1     7
 -3.4627614317123195E-01 a       448     0    23     1     8
 -5.0772639889321414E-01 a       449     0    23     1     9
  4.9549195972734017E-01 a       450     0    23     1    10
  1.2869018961512340E+00 a       451     0    23     1    11
  2.3233536860815764E+00 a       452     0    23     1    12
 -3.0204287930884581E-02 a       453     0    23     1    13
  1.0272316524224538E+00 a       454     0    23     1    14
 -1.7274833500441320E+00 a       455     0    23     1    15
 -6.1001109576375090E-01 a       456     0    23     1    16
 -1.4371600828848290E+00 a       457     0    23     1    17
  1.2585887645649139E+00 a       458     0    23     1    18
 -3.2318289449827495E+00 a       459     0    23     1    19
 -6.4643194972852480E-01 a       460     0    23     1    20
  4.9316685442856167E-01 a       461     0    24     1     1
  7.4027420032367203E-02 a       462     0    24     1     2
  2.5654041182112985E-01 a       463     0    24     1     3
 -1.3374038188595112E+00 a       464     0    24     1     4
 -9.0254030547017916E-02 a       465     0    24     1     5
 -6.5667870690363406E-01 a       466     0    24     1     6
  9.6374358595008769E-01 a       467     0    24     1     7
 -1.8683238925972739E-01 a       468     0    24     1     8
  3.1971085457140288E-03 a       469     0    24     1     9
 -1.6966253619285349E-01 a       470     0    24     1    10
  3.5652608731679908E-01 a       471     0    24     1    11
 -6.6190006669407109E-01 a       472     0    24     1    12
  2.1929554569674249E-02 a       473     0    24     1    13
 -8.8359775519616723E-01 a       474     0    24     1    14
  2.1234254681083048E-01 a       475     0    24     1    15
 -2.2296272124074953E-01 a       476     0    24     1    16
 -7.3912456260879023E-01 a       477     0    24     1    17
 -6.0352538214709661E-01 a       478     0    24     1    18
  1.1326934297560107E-02 a       479     0    24     1    19
 -3.5840735562417722E-02 a       480     0    24     1    20
 -9.0733971843293915E-01 a       481     0    25     1     1
 -2.1928822992024707E-01 a       482     0    25     1     2
 -4.1091388712323995E-01 a       483     0    25     1     3
  1.3615156481612929E+00 a       484     0    25     1     4
  3.4602364156604865E-01 a       485     0    25     1     5
  3.7917586365761491E-01 a       486     0    25     1     6
 -1.3176489437023600E+00 a       487     0    25     1     7
 -1.7863742956596856E-01 a       488     0    25     1     8
 -5.5952996794543486E-01 a       489     0    25     1     9
  2.2574500080343615E-02 a       490     0    25     1    10
  8.3141300013136610E-01 a       491     0    25     1    11
  6.0737889320869742E-01 a       492     0    25     1    12
 -5.5309062628936007E-02 a       493     0    25     1    13
  6.2421920827423150E-01 a       494     0    25     1    14
  3.7342934050917909E-01 a       495     0    25     1    15
  4.2333820066216686E-02 a       496     0    25     1    16
  5.9758988569769944E-01 a       497     0    25     1    17
 -2.3428663134920563E-01 a       498     0    25     1    18
  3.3430584776821626E-01 a       499     0    25     1    19
  2.4154366435866320E-01 a       500     0    25     1    20
  1.7830563376516435E+00 a       501     0    26     1     1
 -5.6021489136117220E-01 a       502     0    26     1     2
  2.5966296672382838E+00 a       503     0    26     1     3
 -2.0316224346394733E+00 a       504     0    26     1     4
  2.2157794802864283E+00 a       505     0    26     1     5
  1.3930844248825363E+00 a       506     0    26     1     6
 -8.7356014610136257E-02 a       507     0    26     1     7
 -5.0355445356774964E-01 a       508     0    26     1     8
 -8.5652123336638775E-01 a       509     0    26     1     9
 -1.5782039555652541E-01 a       510     0    26     1    10
 -6.3651205859265603E-01 a       511     0    26     1    11
 -8.9076270801904844E-01 a       512     0    26     1    12
  6.6066053097807909E-01 a       513     0    26     1    13
 -8.4269696668850735E-01 a       514     0    26     1    14
  1.2006748628023074E+00 a       515     0    26     1    15
 -4.2443962240989869E-02 a       516     0    26     1    16
  1.2370286936997095E+00 a       517     0    26     1    17
 -4.6597224661436704E-01 a       518     0    26     1    18
  2.2920813901194346E+00 a       519     0    26     1    19
  1.3310492053261547E+00 a       520     0    26     1    20
 -2.5194013676226779E-01 a       521     0    27     1     1
 -5.6918915376116617E-02 a       522     0    27     1     2
  2.6090342969148816E-01 a       523     0    27     1     3
  8.9671230498102916E-01 a       524     0    27     1     4
 -6.0719199084642128E-01 a       525     0    27     1     5
 -7.4718823387186317E-01 a       526     0    27     1     6
  6.7416853642539742E-01 a       527     0    27     1     7
 -8.9478989332594960E-02 a       528     0    27     1     8
 -1.4772789435031289E-01 a       529     0    27     1     9
 -1.8635039112334201E-01 a       530     0    27     1    10
 -3.6707901187757425E-01 a       531     0    27     1    11
 -2.8441606040141709E-01 a       532     0    27     1    12
  3.2290211196982039E-03 a       533     0    27     1    13
  1.8004686971157538E-01 a       534     0    27     1    14
 -2.1821117340115856E-01 a       535     0    27     1    15
  4.6896071638706328E-02 a       536     0    27     1    16
  8.4300049131915661E-02 a       537     0    27     1    17
 -1.9623117676128449E-01 a       538     0    27     1    18
 -4.8083126206885141E-01 a       539     0    27     1    19
 -3.2123833903985870E-02 a       540     0    27     1    20
 -4.6000185335119598E-01 b       541     1     1
  2.9865739578898665E-01 b       542     1     2
  9.8561412130246229E-01 b       543     1     3
 -4.3079246422777595E-01 b       544     1     4
  2.8574009714133177E-02 b       545     1     5
 -1.8457112280403639E-02 b       546     1     6
 -6.7030294088668207E-01 b       547     1     7
 -1.8155334736142847E-02 b       548     1     8
 -1.2976441586533324E-01 b       549     1     9
 -2.0912094447891794E-01 b       550     1    10
  4.1054594516300930E-01 b       551     1    11
 -2.8033998944845845E-01 b       552     1    12
 -4.8135212606362221E-01 b       553     1    13
 -1.5430097183694775E+00 b       554     1    14
 -3.1310185860254586E-01 b       555     1    15
  7.8775805151657576E-03 b       556     1    16
 -6.2062331356369460E-01 b       557     1    17
 -4.1867804103332928E-01 b       558     1    18
 -3.3270628836202709E-01 b       559     1    19
 -5.3068179761046304E-03 b       560     1    20
 -2.9192532959978271E-02 a       561     1     1     2     1
 -3.1004795129901046E-02 a       562     1     1     2     2
 -6.6079570870285242E-01 a       563     1     1     2     3
  7.0479618837175384E-01 a       564     1     1     2     4
 -4.9278536416316499E-01 a       565     1     1     2     5
 -8.1848378162672386E-01 a       566     1     1     2     6
 -2.4194048594203951E-01 a       567     1     1     2     7
 -4.5839308499210507E-01 a       568     1     1     2     8
 -4.1090097804506021E-01 a       569     1     1     2     9
 -2.0488214687677189E-01 a       570     1     1     2    10
  2.9884062451233062E-01 a       571     1     1     2    11
 -7.2512712500928181E-02 a       572     1     1     2    12
 -6.1130520219726681E-01 a       573     1     1     2    13
  9.7563030782887472E-01 a       574     1     1     2    14
  6.6318353919239159E-01 a       575     1     1     2    15
 -2.8155195966509194E-01 a       576     1     1     2    16
  7.3492942480586043E-01 a       577     1     1     2    17
 -1.1439820806915248E+00 a       578     1     1     2    18
 -4.1189517746360521E-01 a       579     1     1     2    19
  2.3697643224481815E-01 a       580     1     1     2    20
  1.5520307075821720E+00 a       581     1     2     2     1
 -5.5498298323248693E-02 a       582     1     2     2     2
 -4.7065205450994901E-01 a       583     1     2     2     3
  9.6545339673350461E-01 a       584     1     2     2     4
  4.1172814926913534E-02 a       585     1     2     2     5
  9.8796347133705753E-01 a       586     1     2     2     6
  1.7312145488235446E+00 a       587     1     2     2     7
 -6.1121791052221097E-01 a       588     1     2     2     8
  2.3181514539864911E-01 a       589     1     2     2     9
  4.5248663853768456E-01 a       590     1     2     2    10
 -6.0236726469393187E-01 a       591     1     2     2    11
 -2.3218817341932257E-01 a       592     1     2     2    12
  2.2992216845284741E-01 a       593     1     2     2    13
 -1.3080869586332331E+00 a       594     1     2     2    14
 -1.1749419653538047E+00 a       595     1     2     2    15
  2.0293667686579385E-04 a       596     1     2     2    16
  5.5930407158555506E-01 a       597     1     2     2    17
 -4.3990232484777991E-01 a       598     1     2     2    18
  1.2414796184258671E-01 a       599     1     2     2    19
  1.2767470505509676E-01 a       600     1     2     2    20
 -1.9779257887821304E-02 a       601     1     3     2     1
  5.1437143261811857E-01 a       602     1     3     2     2
 -1.8294299402504660E-01 a       603     1     3     2     3
 -8.6041368729573453E-01 a       604     1     3     2     4
 -5.3183480282701645E-01 a       605     1     3     2     5
 -2.7567825194975420E-01 a       606     1     3     2     6
 -1.3277613054097477E+00 a       607     1     3     2     7
  2.3183557138408282E-02 a       608     1     3     2     8
 -3.7988661653759320E-01 a       609     1     3     2     9
  1.3967570946107349E-01 a       610     1     3     2    10
  2.1932789102788233E-01 a       611     1     3     2    11
  1.1805446995664705E-03 a       612     1     3     2    12
  6.7626291383965739E-02 a       613     1     3     2    13
 -4.2655553489549486E-01 a       614     1     3     2    14
 -3.6690205773549711E-01 a       615     1     3     2    15
 -7.3949255487629609E-02 a       616     1     3     2    16
 -2.4746691227643458E-01 a       617     1     3     2    17
  5.4886452538482022E-01 a       618     1     3     2    18
  9.6527934457891318E-02 a       619     1     3     2    19
  3.8923564564530416E-02 a       620     1     3     2    20
 -4.8535583071144972E-01 a       621     1     4     2     1
 -5.1821745462692670E-01 a       622     1     4     2     2
 -8.8005737544794668E-02 a       623     1     4     2     3
  4.4613290333144062E-01 a       624     1     4     2     4
  8.8982350529459658E-02 a       625     1     4     2     5
 -7.0733237902822155E-01 a       626     1     4     2     6
  1.3120767870202783E+00 a       627     1     4     2     7
 -2.0774385579357102E-01 a       628     1     4     2     8
  1.2309654024124239E-01 a       629     1     4     2     9
 -3.1580860686679132E-02 a       630     1     4     2    10
  1.8431188734840544E-02 a       631     1     4     2    11
 -1.9257699299484529E-01 a       632     1     4     2    12
 -9.8058906771175472E-02 a       633     1     4     2    13
  6.9953132778737070E-01 a       634     1     4     2    14
 -9.5536444886336794E-02 a       635     1     4     2    15
  9.3919712516196852E-02 a       636     1     4     2    16
 -2.5567990579991190E-01 a       637     1     4     2    17
 -3.3347281697860115E-01 a       638     1     4     2    18
 -1.5479450153435734E-01 a       639     1     4     2    19
 -9.9626351520977235E-02 a       640     1     4     2    20
 -2.0367251385955809E+00 a       641     1     5     2     1
 -5.7122742223927969E-01 a       642     1     5     2     2
  4.3413651336604950E-02 a       643     1     5     2     3
  5.9563924628945308E-01 a       644     1     5     2     4
 -2.4040259542679257E-01 a       645     1     5     2     5
  4.5012077869173876E-02 a       646     1     5     2     6
 -6.7074604209698491E-02 a       647     1     5     2     7
  8.6722587311954646E-01 a       648     1     5     2     8
  3.7722306566813252E-01 a       649     1     5     2     9
 -2.5880652756588923E-01 a       650     1     5     2    10
 -1.5516305694491569E-01 a       651     1     5     2    11
  5.8657607630681652E-01 a       652     1     5     2    12
  6.0099315147062449E-01 a       653     1     5     2    13
  1.2256489876305061E+00 a       654     1     5     2    14
 -5.6370704156790206E-02 a       655     1     5     2    15
  4.0999737508603157E-01 a       656     1     5     2    16
 -1.8560450306637014E-01 a       657     1     5     2    17
  2.0595568332937436E-03 a       658     1     5     2    18
 -2.9620216609830702E-01 a       659     1     5     2    19
 -3.9908264968733745E-02 a       660     1     5     2    20
  8.0168929834778402E-01 a       661     1     6     2     1
  1.3562273546568804E-01 a       662     1     6     2     2
 -3.8488505942787049E-01 a       663     1     6     2     3
 -8.2670422491911300E-01 a       664     1     6     2     4
 -1.3609907398116811E-01 a       665     1     6     2     5
  6.3773469134352234E-01 a       666     1     6     2     6
  4.5167737148745718E-01 a       667     1     6     2     7
 -4.7802645843537184E-01 a       668     1     6     2     8
  3.1618224440744946E-01 a       669     1     6     2     9
  6.3727346962060824E-02 a       670     1     6     2    10
 -5.3956280987463012E-01 a       671     1     6     2    11
 -7.5887095150060413E-01 a       672     1     6     2    12
  6.4526670612557013E-02 a       673     1     6     2    13
  4.6748221244163590E-01 a       674     1     6     2    14
 -7.6483169382272909E-01 a       675     1     6     2    15
  8.5052586434577297E-03 a       676     1     6     2    16
 -5.9745238975342910E-02 a       677     1     6     2    17
  2.9834802337081367E-02 a       678     1     6     2    18
 -7.8194313200056875E-02 a       679     1     6     2    19
  2.5515071742067369E-01 a       680     1     6     2    20
  1.4142626001156502E-01 a       681     1     7     2     1
 -6.3167262987716533E-01 a       682     1     7     2     2
 -3.6747738402807553E-02 a       683     1     7     2     3
 -6.9548661429598710E-03 a       684     1     7     2     4
 -4.1082651193581898E-01 a       685     1     7     2     5
  4.2859307465267538E-01 a       686     1     7     2     6
  1.1022941827759278E+00 a       687     1     7     2     7
  6.5542754606381060E-01 a       688     1     7     2     8
 -6.6611389103101229E-02 a       689     1     7     2     9
  3.1187173558348263E-01 a       690     1     7     2    10
  1.8687084237615695E-01 a       691     1     7     2    11
 -3.9541533013652291E-01 a       692     1     7     2    12
 -6.0380163773849901E-02 a       693     1     7     2    13
 -4.9007378818930275E-01 a       694     1     7     2    14
 -1.1340905989964505E+00 a       695     1     7     2    15
 -8.0587649888776480E-02 a       696     1     7     2    16
 -7.7928711483337820E-01 a       697     1     7     2    17
 -4.3601385564467049E-01 a       698     1     7     2    18
  2.6629877328093077E-01 a       699     1     7     2    19
  8.9671396064933850E-02 a       700     1     7     2    20
  3.3914756387627918E+00 a       701     1     8     2     1
 -5.9515139385655946E-01 a       702     1     8     2     2
  7.5244065459925569E-01 a       703     1     8     2     3
 -8.8026243037540608E-01 a       704     1     8     2     4
  2.4161468624560462E-01 a       705     1     8     2     5
  2.2749198315147237E-01 a       706     1     8     2     6
 -7.7195603097228271E-01 a       707     1     8     2     7
  6.2108855608915525E-01 a       708     1     8     2     8
 -3.0387632713060736E-01 a       709     1     8     2     9
 -4.9408664527309493E-02 a       710     1     8     2    10
  7.4119081260798270E-01 a       711     1     8     2    11
 -3.2124685959297922E-01 a       712     1     8     2    12
  2.2263339872832347E-01 a       713     1     8     2    13
 -7.2962264816479249E-03 a       714     1     8     2    14
  7.1866613532342771E-01 a       715     1     8     2    15
  4.0465108174587106E-01 a       716     1     8     2    16
 -6.0618922634896144E-01 a       717     1     8     2    17
  2.4994382342554677E-01 a       718     1     8     2    18
  4.7872186396655456E-03 a       719     1     8     2    19
 -1.2144817000635379E-01 a       720     1     8     2    20
 -5.0732110508596129E-01 a       721     1     9     2     1
  6.2943373023001437E-01 a       722     1     9     2     2
 -4.3684808425312099E-01 a       723     1     9     2     3
  4.6573735402070315E-01 a       724     1     9     2     4
  5.5276972786865095E-02 a       725     1     9     2     5
  3.8992910149481508E-01 a       726     1     9     2     6
  7.2666880109895193E-01 a       727     1     9     2     7
 -3.7968850561365403E-01 a       728     1     9     2     8
 -2.7554538496594344E-01 a       729     1     9     2     9
 -3.4638039740635472E-02 a       730     1     9     2    10
 -6.3598003819406757E-01 a       731     1     9     2    11
 -2.8169028460006473E-01 a       732     1     9     2    12
 -2.1733800065972891E-01 a       733     1     9     2    13
 -2.5924118098524795E-01 a       734     1     9     2    14
 -5.0183030722803601E-01 a       735     1     9     2    15
 -3.2772609416775589E-01 a       736     1     9     2    16
  6.2340129445028269E-01 a       737     1     9     2    17
 -3.8358398612963324E-01 a       738     1     9     2    18
  2.8351182898519327E-02 a       739     1     9     2    19
  2.5915162042487538E-01 a       740     1     9     2    20
  1.8864695267942141E-01 a       741     1    10     2     1
  3.5117729650380488E-03 a       742     1    10     2     2
  5.3664650206925413E-01 a       743     1    10     2     3
  1.1789576068381824E+00 a       744     1    10     2     4
 -2.0002694723121647E-01 a       745     1    10     2     5
  4.3640509473925965E-01 a       746     1    10     2     6
  5.8718993144018994E-01 a       747     1    10     2     7
  9.0282127969679571E-01 a       748     1    10     2     8
 -5.1908902901448373E-01 a       749     1    10     2     9
  1.4701644924741095E-01 a       750     1    10     2    10
  5.2675632747465218E-01 a       751     1    10     2    11
  2.8162223449314688E-01 a       752     1    10     2    12
 -9.1531246733736216E-01 a       753     1    10     2    13
 -2.0716822023663178E-01 a       754     1    10     2    14
 -3.8862328721205819E-01 a       755     1    10     2    15
  2.8645613121761677E-02 a       756     1    10     2    16
  1.1887307382420599E-01 a       757     1    10     2    17
 -1.0493471674171808E+00 a       758     1    10     2    18
 -2.0569623725127276E-01 a       759     1    10     2    19
  3.4092087528905340E-01 a       760     1    10     2    20
 -2.2257500680181521E+00 a       761     1    11     2     1
 -6.5765513189601443E-01 a       762     1    11     2     2
 -2.9668115567723108E-01 a       763     1    11     2     3
  3.3736359750295664E-01 a       764     1    11     2     4
 -1.4137174216484871E-01 a       765     1    11     2     5
 -9.0521741989730009E-01 a       766     1    11     2     6
 -4.3991928198696684E-02 a       767     1    11     2     7
 -1.0024845214729725E+00 a       768     1    11     2     8
 -3.1184228588389573E-01 a       769     1    11     2     9
  5.7998281618567890E-02 a       770     1    11     2    10
 -1.3472824839921058E-01 a       771     1    11     2    11
  1.9602786331620964E-01 a       772     1    11     2    12
 -3.9506812934191265E-01 a       773     1    11     2    13
  1.6387907818523371E+00 a       774     1    11     2    14
  2.2700937586450234E-01 a       775     1    11     2    15
 -1.4359482367324763E-01 a       776     1    11     2    16
  3.4756311359998410E-01 a       777     1    11     2    17
 -2.5529648439737296E-01 a       778     1    11     2    18
 -6.1775899466962644E-02 a       779     1    11     2    19
 -1.3415562888515392E-01 a       780     1    11     2    20
  4.8293564701508040E-01 a       781     1    12     2     1
 -2.2810354523437865E-01 a       782     1    12     2     2
  2.7916105201538161E-01 a       783     1    12     2     3
  1.5232609311032457E+00 a       784     1    12     2     4
 -3.1174303518502289E-01 a       785     1    12     2     5
  3.5426332846162256E-01 a       786     1    12     2     6
  1.9971932150106300E+00 a       787     1    12     2     7
  4.3329373997068316E-01 a       788     1    12     2     8
 -4.6735698548645532E-01 a       789     1    12     2     9
  4.3603303134284710E-01 a       790     1    12     2    10
  7.3278549691938322E-01 a       791     1    12     2    11
 -2.7408317227896301E-01 a       792     1    12     2    12
 -5.5213652760868381E-01 a       793     1    12     2    13
 -1.1503087761717665E+00 a       794     1    12     2    14
 -6.0951643728547711E-01 a       795     1    12     2    15
 -3.2980597347487678E-01 a       796     1    12     2    16
  1.0877212629790982E-01 a       797     1    12     2    17
 -1.0205994115394650E+00 a       798     1    12     2    18
  9.3598631347417569E-02 a       799     1    12     2    19
  4.1265442915683781E-01 a       800     1    12     2    20
  1.9149046687037767E+00 a       801     1    13     2     1
  1.1310063993717103E+00 a       802     1    13     2     2
 -5.5730567699045941E-01 a       803     1    13     2     3
  7.0115787395863882E-01 a       804     1    13     2     4
  4.4115919452728969E-01 a       805     1    13     2     5
  6.2354259733094075E-01 a       806     1    13     2     6
 -2.5365942930183630E-02 a       807     1    13     2     7
 -1.5107631059976481E+00 a       808     1    13     2     8
  5.6620092748530505E-02 a       809     1    13     2     9
 -3.8158104417218852E-01 a       810     1    13     2    10
 -6.2125202366421817E-01 a       811     1    13     2    11
 -1.8160174391560355E-01 a       812     1    13     2    12
  4.8091779698222153E-01 a       813     1    13     2    13
 -6.5526464276127505E-01 a       814     1    13     2    14
  1.5492303891576991E+00 a       815     1    13     2    15
  2.1909548601059120E-02 a       816     1    13     2    16
  9.6427416485171014E-01 a       817     1    13     2    17
  5.2972175069461991E-01 a       818     1    13     2    18
  9.0070612706859871E-02 a       819     1    13     2    19
  1.2091244979528817E+00 a       820     1    13     2    20
  7.2147026824133698E-01 a       821     1    14     2     1
  2.0995457164045339E+00 a       822     1    14     2     2
 -2.3495924925781839E+00 a       823     1    14     2     3
  4.0822844565929262E-01 a       824     1    14     2     4
  1.5189991703526862E+00 a       825     1    14     2     5
  1.3673222533729350E+00 a       826     1    14     2     6
  1.7241798934082123E-01 a       827     1    14     2     7
 -2.2217291281281740E-01 a       828     1    14     2     8
 -4.2938904038184833E-01 a       829     1    14     2     9
  3.6969200795419693E-01 a       830     1    14     2    10
  1.5390746493742864E+00 a       831     1    14     2    11
  1.3052147961708024E-01 a       832     1    14     2    12
  7.5937651034234485E-02 a       833     1    14     2    13
  1.5622284679840950E+00 a       834     1    14     2    14
  1.0818670688514513E+00 a       835     1    14     2    15
 -3.4671315079402953E-01 a       836     1    14     2    16
  1.9602797560327381E+00 a       837     1    14     2    17
  9.7610667140351304E-01 a       838     1    14     2    18
 -7.9955628170043846E-01 a       839     1    14     2    19
 -5.4535465823656957E-03 a       840     1    14     2    20
 -1.6258711683509608E-01 a       841     1    15     2     1
  1.3486656683909120E+00 a       842     1    15     2     2
 -2.7553407791157974E-01 a       843     1    15     2     3
  1.2648633029390374E-01 a       844     1    15     2     4
 -3.4209364597890667E-02 a       845     1    15     2     5
 -1.0261555943474833E-01 a       846     1    15     2     6
  2.8869838679258519E-02 a       847     1    15     2     7
 -6.9128064742888773E-01 a       848     1    15     2     8
 -3.4466701148838996E-01 a       849     1    15     2     9
  5.6284142327186398E-02 a       850     1    15     2    10
 -1.1270936495011455E-01 a       851     1    15     2    11
  4.0763165981048212E-02 a       852     1    15     2    12
 -5.1673754591119359E-01 a       853     1    15     2    13
 -6.3092795472755991E-01 a       854     1    15     2    14
  3.0747517380721995E-01 a       855     1    15     2    15
 -1.3978446162245950E-01 a       856     1    15     2    16
  2.7243466954332596E-01 a       857     1    15     2    17
 -4.8354232801185182E-01 a       858     1    15     2    18
 -3.2166055461527975E-02 a       859     1    15     2    19
  3.0390393091189633E-01 a       860     1    15     2    20
 -7.6566917215279839E-01 a       861     1    16     2     1
  1.0206942282847926E-01 a       862     1    16     2     2
 -1.9648099957280205E-01 a       863     1    16     2     3
 -1.1285303942736555E-02 a       864     1    16     2     4
 -2.0957930213656256E-01 a       865     1    16     2     5
 -5.7573511852869519E-01 a       866     1    16     2     6
 -3.7815882189106720E-01 a       867     1    16     2     7
  1.0072385712243491E-01 a       868     1    16     2     8
  6.2157900361501817E-01 a       869     1    16     2     9
  4.7526810706603646E-02 a       870     1    16     2    10
  1.6166566454658823E-01 a       871     1    16     2    11
  1.1616084004790805E-01 a       872     1    16     2    12
 -2.2614870807801654E-01 a       873     1    16     2    13
  1.4931918219878698E-01 a       874     1    16     2    14
 -1.2580829585880396E-01 a       875     1    16     2    15
 -1.1894020599446103E-01 a       876     1    16     2    16
 -1.0378626653562334E-01 a       877     1    16     2    17
  8.5913978615924369E-02 a       878     1    16     2    18
 -1.5754161992027363E-01 a       879     1    16     2    19
 -1.3897280245311672E-02 a       880     1    16     2    20
 -3.5648513563941098E-01 a       881     1    17     2     1
  1.0691872932312324E-01 a       882     1    17     2     2
 -1.4212844633651567E-01 a       883     1    17     2     3
  6.3263994320997829E-01 a       884     1    17     2     4
 -4.5324656649445350E-01 a       885     1    17     2     5
 -6.1042199047311307E-01 a       886     1    17     2     6
 -3.6063704699240182E-02 a       887     1    17     2     7
 -6.2331936429479673E-01 a       888     1    17     2     8
  5.0151088879462191E-01 a       889     1    17     2     9
 -2.0343011376734804E-01 a       890     1    17     2    10
 -3.8277503244367289E-01 a       891     1    17     2    11
 -1.6586255517187006E-02 a       892     1    17     2    12
 -4.3379233601958228E-01 a       893     1    17     2    13
  7.9581357644082285E-01 a       894     1    17     2    14
  1.7675424038398850E+00 a       895     1    17     2    15
 -2.4457038345832494E-01 a       896     1    17     2    16
  3.1489306852423260E-01 a       897     1    17     2    17
 -7.4179110625146105E-01 a       898     1    17     2    18
 -2.6123437729443116E-01 a       899     1    17     2    19
  1.3600725790989135E-01 a       900     1    17     2    20
 -1.5150837481797139E+00 a       901     1    18     2     1
  7.0056296096917281E-01 a       902     1    18     2     2
  2.8082504588535756E-01 a       903     1    18     2     3
 -6.8358884920678420E-01 a       904     1    18     2     4
  3.6133327754176958E-01 a       905     1    18     2     5
 -9.6058058343639827E-02 a       906     1    18     2     6
 -1.0688146150129865E+00 a       907     1    18     2     7
 -1.7208875708137024E+00 a       908     1    18     2     8
 -1.0477011907781588E+00 a       909     1    18     2     9
 -4.5776825019288488E-02 a       910     1    18     2    10
 -4.7929848248814544E-01 a       911     1    18     2    11
  5.0160997795854823E-01 a       912     1    18     2    12
 -3.2464596999487498E-02 a       913     1    18     2    13
  2.6150198870718094E-01 a       914     1    18     2    14
 -7.5649032423332929E-02 a       915     1    18     2    15
 -8.1579446299707106E-02 a       916     1    18     2    16
 -3.4380315260969185E-01 a       917     1    18     2    17
  7.3273884498408090E-02 a       918     1    18     2    18
  4.9221629015721369E-01 a       919     1    18     2    19
 -2.7065218116691553E-01 a       920     1    18     2    20
 -8.5034309009469689E-01 a       921     1    19     2     1
 -1.6438187401787445E+00 a       922     1    19     2     2
  4.2397631303541056E-01 a       923     1    19     2     3
  1.6081046135457058E-01 a       924     1    19     2     4
  1.8331405372475029E-01 a       925     1    19     2     5
  4.9205180136141041E-01 a       926     1    19     2     6
  1.8282591148140175E+00 a       927     1    19     2     7
 -9.1893897603426711E-01 a       928     1    19     2     8
  6.2271007983495871E-02 a       929     1    19     2     9
  2.8419905216855790E-01 a       930     1    19     2    10
  2.1584579722058006E-01 a       931     1    19     2    11
  3.1157389813389164E-01 a       932     1    19     2    12
 -9.2382001086899770E-02 a       933     1    19     2    13
 -8.4240952328259833E-01 a       934     1    19     2    14
 -7.2585436569202755E-01 a       935     1    19     2    15
 -2.1375090782615344E-01 a       936     1    19     2    16
 -3.0547118023059217E-01 a       937     1    19     2    17
  2.7109696626758609E-02 a       938     1    19     2    18
  4.4546213488897762E-01 a       939     1    19     2    19
 -1.0528661662134894E-01 a       940     1    19     2    20
  2.0817583227254469E-01 a       941     1    20     2     1
  1.5719561842437080E-01 a       942     1    20     2     2
 -5.6936782127323518E-02 a       943     1    20     2     3
 -2.1116669641397484E-01 a       944     1    20     2     4
  5.4804941154446440E-01 a       945     1    20     2     5
  5.1737248577584882E-01 a       946     1    20     2     6
  2.2858865887676061E-01 a       947     1    20     2     7
  3.1580917206403664E-01 a       948     1    20     2     8
 -6.8142444327094909E-01 a       949     1    20     2     9
  4.0960018661155548E-02 a       950     1    20     2    10
 -1.7064382132764055E-01 a       951     1    20     2    11
 -7.9493168235796025E-02 a       952     1    20     2    12
 -2.4723919067252353E-01 a       953     1    20     2    13
 -1.6917620121885812E+00 a       954     1    20     2    14
 -1.0925227878264816E+00 a       955     1    20     2    15
 -2.5500037593793790E-01 a       956     1    20     2    16
 -1.6527215967806878E-02 a       957     1    20     2    17
 -1.8280502604731516E-01 a       958     1    20     2    18
  3.0874039322678487E-01 a       959     1    20     2    19
 -2.1732271478898706E-02 a       960     1    20     2    20
  5.6441204429031466E-01 b       961     2     1
 -3.0787362838999677E-01 b       962     2     2
 -3.3678099307643055E+00 b       963     2     3
 -1.3349028367482196E+00 b       964     2     4
  3.3399260149383800E+00 b       965     2     5
  3.6210634903063328E+00 b       966     2     6
  2.4270877934603758E+00 b       967     2     7
  1.0159954566029370E+00 b       968     2     8
  1.0801938205568717E+00 b       969     2     9
  1.0890820295331398E+00 b       970     2    10
 -6.5126403951707390E-01 b       971     2    11
  1.1328380947304157E+00 b       972     2    12
 -2.5160868144527835E+00 b       973     2    13
  1.6276447142856292E+00 b       974     2    14
  4.8729977943445473E+00 b       975     2    15
  7.2136181731735427E-01 b       976     2    16
  1.0910330179514915E+00 b       977     2    17
 -6.9280751380479977E-01 b       978     2    18
 -1.7984174307090988E+00 b       979     2    19
 -6.1215354450322534E-01 b       980     2    20
  7.3067880714524436E-03 a       981     2     1     3     1
 -1.5510736436508838E+00 a       982     2     2     3     1
 -8.7978540890371515E-01 a       983     2     3     3     1
 -2.7944307206703072E+00 a       984     2     4     3     1
  1.2268842876465196E+00 a       985     2     5     3     1
  1.8509102839976626E+00 a       986     2     6     3     1
 -1.5487567754683651E-01 a       987     2     7     3     1
  1.1661220376592292E+00 a       988     2     8     3     1
  9.4412794641565823E-01 a       989     2     9     3     1
  6.1944863753606261E-01 a       990     2    10     3     1
 -1.3743479965332523E+00 a       991     2    11     3     1
  5.5348779659371139E-01 a       992     2    12     3     1
 -1.3138533037012265E+00 a       993     2    13     3     1
 -2.1890550446163476E-01 a       994     2    14     3     1
  7.4173295949278251E-01 a       995     2    15     3     1
  1.1421991101058624E+00 a       996     2    16     3     1
 -4.2397156779418216E-01 a       997     2    17     3     1
 -7.2078883516633419E-01 a       998     2    18     3     1
 -1.2996543985072551E+00 a       999     2    19     3     1
 -1.5342311048413366E+00 a      1000     2    20     3     1
  4.4783582885153006E+00 b      1001     3     1
