################################################################################
# Neural network connection values (weights and biases).
################################################################################
# Col  Name       Description
################################################################################
# 1    connection Neural network connection value.
# 2    t          Connection type (a = weight, b = bias).
# 3    index      Index enumerating weights.
# 4    l_s        Starting point layer (end point layer for biases).
# 5    n_s        Starting point neuron in starting layer (end point neuron for biases).
# 6    l_e        End point layer.
# 7    n_e        End point neuron in end layer.
################################################################################
#                      1 2         3     4     5     6     7
#             connection t     index   l_s   n_s   l_e   n_e
############################################################
  4.3164024665829137E+00 a         1     0     1     1     1
 -2.7794523252199665E+00 a         2     0     1     1     2
 -2.0785359071747038E+00 a         3     0     1     1     3
 -3.2766794134557842E-01 a         4     0     1     1     4
  1.1558926637909577E+01 a         5     0     1     1     5
  4.9584707129196097E+00 a         6     0     1     1     6
 -1.3401268813871507E+00 a         7     0     1     1     7
 -2.9650785235322643E+00 a         8     0     1     1     8
 -2.0878758806402922E+00 a         9     0     1     1     9
 -2.5001638070414276E+00 a        10     0     1     1    10
 -5.4268852438494830E-01 a        11     0     1     1    11
  7.2317610352841388E-01 a        12     0     1     1    12
  7.0902709265957609E-01 a        13     0     1     1    13
 -3.8925242612562094E+00 a        14     0     1     1    14
  8.0254138246550646E+00 a        15     0     1     1    15
 -9.4226027078327945E+00 a        16     0     1     1    16
  7.3281646057749033E+00 a        17     0     2     1     1
 -7.9226057599577064E+00 a        18     0     2     1     2
 -1.1585978240938177E+01 a        19     0     2     1     3
  2.2675791894183956E+01 a        20     0     2     1     4
 -1.8036187452943837E+00 a        21     0     2     1     5
 -1.4832978745670836E+01 a        22     0     2     1     6
  1.3785178826624671E+01 a        23     0     2     1     7
 -5.2436781393650767E-01 a        24     0     2     1     8
 -9.5453471700883270E+00 a        25     0     2     1     9
 -5.2459210909877960E+00 a        26     0     2     1    10
 -1.9527500246824559E+01 a        27     0     2     1    11
 -1.4866694341548801E+01 a        28     0     2     1    12
 -1.3238195462828802E+01 a        29     0     2     1    13
 -1.4249101346213537E+01 a        30     0     2     1    14
  3.9195481977500020E+00 a        31     0     2     1    15
 -1.4062163151569091E+01 a        32     0     2     1    16
  7.3173436952432862E+00 a        33     0     3     1     1
 -2.6814823288264034E+00 a        34     0     3     1     2
 -2.1050254054760387E+01 a        35     0     3     1     3
 -1.5229329624842455E+01 a        36     0     3     1     4
 -2.7131315613476403E+01 a        37     0     3     1     5
  8.2869104644697824E+00 a        38     0     3     1     6
  1.4796974787172955E+01 a        39     0     3     1     7
 -1.8109883475055335E+00 a        40     0     3     1     8
  1.3976330031112195E+01 a        41     0     3     1     9
 -1.1755346772427938E+01 a        42     0     3     1    10
 -1.2385224155780373E+01 a        43     0     3     1    11
 -1.0618105952848488E+01 a        44     0     3     1    12
  2.5334409358481189E+01 a        45     0     3     1    13
 -2.4724885863943449E+01 a        46     0     3     1    14
 -4.6722634705906874E+00 a        47     0     3     1    15
  2.6450632486425189E+01 a        48     0     3     1    16
 -1.3035325214622421E+01 a        49     0     4     1     1
  1.0726555931304480E+01 a        50     0     4     1     2
  1.4767394204696132E+01 a        51     0     4     1     3
 -2.3453689658020796E+01 a        52     0     4     1     4
  4.6821654472463683E+00 a        53     0     4     1     5
  2.4294952844323085E+01 a        54     0     4     1     6
 -1.3748673987870431E+01 a        55     0     4     1     7
 -3.5926023058513312E+00 a        56     0     4     1     8
  6.8904516993989766E+00 a        57     0     4     1     9
  1.2239071650549818E+01 a        58     0     4     1    10
  2.2061841920796049E+01 a        59     0     4     1    11
  1.2959630580606559E+01 a        60     0     4     1    12
  1.8230285871509235E+01 a        61     0     4     1    13
  1.7149269199789657E+01 a        62     0     4     1    14
 -7.4515880861890693E+00 a        63     0     4     1    15
  1.1968554083603244E+01 a        64     0     4     1    16
 -4.9782601506797892E+00 a        65     0     5     1     1
 -5.9405443484940150E+00 a        66     0     5     1     2
  1.3778592091747660E+01 a        67     0     5     1     3
  1.2796468574789637E+01 a        68     0     5     1     4
  2.7653128789076042E+01 a        69     0     5     1     5
 -9.4961538534656975E-01 a        70     0     5     1     6
 -1.0126685480086492E+01 a        71     0     5     1     7
  8.1249343274861641E+00 a        72     0     5     1     8
 -1.4577290154363045E+01 a        73     0     5     1     9
  9.3378829381456399E+00 a        74     0     5     1    10
  8.6245159377775433E+00 a        75     0     5     1    11
  5.9886754774268711E+00 a        76     0     5     1    12
 -3.5031049363637251E+01 a        77     0     5     1    13
  1.9499521557663851E+01 a        78     0     5     1    14
  1.3591079121110173E+01 a        79     0     5     1    15
 -2.5290640359432114E+01 a        80     0     5     1    16
 -1.5935136998200961E+00 a        81     0     6     1     1
  4.7793111843021938E+00 a        82     0     6     1     2
  5.3393245015200348E+00 a        83     0     6     1     3
 -2.6816844622405887E+00 a        84     0     6     1     4
 -1.3445378311265438E+01 a        85     0     6     1     5
 -5.2349013544732657E+00 a        86     0     6     1     6
 -4.1898127866782642E-01 a        87     0     6     1     7
  4.4375222026672763E+00 a        88     0     6     1     8
  1.6189484093169952E+00 a        89     0     6     1     9
  4.2040137148110199E+00 a        90     0     6     1    10
  7.6072212041560672E-02 a        91     0     6     1    11
 -7.0747021874870553E-01 a        92     0     6     1    12
  9.8066845082952203E-01 a        93     0     6     1    13
  4.7128033096314468E+00 a        94     0     6     1    14
 -4.9331925093170144E+00 a        95     0     6     1    15
  1.2417049086254609E+01 a        96     0     6     1    16
  3.6317347976428800E+00 a        97     0     7     1     1
 -1.0093341141430474E+00 a        98     0     7     1     2
 -3.0592634890165007E+00 a        99     0     7     1     3
  5.7409262820669467E+00 a       100     0     7     1     4
 -9.0167992776337447E-01 a       101     0     7     1     5
 -6.7265852934742965E+00 a       102     0     7     1     6
  3.6938395982955692E+00 a       103     0     7     1     7
  1.2017725791665859E+00 a       104     0     7     1     8
 -9.8745310312871404E-01 a       105     0     7     1     9
 -2.3612526749492080E+00 a       106     0     7     1    10
 -5.1919389863024277E+00 a       107     0     7     1    11
 -2.6057493087839525E+00 a       108     0     7     1    12
 -5.2135938636491943E+00 a       109     0     7     1    13
 -2.5034234992981168E+00 a       110     0     7     1    14
  1.9020140003483184E+00 a       111     0     7     1    15
 -1.3601713748888429E+00 a       112     0     7     1    16
  1.0826776551453130E+00 a       113     0     8     1     1
  4.1982634189272376E+00 a       114     0     8     1     2
  1.4968314046681159E+00 a       115     0     8     1     3
 -1.8491876271974605E+00 a       116     0     8     1     4
 -6.2380517853133588E+00 a       117     0     8     1     5
 -8.8791942716005179E-01 a       118     0     8     1     6
  2.3672212170975171E-01 a       119     0     8     1     7
 -4.5363045020625581E+00 a       120     0     8     1     8
  2.7231962272138981E+00 a       121     0     8     1     9
  6.9057153468193577E-01 a       122     0     8     1    10
  1.6660015543049302E+00 a       123     0     8     1    11
  6.4464860770243293E-01 a       124     0     8     1    12
  1.1151892318792424E+01 a       125     0     8     1    13
 -1.7259117470529228E+00 a       126     0     8     1    14
 -6.2730657923987181E+00 a       127     0     8     1    15
  3.9634464552524209E+00 a       128     0     8     1    16
 -4.8150846613509612E-01 a       129     0     9     1     1
 -1.8182166171332479E+00 a       130     0     9     1     2
 -2.4154812598854236E+00 a       131     0     9     1     3
  1.3088331581354316E+00 a       132     0     9     1     4
  5.3937247265793555E+00 a       133     0     9     1     5
  2.0912359521689807E+00 a       134     0     9     1     6
 -1.9486659111950119E-02 a       135     0     9     1     7
 -1.7891749768604996E+00 a       136     0     9     1     8
 -7.4072979290940277E-01 a       137     0     9     1     9
 -1.2691398428711249E+00 a       138     0     9     1    10
 -2.6791664100971319E-01 a       139     0     9     1    11
  5.3598645544010570E-01 a       140     0     9     1    12
 -9.4278803336526751E-01 a       141     0     9     1    13
 -1.6790676345233366E+00 a       142     0     9     1    14
  5.1556133988596686E-01 a       143     0     9     1    15
 -4.8077281476420692E+00 a       144     0     9     1    16
 -9.6512466987947434E+00 a       145     0    10     1     1
 -4.3762003375725325E+00 a       146     0    10     1     2
  2.0245564393575495E+00 a       147     0    10     1     3
 -6.8146495867283607E-01 a       148     0    10     1     4
  8.8561244361376943E+00 a       149     0    10     1     5
 -1.2113616306559717E+01 a       150     0    10     1     6
 -1.1423041662198401E+01 a       151     0    10     1     7
 -8.4740244349394356E+00 a       152     0    10     1     8
  1.6032892680224894E+01 a       153     0    10     1     9
 -2.0969024371795548E+01 a       154     0    10     1    10
  1.1090789986723653E+00 a       155     0    10     1    11
 -4.4908718057374095E+00 a       156     0    10     1    12
  1.4449985482077507E+01 a       157     0    10     1    13
  8.3878384961814909E+00 a       158     0    10     1    14
 -6.7545735577629475E+00 a       159     0    10     1    15
 -2.1551463316942248E+00 a       160     0    10     1    16
  1.6921775003236270E+01 a       161     0    11     1     1
 -1.2321116659539264E+01 a       162     0    11     1     2
 -1.1086510334231769E+00 a       163     0    11     1     3
 -9.5123106926009857E+00 a       164     0    11     1     4
  1.4948218607636561E+00 a       165     0    11     1     5
 -2.4810240004306934E+01 a       166     0    11     1     6
 -1.3246615976961124E+01 a       167     0    11     1     7
  1.2492443241226521E+01 a       168     0    11     1     8
 -1.7097316513248037E-01 a       169     0    11     1     9
 -1.5105746504169380E+01 a       170     0    11     1    10
  2.3716792792824166E+00 a       171     0    11     1    11
  7.4144489459744136E+00 a       172     0    11     1    12
 -9.7851473953866197E+00 a       173     0    11     1    13
  4.7565220320966288E+00 a       174     0    11     1    14
  3.3430170329169471E+01 a       175     0    11     1    15
  2.3992850429367136E+00 a       176     0    11     1    16
 -7.1676673278498431E+00 a       177     0    12     1     1
  1.3223272765914261E+01 a       178     0    12     1     2
 -8.2426248121777199E+00 a       179     0    12     1     3
  6.2289483325984456E+00 a       180     0    12     1     4
  2.1250167199088912E+00 a       181     0    12     1     5
 -2.1642497669648172E+01 a       182     0    12     1     6
 -1.9783255832150136E+01 a       183     0    12     1     7
  4.7066292113849784E+00 a       184     0    12     1     8
 -1.7822636316616549E+01 a       185     0    12     1     9
 -2.7719896756058997E+00 a       186     0    12     1    10
 -2.8975942694423019E+01 a       187     0    12     1    11
 -1.8459351342392871E+01 a       188     0    12     1    12
  1.8433181581051635E+01 a       189     0    12     1    13
  1.5071500702843910E+01 a       190     0    12     1    14
 -5.3881843173294000E+00 a       191     0    12     1    15
 -2.4766001999719478E+01 a       192     0    12     1    16
 -2.0202643376398186E+01 a       193     0    13     1     1
  9.5106851664623449E+00 a       194     0    13     1     2
 -2.6866855329955214E+01 a       195     0    13     1     3
 -4.9399604578107486E+00 a       196     0    13     1     4
 -2.8425075107964282E+00 a       197     0    13     1     5
 -1.4912455111500275E+01 a       198     0    13     1     6
  3.3581623050899346E+01 a       199     0    13     1     7
 -9.6216081137537550E+00 a       200     0    13     1     8
  3.7232144817421284E+00 a       201     0    13     1     9
  8.2347019289935020E+00 a       202     0    13     1    10
 -7.9822602721994196E+00 a       203     0    13     1    11
 -2.0203378231615993E+01 a       204     0    13     1    12
  7.8838937445047552E+00 a       205     0    13     1    13
 -2.6705860060470631E+01 a       206     0    13     1    14
  1.9652497425888310E+01 a       207     0    13     1    15
 -3.0734759125605389E+00 a       208     0    13     1    16
  3.4929308736842025E+01 a       209     0    14     1     1
 -7.2792654662048255E+00 a       210     0    14     1     2
  1.5318308308785094E+01 a       211     0    14     1     3
  3.6951445879497584E+01 a       212     0    14     1     4
  7.4140037388687363E-01 a       213     0    14     1     5
  1.2448902669878088E+00 a       214     0    14     1     6
 -4.6827337487389087E+01 a       215     0    14     1     7
 -2.4380099787246525E+00 a       216     0    14     1     8
 -6.2330966292467975E+00 a       217     0    14     1     9
  3.1400425473026260E+01 a       218     0    14     1    10
 -5.0751393568854745E+01 a       219     0    14     1    11
  1.0613934791761748E+01 a       220     0    14     1    12
 -1.7291914450558417E+00 a       221     0    14     1    13
 -6.1517128739602454E+00 a       222     0    14     1    14
 -2.0047977367822575E+01 a       223     0    14     1    15
 -7.8732595575724735E+00 a       224     0    14     1    16
  1.8132372537784791E+00 a       225     0    15     1     1
 -1.2558491686858090E+01 a       226     0    15     1     2
 -1.2532606884280245E+01 a       227     0    15     1     3
  4.6048312294502452E+01 a       228     0    15     1     4
 -1.2845685274654155E+01 a       229     0    15     1     5
  1.9790795796290475E+01 a       230     0    15     1     6
  1.3697512157201205E+01 a       231     0    15     1     7
 -3.1027873156057481E+01 a       232     0    15     1     8
 -3.3842969276637419E+01 a       233     0    15     1     9
 -1.0481736725684806E+01 a       234     0    15     1    10
  2.5305516372357921E+01 a       235     0    15     1    11
  2.6508521905277380E+00 a       236     0    15     1    12
  1.3504457559126971E+01 a       237     0    15     1    13
  7.5317087385238035E-01 a       238     0    15     1    14
 -4.4179680424202576E+00 a       239     0    15     1    15
 -2.1355883077885142E+01 a       240     0    15     1    16
 -7.1681116117625736E+00 a       241     0    16     1     1
 -1.7187512487721983E+00 a       242     0    16     1     2
 -1.3356334328731794E+00 a       243     0    16     1     3
  5.9908582658380576E+00 a       244     0    16     1     4
  7.5054325199145104E+00 a       245     0    16     1     5
  2.1237696202686393E-01 a       246     0    16     1     6
  3.7011575166714290E+00 a       247     0    16     1     7
 -6.0855135828565983E+00 a       248     0    16     1     8
 -7.8055803095762641E+00 a       249     0    16     1     9
  9.3510177396420797E+00 a       250     0    16     1    10
 -2.1139093131957605E+00 a       251     0    16     1    11
 -9.6980370496681818E+00 a       252     0    16     1    12
 -2.5578134573152038E+00 a       253     0    16     1    13
 -1.1073734903079560E+00 a       254     0    16     1    14
 -5.7785788438136476E-01 a       255     0    16     1    15
 -9.2730543025050469E+00 a       256     0    16     1    16
  7.2564950707272828E+00 a       257     0    17     1     1
 -1.3114735685651221E-01 a       258     0    17     1     2
 -1.1380940851811325E+00 a       259     0    17     1     3
  6.2433399035123935E+00 a       260     0    17     1     4
 -5.1879038566708957E-01 a       261     0    17     1     5
  7.3587761219605075E-01 a       262     0    17     1     6
  3.5612079822889225E-01 a       263     0    17     1     7
 -5.8439089092370020E+00 a       264     0    17     1     8
 -4.2500158491024855E+00 a       265     0    17     1     9
 -3.1787704679058542E+00 a       266     0    17     1    10
  5.4320047680148695E+00 a       267     0    17     1    11
  2.6813438345898905E-01 a       268     0    17     1    12
  5.8186202518042522E+00 a       269     0    17     1    13
  4.1572627635845363E+00 a       270     0    17     1    14
  2.4326639989451024E+00 a       271     0    17     1    15
 -4.4689333968135934E+00 a       272     0    17     1    16
 -6.7461879175925423E+00 a       273     0    18     1     1
  4.0372371522664139E+00 a       274     0    18     1     2
  5.0191713391993709E+00 a       275     0    18     1     3
  2.3907215981719205E+00 a       276     0    18     1     4
  3.3544674670839854E+00 a       277     0    18     1     5
 -6.3614236918799072E-01 a       278     0    18     1     6
  5.6601634722556469E+00 a       279     0    18     1     7
 -3.7028219750539990E+00 a       280     0    18     1     8
 -3.2768583732494898E+00 a       281     0    18     1     9
  7.8232995855598499E+00 a       282     0    18     1    10
  4.1214934279150812E+00 a       283     0    18     1    11
 -5.2212649577496810E+00 a       284     0    18     1    12
  3.7299595501519787E+00 a       285     0    18     1    13
  3.9720749332783423E+00 a       286     0    18     1    14
 -7.9028621104046001E-02 a       287     0    18     1    15
 -1.1210981072874799E+00 a       288     0    18     1    16
  3.6796150470213624E+00 a       289     0    19     1     1
 -7.3501447857383573E-01 a       290     0    19     1     2
 -6.9901409326070079E+00 a       291     0    19     1     3
 -7.1048439235950740E+00 a       292     0    19     1     4
 -5.8521118120026161E-01 a       293     0    19     1     5
  8.6880757357778702E+00 a       294     0    19     1     6
  3.4014551319961761E+00 a       295     0    19     1     7
  7.2098373232645874E-01 a       296     0    19     1     8
  6.6016131606659334E-01 a       297     0    19     1     9
  2.7737068525508874E+00 a       298     0    19     1    10
 -6.7497397694291976E+00 a       299     0    19     1    11
  2.0228555627088545E+00 a       300     0    19     1    12
  2.1571906115025614E+00 a       301     0    19     1    13
 -3.1855026284549384E+00 a       302     0    19     1    14
 -5.8350275042864141E-01 a       303     0    19     1    15
  5.5418403727730876E+00 a       304     0    19     1    16
  2.7540567182644797E+00 a       305     0    20     1     1
  5.5317905932711575E-01 a       306     0    20     1     2
 -1.8348661214445691E+01 a       307     0    20     1     3
  1.1119525293954116E+01 a       308     0    20     1     4
 -3.8345434358622391E+01 a       309     0    20     1     5
  5.3760250619952350E+00 a       310     0    20     1     6
  4.1489528512102360E+01 a       311     0    20     1     7
  2.1807109926883236E+01 a       312     0    20     1     8
 -4.8132217215265541E+01 a       313     0    20     1     9
  2.6762201228583287E+01 a       314     0    20     1    10
  2.1190767295186106E+01 a       315     0    20     1    11
  1.7572520945625016E+01 a       316     0    20     1    12
 -4.1321003980072284E+01 a       317     0    20     1    13
 -1.4467801648930202E+01 a       318     0    20     1    14
 -7.8747823824772301E-01 a       319     0    20     1    15
  5.1848002682105525E+00 a       320     0    20     1    16
 -2.0521732540138661E+01 a       321     0    21     1     1
  2.3025666240658957E+01 a       322     0    21     1     2
 -6.7198952428098364E+00 a       323     0    21     1     3
 -1.2623157636004933E+01 a       324     0    21     1     4
 -1.0765095204994784E+01 a       325     0    21     1     5
  3.4043800501918845E+01 a       326     0    21     1     6
  1.8677867715325313E+01 a       327     0    21     1     7
 -8.6443815182590775E+00 a       328     0    21     1     8
  1.9852229381245529E+01 a       329     0    21     1     9
 -8.4069460478509050E+00 a       330     0    21     1    10
  1.8385245445354965E+01 a       331     0    21     1    11
  9.2071435136745183E+00 a       332     0    21     1    12
  2.0999750709602907E+01 a       333     0    21     1    13
 -4.0595850848944011E+00 a       334     0    21     1    14
 -6.6067107159908943E+01 a       335     0    21     1    15
 -2.6539936074569641E+00 a       336     0    21     1    16
  8.8821354284834353E+00 a       337     0    22     1     1
 -1.1609789815415667E+01 a       338     0    22     1     2
  6.1461111763603945E+01 a       339     0    22     1     3
  1.1785967592531604E+01 a       340     0    22     1     4
  1.4305430010941668E+01 a       341     0    22     1     5
  1.5343619661608026E+01 a       342     0    22     1     6
  1.6227189463762791E+01 a       343     0    22     1     7
 -1.2626371675354003E+01 a       344     0    22     1     8
  3.4089301648840959E+01 a       345     0    22     1     9
  2.0333156987725332E+01 a       346     0    22     1    10
  9.0495294075673769E+01 a       347     0    22     1    11
  6.2233444501150785E+01 a       348     0    22     1    12
 -5.9324429630540912E+01 a       349     0    22     1    13
 -3.1130195971171761E+00 a       350     0    22     1    14
  5.7884254664894295E+00 a       351     0    22     1    15
  6.7718587663264636E+00 a       352     0    22     1    16
 -7.9708997661299890E+01 a       353     0    23     1     1
  2.9371154800016171E+01 a       354     0    23     1     2
 -4.8576661837064727E+01 a       355     0    23     1     3
 -6.7478563557614208E+01 a       356     0    23     1     4
 -1.9248937745214903E+01 a       357     0    23     1     5
 -2.2920534753780061E+01 a       358     0    23     1     6
  6.9944062592106576E+01 a       359     0    23     1     7
  1.5360939139153178E+01 a       360     0    23     1     8
 -1.5369728758780518E+01 a       361     0    23     1     9
 -6.6503207518012033E+01 a       362     0    23     1    10
  3.4900440612584312E+01 a       363     0    23     1    11
 -6.2884144836989378E+01 a       364     0    23     1    12
  4.4447838197441321E+01 a       365     0    23     1    13
  2.2095596597655945E+01 a       366     0    23     1    14
  3.1102877958937320E+01 a       367     0    23     1    15
  1.0423839138035458E+01 a       368     0    23     1    16
  8.2902895593640142E+00 a       369     0    24     1     1
 -5.7413729274685235E+00 a       370     0    24     1     2
  4.2673887071535056E+01 a       371     0    24     1     3
 -1.5970525979906977E+01 a       372     0    24     1     4
  2.2333845957115603E+01 a       373     0    24     1     5
  1.3284706966896481E+01 a       374     0    24     1     6
 -5.8349179859598095E+01 a       375     0    24     1     7
  1.8099773063193382E+01 a       376     0    24     1     8
  3.1812041550354586E+01 a       377     0    24     1     9
 -8.4139984974377615E+00 a       378     0    24     1    10
 -1.7747894568358610E+01 a       379     0    24     1    11
  1.2051100791026903E+01 a       380     0    24     1    12
 -2.4722492867479189E+00 a       381     0    24     1    13
  2.9751167913870248E+01 a       382     0    24     1    14
 -2.6495343136598017E+01 a       383     0    24     1    15
  1.3789954400127289E+01 a       384     0    24     1    16
  1.5185687250347133E+01 a       385     0    25     1     1
 -9.2871615562000880E+00 a       386     0    25     1     2
  7.6736157123866526E+00 a       387     0    25     1     3
  4.0482377405195438E+00 a       388     0    25     1     4
 -6.5099306997018269E+00 a       389     0    25     1     5
 -1.4809401942711018E+01 a       390     0    25     1     6
 -1.5934917416736726E+01 a       391     0    25     1     7
  1.1489642554780911E+01 a       392     0    25     1     8
 -1.8825648194640507E+00 a       393     0    25     1     9
  1.1131317624821453E+00 a       394     0    25     1    10
 -1.4676362471436368E+01 a       395     0    25     1    11
  2.4985404411899319E+00 a       396     0    25     1    12
 -1.1652585620310436E+01 a       397     0    25     1    13
 -2.3183967840313147E-01 a       398     0    25     1    14
  2.7532748131510207E+01 a       399     0    25     1    15
  1.1736298793266174E+01 a       400     0    25     1    16
  3.7507420591615883E+00 a       401     0    26     1     1
  1.8777235250415329E+00 a       402     0    26     1     2
  2.5152594688897629E+00 a       403     0    26     1     3
 -9.2418447085855560E-02 a       404     0    26     1     4
  4.2673424132758999E+00 a       405     0    26     1     5
  1.1297472607214560E+00 a       406     0    26     1     6
 -8.2395955896781248E-01 a       407     0    26     1     7
 -5.9288931571876331E+00 a       408     0    26     1     8
  1.5148916205715179E+00 a       409     0    26     1     9
  6.9615113424514444E-02 a       410     0    26     1    10
  1.1353234840223614E+00 a       411     0    26     1    11
 -1.7257868953229751E+00 a       412     0    26     1    12
  9.1172372944153981E+00 a       413     0    26     1    13
  6.0727063674073030E+00 a       414     0    26     1    14
  2.0459731873376521E+00 a       415     0    26     1    15
 -9.8976315608062237E-01 a       416     0    26     1    16
  2.6761344348490368E-01 a       417     0    27     1     1
  1.7883947671183615E+00 a       418     0    27     1     2
  3.9698086812552860E+00 a       419     0    27     1     3
 -3.4574003360136502E-01 a       420     0    27     1     4
  2.4355418318671367E+00 a       421     0    27     1     5
 -1.1892823205990137E+00 a       422     0    27     1     6
  2.2869841567104183E+00 a       423     0    27     1     7
 -1.9824507180937594E+00 a       424     0    27     1     8
 -2.2201121557287173E+00 a       425     0    27     1     9
  3.7898913632026647E+00 a       426     0    27     1    10
  5.0849333518818316E+00 a       427     0    27     1    11
 -2.8361028114460645E+00 a       428     0    27     1    12
  3.0047148563026553E+00 a       429     0    27     1    13
  4.8153553982461359E+00 a       430     0    27     1    14
  7.6535441329692944E+00 a       431     0    27     1    15
  2.8625526661576730E+00 a       432     0    27     1    16
  2.4236508748292522E+01 a       433     0    28     1     1
 -6.8415232675893272E+00 a       434     0    28     1     2
  2.3741715268946881E-01 a       435     0    28     1     3
  1.1747521408899315E+01 a       436     0    28     1     4
  4.2763837444453534E+00 a       437     0    28     1     5
  1.5703460801136826E+01 a       438     0    28     1     6
 -1.5267102560129374E+01 a       439     0    28     1     7
 -7.1541145866192335E-01 a       440     0    28     1     8
  2.6500550204285096E+00 a       441     0    28     1     9
  1.5553085418814495E+01 a       442     0    28     1    10
 -1.6355705100945240E+01 a       443     0    28     1    11
  1.0438399018452399E+01 a       444     0    28     1    12
 -4.8869850048293815E+00 a       445     0    28     1    13
 -5.9516130300440135E+00 a       446     0    28     1    14
 -3.6522648929134047E+00 a       447     0    28     1    15
  2.1709226602864509E+00 a       448     0    28     1    16
 -6.2993391013936488E+00 a       449     0    29     1     1
 -1.8223078286087202E+00 a       450     0    29     1     2
 -3.0589206740001234E+00 a       451     0    29     1     3
 -4.9563245243203902E-01 a       452     0    29     1     4
 -3.3134316962504418E-01 a       453     0    29     1     5
 -4.3875771742776699E+00 a       454     0    29     1     6
  1.9134044267566774E+00 a       455     0    29     1     7
 -2.4382300365318068E+00 a       456     0    29     1     8
  1.8605025108836051E+00 a       457     0    29     1     9
 -2.7861022024495399E+00 a       458     0    29     1    10
 -2.7916143923340555E+00 a       459     0    29     1    11
 -3.6864572164391500E+00 a       460     0    29     1    12
  4.2917826958814165E-01 a       461     0    29     1    13
 -7.6734578083560532E+00 a       462     0    29     1    14
  2.1171051432386343E+00 a       463     0    29     1    15
  1.3764996377346075E-01 a       464     0    29     1    16
  6.1140206008249285E+00 a       465     0    30     1     1
 -8.9790288924027717E+00 a       466     0    30     1     2
 -7.1918313457938892E+00 a       467     0    30     1     3
  1.4901730978876149E+00 a       468     0    30     1     4
  1.2117978901256168E+00 a       469     0    30     1     5
 -1.7145946456003485E+00 a       470     0    30     1     6
 -4.5166772316541968E+00 a       471     0    30     1     7
  1.1801662050685868E+00 a       472     0    30     1     8
 -1.3859511222233656E+00 a       473     0    30     1     9
 -6.8932304900234849E+00 a       474     0    30     1    10
 -7.8985684670974425E+00 a       475     0    30     1    11
  2.2404952021031401E+00 a       476     0    30     1    12
 -5.9813190465638089E+00 a       477     0    30     1    13
 -6.4459617991407816E+00 a       478     0    30     1    14
  1.4043514175606013E+00 a       479     0    30     1    15
 -6.8482143408156446E+00 a       480     0    30     1    16
  1.8439574606036921E+01 a       481     0    31     1     1
 -9.2033046685340913E+00 a       482     0    31     1     2
  1.7201794223520700E+01 a       483     0    31     1     3
  3.0264697719315460E+01 a       484     0    31     1     4
  6.5097440023923925E+00 a       485     0    31     1     5
 -9.2321641431846704E+00 a       486     0    31     1     6
 -2.7036614729730033E+01 a       487     0    31     1     7
 -8.5958567100823640E+00 a       488     0    31     1     8
 -7.7943988508607731E-01 a       489     0    31     1     9
  1.5221023531613966E+01 a       490     0    31     1    10
 -1.4286911968587590E+01 a       491     0    31     1    11
  9.3089932561950732E+00 a       492     0    31     1    12
 -8.2917831882123423E+00 a       493     0    31     1    13
 -5.0079098348144671E+00 a       494     0    31     1    14
 -1.3361535247541923E+01 a       495     0    31     1    15
 -1.6073244468317728E+01 a       496     0    31     1    16
  9.4911787873389084E+00 a       497     0    32     1     1
  1.0399706066839054E+01 a       498     0    32     1     2
  1.3649750263663041E+01 a       499     0    32     1     3
 -4.2570783528726700E+01 a       500     0    32     1     4
  1.4740363673978367E+01 a       501     0    32     1     5
 -1.8519180206615658E+01 a       502     0    32     1     6
 -2.1098658006368730E+01 a       503     0    32     1     7
  2.2988667068437096E+01 a       504     0    32     1     8
  3.1086858629001238E+01 a       505     0    32     1     9
  3.9792945659915029E+00 a       506     0    32     1    10
 -1.8475093672789288E+01 a       507     0    32     1    11
 -3.6145856217575769E+00 a       508     0    32     1    12
 -8.7549294608932673E+00 a       509     0    32     1    13
  2.7977213284250073E+00 a       510     0    32     1    14
  1.0302942386927894E+01 a       511     0    32     1    15
  1.5655661653031292E+01 a       512     0    32     1    16
 -4.9531807021266498E+00 a       513     0    33     1     1
 -4.1849961369113347E+00 a       514     0    33     1     2
 -2.4254450110538553E+01 a       515     0    33     1     3
 -1.7448245039272678E+01 a       516     0    33     1     4
 -6.4671946980012009E+00 a       517     0    33     1     5
  4.3653785216886334E+00 a       518     0    33     1     6
  1.2780558975027896E+01 a       519     0    33     1     7
  2.1834122802548812E+00 a       520     0    33     1     8
  9.3848060837649194E-01 a       521     0    33     1     9
 -1.5690285550231762E+01 a       522     0    33     1    10
 -4.7769615023096366E+00 a       523     0    33     1    11
 -1.3693589980041519E+01 a       524     0    33     1    12
  7.8889022950579903E+00 a       525     0    33     1    13
 -8.0911544279139420E+00 a       526     0    33     1    14
  6.0565040759182507E+00 a       527     0    33     1    15
  1.3388564794764505E+01 a       528     0    33     1    16
 -8.0692591602169483E-01 a       529     0    34     1     1
 -1.0147405674616172E+00 a       530     0    34     1     2
 -6.3251443846796720E-02 a       531     0    34     1     3
 -8.0318248513835466E-01 a       532     0    34     1     4
  4.3872074276598505E-01 a       533     0    34     1     5
  1.6014026983799958E+00 a       534     0    34     1     6
 -3.8120429486069130E-01 a       535     0    34     1     7
  5.2685968573762043E-01 a       536     0    34     1     8
 -5.1239432607745339E-01 a       537     0    34     1     9
  6.5586166461593343E-01 a       538     0    34     1    10
 -1.4742080053476803E+00 a       539     0    34     1    11
  1.2454530764688301E+00 a       540     0    34     1    12
 -1.4393209899025323E+00 a       541     0    34     1    13
 -7.6166186412311332E-01 a       542     0    34     1    14
 -8.4975055890069973E-01 a       543     0    34     1    15
  9.2800063451191839E-01 a       544     0    34     1    16
  1.1066438505190923E+00 a       545     0    35     1     1
 -1.1860420736911688E+00 a       546     0    35     1     2
  1.5783182141973004E-01 a       547     0    35     1     3
 -1.1990608524436743E+00 a       548     0    35     1     4
 -3.6563730746710388E-01 a       549     0    35     1     5
 -5.3819244145532075E-01 a       550     0    35     1     6
 -8.9294419595022245E-01 a       551     0    35     1     7
  1.5879835878404096E+00 a       552     0    35     1     8
  8.8267863590136253E-01 a       553     0    35     1     9
 -1.5571274469933518E+00 a       554     0    35     1    10
 -3.3814297105834146E-01 a       555     0    35     1    11
  1.3217858534625013E+00 a       556     0    35     1    12
 -1.5859347897117113E-01 a       557     0    35     1    13
 -1.4921132554117920E+00 a       558     0    35     1    14
  7.0694935665432601E-01 a       559     0    35     1    15
 -2.3709335145092063E+00 a       560     0    35     1    16
  6.2211484393584326E-01 a       561     0    36     1     1
  2.3495463751659429E+00 a       562     0    36     1     2
 -8.9182025590385072E-01 a       563     0    36     1     3
 -7.3566516689787398E-01 a       564     0    36     1     4
  1.6987762160110180E+00 a       565     0    36     1     5
 -7.6720975579398132E-01 a       566     0    36     1     6
  2.2308682118831169E+00 a       567     0    36     1     7
 -2.0125644731460550E+00 a       568     0    36     1     8
 -4.4199933178846140E-01 a       569     0    36     1     9
 -2.6087978773290792E+00 a       570     0    36     1    10
  1.7217986534827887E+00 a       571     0    36     1    11
  1.5956972647454921E+00 a       572     0    36     1    12
  5.0159020640408407E+00 a       573     0    36     1    13
  2.4063037693450422E+00 a       574     0    36     1    14
 -7.7092656393086223E-01 a       575     0    36     1    15
 -2.4589201314036200E+00 a       576     0    36     1    16
 -5.7976084532049681E+00 a       577     0    37     1     1
 -2.2644346231881354E+00 a       578     0    37     1     2
 -7.9655738134201695E+00 a       579     0    37     1     3
  8.4267711235582627E+00 a       580     0    37     1     4
 -1.5176877919599663E+00 a       581     0    37     1     5
  1.1943636013075562E+01 a       582     0    37     1     6
  8.6834628819509234E+00 a       583     0    37     1     7
 -5.4628098692051301E+00 a       584     0    37     1     8
  1.0469613128587671E+00 a       585     0    37     1     9
  4.0782536292352631E+00 a       586     0    37     1    10
 -3.3681182658343931E+00 a       587     0    37     1    11
 -1.8179837925943755E+01 a       588     0    37     1    12
 -1.0093561190312139E+01 a       589     0    37     1    13
 -6.5257584499790582E+00 a       590     0    37     1    14
 -2.9683068601469023E+00 a       591     0    37     1    15
  3.1026888400416697E-01 a       592     0    37     1    16
  1.1319549950145451E+00 a       593     0    38     1     1
  2.4091345527366503E-01 a       594     0    38     1     2
 -3.1076296414647682E+00 a       595     0    38     1     3
  4.0219733707719634E+00 a       596     0    38     1     4
  2.7669235658269238E+00 a       597     0    38     1     5
  1.5199882681200563E+00 a       598     0    38     1     6
  2.9621045402149404E+00 a       599     0    38     1     7
 -3.9556487165679437E+00 a       600     0    38     1     8
 -2.7975561484998086E+00 a       601     0    38     1     9
 -7.2331370563636710E-01 a       602     0    38     1    10
  1.5134568925560141E+00 a       603     0    38     1    11
  9.2907006592884020E-02 a       604     0    38     1    12
  1.1304941466379061E+00 a       605     0    38     1    13
  1.3165681355105068E+00 a       606     0    38     1    14
  6.3277913914257466E-01 a       607     0    38     1    15
  1.4574764923981320E+00 a       608     0    38     1    16
  1.5722635333118908E+00 a       609     0    39     1     1
 -7.1472542694823360E-01 a       610     0    39     1     2
 -1.0133092404962412E+01 a       611     0    39     1     3
  3.8662352599573846E+00 a       612     0    39     1     4
 -2.2622803734496739E+00 a       613     0    39     1     5
  1.2017498003521597E+01 a       614     0    39     1     6
  2.5311700097024672E+00 a       615     0    39     1     7
 -2.7458199386860134E+00 a       616     0    39     1     8
 -3.3721075725553989E-01 a       617     0    39     1     9
  5.4559613750257052E-01 a       618     0    39     1    10
 -3.0502886784421319E+00 a       619     0    39     1    11
 -6.0025541363768564E+00 a       620     0    39     1    12
 -7.5803679877866808E+00 a       621     0    39     1    13
  1.0331215888609008E-01 a       622     0    39     1    14
 -1.0240796028782528E+00 a       623     0    39     1    15
  2.5847991012291153E+01 a       624     0    39     1    16
 -4.0861858507241833E-01 a       625     0    40     1     1
 -4.7142551062811942E+00 a       626     0    40     1     2
 -6.2488937594678893E+00 a       627     0    40     1     3
  4.6394660596346631E+00 a       628     0    40     1     4
  8.1992878397088802E+00 a       629     0    40     1     5
  6.5271205545174418E+00 a       630     0    40     1     6
  6.6007137571966048E+00 a       631     0    40     1     7
  2.7285311366703674E-01 a       632     0    40     1     8
 -2.1835875492458263E+00 a       633     0    40     1     9
 -4.9559028351622612E+00 a       634     0    40     1    10
 -6.0869688694975510E-01 a       635     0    40     1    11
  1.9744828496184621E+00 a       636     0    40     1    12
 -4.5229273202336167E+00 a       637     0    40     1    13
 -4.5879654244935635E+00 a       638     0    40     1    14
  3.5617859786921535E+00 a       639     0    40     1    15
 -7.6590470506776356E+00 a       640     0    40     1    16
  2.7018811879325213E+00 a       641     0    41     1     1
 -3.0408416593899066E+00 a       642     0    41     1     2
 -1.2599122781785310E-01 a       643     0    41     1     3
 -8.5211764029534265E-01 a       644     0    41     1     4
 -4.8535852505748367E-01 a       645     0    41     1     5
  1.4187690253710026E+00 a       646     0    41     1     6
  3.4931036312624725E-01 a       647     0    41     1     7
 -3.7984897933318979E-03 a       648     0    41     1     8
 -6.2198506138940768E-01 a       649     0    41     1     9
 -1.2272650777279994E+00 a       650     0    41     1    10
 -4.8875085056947520E-01 a       651     0    41     1    11
  9.6841137843109926E-01 a       652     0    41     1    12
  1.2134825314682596E+00 a       653     0    41     1    13
 -1.4920697352189536E+00 a       654     0    41     1    14
  6.6290797795391099E-01 a       655     0    41     1    15
  9.8000434829768779E-02 a       656     0    41     1    16
  4.3501817347049343E+00 a       657     0    42     1     1
 -1.0864754358691352E+01 a       658     0    42     1     2
 -8.7641252644280794E+00 a       659     0    42     1     3
 -4.8350528373677459E+00 a       660     0    42     1     4
  3.0832013899358279E+00 a       661     0    42     1     5
  1.7364765778575983E+01 a       662     0    42     1     6
  1.8889914651783819E+01 a       663     0    42     1     7
 -4.6085065664531397E+00 a       664     0    42     1     8
  1.8043047871506639E+00 a       665     0    42     1     9
 -3.3289352150218403E+00 a       666     0    42     1    10
  3.6521354858815194E+00 a       667     0    42     1    11
  2.3649150836920985E-01 a       668     0    42     1    12
  2.1120876918454385E+01 a       669     0    42     1    13
 -6.7568383119209594E+00 a       670     0    42     1    14
 -8.7315004146160646E+00 a       671     0    42     1    15
 -1.6543693971655536E+01 a       672     0    42     1    16
  1.3678011330797347E+01 a       673     0    43     1     1
  5.6361401392121993E+00 a       674     0    43     1     2
  6.6758197867890461E+00 a       675     0    43     1     3
 -2.1307786707449690E+01 a       676     0    43     1     4
 -2.1232779448468793E+00 a       677     0    43     1     5
 -6.9418011868668994E-01 a       678     0    43     1     6
 -1.9128093464239011E+01 a       679     0    43     1     7
  1.2069836569148753E+01 a       680     0    43     1     8
  3.9094114735848993E+00 a       681     0    43     1     9
  3.8421102490052115E+00 a       682     0    43     1    10
 -4.3686544712953177E+00 a       683     0    43     1    11
  3.0304796285120876E+01 a       684     0    43     1    12
  1.7453494368995667E+01 a       685     0    43     1    13
  1.0551705939341810E+01 a       686     0    43     1    14
 -5.5769827860596575E+00 a       687     0    43     1    15
  2.4801101349955461E+00 a       688     0    43     1    16
 -5.4584050329464322E+00 a       689     0    44     1     1
  2.2273200128430291E+00 a       690     0    44     1     2
  1.0966739627176990E+01 a       691     0    44     1     3
 -9.5111102045459361E+00 a       692     0    44     1     4
 -1.1645217946767714E+01 a       693     0    44     1     5
  7.2137581880832515E+00 a       694     0    44     1     6
 -1.0433567755844813E+01 a       695     0    44     1     7
  8.3180869088738785E+00 a       696     0    44     1     8
  6.0307767331039299E+00 a       697     0    44     1     9
  1.4158990292854471E+01 a       698     0    44     1    10
 -5.4973240750419929E+00 a       699     0    44     1    11
 -4.4334857442098592E+00 a       700     0    44     1    12
  7.9063467157358136E-01 a       701     0    44     1    13
 -4.1380429166054666E+00 a       702     0    44     1    14
 -4.4843822204288282E+00 a       703     0    44     1    15
  3.8821321880183310E+00 a       704     0    44     1    16
  4.4809590812720010E+00 a       705     0    45     1     1
 -2.9572903773822405E+00 a       706     0    45     1     2
  2.2087177861140809E+01 a       707     0    45     1     3
 -2.1419521354366029E+01 a       708     0    45     1     4
 -6.7394623633881796E+00 a       709     0    45     1     5
 -6.2768424110227583E+00 a       710     0    45     1     6
 -2.2738438142212476E+00 a       711     0    45     1     7
  1.8679319663249000E+01 a       712     0    45     1     8
  5.6087051078263688E+00 a       713     0    45     1     9
  7.0143890238081665E+00 a       714     0    45     1    10
 -1.1220549904997101E+01 a       715     0    45     1    11
  8.1242209682836837E+00 a       716     0    45     1    12
  4.7182333960927112E+00 a       717     0    45     1    13
 -5.4834780850427336E+00 a       718     0    45     1    14
  7.1680705587388582E-01 a       719     0    45     1    15
 -2.8049534058320400E+01 a       720     0    45     1    16
 -2.5047646582663332E+00 a       721     0    46     1     1
  7.0341468735025980E+00 a       722     0    46     1     2
  1.2964594277370498E+01 a       723     0    46     1     3
 -1.1164933454948915E+01 a       724     0    46     1     4
 -2.8034749272157161E+01 a       725     0    46     1     5
 -1.4388053976288818E+01 a       726     0    46     1     6
 -2.1342846134206333E+01 a       727     0    46     1     7
  1.3601994108710114E+00 a       728     0    46     1     8
  8.2278841150893989E+00 a       729     0    46     1     9
  1.2499278563511876E+01 a       730     0    46     1    10
  3.9150190559692915E+00 a       731     0    46     1    11
 -1.2002201635542749E+01 a       732     0    46     1    12
  5.4794170523718293E+00 a       733     0    46     1    13
  3.8864824241608464E+00 a       734     0    46     1    14
 -1.5873245219339877E+01 a       735     0    46     1    15
  2.4000460950653991E+01 a       736     0    46     1    16
 -7.3463842279157827E+00 a       737     0    47     1     1
  6.2708148101311325E+00 a       738     0    47     1     2
 -1.1185837640735252E+00 a       739     0    47     1     3
  1.9091331162179335E+00 a       740     0    47     1     4
 -1.4536184910784300E-01 a       741     0    47     1     5
  1.5461791640013369E+00 a       742     0    47     1     6
 -1.9069921084494956E+00 a       743     0    47     1     7
  6.8218150663566468E-01 a       744     0    47     1     8
  1.4633461838438999E+00 a       745     0    47     1     9
  1.3994255795039672E+00 a       746     0    47     1    10
  1.8050064012008866E+00 a       747     0    47     1    11
 -3.1152838706633093E+00 a       748     0    47     1    12
 -7.3299047194992726E+00 a       749     0    47     1    13
  1.5984055565134259E-01 a       750     0    47     1    14
 -7.2480587152130305E-01 a       751     0    47     1    15
  7.1002862121887258E+00 a       752     0    47     1    16
 -7.4850796136045750E+00 a       753     0    48     1     1
  7.0730516703698685E+00 a       754     0    48     1     2
  5.6762704971140492E+00 a       755     0    48     1     3
  7.2628294592980023E+00 a       756     0    48     1     4
 -1.1607790890637316E+01 a       757     0    48     1     5
 -7.5588800294159535E+00 a       758     0    48     1     6
 -2.7935276729721480E+01 a       759     0    48     1     7
 -1.1486943794056993E+01 a       760     0    48     1     8
 -1.0382307645341610E+01 a       761     0    48     1     9
  5.5050481894756054E+00 a       762     0    48     1    10
  1.9209947606196231E+01 a       763     0    48     1    11
 -5.0317243616806318E+00 a       764     0    48     1    12
  4.4654224327981158E+00 a       765     0    48     1    13
  9.8597719606352356E+00 a       766     0    48     1    14
 -9.9694559709940553E-02 a       767     0    48     1    15
  3.7843104349770345E+00 a       768     0    48     1    16
  1.1450492446680565E+00 a       769     0    49     1     1
  4.0503122289243204E-01 a       770     0    49     1     2
 -1.9765855566671059E-01 a       771     0    49     1     3
  1.2255755577160210E+00 a       772     0    49     1     4
  2.2311856435687898E+00 a       773     0    49     1     5
 -2.9846987081564280E+00 a       774     0    49     1     6
  3.8388167152446590E-01 a       775     0    49     1     7
  1.1500089697711759E-01 a       776     0    49     1     8
 -8.4629448083828684E-01 a       777     0    49     1     9
 -2.5691973458367290E+00 a       778     0    49     1    10
  1.4950725526717814E+00 a       779     0    49     1    11
  2.1819592718888248E+00 a       780     0    49     1    12
  1.3342949092586343E+00 a       781     0    49     1    13
  1.4452434692847886E+00 a       782     0    49     1    14
  1.3254497403029417E+00 a       783     0    49     1    15
 -1.6502734897735569E+00 a       784     0    49     1    16
  9.0844898676880981E-01 a       785     0    50     1     1
 -9.8847209343676273E-02 a       786     0    50     1     2
  2.0554156302610584E+00 a       787     0    50     1     3
 -1.1683676601401076E+00 a       788     0    50     1     4
  1.5924769150053153E-01 a       789     0    50     1     5
 -8.0701127186759503E-01 a       790     0    50     1     6
  5.8304320177220009E-03 a       791     0    50     1     7
  6.7543891222554842E-01 a       792     0    50     1     8
  2.0769434125094407E-02 a       793     0    50     1     9
  7.9093613932286277E-01 a       794     0    50     1    10
  4.9846611572609961E-01 a       795     0    50     1    11
  7.9899174222924685E-01 a       796     0    50     1    12
  1.1481929497951262E+00 a       797     0    50     1    13
 -5.9792741579726881E-02 a       798     0    50     1    14
  9.6000252792194540E-01 a       799     0    50     1    15
 -3.7494568449357595E+00 a       800     0    50     1    16
  1.1718883656989465E+00 a       801     0    51     1     1
  1.1656906263372326E+00 a       802     0    51     1     2
  4.1906267039522955E+00 a       803     0    51     1     3
  1.4441504261247000E+00 a       804     0    51     1     4
 -4.9877779848391333E-02 a       805     0    51     1     5
 -2.1259639221738493E+00 a       806     0    51     1     6
 -3.5059919897697380E+00 a       807     0    51     1     7
  5.6592996297262799E-01 a       808     0    51     1     8
 -4.8906332809615045E-02 a       809     0    51     1     9
  3.5108484436315925E+00 a       810     0    51     1    10
  1.4288862728701115E+00 a       811     0    51     1    11
 -9.0748370367708775E-01 a       812     0    51     1    12
 -1.0617714145108381E+00 a       813     0    51     1    13
  2.0399575998140427E+00 a       814     0    51     1    14
  2.5393506772224099E+00 a       815     0    51     1    15
 -6.7799849951539235E+00 a       816     0    51     1    16
 -1.2711653627575389E+01 a       817     0    52     1     1
 -1.8919999088305637E+00 a       818     0    52     1     2
 -2.6341232829860091E+00 a       819     0    52     1     3
  1.4057035400596440E+01 a       820     0    52     1     4
  2.9922676957723393E+00 a       821     0    52     1     5
  6.7561062985826386E+00 a       822     0    52     1     6
  1.3921125081104719E+01 a       823     0    52     1     7
 -1.0238079237480280E+01 a       824     0    52     1     8
 -4.1128275035189388E+00 a       825     0    52     1     9
  5.0338314502346249E+00 a       826     0    52     1    10
 -1.6691479639538498E+00 a       827     0    52     1    11
 -1.5420332846680155E+01 a       828     0    52     1    12
 -3.9052550406214168E+00 a       829     0    52     1    13
 -5.6133798179291379E+00 a       830     0    52     1    14
 -1.7310479010058570E+00 a       831     0    52     1    15
  2.1759706526085365E+00 a       832     0    52     1    16
  2.5289133377256450E+00 a       833     0    53     1     1
  5.1353377308039583E-01 a       834     0    53     1     2
 -7.1053032673150582E+00 a       835     0    53     1     3
  8.3297845492509968E+00 a       836     0    53     1     4
  7.5402708734272714E+00 a       837     0    53     1     5
 -9.1864590941543223E-01 a       838     0    53     1     6
  6.2057145667421070E+00 a       839     0    53     1     7
 -8.2584435899077224E+00 a       840     0    53     1     8
 -6.1015377218486222E+00 a       841     0    53     1     9
 -6.1046187986712717E+00 a       842     0    53     1    10
  2.4663031384619627E+00 a       843     0    53     1    11
  4.4173703342492177E+00 a       844     0    53     1    12
  4.1146117109672522E+00 a       845     0    53     1    13
  4.2263288502157019E+00 a       846     0    53     1    14
  1.0626559255734480E+00 a       847     0    53     1    15
  1.4275399488459131E+00 a       848     0    53     1    16
 -4.9942800416530817E+00 a       849     0    54     1     1
 -3.1413577601615139E-01 a       850     0    54     1     2
 -1.5871249933259959E+01 a       851     0    54     1     3
  1.3074369655606310E+01 a       852     0    54     1     4
  6.5527932169298388E+00 a       853     0    54     1     5
  7.7061030912987842E+00 a       854     0    54     1     6
 -4.0604054209090129E-01 a       855     0    54     1     7
 -1.3274024193296622E+01 a       856     0    54     1     8
 -5.5027484053963676E+00 a       857     0    54     1     9
 -4.5389560267757796E+00 a       858     0    54     1    10
  6.2293218303599414E+00 a       859     0    54     1    11
  1.7693989502314795E+00 a       860     0    54     1    12
  1.6955742824051314E+00 a       861     0    54     1    13
 -1.0373633555745787E+00 a       862     0    54     1    14
 -3.9569382896967844E+00 a       863     0    54     1    15
  1.4482312933368830E+01 a       864     0    54     1    16
 -5.2333125225384303E-02 a       865     0    55     1     1
  1.5539269572762746E+00 a       866     0    55     1     2
 -4.9848166499340518E+00 a       867     0    55     1     3
  1.0272004082518970E+01 a       868     0    55     1     4
  1.9848007726921750E+01 a       869     0    55     1     5
  1.1424400078994385E+01 a       870     0    55     1     6
  1.4298941779058580E+01 a       871     0    55     1     7
 -5.6045905758946875E+00 a       872     0    55     1     8
 -8.0514166502524738E+00 a       873     0    55     1     9
 -2.4542232835446978E+00 a       874     0    55     1    10
 -4.1887993054084962E+00 a       875     0    55     1    11
  7.8133578999197475E+00 a       876     0    55     1    12
 -2.0429820719743283E-01 a       877     0    55     1    13
  2.1230925398893068E+00 a       878     0    55     1    14
  9.6907223213163540E+00 a       879     0    55     1    15
 -9.0903971790463203E+00 a       880     0    55     1    16
  4.2612899223191016E+00 a       881     0    56     1     1
 -1.8637234657642727E+00 a       882     0    56     1     2
  1.6893270517987962E+00 a       883     0    56     1     3
 -5.5009279279995249E-01 a       884     0    56     1     4
  2.0436525738037261E+00 a       885     0    56     1     5
  1.4211732450910119E+00 a       886     0    56     1     6
  1.2467910682352237E+00 a       887     0    56     1     7
 -2.6397081179397510E+00 a       888     0    56     1     8
 -2.0317917709788365E+00 a       889     0    56     1     9
  8.9343088494417378E-01 a       890     0    56     1    10
  5.1741679403091834E-01 a       891     0    56     1    11
  2.3968128980838128E+00 a       892     0    56     1    12
  4.4855822078004559E+00 a       893     0    56     1    13
  1.9105122749460910E+00 a       894     0    56     1    14
 -7.4155308756113503E-01 a       895     0    56     1    15
 -2.0420842589186865E+00 a       896     0    56     1    16
  9.3317446125795769E+00 a       897     0    57     1     1
  1.7070471124561146E+00 a       898     0    57     1     2
  4.7203703104622274E+00 a       899     0    57     1     3
 -3.3075693627612170E+00 a       900     0    57     1     4
  1.1058012992862423E+01 a       901     0    57     1     5
 -3.4830860446146508E+00 a       902     0    57     1     6
  1.7341624855705959E+01 a       903     0    57     1     7
  9.5498217737942657E+00 a       904     0    57     1     8
  8.8183070290793264E+00 a       905     0    57     1     9
 -3.4338918362792765E+00 a       906     0    57     1    10
 -4.7071208378836191E+00 a       907     0    57     1    11
  1.3228912132667372E+01 a       908     0    57     1    12
 -3.7799365692804154E-01 a       909     0    57     1    13
 -3.3630059345523655E-01 a       910     0    57     1    14
  1.1212511042333053E+00 a       911     0    57     1    15
 -4.6538336644062750E-01 a       912     0    57     1    16
 -3.8750610581165925E+00 a       913     0    58     1     1
  1.6155893514387459E-01 a       914     0    58     1     2
 -1.4493134197000266E+00 a       915     0    58     1     3
  3.6439834667684061E+00 a       916     0    58     1     4
  4.9984690038179034E+00 a       917     0    58     1     5
 -4.4397495037646140E+00 a       918     0    58     1     6
 -4.5231186274634050E-01 a       919     0    58     1     7
 -4.9894037819726593E+00 a       920     0    58     1     8
 -2.7291929841661027E+00 a       921     0    58     1     9
 -1.4376855701921258E+00 a       922     0    58     1    10
  3.3023142171332558E+00 a       923     0    58     1    11
  2.3971528969084965E+00 a       924     0    58     1    12
  4.0452972310521593E+00 a       925     0    58     1    13
  2.3344778819558160E-01 a       926     0    58     1    14
 -2.3248658921943139E+00 a       927     0    58     1    15
 -1.1677422552838916E+01 a       928     0    58     1    16
 -2.4924403517849942E+00 a       929     0    59     1     1
  5.5754875070207683E+00 a       930     0    59     1     2
  6.3058509102355453E-01 a       931     0    59     1     3
  1.8253250899522624E+00 a       932     0    59     1     4
  1.7560215469058533E+00 a       933     0    59     1     5
 -7.8180154668143427E+00 a       934     0    59     1     6
 -3.0320437390706081E+00 a       935     0    59     1     7
  8.8965944059928148E+00 a       936     0    59     1     8
  4.3390687224329634E+00 a       937     0    59     1     9
 -3.5806864470400872E+00 a       938     0    59     1    10
 -1.1942606323834935E+01 a       939     0    59     1    11
 -5.6094044908431194E-02 a       940     0    59     1    12
 -2.3707153496201464E+01 a       941     0    59     1    13
 -1.9834022288016524E+00 a       942     0    59     1    14
  8.7569602132986706E+00 a       943     0    59     1    15
  2.6712125998010134E+01 a       944     0    59     1    16
  4.9444721432035657E+00 a       945     0    60     1     1
 -1.4748286847513417E+00 a       946     0    60     1     2
  2.9551936747142227E+00 a       947     0    60     1     3
 -1.5840132700588596E+00 a       948     0    60     1     4
 -2.0371367276672614E+00 a       949     0    60     1     5
 -9.4189970144017838E+00 a       950     0    60     1     6
 -4.0996465023906081E+00 a       951     0    60     1     7
  2.9610539689980655E+00 a       952     0    60     1     8
  1.1819546309239569E-01 a       953     0    60     1     9
 -7.4406592395294586E+00 a       954     0    60     1    10
  3.8916910846869612E+00 a       955     0    60     1    11
  8.0041037027520723E-01 a       956     0    60     1    12
 -4.0347437031023103E+00 a       957     0    60     1    13
 -6.3075115499102108E-01 a       958     0    60     1    14
  6.9626626466091475E+00 a       959     0    60     1    15
 -1.5874914107118556E+00 a       960     0    60     1    16
  1.9147908639678157E+00 a       961     0    61     1     1
 -1.5496418183972767E+00 a       962     0    61     1     2
 -6.0727268592281824E-01 a       963     0    61     1     3
 -1.2127848749072656E+00 a       964     0    61     1     4
  1.4175121951615748E+00 a       965     0    61     1     5
 -5.2024321763263899E+00 a       966     0    61     1     6
  9.8965602701804078E-01 a       967     0    61     1     7
  1.7812753777720978E+00 a       968     0    61     1     8
  1.8074242875766293E+00 a       969     0    61     1     9
 -4.7311642875215014E+00 a       970     0    61     1    10
  6.4943893997981272E-01 a       971     0    61     1    11
 -2.7901332864519413E-01 a       972     0    61     1    12
 -4.3751266428611046E+00 a       973     0    61     1    13
 -5.7741119023035503E-01 a       974     0    61     1    14
  1.6510105609496140E+00 a       975     0    61     1    15
 -4.2794156127766474E+00 a       976     0    61     1    16
  3.0353062655005387E+00 a       977     0    62     1     1
  4.4756573386071006E+00 a       978     0    62     1     2
  2.6255638809804878E+00 a       979     0    62     1     3
  2.1144505239855738E+00 a       980     0    62     1     4
 -2.4303577382968498E+00 a       981     0    62     1     5
 -6.1721893778907146E+00 a       982     0    62     1     6
  9.2058864787757910E-01 a       983     0    62     1     7
  1.2940055213164454E+00 a       984     0    62     1     8
  3.9563927513179604E+00 a       985     0    62     1     9
 -1.3947863782036274E+00 a       986     0    62     1    10
  4.2479808773370218E+00 a       987     0    62     1    11
 -7.4572294154993166E+00 a       988     0    62     1    12
 -2.2955018428383474E+00 a       989     0    62     1    13
  4.8755036301397672E+00 a       990     0    62     1    14
  5.7663382801231631E+00 a       991     0    62     1    15
  2.7291925498625584E+00 a       992     0    62     1    16
  9.9603158122545332E-01 a       993     0    63     1     1
 -1.1491907717828591E+00 a       994     0    63     1     2
 -3.8240003097579472E-01 a       995     0    63     1     3
 -2.5444239747561609E-01 a       996     0    63     1     4
 -1.0413123665494701E+00 a       997     0    63     1     5
 -5.7439247391311028E+00 a       998     0    63     1     6
 -3.3456419223833422E-01 a       999     0    63     1     7
  1.0582247937621403E+00 a      1000     0    63     1     8
  1.2191409304323197E+00 a      1001     0    63     1     9
 -2.2045710060197639E+00 a      1002     0    63     1    10
 -6.9734286533018575E-01 a      1003     0    63     1    11
  1.0420007174402444E-01 a      1004     0    63     1    12
  2.7398434036740169E+00 a      1005     0    63     1    13
  2.6041636958607572E-02 a      1006     0    63     1    14
  1.0545487744164157E-01 a      1007     0    63     1    15
 -3.5101922749473884E+00 a      1008     0    63     1    16
 -2.8930183486706595E+00 a      1009     0    64     1     1
 -6.2704641557212142E+00 a      1010     0    64     1     2
 -4.4772351776372208E+00 a      1011     0    64     1     3
 -1.7270193124452364E+00 a      1012     0    64     1     4
 -3.2440791015736798E+00 a      1013     0    64     1     5
  3.7838308922846822E+00 a      1014     0    64     1     6
 -3.3065353939255093E+00 a      1015     0    64     1     7
 -1.0907925427136160E+00 a      1016     0    64     1     8
 -2.5536982900196632E+00 a      1017     0    64     1     9
  2.3268802830009623E+00 a      1018     0    64     1    10
 -6.5843649528454078E+00 a      1019     0    64     1    11
 -6.7302435427637821E+00 a      1020     0    64     1    12
 -3.2859465680358571E+00 a      1021     0    64     1    13
 -2.9783869780222312E+00 a      1022     0    64     1    14
 -3.2347588606162967E+00 a      1023     0    64     1    15
 -3.1723483862874213E-01 a      1024     0    64     1    16
 -4.8411413898140500E-02 b      1025     1     1
  3.9246124614652184E-01 b      1026     1     2
  2.7916554492735712E-01 b      1027     1     3
  1.1111075974390446E-01 b      1028     1     4
  7.2894464841284101E-01 b      1029     1     5
  1.4870661730237181E-01 b      1030     1     6
  4.2978747261497280E-01 b      1031     1     7
  4.4501681963851097E-01 b      1032     1     8
  2.6082819126276652E-01 b      1033     1     9
  1.1574823073691953E-01 b      1034     1    10
  7.7827175082549083E-01 b      1035     1    11
  5.2552757716933041E-01 b      1036     1    12
 -2.2893938007555623E-01 b      1037     1    13
  2.6950920591417293E-01 b      1038     1    14
  6.4299905612482067E-01 b      1039     1    15
  7.9841938649325395E-01 b      1040     1    16
  8.3368828167811368E-02 a      1041     1     1     2     1
  9.1561807569009321E-02 a      1042     1     1     2     2
  1.0457040184338326E+00 a      1043     1     1     2     3
 -1.9343624420315308E-01 a      1044     1     1     2     4
 -6.6679038191093859E-02 a      1045     1     1     2     5
  3.2367069204053602E+00 a      1046     1     1     2     6
  2.3374639629879523E-01 a      1047     1     1     2     7
  3.1164215960761941E-02 a      1048     1     1     2     8
  3.0107233462765774E-02 a      1049     1     1     2     9
 -9.0962268329842921E-01 a      1050     1     1     2    10
 -1.6250225049043956E+00 a      1051     1     1     2    11
  8.2856559619195330E-02 a      1052     1     1     2    12
  5.4463949749784124E-01 a      1053     1     1     2    13
  1.8018685623857327E+00 a      1054     1     1     2    14
  9.0809048191775987E-01 a      1055     1     1     2    15
 -7.9785185528642599E-01 a      1056     1     1     2    16
 -6.6315128720618133E-01 a      1057     1     2     2     1
  2.1388774236544253E-01 a      1058     1     2     2     2
  6.9009494757923118E-01 a      1059     1     2     2     3
 -2.3405054386099375E-01 a      1060     1     2     2     4
  5.2265760529562877E-01 a      1061     1     2     2     5
  1.4398066806500157E-01 a      1062     1     2     2     6
 -2.2021291477472602E-01 a      1063     1     2     2     7
 -2.8159715501688354E-01 a      1064     1     2     2     8
  1.5323824804758568E-01 a      1065     1     2     2     9
 -3.8154862367522885E-01 a      1066     1     2     2    10
  3.3825006230433263E-01 a      1067     1     2     2    11
 -3.3496353627298608E-01 a      1068     1     2     2    12
  1.0029043159527533E-01 a      1069     1     2     2    13
  3.0804499611136815E-01 a      1070     1     2     2    14
 -5.9861905097030099E-01 a      1071     1     2     2    15
  1.6611810907058799E+00 a      1072     1     2     2    16
 -6.9248642342436539E-01 a      1073     1     3     2     1
  5.4081584445237557E-02 a      1074     1     3     2     2
  1.6655565118711990E-01 a      1075     1     3     2     3
 -1.6603901357999687E-01 a      1076     1     3     2     4
 -4.8051131067653935E-01 a      1077     1     3     2     5
 -1.0528858185930421E+00 a      1078     1     3     2     6
 -8.5387328330607623E-02 a      1079     1     3     2     7
 -4.2674268778125835E-01 a      1080     1     3     2     8
  3.6975019247589436E-01 a      1081     1     3     2     9
  7.2195589311737307E-02 a      1082     1     3     2    10
  1.5165522031518606E+00 a      1083     1     3     2    11
 -4.4434924294149020E-01 a      1084     1     3     2    12
 -8.8852035558970277E-01 a      1085     1     3     2    13
 -1.5301614729091761E+00 a      1086     1     3     2    14
 -1.8087632713862242E-01 a      1087     1     3     2    15
 -4.0574784409371634E-01 a      1088     1     3     2    16
  3.6767427577071893E-01 a      1089     1     4     2     1
 -6.8417470626329235E-01 a      1090     1     4     2     2
  1.1211969957451798E-01 a      1091     1     4     2     3
 -7.3232096979600314E-01 a      1092     1     4     2     4
 -1.2695529742765250E+00 a      1093     1     4     2     5
 -1.1487309852663019E+00 a      1094     1     4     2     6
 -1.2856490123053643E+00 a      1095     1     4     2     7
  3.4017771481156134E-01 a      1096     1     4     2     8
  1.7248678238578989E+00 a      1097     1     4     2     9
 -4.8571801105639251E-01 a      1098     1     4     2    10
 -3.5258804427179165E-02 a      1099     1     4     2    11
 -2.7904601001460994E-01 a      1100     1     4     2    12
  1.1967898073591851E-01 a      1101     1     4     2    13
  1.5721732574429284E+00 a      1102     1     4     2    14
 -5.6174672194308284E-01 a      1103     1     4     2    15
 -6.1372078207740743E-01 a      1104     1     4     2    16
 -2.8821486212906100E-01 a      1105     1     5     2     1
  4.1360206684998646E-01 a      1106     1     5     2     2
 -7.8172975175892744E-03 a      1107     1     5     2     3
  9.4371518659247353E-02 a      1108     1     5     2     4
  8.1082404143627185E-01 a      1109     1     5     2     5
  1.0695245006193430E+00 a      1110     1     5     2     6
  7.9888217643313753E-01 a      1111     1     5     2     7
 -5.9197286617404965E-01 a      1112     1     5     2     8
 -2.4111613244479053E+00 a      1113     1     5     2     9
 -5.5921581565641609E-01 a      1114     1     5     2    10
 -6.6254089899005564E-01 a      1115     1     5     2    11
  2.4026555646672416E-04 a      1116     1     5     2    12
 -6.1384286521121234E-01 a      1117     1     5     2    13
  1.3131820798709311E+00 a      1118     1     5     2    14
  5.5023462764758113E-01 a      1119     1     5     2    15
 -4.0117739914583761E-01 a      1120     1     5     2    16
  4.9706333212047643E-01 a      1121     1     6     2     1
  5.8216654227277176E-01 a      1122     1     6     2     2
  1.0968558138576916E+00 a      1123     1     6     2     3
 -6.7819228651852648E-01 a      1124     1     6     2     4
 -1.1209994776800454E+00 a      1125     1     6     2     5
 -1.0134237746614672E+00 a      1126     1     6     2     6
 -9.1391448861471691E-01 a      1127     1     6     2     7
 -2.0962158103543388E-01 a      1128     1     6     2     8
  2.1561672054180669E+00 a      1129     1     6     2     9
 -2.1478573195035270E-02 a      1130     1     6     2    10
  5.8906938607298276E-01 a      1131     1     6     2    11
 -3.9119382889233750E-01 a      1132     1     6     2    12
 -3.3988187363249389E-01 a      1133     1     6     2    13
 -1.2704027748470448E+00 a      1134     1     6     2    14
 -9.3449011981035501E-01 a      1135     1     6     2    15
 -6.5443803471051012E-02 a      1136     1     6     2    16
  1.4158525245612059E+00 a      1137     1     7     2     1
  2.9524973762942625E-01 a      1138     1     7     2     2
  1.7180657809805462E+00 a      1139     1     7     2     3
 -2.4399057327243120E-01 a      1140     1     7     2     4
  1.8291466283714072E-01 a      1141     1     7     2     5
 -4.6276942688915235E-01 a      1142     1     7     2     6
  7.6710802033870554E-02 a      1143     1     7     2     7
 -5.5064668194823263E-01 a      1144     1     7     2     8
  1.1941991955399205E+00 a      1145     1     7     2     9
  9.8667354894742584E-02 a      1146     1     7     2    10
  1.1692746041973880E+00 a      1147     1     7     2    11
  5.6976374981270755E-02 a      1148     1     7     2    12
  1.0291450794664812E-01 a      1149     1     7     2    13
 -3.1058636017882759E+00 a      1150     1     7     2    14
 -2.2825867698290497E-01 a      1151     1     7     2    15
  6.2890828608669136E-01 a      1152     1     7     2    16
 -6.0401943252766477E-01 a      1153     1     8     2     1
 -6.1126064657101387E-01 a      1154     1     8     2     2
 -5.9727105926869917E-01 a      1155     1     8     2     3
 -1.3607760172734968E+00 a      1156     1     8     2     4
  2.0032467195036094E-01 a      1157     1     8     2     5
 -4.2536298799138139E-01 a      1158     1     8     2     6
 -5.8075142831162718E-01 a      1159     1     8     2     7
 -1.1126915478429891E+00 a      1160     1     8     2     8
  4.8106325504203878E-01 a      1161     1     8     2     9
 -7.0997783419719807E-01 a      1162     1     8     2    10
 -1.8738369632327831E-01 a      1163     1     8     2    11
 -5.3807952523437497E-01 a      1164     1     8     2    12
  5.0831486338756421E-02 a      1165     1     8     2    13
 -1.2620520310095354E-02 a      1166     1     8     2    14
 -1.2140174045896153E+00 a      1167     1     8     2    15
  7.5887805179436296E-01 a      1168     1     8     2    16
 -1.2935023617607994E-01 a      1169     1     9     2     1
 -8.0644759816944978E-01 a      1170     1     9     2     2
 -1.5874415015339678E+00 a      1171     1     9     2     3
  6.1636258225753038E-01 a      1172     1     9     2     4
  2.5407208581264129E-01 a      1173     1     9     2     5
  1.7667267127520048E+00 a      1174     1     9     2     6
 -3.6848362628667995E-02 a      1175     1     9     2     7
  9.2629219030044796E-01 a      1176     1     9     2     8
  1.3336496059225569E+00 a      1177     1     9     2     9
  1.5064572610382990E-01 a      1178     1     9     2    10
  1.7074518597626037E-01 a      1179     1     9     2    11
 -1.7213829055350349E-01 a      1180     1     9     2    12
 -6.8767618434370203E-01 a      1181     1     9     2    13
 -2.5727210029773140E+00 a      1182     1     9     2    14
 -3.0980831610882931E-01 a      1183     1     9     2    15
 -6.7678575292496024E-01 a      1184     1     9     2    16
  5.7046789702818257E-01 a      1185     1    10     2     1
 -7.7590902816989757E-02 a      1186     1    10     2     2
  1.3924270532922689E-01 a      1187     1    10     2     3
  1.0305223508312129E-02 a      1188     1    10     2     4
  8.8259164197039464E-01 a      1189     1    10     2     5
  2.8608776579821402E+00 a      1190     1    10     2     6
  8.9790714445115538E-01 a      1191     1    10     2     7
 -8.4788144865183135E-01 a      1192     1    10     2     8
 -1.9252226188796355E+00 a      1193     1    10     2     9
 -4.6598850539886977E-01 a      1194     1    10     2    10
 -2.1219083563529515E+00 a      1195     1    10     2    11
  5.0217628878852461E-01 a      1196     1    10     2    12
  1.1763033209740772E-01 a      1197     1    10     2    13
 -1.2726432197475190E+00 a      1198     1    10     2    14
  8.6988091325309058E-01 a      1199     1    10     2    15
  4.8956915870629608E-01 a      1200     1    10     2    16
 -1.4071070409396302E-01 a      1201     1    11     2     1
  1.0668453475257176E+00 a      1202     1    11     2     2
  7.1382649291478806E-01 a      1203     1    11     2     3
 -9.7049419573306250E-01 a      1204     1    11     2     4
 -1.3276813432698936E-01 a      1205     1    11     2     5
  1.2871099663964408E-01 a      1206     1    11     2     6
 -2.0714311586055027E-03 a      1207     1    11     2     7
 -1.2510944883388515E+00 a      1208     1    11     2     8
 -6.6746275067934890E-01 a      1209     1    11     2     9
 -6.8434206465600633E-01 a      1210     1    11     2    10
 -7.0863131687603798E-01 a      1211     1    11     2    11
 -1.8480436518667889E-01 a      1212     1    11     2    12
 -3.0331000415918330E-01 a      1213     1    11     2    13
 -1.4588692078308814E+00 a      1214     1    11     2    14
 -1.2047145145137643E-01 a      1215     1    11     2    15
  7.7197898842251178E-01 a      1216     1    11     2    16
  6.9364463277817279E-01 a      1217     1    12     2     1
 -6.3535054247775691E-01 a      1218     1    12     2     2
  1.7707608890921325E-01 a      1219     1    12     2     3
 -9.4106852589012621E-02 a      1220     1    12     2     4
 -1.9677720432108328E-01 a      1221     1    12     2     5
 -2.3332740382274948E+00 a      1222     1    12     2     6
 -4.6412589095072676E-02 a      1223     1    12     2     7
 -8.2344146042971700E-01 a      1224     1    12     2     8
 -2.1395215915270260E-01 a      1225     1    12     2     9
  4.5628897624574077E-01 a      1226     1    12     2    10
 -5.8483235644620601E-01 a      1227     1    12     2    11
 -2.6256605870491811E-01 a      1228     1    12     2    12
 -5.3332917256812762E-01 a      1229     1    12     2    13
  3.7085520881002959E-01 a      1230     1    12     2    14
  2.9736548637069410E-01 a      1231     1    12     2    15
  2.5296527228578380E-01 a      1232     1    12     2    16
  5.9003263449325305E-01 a      1233     1    13     2     1
 -2.2659815944085608E-02 a      1234     1    13     2     2
 -2.2554371266808929E-01 a      1235     1    13     2     3
  6.3103024949831164E-04 a      1236     1    13     2     4
  1.2815506012897535E-01 a      1237     1    13     2     5
 -4.3463055725541749E-01 a      1238     1    13     2     6
  1.9967115370750545E-02 a      1239     1    13     2     7
  6.3049228857746165E-01 a      1240     1    13     2     8
 -2.0514559954635940E+00 a      1241     1    13     2     9
 -3.2247748849732041E-02 a      1242     1    13     2    10
  8.6296104153804221E-01 a      1243     1    13     2    11
  7.2161366507132940E-01 a      1244     1    13     2    12
  6.5920805837287244E-01 a      1245     1    13     2    13
  6.2956643606626717E-01 a      1246     1    13     2    14
 -9.6898135931055429E-01 a      1247     1    13     2    15
 -7.3414061343509496E-01 a      1248     1    13     2    16
  4.5662411667366787E-01 a      1249     1    14     2     1
 -7.5903024634954996E-01 a      1250     1    14     2     2
 -8.4939940226033328E-01 a      1251     1    14     2     3
  4.7168402781034424E-01 a      1252     1    14     2     4
 -9.4475147155765193E-01 a      1253     1    14     2     5
  1.6855790525747588E-01 a      1254     1    14     2     6
 -6.2675363089658909E-01 a      1255     1    14     2     7
  7.1483883952953653E-01 a      1256     1    14     2     8
  3.0762371167609848E+00 a      1257     1    14     2     9
  1.0327998544272416E+00 a      1258     1    14     2    10
  2.0672911192220006E-01 a      1259     1    14     2    11
  1.1349894232232985E-01 a      1260     1    14     2    12
 -5.2721048625918282E-02 a      1261     1    14     2    13
 -8.3149969411929991E-01 a      1262     1    14     2    14
 -1.5926349723251335E-01 a      1263     1    14     2    15
 -1.1854875260552604E+00 a      1264     1    14     2    16
  1.1870867591744348E-01 a      1265     1    15     2     1
 -6.1475898487378478E-01 a      1266     1    15     2     2
 -7.1242534213773090E-01 a      1267     1    15     2     3
  2.1063137134167520E-01 a      1268     1    15     2     4
  1.1854210422111298E+00 a      1269     1    15     2     5
 -1.1935445013610673E+00 a      1270     1    15     2     6
  1.3839198109353743E+00 a      1271     1    15     2     7
 -6.7376922310990195E-01 a      1272     1    15     2     8
 -2.2323355034283652E+00 a      1273     1    15     2     9
  7.1400232666007635E-01 a      1274     1    15     2    10
 -9.0883907429040761E-02 a      1275     1    15     2    11
  4.5975444849277297E-01 a      1276     1    15     2    12
 -1.0693812315544507E-01 a      1277     1    15     2    13
  2.4649499388165976E+00 a      1278     1    15     2    14
 -6.7274575578185758E-01 a      1279     1    15     2    15
  7.2119845471766797E-01 a      1280     1    15     2    16
 -6.2294287003682947E-01 a      1281     1    16     2     1
  1.5553645846237368E-01 a      1282     1    16     2     2
 -3.4375336352744379E-01 a      1283     1    16     2     3
 -4.2680607966199541E-01 a      1284     1    16     2     4
  2.7692543313017809E-01 a      1285     1    16     2     5
  1.3273789066130335E+00 a      1286     1    16     2     6
  4.8706976047892275E-01 a      1287     1    16     2     7
 -6.7041908319408194E-01 a      1288     1    16     2     8
 -1.8450440194181237E+00 a      1289     1    16     2     9
 -4.5266989632527616E-01 a      1290     1    16     2    10
 -7.3929985082161365E-02 a      1291     1    16     2    11
  1.2707468057865670E-01 a      1292     1    16     2    12
 -1.9976940607498139E-01 a      1293     1    16     2    13
  5.0283500393733527E-01 a      1294     1    16     2    14
  4.0932468583332590E-02 a      1295     1    16     2    15
 -4.8970152966840992E-02 a      1296     1    16     2    16
  3.0518736089929988E+00 b      1297     2     1
 -5.7216568944915547E-01 b      1298     2     2
  1.7423759660516118E+00 b      1299     2     3
  1.8764621445016292E+00 b      1300     2     4
  3.3778334694435730E-01 b      1301     2     5
  7.2364533296803479E-01 b      1302     2     6
  8.3360376939853792E-02 b      1303     2     7
  1.9324185815197199E+00 b      1304     2     8
 -1.9906825508684765E+00 b      1305     2     9
  1.6456729063954886E-01 b      1306     2    10
  1.0061965776370916E+00 b      1307     2    11
  6.7348864798231134E-01 b      1308     2    12
  1.0827833300912000E+00 b      1309     2    13
  1.6182361551260230E-01 b      1310     2    14
  7.8953552355638279E-01 b      1311     2    15
 -2.1403231929087752E+00 b      1312     2    16
 -1.5139385673799738E-01 a      1313     2     1     3     1
 -1.0590908956212274E-01 a      1314     2     2     3     1
  1.4530629533544301E-01 a      1315     2     3     3     1
 -4.5168309616529800E-01 a      1316     2     4     3     1
  2.3888942982627132E-01 a      1317     2     5     3     1
 -7.8775758735315036E-03 a      1318     2     6     3     1
 -2.6864404757901128E-01 a      1319     2     7     3     1
  1.0635255468061409E+00 a      1320     2     8     3     1
  1.6181576375387419E-01 a      1321     2     9     3     1
  6.8495980016719282E-01 a      1322     2    10     3     1
 -5.1211649038961790E-02 a      1323     2    11     3     1
  3.3036459699384330E-01 a      1324     2    12     3     1
 -3.8056138310366366E-01 a      1325     2    13     3     1
  9.4707320002789513E-03 a      1326     2    14     3     1
  2.7995919541336312E-01 a      1327     2    15     3     1
 -1.5923147152092262E-01 a      1328     2    16     3     1
  6.4440078965640772E-03 b      1329     3     1
