################################################################################
# Neural network connection values (weights and biases).
################################################################################
# Col  Name       Description
################################################################################
# 1    connection Neural network connection value.
# 2    t          Connection type (a = weight, b = bias).
# 3    index      Index enumerating weights.
# 4    l_s        Starting point layer (end point layer for biases).
# 5    n_s        Starting point neuron in starting layer (end point neuron for biases).
# 6    l_e        End point layer.
# 7    n_e        End point neuron in end layer.
################################################################################
#                      1 2         3     4     5     6     7
#             connection t     index   l_s   n_s   l_e   n_e
############################################################
  3.5013100207505792E+00 a         1     0     1     1     1
 -7.3287723662095212E+00 a         2     0     1     1     2
 -7.3240340352109312E+00 a         3     0     1     1     3
 -1.5222596103101155E+01 a         4     0     1     1     4
  6.4461917200780505E-01 a         5     0     1     1     5
 -1.1267893474901927E+01 a         6     0     1     1     6
  3.2022242215753023E+00 a         7     0     1     1     7
  2.5325383052177870E+01 a         8     0     1     1     8
  1.8895458342412034E+01 a         9     0     1     1     9
 -2.6802726982618347E-01 a        10     0     1     1    10
 -8.2267557538243548E+00 a        11     0     1     1    11
 -5.0879667597677107E+00 a        12     0     1     1    12
  1.2588842779070255E+00 a        13     0     1     1    13
  2.1804264019193571E+00 a        14     0     1     1    14
 -1.1117062867627659E+01 a        15     0     1     1    15
  8.0371926460855327E+00 a        16     0     1     1    16
  6.6461895707932248E+00 a        17     0     2     1     1
  4.9008561853629367E+00 a        18     0     2     1     2
  1.1769408563544939E+01 a        19     0     2     1     3
 -5.3179622779995608E+00 a        20     0     2     1     4
  1.9836372544373990E+00 a        21     0     2     1     5
  1.2150259326955119E+01 a        22     0     2     1     6
  1.0047748720588693E+01 a        23     0     2     1     7
  1.2526038149383082E+01 a        24     0     2     1     8
  1.9959933706076612E+01 a        25     0     2     1     9
 -8.4170414240234948E+00 a        26     0     2     1    10
  1.1299224604916317E+01 a        27     0     2     1    11
  2.4203208200683317E+00 a        28     0     2     1    12
  2.9542296742294138E+00 a        29     0     2     1    13
  1.1465335988563286E+00 a        30     0     2     1    14
  7.9490845802479217E+00 a        31     0     2     1    15
  2.3602554839446648E+00 a        32     0     2     1    16
  1.4556128995730506E+00 a        33     0     3     1     1
  1.0481954928655743E+00 a        34     0     3     1     2
  3.7420186506902153E+00 a        35     0     3     1     3
  7.1380012291059378E-02 a        36     0     3     1     4
 -7.8496584993559448E+00 a        37     0     3     1     5
  9.1530355099931082E+00 a        38     0     3     1     6
 -4.0550733207597958E+00 a        39     0     3     1     7
  8.4019277810972781E+00 a        40     0     3     1     8
  8.9646748608723659E-01 a        41     0     3     1     9
 -5.3052164342410375E+00 a        42     0     3     1    10
 -3.3725744105683875E+00 a        43     0     3     1    11
  7.6763774779287983E+00 a        44     0     3     1    12
  2.3659231310766526E+00 a        45     0     3     1    13
 -7.7508497805583731E+00 a        46     0     3     1    14
  5.2679427613030336E+00 a        47     0     3     1    15
  8.4679260206313458E+00 a        48     0     3     1    16
 -3.2485353523003702E+00 a        49     0     4     1     1
  1.0367963263851992E+01 a        50     0     4     1     2
  7.4109684271303751E+00 a        51     0     4     1     3
  1.5547275886004472E+01 a        52     0     4     1     4
  2.6813163716444546E+00 a        53     0     4     1     5
  1.1040734860743454E+01 a        54     0     4     1     6
  8.7657874506716060E-01 a        55     0     4     1     7
 -2.1128415808162536E+01 a        56     0     4     1     8
 -1.6897845931805392E+01 a        57     0     4     1     9
 -2.5981738894967372E+00 a        58     0     4     1    10
  7.5584319829124018E+00 a        59     0     4     1    11
  6.8750016356966244E+00 a        60     0     4     1    12
 -1.5561722114714671E+00 a        61     0     4     1    13
  4.7808614959515632E+00 a        62     0     4     1    14
  1.3790768893387368E+01 a        63     0     4     1    15
 -6.2893041770018163E+00 a        64     0     4     1    16
 -5.7490604303606023E+00 a        65     0     5     1     1
 -1.0637490694545457E+01 a        66     0     5     1     2
 -1.3798908525468116E+01 a        67     0     5     1     3
  6.2323341294688497E+00 a        68     0     5     1     4
 -4.3623932109279879E+00 a        69     0     5     1     5
 -1.4658850851185898E+01 a        70     0     5     1     6
 -1.3430892536040863E+01 a        71     0     5     1     7
 -7.4940681496700936E+00 a        72     0     5     1     8
 -1.9410923771537767E+01 a        73     0     5     1     9
  1.0161114392355463E+01 a        74     0     5     1    10
 -1.6113087090035012E+01 a        75     0     5     1    11
 -8.5557105521242907E+00 a        76     0     5     1    12
 -2.8281775032200307E+00 a        77     0     5     1    13
  6.9680149699209659E-01 a        78     0     5     1    14
 -1.5732982925224707E+01 a        79     0     5     1    15
  2.0212852663790866E+00 a        80     0     5     1    16
  3.2739241881275366E-01 a        81     0     6     1     1
 -3.4547778280212085E+00 a        82     0     6     1     2
 -1.7511522405700382E+00 a        83     0     6     1     3
 -3.6401273117840725E+00 a        84     0     6     1     4
 -2.0993480055046128E+00 a        85     0     6     1     5
 -1.7564110015996039E+00 a        86     0     6     1     6
 -8.0942748384827234E-01 a        87     0     6     1     7
  4.8493880752510305E+00 a        88     0     6     1     8
  2.5499824773432156E+00 a        89     0     6     1     9
  2.3405929436161861E+00 a        90     0     6     1    10
 -1.6241385401998532E+00 a        91     0     6     1    11
 -2.8360306405839775E+00 a        92     0     6     1    12
  5.8086780767720803E-01 a        93     0     6     1    13
 -3.0734395098958891E+00 a        94     0     6     1    14
 -4.2146127043638284E+00 a        95     0     6     1    15
  7.7038039135742353E-01 a        96     0     6     1    16
 -1.0548975018701425E+00 a        97     0     7     1     1
 -4.4492676746641086E-01 a        98     0     7     1     2
 -7.7602020778272263E-01 a        99     0     7     1     3
  5.2198498883044231E-01 a       100     0     7     1     4
  3.5643491164861065E+00 a       101     0     7     1     5
 -3.6276213594239177E+00 a       102     0     7     1     6
  3.0604543221601549E-01 a       103     0     7     1     7
 -2.9440671547994790E+00 a       104     0     7     1     8
  8.2548831415127177E-01 a       105     0     7     1     9
  3.2283027532990340E+00 a       106     0     7     1    10
  2.7943868156063695E-01 a       107     0     7     1    11
 -2.4474489266172998E+00 a       108     0     7     1    12
 -2.5496500236948734E+00 a       109     0     7     1    13
  3.7500031738673076E+00 a       110     0     7     1    14
 -2.6665994547227769E+00 a       111     0     7     1    15
 -2.8156887792246481E+00 a       112     0     7     1    16
 -3.5944414655921273E+00 a       113     0     8     1     1
  2.5244600115952061E+00 a       114     0     8     1     2
  4.0240698666054895E+00 a       115     0     8     1     3
 -1.9296518180474764E+00 a       116     0     8     1     4
  5.4881638165008031E+00 a       117     0     8     1     5
  9.6372937930143738E+00 a       118     0     8     1     6
  6.3091260365376511E+00 a       119     0     8     1     7
  2.6256782151618729E+00 a       120     0     8     1     8
  5.4004206284898437E+00 a       121     0     8     1     9
 -3.0815057676890003E+00 a       122     0     8     1    10
  7.0267080456324038E+00 a       123     0     8     1    11
  5.4203246832767453E+00 a       124     0     8     1    12
  7.9939062871284572E-01 a       125     0     8     1    13
 -5.7751983129143873E+00 a       126     0     8     1    14
  8.9066442628656048E+00 a       127     0     8     1    15
 -4.5705770360157638E+00 a       128     0     8     1    16
  2.3380453264935426E+01 a       129     0     9     1     1
 -7.6583263100279808E-01 a       130     0     9     1     2
 -1.2020210057059018E+01 a       131     0     9     1     3
  1.5118997829432395E+01 a       132     0     9     1     4
 -5.8990182999787288E+00 a       133     0     9     1     5
 -1.3013518983950998E+01 a       134     0     9     1     6
 -3.1289127430736198E+01 a       135     0     9     1     7
 -2.5534361874973186E+01 a       136     0     9     1     8
 -6.6460011087076873E+00 a       137     0     9     1     9
  6.4512818869688200E+00 a       138     0     9     1    10
 -1.5751064035599732E+01 a       139     0     9     1    11
  1.8140196652880331E+01 a       140     0     9     1    12
 -1.0289065298221967E+01 a       141     0     9     1    13
 -2.7638035681762428E+01 a       142     0     9     1    14
  6.3618408391115384E+00 a       143     0     9     1    15
 -1.8646609081218863E+01 a       144     0     9     1    16
  4.7249820082236882E+00 a       145     0    10     1     1
  6.7163826582781070E+01 a       146     0    10     1     2
  9.3128915403121830E+00 a       147     0    10     1     3
 -3.5221628920529895E+01 a       148     0    10     1     4
  5.9684938026538745E+00 a       149     0    10     1     5
 -2.1283470595244630E+01 a       150     0    10     1     6
  1.3440877707862429E+00 a       151     0    10     1     7
 -3.9112238976757716E+01 a       152     0    10     1     8
 -1.3275701933008634E+01 a       153     0    10     1     9
  7.2990656407455159E+00 a       154     0    10     1    10
 -9.8834697918164380E+00 a       155     0    10     1    11
  1.9608451971190163E+01 a       156     0    10     1    12
 -8.1450711350273686E+00 a       157     0    10     1    13
  2.3944518078364867E+00 a       158     0    10     1    14
  5.0413079091802167E+01 a       159     0    10     1    15
 -4.1349150066307992E+01 a       160     0    10     1    16
  1.6653321835919023E+01 a       161     0    11     1     1
  8.5794278967325877E-01 a       162     0    11     1     2
 -1.2287996468169482E+01 a       163     0    11     1     3
 -4.1900981133383617E+01 a       164     0    11     1     4
  6.3616404495801016E+00 a       165     0    11     1     5
 -1.7316665902623036E+01 a       166     0    11     1     6
  8.8472453364270692E+01 a       167     0    11     1     7
 -1.8130958939500683E+01 a       168     0    11     1     8
 -1.4362546899055832E+01 a       169     0    11     1     9
 -1.0945908529878910E+01 a       170     0    11     1    10
 -2.2841428079624806E+00 a       171     0    11     1    11
 -8.0070238879874296E+00 a       172     0    11     1    12
  3.6292610209469068E+01 a       173     0    11     1    13
 -4.5034854881721218E+00 a       174     0    11     1    14
  6.2849994719012061E+00 a       175     0    11     1    15
 -2.9849772876263014E+01 a       176     0    11     1    16
  3.4078900602882641E+01 a       177     0    12     1     1
 -5.9659409829128059E+01 a       178     0    12     1     2
 -4.2797477869377303E+01 a       179     0    12     1     3
  2.3266253168561054E+01 a       180     0    12     1     4
  5.5141688161597479E+01 a       181     0    12     1     5
  4.2580856928021660E+01 a       182     0    12     1     6
 -4.7398947412295605E+01 a       183     0    12     1     7
  7.8029475324634427E+00 a       184     0    12     1     8
  2.1165815065282523E+01 a       185     0    12     1     9
  4.4399508503415689E+01 a       186     0    12     1    10
  6.0600852230406659E+00 a       187     0    12     1    11
  1.6608447370886807E+01 a       188     0    12     1    12
 -5.1943805896905708E+01 a       189     0    12     1    13
 -2.4301678638862313E+01 a       190     0    12     1    14
 -6.1651813411919974E+01 a       191     0    12     1    15
 -4.2075259461588974E+00 a       192     0    12     1    16
  3.5637254700205210E+00 a       193     0    13     1     1
  3.1129463154685201E+01 a       194     0    13     1     2
  3.4089182127797187E+01 a       195     0    13     1     3
  1.8188127763948181E+01 a       196     0    13     1     4
 -3.1190805958474221E-01 a       197     0    13     1     5
  4.9314764663245960E+01 a       198     0    13     1     6
 -1.9278668106966073E+00 a       199     0    13     1     7
 -3.9441807673665309E+01 a       200     0    13     1     8
  2.3130918506945207E+01 a       201     0    13     1     9
 -1.4604894982177193E+01 a       202     0    13     1    10
  2.7133436091278988E+01 a       203     0    13     1    11
 -5.9985429888688602E+00 a       204     0    13     1    12
 -1.3814886768217796E+01 a       205     0    13     1    13
 -2.7843454578990357E+01 a       206     0    13     1    14
  3.6762811800819371E+01 a       207     0    13     1    15
 -8.2353867381099093E+00 a       208     0    13     1    16
  6.2322508093301794E+00 a       209     0    14     1     1
  1.9936447240289244E+01 a       210     0    14     1     2
  1.2385543217290925E+01 a       211     0    14     1     3
 -1.5799605310472614E+01 a       212     0    14     1     4
 -1.0190371726621361E+01 a       213     0    14     1     5
  6.1303153198676030E+00 a       214     0    14     1     6
  1.4802057256142461E+01 a       215     0    14     1     7
  5.1537600414108926E+00 a       216     0    14     1     8
  9.6610339208471174E+00 a       217     0    14     1     9
 -6.7389499115643501E+00 a       218     0    14     1    10
  9.7685396007622032E+00 a       219     0    14     1    11
  2.2770911265783975E+00 a       220     0    14     1    12
  2.3487422612970406E+00 a       221     0    14     1    13
  1.4811612788607327E+01 a       222     0    14     1    14
  2.8442362120534270E+01 a       223     0    14     1    15
 -7.1704220433807873E+00 a       224     0    14     1    16
 -9.7012880838533597E+00 a       225     0    15     1     1
  1.2439416394950477E+01 a       226     0    15     1     2
  1.9826094875845598E+01 a       227     0    15     1     3
 -6.8557213398008415E+01 a       228     0    15     1     4
  1.1407617011221575E+02 a       229     0    15     1     5
 -1.1824197015232304E+01 a       230     0    15     1     6
  2.5401578992934493E+00 a       231     0    15     1     7
 -3.0769031220626587E+01 a       232     0    15     1     8
  5.8014642743378907E+01 a       233     0    15     1     9
  6.7967109815363100E+00 a       234     0    15     1    10
  8.3687800562318804E-01 a       235     0    15     1    11
 -2.7575462641713482E+01 a       236     0    15     1    12
  1.8980988555183004E+01 a       237     0    15     1    13
  4.0534921269290092E-02 a       238     0    15     1    14
 -5.7439060336024774E+01 a       239     0    15     1    15
  1.8255648098364986E+01 a       240     0    15     1    16
  3.5808064939059503E+00 a       241     0    16     1     1
  4.1510712395056517E+00 a       242     0    16     1     2
  2.6597219668556007E+00 a       243     0    16     1     3
  3.9039521181272643E+00 a       244     0    16     1     4
 -3.9278767526511466E-01 a       245     0    16     1     5
  7.3558476472742633E+00 a       246     0    16     1     6
 -1.3458273775842100E+00 a       247     0    16     1     7
 -5.2764817167090277E+00 a       248     0    16     1     8
  3.0446918568203287E+00 a       249     0    16     1     9
 -2.1536994490844465E+00 a       250     0    16     1    10
  1.5754046712875529E+00 a       251     0    16     1    11
 -3.2161967360295951E+00 a       252     0    16     1    12
 -1.0573249521287822E+00 a       253     0    16     1    13
  2.2146166381811745E+00 a       254     0    16     1    14
  6.0716317124962433E+00 a       255     0    16     1    15
 -5.0153908853742135E-01 a       256     0    16     1    16
  6.7976451209005733E+00 a       257     0    17     1     1
  1.0187291473093891E+01 a       258     0    17     1     2
  7.1642786318914196E+00 a       259     0    17     1     3
 -4.5102045833820381E-01 a       260     0    17     1     4
 -5.5567295042074081E+00 a       261     0    17     1     5
  6.8965259434803698E+00 a       262     0    17     1     6
  8.9396796046420821E+00 a       263     0    17     1     7
  5.0386007688711940E+00 a       264     0    17     1     8
  4.6391172892861601E+00 a       265     0    17     1     9
  1.2794824466837964E+00 a       266     0    17     1    10
  2.3051071486280459E+00 a       267     0    17     1    11
 -1.2027257717869147E-01 a       268     0    17     1    12
 -3.0681488909126126E-01 a       269     0    17     1    13
  4.7329756238141609E+00 a       270     0    17     1    14
  1.1169169959467027E+01 a       271     0    17     1    15
 -2.1375441516015803E+00 a       272     0    17     1    16
  4.1547446302723028E+00 a       273     0    18     1     1
  4.5893600134970223E+00 a       274     0    18     1     2
  5.4749406398290752E+00 a       275     0    18     1     3
 -9.0807055161200800E+00 a       276     0    18     1     4
  1.4325949009309880E+01 a       277     0    18     1     5
  2.1401160493428470E+00 a       278     0    18     1     6
  5.8335043740485677E+00 a       279     0    18     1     7
  2.1800505177019458E+00 a       280     0    18     1     8
  1.2516100001434081E+01 a       281     0    18     1     9
  8.3513801303277524E-01 a       282     0    18     1    10
 -4.4925024768572497E+00 a       283     0    18     1    11
 -1.4212116363074809E+00 a       284     0    18     1    12
  4.4522242965139869E+00 a       285     0    18     1    13
 -7.5814334560930052E-01 a       286     0    18     1    14
 -3.7073512580268786E+00 a       287     0    18     1    15
  8.7843810587892808E+00 a       288     0    18     1    16
 -5.2112653204388145E+01 a       289     0    19     1     1
  4.0481435129753383E+00 a       290     0    19     1     2
  4.2536468338721555E+01 a       291     0    19     1     3
 -3.2830290047240254E+01 a       292     0    19     1     4
  5.8156175635884404E+00 a       293     0    19     1     5
  3.7216782000652977E+01 a       294     0    19     1     6
  5.5922134463975098E+01 a       295     0    19     1     7
  2.0536187588873378E+01 a       296     0    19     1     8
  8.6400619880536915E+00 a       297     0    19     1     9
 -1.4896181688970942E+00 a       298     0    19     1    10
  4.8325492382580272E+01 a       299     0    19     1    11
 -4.1235648653080105E+01 a       300     0    19     1    12
  2.3076964796342242E+01 a       301     0    19     1    13
  1.7157697022300901E+01 a       302     0    19     1    14
 -2.1825979856589250E+01 a       303     0    19     1    15
  2.2633725473048319E+01 a       304     0    19     1    16
 -1.7816208345677399E+01 a       305     0    20     1     1
 -1.6820506213288513E+02 a       306     0    20     1     2
 -3.8618658386036451E+01 a       307     0    20     1     3
  8.9965503603429156E+01 a       308     0    20     1     4
 -6.7993255614530836E+00 a       309     0    20     1     5
  1.4228480870605926E+01 a       310     0    20     1     6
 -2.4246781827127851E+01 a       311     0    20     1     7
  7.2250234503386920E+01 a       312     0    20     1     8
 -1.2743812817099403E+00 a       313     0    20     1     9
  4.4792399050972280E+00 a       314     0    20     1    10
 -4.2524804222030150E+00 a       315     0    20     1    11
 -4.0332574989032437E+01 a       316     0    20     1    12
  2.0632003569551490E+01 a       317     0    20     1    13
 -4.6757223572195905E+01 a       318     0    20     1    14
 -1.5962492795470530E+02 a       319     0    20     1    15
  9.0200784693940278E+01 a       320     0    20     1    16
 -4.6519270996074766E+01 a       321     0    21     1     1
 -7.3458554435160677E+00 a       322     0    21     1     2
  1.4411054980281627E+01 a       323     0    21     1     3
  1.0275749397018630E+02 a       324     0    21     1     4
  2.2263012084766995E+01 a       325     0    21     1     5
  1.7590345246213364E+01 a       326     0    21     1     6
 -1.9439306176541277E+02 a       327     0    21     1     7
  2.4357730440644566E+01 a       328     0    21     1     8
  2.4180487832611856E+01 a       329     0    21     1     9
  5.6194066002215727E+01 a       330     0    21     1    10
  2.0288564506709759E+00 a       331     0    21     1    11
 -7.0292557191574181E+00 a       332     0    21     1    12
 -9.5073720983675415E+01 a       333     0    21     1    13
  7.4049771259440202E+00 a       334     0    21     1    14
 -4.6353530014845965E+01 a       335     0    21     1    15
  4.4132933849765436E+01 a       336     0    21     1    16
  1.5879884084784736E+01 a       337     0    22     1     1
 -1.2315633413995540E+01 a       338     0    22     1     2
 -2.7679530554956287E+01 a       339     0    22     1     3
  7.8775608705854570E+00 a       340     0    22     1     4
 -3.6287663638405667E+00 a       341     0    22     1     5
 -3.2817750779828948E+01 a       342     0    22     1     6
 -2.1662512727278159E+01 a       343     0    22     1     7
  6.6794290994306227E+00 a       344     0    22     1     8
 -1.3426143559414541E+01 a       345     0    22     1     9
  6.9762453007385048E+00 a       346     0    22     1    10
 -2.8032356750789308E+01 a       347     0    22     1    11
  1.6100513537929849E+01 a       348     0    22     1    12
 -3.1044877747187574E+00 a       349     0    22     1    13
  1.9856512557848636E+00 a       350     0    22     1    14
 -4.7190767512970000E+00 a       351     0    22     1    15
 -8.2007526636799231E+00 a       352     0    22     1    16
 -3.9586730610081425E+01 a       353     0    23     1     1
  1.2374118115294158E+02 a       354     0    23     1     2
  5.3258054367183519E+01 a       355     0    23     1     3
 -5.1197600492025899E+01 a       356     0    23     1     4
 -4.8249361332789434E+01 a       357     0    23     1     5
 -5.4818938108719081E+01 a       358     0    23     1     6
  4.6622315293098765E+01 a       359     0    23     1     7
 -5.0340436289751658E+01 a       360     0    23     1     8
 -2.9629805322422616E+01 a       361     0    23     1     9
 -4.9095114655483918E+01 a       362     0    23     1    10
 -1.0860044984774664E+01 a       363     0    23     1    11
 -8.0713063616194081E+00 a       364     0    23     1    12
  4.8021978207317154E+01 a       365     0    23     1    13
  4.0127358831385855E+01 a       366     0    23     1    14
  1.1941429742918866E+02 a       367     0    23     1    15
 -3.1189115772903705E+01 a       368     0    23     1    16
  1.5890239508606093E+01 a       369     0    24     1     1
  3.4378131814587998E-01 a       370     0    24     1     2
 -1.6602108004172312E+01 a       371     0    24     1     3
 -2.9685630670872065E+00 a       372     0    24     1     4
 -5.6519190664794181E+01 a       373     0    24     1     5
 -1.2615257058303062E+00 a       374     0    24     1     6
  7.4046999661725849E+01 a       375     0    24     1     7
 -3.4516829971690570E+00 a       376     0    24     1     8
 -3.8455691210861758E+01 a       377     0    24     1     9
 -2.3867559993856464E+01 a       378     0    24     1    10
  1.7261164950349193E+00 a       379     0    24     1    11
  4.9322783939302184E+00 a       380     0    24     1    12
  2.6688961754737115E+01 a       381     0    24     1    13
  4.5753827406467895E+00 a       382     0    24     1    14
  4.5772277299654625E+01 a       383     0    24     1    15
 -3.5474908475029295E+01 a       384     0    24     1    16
  7.4541081804529989E+00 a       385     0    25     1     1
  1.3310468039645629E+00 a       386     0    25     1     2
 -1.6929823182778787E+00 a       387     0    25     1     3
  3.7607300470310685E+00 a       388     0    25     1     4
  2.5690198514101281E-01 a       389     0    25     1     5
 -3.1038383083437968E+00 a       390     0    25     1     6
 -5.1254586667115056E+00 a       391     0    25     1     7
 -2.0401490842610772E+00 a       392     0    25     1     8
  2.9803763213081869E+00 a       393     0    25     1     9
 -1.2920100901347931E+00 a       394     0    25     1    10
 -4.6193491735951984E+00 a       395     0    25     1    11
  3.1428034419807318E+00 a       396     0    25     1    12
 -1.4783348656530890E+00 a       397     0    25     1    13
  2.9292729317652166E+00 a       398     0    25     1    14
  2.6357913697305992E+00 a       399     0    25     1    15
  5.8056715698022521E-01 a       400     0    25     1    16
  6.8469305742548938E+00 a       401     0    26     1     1
  1.7329906341215107E+01 a       402     0    26     1     2
  7.3846006847265002E+00 a       403     0    26     1     3
 -7.5645818990342777E+00 a       404     0    26     1     4
  2.0096084184187140E+00 a       405     0    26     1     5
  1.1837380801163030E-01 a       406     0    26     1     6
  6.2027654882811385E+00 a       407     0    26     1     7
 -7.2534500092059206E-01 a       408     0    26     1     8
  7.3515871351148263E+00 a       409     0    26     1     9
 -2.0709896709986864E-01 a       410     0    26     1    10
  9.8749182682675607E-01 a       411     0    26     1    11
  8.4530061720069245E+00 a       412     0    26     1    12
 -3.5193827390808896E+00 a       413     0    26     1    13
  5.2535123316952355E+00 a       414     0    26     1    14
  1.3920576872624194E+01 a       415     0    26     1    15
 -3.9868607858424321E+00 a       416     0    26     1    16
  6.0587955026544185E+00 a       417     0    27     1     1
  4.4742623708377858E+00 a       418     0    27     1     2
  1.8780658551907987E+00 a       419     0    27     1     3
 -7.3789166703274081E+00 a       420     0    27     1     4
  2.7078905873961157E+00 a       421     0    27     1     5
 -8.4458950757615925E-01 a       422     0    27     1     6
  1.8935067078219220E+01 a       423     0    27     1     7
  3.2322361310768786E+00 a       424     0    27     1     8
  4.4134970703826495E+00 a       425     0    27     1     9
 -4.0872913910036877E+00 a       426     0    27     1    10
 -2.4547649918335024E+00 a       427     0    27     1    11
  4.5752175556359767E+00 a       428     0    27     1    12
  5.8476022597782151E+00 a       429     0    27     1    13
 -5.0009408430521241E-01 a       430     0    27     1    14
  4.4928192949978536E+00 a       431     0    27     1    15
  2.2583437522252643E+00 a       432     0    27     1    16
 -7.4470930722995832E-01 a       433     0    28     1     1
 -1.7190939686426383E+00 a       434     0    28     1     2
 -3.0081669548817458E+00 a       435     0    28     1     3
  4.4376487915415092E-01 a       436     0    28     1     4
 -2.7483365273792576E-01 a       437     0    28     1     5
 -7.9545348614635569E-01 a       438     0    28     1     6
 -1.4809688109480608E+00 a       439     0    28     1     7
 -1.9764204450312499E+00 a       440     0    28     1     8
 -2.8863547375575562E+00 a       441     0    28     1     9
  1.3123426425199471E+00 a       442     0    28     1    10
 -4.1174260800784340E-01 a       443     0    28     1    11
  5.4554729189209077E+00 a       444     0    28     1    12
 -3.5680469192614521E+00 a       445     0    28     1    13
 -8.5965685752540981E+00 a       446     0    28     1    14
  5.6304800931985077E-01 a       447     0    28     1    15
 -2.8905781869256995E+00 a       448     0    28     1    16
  1.1349631519562282E+00 a       449     0    29     1     1
 -7.7887911082840908E+00 a       450     0    29     1     2
 -1.0464182618870163E+01 a       451     0    29     1     3
 -4.3559754415635190E+00 a       452     0    29     1     4
  7.8929497411728606E+00 a       453     0    29     1     5
  1.8843387161588976E+00 a       454     0    29     1     6
 -1.1266882982343500E+01 a       455     0    29     1     7
 -6.2218202607414481E+00 a       456     0    29     1     8
 -3.6525652485970608E+00 a       457     0    29     1     9
  6.2134207229349281E+00 a       458     0    29     1    10
  1.0251403825807832E+00 a       459     0    29     1    11
  4.0276187568804422E+00 a       460     0    29     1    12
 -8.3481845592386197E+00 a       461     0    29     1    13
 -4.9289370034527673E+00 a       462     0    29     1    14
 -5.4705552392337795E+00 a       463     0    29     1    15
 -7.4234554459635902E+00 a       464     0    29     1    16
 -7.8306431059694659E-01 a       465     0    30     1     1
 -6.8985890649617199E+00 a       466     0    30     1     2
 -4.3570287932545808E+00 a       467     0    30     1     3
 -1.3529633759126781E+01 a       468     0    30     1     4
 -3.6410917891040212E-01 a       469     0    30     1     5
 -4.3779603383429393E+00 a       470     0    30     1     6
  4.1459332467957450E+00 a       471     0    30     1     7
 -9.9040432099788411E+00 a       472     0    30     1     8
 -6.8256804723639890E+00 a       473     0    30     1     9
 -3.4387668090610473E+00 a       474     0    30     1    10
  3.1035938838903281E+00 a       475     0    30     1    11
 -1.8415668327636903E+00 a       476     0    30     1    12
  7.1039339661535479E+00 a       477     0    30     1    13
 -2.5399499347489809E+00 a       478     0    30     1    14
 -4.7990040257232573E+00 a       479     0    30     1    15
 -6.9236652117651127E+00 a       480     0    30     1    16
  2.3645177962059001E+00 a       481     0    31     1     1
 -2.6895885715265621E+01 a       482     0    31     1     2
 -3.4556684959000840E+01 a       483     0    31     1     3
 -1.5763133695220951E+01 a       484     0    31     1     4
  1.4496068191221088E+00 a       485     0    31     1     5
 -4.1727225336537764E+01 a       486     0    31     1     6
 -1.1398011369192079E-01 a       487     0    31     1     7
  3.6864934253422788E+01 a       488     0    31     1     8
 -1.7459939963802679E+01 a       489     0    31     1     9
  1.0018846854316896E+01 a       490     0    31     1    10
 -2.6699129000384378E+01 a       491     0    31     1    11
  7.9780232128978827E+00 a       492     0    31     1    12
  1.0026132184256380E+01 a       493     0    31     1    13
  2.8088585150819483E+01 a       494     0    31     1    14
 -2.7860357533234168E+01 a       495     0    31     1    15
  8.6582894821220862E+00 a       496     0    31     1    16
  1.4905335856784999E+01 a       497     0    32     1     1
 -1.1589023867780957E+01 a       498     0    32     1     2
 -1.3629664329696807E+01 a       499     0    32     1     3
  3.8939645209060835E+01 a       500     0    32     1     4
 -9.6654225676210729E+01 a       501     0    32     1     5
  1.2150220137892781E+01 a       502     0    32     1     6
  6.7611364992334737E+00 a       503     0    32     1     7
  2.7840549387343238E+01 a       504     0    32     1     8
 -4.2733146804015618E+01 a       505     0    32     1     9
 -1.3535583230949571E+01 a       506     0    32     1    10
 -1.1333395766051885E-01 a       507     0    32     1    11
  3.2679307620371667E+01 a       508     0    32     1    12
 -5.1992173761494280E+00 a       509     0    32     1    13
 -5.2495079299634151E+00 a       510     0    32     1    14
  5.0293497172499656E+01 a       511     0    32     1    15
 -7.1162230174058543E+00 a       512     0    32     1    16
  6.0499218882086794E+00 a       513     0    33     1     1
  3.7326060221402084E+00 a       514     0    33     1     2
  3.6124005746820953E+00 a       515     0    33     1     3
  2.0619667506331902E+00 a       516     0    33     1     4
  1.1021423995352948E-01 a       517     0    33     1     5
  3.6655702535235990E-01 a       518     0    33     1     6
 -4.0331053522703160E+00 a       519     0    33     1     7
  4.9068753911299492E+00 a       520     0    33     1     8
  4.4621504576348956E+00 a       521     0    33     1     9
  2.3096006651806147E+00 a       522     0    33     1    10
 -4.1490158910909551E+00 a       523     0    33     1    11
 -7.1355841457111413E-01 a       524     0    33     1    12
  3.7633895710992800E+00 a       525     0    33     1    13
 -4.3502097917106237E+00 a       526     0    33     1    14
 -1.5160255560629758E+00 a       527     0    33     1    15
  1.0843011271863203E+01 a       528     0    33     1    16
  3.9418901757505204E-02 a       529     0    34     1     1
 -9.0604414232247121E-01 a       530     0    34     1     2
 -3.4381429684237569E-01 a       531     0    34     1     3
 -9.2533997448221195E-01 a       532     0    34     1     4
  1.5115771570419168E-01 a       533     0    34     1     5
 -1.7021249679885149E+00 a       534     0    34     1     6
  1.5816155678099028E-01 a       535     0    34     1     7
 -8.8915301143967923E-02 a       536     0    34     1     8
  5.3063829389161221E-01 a       537     0    34     1     9
 -1.3868792737943089E-01 a       538     0    34     1    10
  6.0916319749269088E-02 a       539     0    34     1    11
 -2.2816411285524718E-01 a       540     0    34     1    12
 -7.3411343294527601E-02 a       541     0    34     1    13
  6.0008296408587281E-01 a       542     0    34     1    14
 -9.0065792562347391E-01 a       543     0    34     1    15
  3.2408336908178176E-01 a       544     0    34     1    16
 -2.6546403006333480E-01 a       545     0    35     1     1
 -1.1776344112784061E+00 a       546     0    35     1     2
 -5.5219176818706384E-01 a       547     0    35     1     3
 -1.3184350119362782E+00 a       548     0    35     1     4
 -5.0631008958427304E-01 a       549     0    35     1     5
 -1.1888390183296473E+00 a       550     0    35     1     6
  1.1036132305569926E+00 a       551     0    35     1     7
 -8.1930063950555931E-01 a       552     0    35     1     8
 -5.6874017442093372E-01 a       553     0    35     1     9
 -3.2971497626409318E-01 a       554     0    35     1    10
  1.7594160147257398E+00 a       555     0    35     1    11
  3.0997207131360061E-01 a       556     0    35     1    12
 -7.4767885072322549E-01 a       557     0    35     1    13
  1.9081318886908845E+00 a       558     0    35     1    14
 -8.6958550153207725E-01 a       559     0    35     1    15
 -2.3645020721279639E+00 a       560     0    35     1    16
  4.4342699432043810E-02 a       561     0    36     1     1
 -6.7672747661141464E-01 a       562     0    36     1     2
 -4.5946311783011068E-01 a       563     0    36     1     3
 -8.2333847326090426E-01 a       564     0    36     1     4
  1.0816715287919645E+00 a       565     0    36     1     5
 -7.0870302081129238E-02 a       566     0    36     1     6
  9.7531428963800804E-01 a       567     0    36     1     7
  7.0169821873573768E-01 a       568     0    36     1     8
  3.2578407629049350E-01 a       569     0    36     1     9
 -4.5904565677522025E-01 a       570     0    36     1    10
 -1.8593042412718954E+00 a       571     0    36     1    11
  3.9043072673715601E-01 a       572     0    36     1    12
 -1.3638608493106311E-01 a       573     0    36     1    13
 -3.9853872636710153E-01 a       574     0    36     1    14
 -8.3988395091669987E-01 a       575     0    36     1    15
  1.4784483237696151E+00 a       576     0    36     1    16
 -2.0230355209182642E+00 a       577     0    37     1     1
 -2.9259818918105935E+00 a       578     0    37     1     2
 -4.3430065498220269E+00 a       579     0    37     1     3
  2.6317518907850688E+00 a       580     0    37     1     4
 -1.5281911312994312E+00 a       581     0    37     1     5
  5.1137046514933004E+00 a       582     0    37     1     6
 -4.1739479466970592E-01 a       583     0    37     1     7
 -1.1572377672046572E+00 a       584     0    37     1     8
 -5.3808666615358307E+00 a       585     0    37     1     9
  1.0419438145632893E+00 a       586     0    37     1    10
  3.1890856436959225E-01 a       587     0    37     1    11
 -2.9196471827993604E+00 a       588     0    37     1    12
 -1.6690526355089776E+00 a       589     0    37     1    13
 -1.0270192207991298E+00 a       590     0    37     1    14
  2.3421695142670815E+00 a       591     0    37     1    15
 -1.2560759805748825E+00 a       592     0    37     1    16
  6.6529831743273515E+00 a       593     0    38     1     1
 -5.0343446256181315E+00 a       594     0    38     1     2
 -9.0470257452292568E-01 a       595     0    38     1     3
 -5.7024944786611231E-01 a       596     0    38     1     4
 -5.6568085096971812E+00 a       597     0    38     1     5
  6.1663947898802285E-01 a       598     0    38     1     6
  1.9669898857595911E+00 a       599     0    38     1     7
 -3.3553479248529112E+00 a       600     0    38     1     8
 -3.4187868876613901E+00 a       601     0    38     1     9
  4.6271612887499813E+00 a       602     0    38     1    10
  3.8604494435003338E+00 a       603     0    38     1    11
 -2.2028335152079586E+00 a       604     0    38     1    12
  1.2550635815167859E+00 a       605     0    38     1    13
  1.8190484548410726E+00 a       606     0    38     1    14
 -3.2327573416676052E+00 a       607     0    38     1    15
 -1.0284846549645486E+00 a       608     0    38     1    16
 -5.7120062539753091E-01 a       609     0    39     1     1
 -1.0142248986187037E+00 a       610     0    39     1     2
 -9.3776346029374569E-01 a       611     0    39     1     3
 -3.8684459867312615E-01 a       612     0    39     1     4
  1.0429231612505758E+00 a       613     0    39     1     5
 -3.1972959889734196E+00 a       614     0    39     1     6
 -5.0892278005838854E-01 a       615     0    39     1     7
 -2.1019989377855404E+00 a       616     0    39     1     8
 -1.2638405676295754E+00 a       617     0    39     1     9
 -8.1957231467482783E-01 a       618     0    39     1    10
  7.8366561154556225E-01 a       619     0    39     1    11
  6.0173885196931676E-01 a       620     0    39     1    12
  2.5852833901404495E-02 a       621     0    39     1    13
  6.6571384334541928E-01 a       622     0    39     1    14
 -1.3710192187641257E+00 a       623     0    39     1    15
 -7.5746298918715260E-01 a       624     0    39     1    16
  3.3796810801666424E+00 a       625     0    40     1     1
 -1.9965150864520106E-01 a       626     0    40     1     2
  3.6793527844837599E+00 a       627     0    40     1     3
 -7.7941862426113993E+00 a       628     0    40     1     4
 -8.7667798095080207E-01 a       629     0    40     1     5
 -9.5365506422167368E+00 a       630     0    40     1     6
 -5.0504826880608855E-01 a       631     0    40     1     7
  4.8196879503286425E+00 a       632     0    40     1     8
  5.4608295321241114E+00 a       633     0    40     1     9
 -1.0264672349115389E-01 a       634     0    40     1    10
  6.8109806581883339E+00 a       635     0    40     1    11
  5.3240822405678347E+00 a       636     0    40     1    12
  5.0464308392589308E-01 a       637     0    40     1    13
 -7.9674868383428956E+00 a       638     0    40     1    14
 -7.8970821929740209E+00 a       639     0    40     1    15
 -1.3768301709373678E+00 a       640     0    40     1    16
 -1.7429703741407085E-01 a       641     0    41     1     1
  2.8799903187535922E+00 a       642     0    41     1     2
 -1.5909497739510789E+00 a       643     0    41     1     3
  7.7684214387897272E+00 a       644     0    41     1     4
 -2.7741932927844957E+00 a       645     0    41     1     5
 -3.1411881964991157E+00 a       646     0    41     1     6
 -1.4377844551794652E-01 a       647     0    41     1     7
 -3.1024124387944649E+00 a       648     0    41     1     8
 -5.1361232435664546E+00 a       649     0    41     1     9
  3.1870152047036240E+00 a       650     0    41     1    10
  9.1392250784477769E-01 a       651     0    41     1    11
 -2.1713034108456624E+00 a       652     0    41     1    12
 -4.1356818451591888E+00 a       653     0    41     1    13
 -7.7739202589706329E+00 a       654     0    41     1    14
 -2.9454111226116573E+00 a       655     0    41     1    15
 -1.4164345737406490E+01 a       656     0    41     1    16
  6.6715878877759294E-01 a       657     0    42     1     1
 -3.3499578203847152E-01 a       658     0    42     1     2
 -1.6752745376852374E+00 a       659     0    42     1     3
  3.5677778181084072E+00 a       660     0    42     1     4
 -1.1912292611501785E+00 a       661     0    42     1     5
  9.3506731326792591E-01 a       662     0    42     1     6
 -4.9099151148868198E-01 a       663     0    42     1     7
 -1.5501873918176132E+00 a       664     0    42     1     8
 -2.9703893809672830E+00 a       665     0    42     1     9
 -3.8097507932367042E-01 a       666     0    42     1    10
  1.2313825552299471E+00 a       667     0    42     1    11
 -9.6737961490971902E-01 a       668     0    42     1    12
 -2.3416529233611474E+00 a       669     0    42     1    13
 -2.6991349544149426E+00 a       670     0    42     1    14
 -1.5489448300778339E+00 a       671     0    42     1    15
 -5.9452719948322681E+00 a       672     0    42     1    16
  2.3396350505879759E+00 a       673     0    43     1     1
  1.0288440275417688E+01 a       674     0    43     1     2
 -5.2664614510226859E-01 a       675     0    43     1     3
  2.8777623390534306E+01 a       676     0    43     1     4
 -1.1607000701450971E+01 a       677     0    43     1     5
  5.9034991088026958E+00 a       678     0    43     1     6
 -2.8649707353372382E+00 a       679     0    43     1     7
 -2.4340680109082506E+01 a       680     0    43     1     8
 -1.1792134766869566E+01 a       681     0    43     1     9
  4.9108837773104224E+00 a       682     0    43     1    10
 -3.2634248055835160E+00 a       683     0    43     1    11
 -2.6442117664797262E+01 a       684     0    43     1    12
 -1.2466520673882153E+01 a       685     0    43     1    13
  1.3254390098776295E+01 a       686     0    43     1    14
  8.3884359631892398E+00 a       687     0    43     1    15
 -2.8733772409275279E+01 a       688     0    43     1    16
 -1.9755132444625499E+01 a       689     0    44     1     1
  1.3922303404610737E+01 a       690     0    44     1     2
  3.9737656677276179E+00 a       691     0    44     1     3
  1.2402678397342452E+01 a       692     0    44     1     4
  1.2817027677573423E+01 a       693     0    44     1     5
 -5.3381768153519227E+00 a       694     0    44     1     6
  3.2923772479117006E+00 a       695     0    44     1     7
  8.6027003963120414E+00 a       696     0    44     1     8
  1.2767410941994177E+00 a       697     0    44     1     9
 -1.3156937334658737E+01 a       698     0    44     1    10
 -5.7848097641115652E+00 a       699     0    44     1    11
  4.3927035718435912E+00 a       700     0    44     1    12
 -3.9183539379839867E+00 a       701     0    44     1    13
  7.4818200709268057E+00 a       702     0    44     1    14
  9.1824077037699023E+00 a       703     0    44     1    15
  5.3735658616996593E+00 a       704     0    44     1    16
 -2.3901750147798451E+00 a       705     0    45     1     1
  7.8298543721068004E-01 a       706     0    45     1     2
  4.8367418886153385E-01 a       707     0    45     1     3
  3.2180847160473585E+00 a       708     0    45     1     4
 -1.7663960692815794E+00 a       709     0    45     1     5
  2.6874451528100569E+00 a       710     0    45     1     6
  3.8526756351792342E+00 a       711     0    45     1     7
  5.0245804786585904E+00 a       712     0    45     1     8
  4.1012077607527631E-01 a       713     0    45     1     9
  5.2945749256020647E-01 a       714     0    45     1    10
 -1.9256230665173774E-01 a       715     0    45     1    11
 -1.6386146086224243E+00 a       716     0    45     1    12
 -2.8539528656083344E+00 a       717     0    45     1    13
  1.5509173704685779E+00 a       718     0    45     1    14
  2.8341030008392711E+00 a       719     0    45     1    15
  5.4819742216148049E-01 a       720     0    45     1    16
 -9.0021131914197383E+00 a       721     0    46     1     1
  2.1575456644736488E+00 a       722     0    46     1     2
 -7.3122237734767381E+00 a       723     0    46     1     3
  1.8445262362692670E+01 a       724     0    46     1     4
  6.8185631113121996E+00 a       725     0    46     1     5
  1.2516636507397482E+01 a       726     0    46     1     6
  1.0757087235532992E+00 a       727     0    46     1     7
 -4.6701378206207353E+00 a       728     0    46     1     8
 -1.0059092669600119E+01 a       729     0    46     1     9
 -6.9876182256819579E+00 a       730     0    46     1    10
 -1.3005779710276947E+01 a       731     0    46     1    11
 -9.9609311968091649E+00 a       732     0    46     1    12
  2.0933634757001870E-01 a       733     0    46     1    13
  3.1145110239258237E+01 a       734     0    46     1    14
  1.5335320063535770E+01 a       735     0    46     1    15
  6.3596392998401967E+00 a       736     0    46     1    16
 -6.1382473018831281E+00 a       737     0    47     1     1
 -6.2841531192150200E+00 a       738     0    47     1     2
 -3.4074931503052972E+00 a       739     0    47     1     3
 -6.2521228795099324E+00 a       740     0    47     1     4
  4.3043426853721289E+00 a       741     0    47     1     5
  6.3336051114592182E+00 a       742     0    47     1     6
  4.7796612664561398E+00 a       743     0    47     1     7
 -3.7966545802700353E+00 a       744     0    47     1     8
  2.4071504223899693E+00 a       745     0    47     1     9
 -7.1576496704900601E+00 a       746     0    47     1    10
  1.0587889803763331E+00 a       747     0    47     1    11
 -1.6553794730212044E+00 a       748     0    47     1    12
  1.3841618811227259E+00 a       749     0    47     1    13
  1.9920868313375632E+01 a       750     0    47     1    14
  1.2496900047389348E+01 a       751     0    47     1    15
  1.0154740400794132E+01 a       752     0    47     1    16
 -4.8685819858562827E+00 a       753     0    48     1     1
 -2.1856297297515198E-01 a       754     0    48     1     2
  4.1550956687447654E-01 a       755     0    48     1     3
 -1.5056624999742514E+01 a       756     0    48     1     4
  1.0273190144931865E+01 a       757     0    48     1     5
 -1.0283899214162917E+01 a       758     0    48     1     6
  5.0749570684932914E+00 a       759     0    48     1     7
  8.5137237679119728E+00 a       760     0    48     1     8
  1.4009070507086310E+01 a       761     0    48     1     9
 -6.6919714919882738E+00 a       762     0    48     1    10
 -8.6460234006037879E+00 a       763     0    48     1    11
  6.6070914187962781E+00 a       764     0    48     1    12
  1.0177197328390977E+00 a       765     0    48     1    13
  1.1541733261206026E+01 a       766     0    48     1    14
  1.9912910638298247E+00 a       767     0    48     1    15
  1.4361101485961591E+01 a       768     0    48     1    16
 -2.5617575677306119E+00 a       769     0    49     1     1
 -1.3582581148867364E+01 a       770     0    49     1     2
 -8.7626651550087935E+00 a       771     0    49     1     3
 -2.8657371224249665E+01 a       772     0    49     1     4
  3.6681231275903410E+00 a       773     0    49     1     5
  6.0770728365654971E+00 a       774     0    49     1     6
  7.2712967733300617E+00 a       775     0    49     1     7
  1.5623457894376386E+01 a       776     0    49     1     8
  1.6754672236985761E+00 a       777     0    49     1     9
 -1.2871352124582337E+01 a       778     0    49     1    10
  2.7203333838953846E+01 a       779     0    49     1    11
  3.0758616087256286E+01 a       780     0    49     1    12
  2.1204358498021678E+00 a       781     0    49     1    13
 -2.2846139510681976E-01 a       782     0    49     1    14
  4.8219870864257830E+00 a       783     0    49     1    15
  1.6562285186783853E+01 a       784     0    49     1    16
 -1.0985783457452305E+00 a       785     0    50     1     1
  2.3946568594755860E-01 a       786     0    50     1     2
  6.7146451088039266E-02 a       787     0    50     1     3
 -1.1102198091585636E+00 a       788     0    50     1     4
  1.6161262149640381E+00 a       789     0    50     1     5
 -1.8047854000181753E+00 a       790     0    50     1     6
 -2.1175079953554810E-01 a       791     0    50     1     7
  1.7113148722987351E-01 a       792     0    50     1     8
  1.1004474004060054E+00 a       793     0    50     1     9
 -1.1356413635218621E+00 a       794     0    50     1    10
 -7.4243317247258278E-01 a       795     0    50     1    11
  7.4667559264772732E-01 a       796     0    50     1    12
 -2.6898565691914678E-01 a       797     0    50     1    13
 -6.8624710577291514E-01 a       798     0    50     1    14
 -4.0687691277020532E-01 a       799     0    50     1    15
  5.9349362019688301E-01 a       800     0    50     1    16
 -8.1487301149290225E-01 a       801     0    51     1     1
 -1.3141695122281080E-01 a       802     0    51     1     2
 -1.1107322353594091E+00 a       803     0    51     1     3
  2.3361735012632474E+00 a       804     0    51     1     4
  9.8815150802270268E-02 a       805     0    51     1     5
  2.0248284648821899E+00 a       806     0    51     1     6
  4.3460376314585614E-01 a       807     0    51     1     7
 -1.4706675956450517E+00 a       808     0    51     1     8
 -1.5788550761550224E+00 a       809     0    51     1     9
  3.1251780875727442E-01 a       810     0    51     1    10
 -1.4661530194787813E+00 a       811     0    51     1    11
 -1.4103524986532356E+00 a       812     0    51     1    12
 -7.0264042254801717E-01 a       813     0    51     1    13
  1.9503479642398054E+00 a       814     0    51     1    14
  1.6879921676328948E+00 a       815     0    51     1    15
 -6.8703380547258641E-01 a       816     0    51     1    16
  9.1512721315487733E-01 a       817     0    52     1     1
 -1.1253394470793194E+00 a       818     0    52     1     2
 -3.1485365317831288E-03 a       819     0    52     1     3
 -6.7008134655078322E-01 a       820     0    52     1     4
  9.4787682507576310E-01 a       821     0    52     1     5
  2.8231136597985951E+00 a       822     0    52     1     6
  2.1135814057407876E+00 a       823     0    52     1     7
  2.0132413305645773E+00 a       824     0    52     1     8
  1.1670202910379567E-01 a       825     0    52     1     9
 -2.5235990915546518E+00 a       826     0    52     1    10
  6.0751294493983676E-01 a       827     0    52     1    11
  3.1866839894528094E+00 a       828     0    52     1    12
  4.6851275356337430E-01 a       829     0    52     1    13
 -2.5345347908560871E+00 a       830     0    52     1    14
  1.0575448996668522E+00 a       831     0    52     1    15
  3.5452649594281773E+00 a       832     0    52     1    16
  9.1874654660335029E+00 a       833     0    53     1     1
 -4.9883932155081032E+00 a       834     0    53     1     2
  5.4166521651513999E-01 a       835     0    53     1     3
 -2.6074347909180631E+00 a       836     0    53     1     4
 -6.5215943777735665E+00 a       837     0    53     1     5
  6.1180410328483359E-01 a       838     0    53     1     6
  4.2383837932656672E+00 a       839     0    53     1     7
 -6.1450457028421568E-01 a       840     0    53     1     8
  1.1810223806970401E+00 a       841     0    53     1     9
  5.9430686195142925E+00 a       842     0    53     1    10
  3.7411295811433640E+00 a       843     0    53     1    11
 -5.9494163738051598E-01 a       844     0    53     1    12
  1.4089838666387058E-01 a       845     0    53     1    13
  1.3427620417631980E+00 a       846     0    53     1    14
 -3.2874356352132157E+00 a       847     0    53     1    15
 -5.3084613957439353E-01 a       848     0    53     1    16
 -4.4944239526492580E-01 a       849     0    54     1     1
 -1.9278569620707218E+00 a       850     0    54     1     2
 -6.9122348242168863E-01 a       851     0    54     1     3
 -2.6768553578308860E+00 a       852     0    54     1     4
  3.1849351398388248E+00 a       853     0    54     1     5
 -5.7467007436318198E+00 a       854     0    54     1     6
  1.6440879453528132E+00 a       855     0    54     1     7
 -5.7635304288370526E-01 a       856     0    54     1     8
  1.6966302068201957E+00 a       857     0    54     1     9
 -2.6886013978624983E+00 a       858     0    54     1    10
 -1.6802087070400460E+00 a       859     0    54     1    11
  8.9253409311078813E-01 a       860     0    54     1    12
  8.3806369835480413E-02 a       861     0    54     1    13
  3.7009048544873662E+00 a       862     0    54     1    14
 -2.2757972743132004E+00 a       863     0    54     1    15
  3.4353837048004205E+00 a       864     0    54     1    16
  3.9672174515362770E+00 a       865     0    55     1     1
 -1.0885063563798212E+00 a       866     0    55     1     2
  4.1465733567058720E+00 a       867     0    55     1     3
 -9.4138122997211244E+00 a       868     0    55     1     4
 -2.7407547073559941E+00 a       869     0    55     1     5
 -6.5884322099443295E+00 a       870     0    55     1     6
  1.2454172998564696E-01 a       871     0    55     1     7
  4.2003816104515215E+00 a       872     0    55     1     8
  5.6952613109454040E+00 a       873     0    55     1     9
  2.3847582320441116E+00 a       874     0    55     1    10
  5.3692614326670540E+00 a       875     0    55     1    11
  3.7890829113533586E+00 a       876     0    55     1    12
 -4.0216086181195893E-01 a       877     0    55     1    13
 -1.1682080317817951E+01 a       878     0    55     1    14
 -7.2853838683187790E+00 a       879     0    55     1    15
 -8.3793703258065200E-01 a       880     0    55     1    16
  2.8884142579171876E+00 a       881     0    56     1     1
  4.3120878952059272E+00 a       882     0    56     1     2
  3.4867982544219300E+00 a       883     0    56     1     3
  2.0141278426531826E+00 a       884     0    56     1     4
 -1.0834393792139836E+00 a       885     0    56     1     5
 -1.4261997519510821E+00 a       886     0    56     1     6
 -2.6087332018511753E+00 a       887     0    56     1     7
  5.7971455193824690E+00 a       888     0    56     1     8
  8.4993182797154021E-01 a       889     0    56     1     9
  1.6810044264783692E+00 a       890     0    56     1    10
 -6.3644501044724189E-01 a       891     0    56     1    11
  3.2406002621241412E+00 a       892     0    56     1    12
  3.7056207451750522E-01 a       893     0    56     1    13
 -9.2157509553546948E+00 a       894     0    56     1    14
 -4.8453770230936763E+00 a       895     0    56     1    15
  1.3514408871755950E+00 a       896     0    56     1    16
  2.1031517012459040E+00 a       897     0    57     1     1
 -9.0151585575105969E-02 a       898     0    57     1     2
  1.2476921867953312E+00 a       899     0    57     1     3
  4.9428178689316837E+00 a       900     0    57     1     4
 -3.0224533959953859E+00 a       901     0    57     1     5
  7.8961186728158799E+00 a       902     0    57     1     6
 -5.6234905016484689E+00 a       903     0    57     1     7
 -2.8309464694218924E+00 a       904     0    57     1     8
 -5.4689523168395029E+00 a       905     0    57     1     9
  1.9962018993872390E+00 a       906     0    57     1    10
 -3.2363181150356640E-01 a       907     0    57     1    11
 -4.3228327719465582E+00 a       908     0    57     1    12
  1.8240184226674914E+00 a       909     0    57     1    13
 -8.9523506081645703E+00 a       910     0    57     1    14
 -2.2315311796507422E+00 a       911     0    57     1    15
 -2.0642832777712110E+00 a       912     0    57     1    16
 -2.8426426818855126E+00 a       913     0    58     1     1
  5.1457599868617121E-01 a       914     0    58     1     2
 -2.5585161375444021E+00 a       915     0    58     1     3
  8.8611472451763831E+00 a       916     0    58     1     4
 -6.3847023229334576E-01 a       917     0    58     1     5
  6.8575496535723426E+00 a       918     0    58     1     6
 -7.1068256152301004E+00 a       919     0    58     1     7
  3.0715725779169802E+00 a       920     0    58     1     8
 -3.2952858465503647E+00 a       921     0    58     1     9
  1.6749880436774936E-01 a       922     0    58     1    10
 -1.6515260505835254E+01 a       923     0    58     1    11
 -1.7452721434743349E+01 a       924     0    58     1    12
 -1.0026518348511933E-01 a       925     0    58     1    13
  3.0965242200769691E+00 a       926     0    58     1    14
 -1.3022102089002017E+00 a       927     0    58     1    15
 -7.0753687392214033E+00 a       928     0    58     1    16
 -5.4167392690068406E-01 a       929     0    59     1     1
 -3.9830058492573035E+00 a       930     0    59     1     2
  2.9681327218409348E+00 a       931     0    59     1     3
 -1.9440042831147576E+01 a       932     0    59     1     4
  7.0422039436732558E+00 a       933     0    59     1     5
 -7.1220032523969046E+00 a       934     0    59     1     6
 -5.3218923553056277E+00 a       935     0    59     1     7
  1.9508097237832239E+01 a       936     0    59     1     8
  1.1530344870870454E+01 a       937     0    59     1     9
 -1.3624237030644311E+00 a       938     0    59     1    10
 -5.5422856720415563E+00 a       939     0    59     1    11
  1.2466056326095774E+01 a       940     0    59     1    12
  1.2502030813001019E+01 a       941     0    59     1    13
 -7.2693721163325122E+00 a       942     0    59     1    14
 -7.7367188990687303E+00 a       943     0    59     1    15
  1.5559099716929797E+01 a       944     0    59     1    16
  3.6945106944843222E+00 a       945     0    60     1     1
 -3.2222726008347644E+00 a       946     0    60     1     2
 -2.8902976541165271E+00 a       947     0    60     1     3
 -5.9089419156011340E+00 a       948     0    60     1     4
 -1.8094430512860857E+00 a       949     0    60     1     5
  4.7955987150570110E+00 a       950     0    60     1     6
 -7.0070696978601914E+00 a       951     0    60     1     7
 -3.7156472203380551E+00 a       952     0    60     1     8
 -1.2764208889082642E+00 a       953     0    60     1     9
  1.7821816711856251E+00 a       954     0    60     1    10
 -1.8426718061499497E-01 a       955     0    60     1    11
 -1.6218590379312381E+00 a       956     0    60     1    12
  2.2587189646738688E+00 a       957     0    60     1    13
 -6.7470330622451868E+00 a       958     0    60     1    14
 -1.3273908827201772E+00 a       959     0    60     1    15
 -3.5394771065219448E+00 a       960     0    60     1    16
  1.6218471022047545E+00 a       961     0    61     1     1
 -9.3816896766101748E-02 a       962     0    61     1     2
  9.2016775689566410E-01 a       963     0    61     1     3
 -1.8456706844861976E+00 a       964     0    61     1     4
 -3.3698035688424022E+00 a       965     0    61     1     5
  3.7359228641012483E+00 a       966     0    61     1     6
 -7.6536387667700934E-01 a       967     0    61     1     7
 -3.6018114866547699E+00 a       968     0    61     1     8
 -6.1164113688436506E-01 a       969     0    61     1     9
  4.0160282563629881E+00 a       970     0    61     1    10
  2.6807989948338276E+00 a       971     0    61     1    11
  1.0412534273675753E+00 a       972     0    61     1    12
  3.8679697329676499E-01 a       973     0    61     1    13
 -1.1230886031456984E+01 a       974     0    61     1    14
  4.5635026194551342E-01 a       975     0    61     1    15
 -3.8653107818159955E+00 a       976     0    61     1    16
  8.8985887376470685E-01 a       977     0    62     1     1
  1.9188362415685980E+00 a       978     0    62     1     2
  1.3441413017365538E+00 a       979     0    62     1     3
  7.0814327586515606E+00 a       980     0    62     1     4
 -5.8089717643885761E+00 a       981     0    62     1     5
  2.4202373783172897E+00 a       982     0    62     1     6
 -7.1211531784810145E-01 a       983     0    62     1     7
 -4.4736452902741437E+00 a       984     0    62     1     8
 -4.0774094960323533E+00 a       985     0    62     1     9
  2.9278809703201998E+00 a       986     0    62     1    10
  1.0149537139708231E+01 a       987     0    62     1    11
 -2.6963601100762205E+00 a       988     0    62     1    12
  5.3662685776541252E-01 a       989     0    62     1    13
  3.8082556622089907E+00 a       990     0    62     1    14
  4.5630739134733496E+00 a       991     0    62     1    15
 -6.1256704707368694E+00 a       992     0    62     1    16
  1.9213299583726842E+00 a       993     0    63     1     1
  2.2814566094685702E+00 a       994     0    63     1     2
  7.9582221507299433E-01 a       995     0    63     1     3
  9.3692263693457956E-01 a       996     0    63     1     4
 -1.9184089947511844E+00 a       997     0    63     1     5
  6.8174530176290897E+00 a       998     0    63     1     6
 -3.4989391187252070E+00 a       999     0    63     1     7
 -1.2955254303805270E+00 a      1000     0    63     1     8
 -1.9525330573661721E+00 a      1001     0    63     1     9
  1.4297876271126269E+00 a      1002     0    63     1    10
  1.1209600420494843E+00 a      1003     0    63     1    11
  9.4669878654460027E-01 a      1004     0    63     1    12
  2.0318972449918995E+00 a      1005     0    63     1    13
 -3.7865064632722025E+00 a      1006     0    63     1    14
  2.4070541460675310E+00 a      1007     0    63     1    15
 -2.3599345113023222E+00 a      1008     0    63     1    16
  5.9602161604060155E+00 a      1009     0    64     1     1
  1.3199285141190899E+01 a      1010     0    64     1     2
  1.5676345545392811E+01 a      1011     0    64     1     3
  8.6463670343322967E+00 a      1012     0    64     1     4
  1.2634983705727030E+00 a      1013     0    64     1     5
 -1.5392862343394556E+01 a      1014     0    64     1     6
  4.2306210668615352E+00 a      1015     0    64     1     7
 -1.3430752514248788E+01 a      1016     0    64     1     8
  9.9140261343801317E+00 a      1017     0    64     1     9
  6.9050261334561318E+00 a      1018     0    64     1    10
 -1.8537415588745589E+00 a      1019     0    64     1    11
 -1.3888609147491666E+00 a      1020     0    64     1    12
  5.0940203647825311E-01 a      1021     0    64     1    13
 -3.9698828588423689E+00 a      1022     0    64     1    14
 -3.3011903435176579E+00 a      1023     0    64     1    15
  5.2148679519766827E-01 a      1024     0    64     1    16
  2.4933765071233260E-01 b      1025     1     1
  3.2293589133520351E-01 b      1026     1     2
 -6.8190198294919915E-02 b      1027     1     3
 -5.9847057178447932E-02 b      1028     1     4
 -1.0389591576229475E-01 b      1029     1     5
  2.6016811035280768E-01 b      1030     1     6
  2.1072078392223359E-01 b      1031     1     7
  1.5257139568851388E-01 b      1032     1     8
  1.9081913988773860E-02 b      1033     1     9
  2.8656159389759278E-01 b      1034     1    10
  8.5649145119960787E-02 b      1035     1    11
  2.0232016251094340E-01 b      1036     1    12
 -4.0551531962958090E-02 b      1037     1    13
  1.5363206965193457E-01 b      1038     1    14
  3.1517928099528331E-01 b      1039     1    15
  9.0393178919687137E-02 b      1040     1    16
 -1.3566974768876778E+00 a      1041     1     1     2     1
 -1.3394527184106957E+00 a      1042     1     1     2     2
 -8.8701745894325790E-01 a      1043     1     1     2     3
 -2.9689096644525645E+00 a      1044     1     1     2     4
  3.1518066023445296E-01 a      1045     1     1     2     5
 -9.4588704370404530E-01 a      1046     1     1     2     6
  7.8352582052515074E-01 a      1047     1     1     2     7
 -8.7170402187741158E-01 a      1048     1     1     2     8
 -9.3730226877188449E-01 a      1049     1     1     2     9
  5.2540799260005788E-01 a      1050     1     1     2    10
 -1.7955638953088002E+00 a      1051     1     1     2    11
  4.4455700284894560E-02 a      1052     1     1     2    12
  1.2066134895736189E-01 a      1053     1     1     2    13
 -3.5465000998407574E+00 a      1054     1     1     2    14
  1.4981077280042958E+00 a      1055     1     1     2    15
 -8.1391351102603426E-01 a      1056     1     1     2    16
 -1.1043870912422917E+00 a      1057     1     2     2     1
 -6.8883853577102894E-01 a      1058     1     2     2     2
 -6.3019741267343243E-01 a      1059     1     2     2     3
 -2.2725138012834663E+00 a      1060     1     2     2     4
 -1.5474431356102620E+00 a      1061     1     2     2     5
 -2.2189933911418044E-01 a      1062     1     2     2     6
 -5.5090093874066515E-01 a      1063     1     2     2     7
 -1.2814027791991476E+00 a      1064     1     2     2     8
 -2.3066181242535140E+00 a      1065     1     2     2     9
 -2.9269911417489936E+00 a      1066     1     2     2    10
 -1.7843344384946405E-01 a      1067     1     2     2    11
  1.6563769163181141E-01 a      1068     1     2     2    12
  9.3550554550298293E-01 a      1069     1     2     2    13
 -7.5380966275850589E+00 a      1070     1     2     2    14
  4.7471191321300044E-01 a      1071     1     2     2    15
 -1.7579636422874734E+00 a      1072     1     2     2    16
  1.8411279924024129E+00 a      1073     1     3     2     1
  1.9222553792392507E+00 a      1074     1     3     2     2
 -3.1680703967458611E-02 a      1075     1     3     2     3
  2.5593932923634033E+00 a      1076     1     3     2     4
  1.8828393290913161E+00 a      1077     1     3     2     5
  7.2396127858362347E-01 a      1078     1     3     2     6
  1.9437047070311883E-01 a      1079     1     3     2     7
  9.5453954761892623E-01 a      1080     1     3     2     8
  3.3422154830128816E+00 a      1081     1     3     2     9
  4.8328944022600062E+00 a      1082     1     3     2    10
 -1.0837537224407526E-01 a      1083     1     3     2    11
  3.2253328614888294E-01 a      1084     1     3     2    12
 -4.9796332757032058E-01 a      1085     1     3     2    13
  8.1673375825984138E+00 a      1086     1     3     2    14
  5.2502872705472237E-01 a      1087     1     3     2    15
  2.2308457424140360E+00 a      1088     1     3     2    16
 -7.2628972609138820E-01 a      1089     1     4     2     1
 -5.9586384112928859E-01 a      1090     1     4     2     2
  4.4469199258733372E-01 a      1091     1     4     2     3
  2.0574531005996932E+00 a      1092     1     4     2     4
  1.2464001602825949E+00 a      1093     1     4     2     5
  4.0035881494460296E-01 a      1094     1     4     2     6
 -3.1025522414787898E-01 a      1095     1     4     2     7
  3.4989746636836921E-01 a      1096     1     4     2     8
  1.3891977756748999E+00 a      1097     1     4     2     9
  3.7806095988971944E-01 a      1098     1     4     2    10
 -5.0311267690724104E-01 a      1099     1     4     2    11
  1.7446725965499823E+00 a      1100     1     4     2    12
 -6.0901216828584681E-01 a      1101     1     4     2    13
 -6.3305328100560987E-01 a      1102     1     4     2    14
 -8.3000306082856667E-01 a      1103     1     4     2    15
  1.0505774938026349E+00 a      1104     1     4     2    16
 -1.4987251577887978E-01 a      1105     1     5     2     1
 -3.3678065846378397E-01 a      1106     1     5     2     2
 -3.4610012301645166E-01 a      1107     1     5     2     3
 -1.9854038621437327E+00 a      1108     1     5     2     4
  6.7306012529549242E-01 a      1109     1     5     2     5
  2.0862031233759720E-01 a      1110     1     5     2     6
 -2.6765137238816661E+00 a      1111     1     5     2     7
 -1.2029542153115080E-01 a      1112     1     5     2     8
  6.6342083636181814E-01 a      1113     1     5     2     9
  1.3929968712595333E+00 a      1114     1     5     2    10
 -4.4525628059976141E-01 a      1115     1     5     2    11
 -2.8727938858600149E-01 a      1116     1     5     2    12
  9.5632128296960661E-02 a      1117     1     5     2    13
 -2.9813188523478931E+00 a      1118     1     5     2    14
  9.4408093359824019E-01 a      1119     1     5     2    15
 -7.1527628765263118E-01 a      1120     1     5     2    16
  4.8920441103774925E-01 a      1121     1     6     2     1
  8.5536462591705853E-01 a      1122     1     6     2     2
 -5.5000328608939475E-01 a      1123     1     6     2     3
  1.0152886505288212E+00 a      1124     1     6     2     4
 -9.9394828110554567E-01 a      1125     1     6     2     5
 -5.1929625400523871E-01 a      1126     1     6     2     6
 -7.2535640930994638E-01 a      1127     1     6     2     7
  2.4170968630781609E-01 a      1128     1     6     2     8
 -1.0934529990358786E+00 a      1129     1     6     2     9
 -1.4916419166405721E+00 a      1130     1     6     2    10
  2.6789535722574981E-01 a      1131     1     6     2    11
 -6.6831955202454341E-01 a      1132     1     6     2    12
  2.0113292206471217E-01 a      1133     1     6     2    13
  1.1803747414349810E+00 a      1134     1     6     2    14
 -1.5374869565739262E+00 a      1135     1     6     2    15
 -1.6651148168739854E-01 a      1136     1     6     2    16
  3.7520019156915979E-01 a      1137     1     7     2     1
 -5.6613278304748105E-02 a      1138     1     7     2     2
  3.6690050567154697E-01 a      1139     1     7     2     3
 -4.3270417924478433E-01 a      1140     1     7     2     4
 -6.2908636553840536E-01 a      1141     1     7     2     5
  2.4538300617384326E-01 a      1142     1     7     2     6
  4.2293460208444875E+00 a      1143     1     7     2     7
 -4.6048512077846476E-01 a      1144     1     7     2     8
 -5.3465806720195019E-01 a      1145     1     7     2     9
 -2.7948232598143147E-01 a      1146     1     7     2    10
  1.0855941639829705E+00 a      1147     1     7     2    11
 -2.3479068706190742E-01 a      1148     1     7     2    12
 -2.1830149421108519E-01 a      1149     1     7     2    13
  1.8546371217910693E+00 a      1150     1     7     2    14
  6.7873342487315369E-01 a      1151     1     7     2    15
 -2.4225848879694617E-01 a      1152     1     7     2    16
  3.1226255007533005E-01 a      1153     1     8     2     1
  2.7651856935555674E-01 a      1154     1     8     2     2
 -8.9587107895399254E-02 a      1155     1     8     2     3
 -3.0502875435626559E-01 a      1156     1     8     2     4
  1.4301934414378703E-01 a      1157     1     8     2     5
 -3.2267027232659695E-01 a      1158     1     8     2     6
  1.6817136857829540E+00 a      1159     1     8     2     7
 -1.9279176211069318E-01 a      1160     1     8     2     8
 -3.7614983192569679E-01 a      1161     1     8     2     9
  9.4529141268831518E-01 a      1162     1     8     2    10
 -3.6282856255872314E-01 a      1163     1     8     2    11
  8.2051385972692481E-01 a      1164     1     8     2    12
  4.5593098959764444E-01 a      1165     1     8     2    13
 -2.2146218563097822E-01 a      1166     1     8     2    14
  6.2666223771166707E-01 a      1167     1     8     2    15
  4.8378075578455615E-01 a      1168     1     8     2    16
 -5.4516306974129314E-01 a      1169     1     9     2     1
  1.5888853320540716E-01 a      1170     1     9     2     2
 -4.5284556312671698E-02 a      1171     1     9     2     3
  1.4557758317547189E+00 a      1172     1     9     2     4
 -6.9194483109022786E-01 a      1173     1     9     2     5
 -4.4577579732203915E-01 a      1174     1     9     2     6
 -8.3828344472970895E-01 a      1175     1     9     2     7
 -4.1018316088177065E-01 a      1176     1     9     2     8
 -6.7111384584166422E-01 a      1177     1     9     2     9
 -2.5226631088296290E+00 a      1178     1     9     2    10
 -1.9779332638542327E-02 a      1179     1     9     2    11
 -9.7127321552443446E-01 a      1180     1     9     2    12
 -6.4155471040347656E-01 a      1181     1     9     2    13
  5.6055730319239616E-01 a      1182     1     9     2    14
 -8.4837885796521384E-01 a      1183     1     9     2    15
 -2.2680069323344090E-01 a      1184     1     9     2    16
  1.1969039955869167E+00 a      1185     1    10     2     1
  2.8241481624075328E-02 a      1186     1    10     2     2
 -3.3160689429100793E-01 a      1187     1    10     2     3
 -1.2775161179876104E+00 a      1188     1    10     2     4
 -8.6837002717412703E-01 a      1189     1    10     2     5
 -2.0435157641540591E-01 a      1190     1    10     2     6
 -5.1585743511435866E-01 a      1191     1    10     2     7
 -1.1096620400071185E-01 a      1192     1    10     2     8
 -2.5375399150392935E-01 a      1193     1    10     2     9
  1.0871974551149934E+00 a      1194     1    10     2    10
  1.2740662907003721E+00 a      1195     1    10     2    11
  1.8929136327246546E-01 a      1196     1    10     2    12
  2.5328543945405357E-01 a      1197     1    10     2    13
 -1.4177249306258788E-01 a      1198     1    10     2    14
  6.3544300917996832E-01 a      1199     1    10     2    15
  1.4929768980797333E+00 a      1200     1    10     2    16
  3.1904606940226921E-01 a      1201     1    11     2     1
  3.6318744351206883E-01 a      1202     1    11     2     2
  3.9204154556278642E-01 a      1203     1    11     2     3
 -6.1870910872637397E-01 a      1204     1    11     2     4
  7.7852146528244138E-03 a      1205     1    11     2     5
  7.5442775849176058E-01 a      1206     1    11     2     6
  1.2429644455970690E-01 a      1207     1    11     2     7
 -2.2100119113767042E-01 a      1208     1    11     2     8
  3.4480565532824092E-01 a      1209     1    11     2     9
 -5.5334200780002396E-01 a      1210     1    11     2    10
  8.1582016943376051E-02 a      1211     1    11     2    11
 -4.1873343898191523E-01 a      1212     1    11     2    12
 -5.0842791609504619E-02 a      1213     1    11     2    13
 -3.0761356722753885E+00 a      1214     1    11     2    14
  9.1648258244200742E-01 a      1215     1    11     2    15
  5.8676152560038297E-01 a      1216     1    11     2    16
 -7.0158968540495770E-01 a      1217     1    12     2     1
 -7.6664356327810057E-01 a      1218     1    12     2     2
 -4.5509491201959579E-01 a      1219     1    12     2     3
  3.4431839523460395E-01 a      1220     1    12     2     4
  2.3181666823288419E-01 a      1221     1    12     2     5
 -4.4048333194249606E-01 a      1222     1    12     2     6
 -3.5011062196356102E+00 a      1223     1    12     2     7
 -8.8623547538860981E-01 a      1224     1    12     2     8
  2.2972157737579441E-01 a      1225     1    12     2     9
 -1.8012437223173445E+00 a      1226     1    12     2    10
  5.7142156536813997E-03 a      1227     1    12     2    11
 -3.4910676007906785E-03 a      1228     1    12     2    12
 -5.6810353802876572E-02 a      1229     1    12     2    13
 -2.6424761682653437E+00 a      1230     1    12     2    14
 -9.3288636290309168E-01 a      1231     1    12     2    15
 -1.9212452708223404E-01 a      1232     1    12     2    16
 -1.4979416356762770E-01 a      1233     1    13     2     1
 -9.3559874522697639E-01 a      1234     1    13     2     2
  9.2814546938711084E-01 a      1235     1    13     2     3
 -1.4510938466862278E+00 a      1236     1    13     2     4
 -1.2611775668938883E+00 a      1237     1    13     2     5
 -1.6472736144752344E-02 a      1238     1    13     2     6
  4.2478820710594407E+00 a      1239     1    13     2     7
 -7.7635138517542246E-01 a      1240     1    13     2     8
 -1.2861740972724474E+00 a      1241     1    13     2     9
 -2.0949532796077790E+00 a      1242     1    13     2    10
  1.3487959428346954E+00 a      1243     1    13     2    11
 -6.8039447232341274E-02 a      1244     1    13     2    12
 -7.7940765931041533E-01 a      1245     1    13     2    13
  2.6985755208911684E+00 a      1246     1    13     2    14
 -1.2100381706831311E+00 a      1247     1    13     2    15
 -4.9859576976793613E-01 a      1248     1    13     2    16
  1.6049389460015934E-01 a      1249     1    14     2     1
  1.9868685862422295E-01 a      1250     1    14     2     2
 -9.0772262217000033E-01 a      1251     1    14     2     3
 -6.4143050463633056E-01 a      1252     1    14     2     4
 -1.8427705699085051E-01 a      1253     1    14     2     5
 -5.6806344731303782E-01 a      1254     1    14     2     6
 -1.1720951279108947E+00 a      1255     1    14     2     7
 -5.8344607347541944E-01 a      1256     1    14     2     8
 -2.7737868899961432E-01 a      1257     1    14     2     9
 -1.5351964732712675E+00 a      1258     1    14     2    10
  1.7370238720883607E-01 a      1259     1    14     2    11
 -4.8966508768613859E-01 a      1260     1    14     2    12
  3.0555245555567839E-01 a      1261     1    14     2    13
 -1.7444628922557750E+00 a      1262     1    14     2    14
  2.6292674760003115E-01 a      1263     1    14     2    15
 -2.8057475968521228E-01 a      1264     1    14     2    16
 -3.5031942300035507E-02 a      1265     1    15     2     1
 -1.3934058714437061E+00 a      1266     1    15     2     2
  6.4468447947783791E-01 a      1267     1    15     2     3
 -6.1434636883660965E-01 a      1268     1    15     2     4
  1.2982653836192237E+00 a      1269     1    15     2     5
 -2.0449832405080612E-01 a      1270     1    15     2     6
  1.4992427336970071E+00 a      1271     1    15     2     7
 -6.3905345602671759E-01 a      1272     1    15     2     8
  7.3528483094817965E-01 a      1273     1    15     2     9
  2.4351486009509982E+00 a      1274     1    15     2    10
  2.7193031313855903E-01 a      1275     1    15     2    11
  1.2489936819856415E+00 a      1276     1    15     2    12
 -2.6425687664985037E-01 a      1277     1    15     2    13
 -1.4962536927027514E+00 a      1278     1    15     2    14
  1.7602496355819977E+00 a      1279     1    15     2    15
  1.0394943601743218E+00 a      1280     1    15     2    16
 -4.6580992950544076E-01 a      1281     1    16     2     1
  5.2240480865131855E-01 a      1282     1    16     2     2
  3.9582014734181359E-01 a      1283     1    16     2     3
  8.2317642410374769E-01 a      1284     1    16     2     4
 -1.7907186397689800E-01 a      1285     1    16     2     5
  2.7781095670985451E-01 a      1286     1    16     2     6
 -1.5154794371352067E+00 a      1287     1    16     2     7
 -5.6320558211363103E-01 a      1288     1    16     2     8
 -2.2966449288352779E-02 a      1289     1    16     2     9
  8.4700268459660266E-01 a      1290     1    16     2    10
 -7.7725940850171327E-01 a      1291     1    16     2    11
 -7.3483771416805532E-01 a      1292     1    16     2    12
 -3.4700991915870660E-01 a      1293     1    16     2    13
 -1.8758719848100993E+00 a      1294     1    16     2    14
  6.5639451251827252E-01 a      1295     1    16     2    15
 -6.1569888032584608E-01 a      1296     1    16     2    16
  1.5686376998557892E+00 b      1297     2     1
  6.2637832795522719E-01 b      1298     2     2
 -2.7334118478183683E-01 b      1299     2     3
  3.9153503595214985E+00 b      1300     2     4
  2.3710709188913165E-01 b      1301     2     5
 -2.4834816293015480E-01 b      1302     2     6
  2.0819836553389406E+00 b      1303     2     7
  1.0029711697833474E+00 b      1304     2     8
 -4.4620978683566537E-01 b      1305     2     9
  1.3734236595739375E+00 b      1306     2    10
  7.9516290155963620E-01 b      1307     2    11
  8.7727730569599938E-01 b      1308     2    12
  4.8007337516797355E-01 b      1309     2    13
  7.4962248082707097E+00 b      1310     2    14
 -2.3049182882822770E+00 b      1311     2    15
  4.6505280380067640E-02 b      1312     2    16
  4.5717114423987526E-01 a      1313     2     1     3     1
 -2.1376051810728949E-01 a      1314     2     2     3     1
  5.9145461748451211E-01 a      1315     2     3     3     1
 -3.7002147589663803E-02 a      1316     2     4     3     1
 -3.9510403162828828E-01 a      1317     2     5     3     1
 -7.6198784328419900E-01 a      1318     2     6     3     1
 -4.5778473054407985E-02 a      1319     2     7     3     1
 -6.1613300514147995E-01 a      1320     2     8     3     1
  7.0806398687827576E-01 a      1321     2     9     3     1
 -3.6288348765005522E-02 a      1322     2    10     3     1
 -2.0234376424751718E-01 a      1323     2    11     3     1
  1.7910686504198856E-01 a      1324     2    12     3     1
 -4.3431710805767532E-01 a      1325     2    13     3     1
  1.0661216069226898E-02 a      1326     2    14     3     1
  8.1738196665752258E-02 a      1327     2    15     3     1
 -1.5817485658091934E-01 a      1328     2    16     3     1
  2.2790302593947469E-02 b      1329     3     1
