################################################################################
# Neural network connection values (weights and biases).
################################################################################
# Col  Name       Description
################################################################################
# 1    connection Neural network connection value.
# 2    t          Connection type (a = weight, b = bias).
# 3    index      Index enumerating weights.
# 4    l_s        Starting point layer (end point layer for biases).
# 5    n_s        Starting point neuron in starting layer (end point neuron for biases).
# 6    l_e        End point layer.
# 7    n_e        End point neuron in end layer.
################################################################################
#                      1 2         3     4     5     6     7
#             connection t     index   l_s   n_s   l_e   n_e
############################################################
 -1.5492569542150882E+00 a         1     0     1     1     1
  1.4098740642831087E+00 a         2     0     1     1     2
 -4.1249980504365280E-01 a         3     0     1     1     3
 -4.1905535818836137E-01 a         4     0     1     1     4
  3.8676958488719624E+00 a         5     0     1     1     5
  3.9185123134068417E-01 a         6     0     1     1     6
  1.4743212533399221E+00 a         7     0     1     1     7
 -9.0502294521684912E-01 a         8     0     1     1     8
 -2.0744733054933007E+00 a         9     0     1     1     9
 -1.4275480485438556E+00 a        10     0     1     1    10
 -7.3698769518485141E-01 a        11     0     1     1    11
  1.2860663775621308E+00 a        12     0     1     1    12
 -6.8952952697053049E-01 a        13     0     1     1    13
  2.5617664846323684E+00 a        14     0     1     1    14
 -8.6459184666910638E-01 a        15     0     1     1    15
  2.6598970837255407E+00 a        16     0     1     1    16
 -8.3664486538354654E-01 a        17     0     1     1    17
  7.3136529843848289E-02 a        18     0     1     1    18
 -1.2753034618635288E+00 a        19     0     1     1    19
 -2.6049838835545380E-01 a        20     0     1     1    20
  8.8019634394512336E-01 a        21     0     2     1     1
 -1.5938390560010804E+00 a        22     0     2     1     2
  1.2750728786942480E+00 a        23     0     2     1     3
  3.3023569879092168E-01 a        24     0     2     1     4
 -2.5144420662507230E+00 a        25     0     2     1     5
  3.6048711200013217E-01 a        26     0     2     1     6
 -1.9218230570594477E+00 a        27     0     2     1     7
  2.9745443398201297E+00 a        28     0     2     1     8
  1.6076791894482323E+00 a        29     0     2     1     9
 -5.2765665942777451E-01 a        30     0     2     1    10
 -7.8184733215485658E-01 a        31     0     2     1    11
 -7.7149504420001080E-01 a        32     0     2     1    12
  6.2444059414608610E-01 a        33     0     2     1    13
 -3.2502978947602039E+00 a        34     0     2     1    14
 -7.2517905013650674E-01 a        35     0     2     1    15
 -2.5269592909779837E-01 a        36     0     2     1    16
  3.7111095699290392E-01 a        37     0     2     1    17
  1.4439870357897536E-01 a        38     0     2     1    18
  1.7217927387770191E+00 a        39     0     2     1    19
 -6.4546460104474124E-01 a        40     0     2     1    20
  3.1541680746253782E+00 a        41     0     3     1     1
 -7.3789408087627650E-01 a        42     0     3     1     2
  4.3283792988774900E-01 a        43     0     3     1     3
  1.6503740646463841E-01 a        44     0     3     1     4
 -4.3615613842044549E+00 a        45     0     3     1     5
 -1.6250671460519157E+00 a        46     0     3     1     6
  6.1962926186437528E-01 a        47     0     3     1     7
  2.0632460583040508E+00 a        48     0     3     1     8
  1.6904145485245179E+00 a        49     0     3     1     9
  3.4715396274297903E+00 a        50     0     3     1    10
  3.0166929573889769E+00 a        51     0     3     1    11
 -2.0019511141514830E+00 a        52     0     3     1    12
  2.3149394408117877E-01 a        53     0     3     1    13
 -2.6473776422585269E+00 a        54     0     3     1    14
  3.6251653676499256E+00 a        55     0     3     1    15
 -3.9971771375623830E+00 a        56     0     3     1    16
  1.5588132518059348E+00 a        57     0     3     1    17
 -1.5882425901389038E-01 a        58     0     3     1    18
  1.2577286402360501E+00 a        59     0     3     1    19
 -2.0051609447863666E-01 a        60     0     3     1    20
 -1.7721172069375180E+00 a        61     0     4     1     1
  1.8177803867974580E+00 a        62     0     4     1     2
 -2.4817716262793015E+00 a        63     0     4     1     3
  7.7617307361185617E-01 a        64     0     4     1     4
  2.3649854984033367E+00 a        65     0     4     1     5
  1.7269888474354527E+00 a        66     0     4     1     6
  1.8497949056055489E+00 a        67     0     4     1     7
 -4.5422606448001206E+00 a        68     0     4     1     8
 -1.2299493106350337E+00 a        69     0     4     1     9
  1.2514725796124007E+00 a        70     0     4     1    10
 -4.8192475605769802E-01 a        71     0     4     1    11
  5.0295778980058337E-01 a        72     0     4     1    12
 -5.7584018223717859E-01 a        73     0     4     1    13
  4.9934616998610233E+00 a        74     0     4     1    14
  2.9458144058452773E-01 a        75     0     4     1    15
 -4.8475666167549097E-01 a        76     0     4     1    16
 -1.2665299723717077E-01 a        77     0     4     1    17
  2.3251062809187958E-01 a        78     0     4     1    18
 -2.9705751454909772E+00 a        79     0     4     1    19
 -2.9226227749637967E-02 a        80     0     4     1    20
 -3.4015253219484891E+00 a        81     0     5     1     1
 -9.3916078051987018E-01 a        82     0     5     1     2
 -7.1452764612373720E-01 a        83     0     5     1     3
 -5.3989229096286118E-02 a        84     0     5     1     4
  4.8864600078790382E-01 a        85     0     5     1     5
  1.6405049159397327E+00 a        86     0     5     1     6
 -4.0512090888607197E+00 a        87     0     5     1     7
 -2.8741597250046436E+00 a        88     0     5     1     8
  1.1968813416946009E+00 a        89     0     5     1     9
 -3.7354461789163258E+00 a        90     0     5     1    10
 -3.6553913701820884E+00 a        91     0     5     1    11
  2.2124722318049019E+00 a        92     0     5     1    12
  2.0224608036642664E+00 a        93     0     5     1    13
 -3.0990950002056866E-01 a        94     0     5     1    14
 -5.3868263887954306E+00 a        95     0     5     1    15
  2.2005295520405368E+00 a        96     0     5     1    16
 -1.4914915613524946E+00 a        97     0     5     1    17
  5.6272955896476928E-01 a        98     0     5     1    18
  2.2259677656839907E-01 a        99     0     5     1    19
  3.0842781651367490E+00 a       100     0     5     1    20
  1.4310262055215308E+00 a       101     0     6     1     1
  1.0342244766966060E+00 a       102     0     6     1     2
  2.4418177368776384E+00 a       103     0     6     1     3
 -2.0730414622243294E+00 a       104     0     6     1     4
 -4.3457333018025668E-01 a       105     0     6     1     5
 -5.6781160946563478E+00 a       106     0     6     1     6
  4.8202043609541612E-01 a       107     0     6     1     7
  2.0805082007818307E+00 a       108     0     6     1     8
 -6.1589352835379396E-01 a       109     0     6     1     9
 -1.9009520292686228E+00 a       110     0     6     1    10
  1.0319205837629595E+00 a       111     0     6     1    11
 -5.0198441749205225E-01 a       112     0     6     1    12
  1.6160713755815981E-01 a       113     0     6     1    13
 -2.8121870696334619E+00 a       114     0     6     1    14
  1.5521268165230395E-01 a       115     0     6     1    15
 -1.9203041307768098E-01 a       116     0     6     1    16
  3.8078145335917452E-01 a       117     0     6     1    17
 -1.1461208711022712E+00 a       118     0     6     1    18
  2.2762543025931978E+00 a       119     0     6     1    19
  1.4788355970740077E+00 a       120     0     6     1    20
  4.0055413165002518E+00 a       121     0     7     1     1
 -2.2834229461327875E+00 a       122     0     7     1     2
  1.5184632188263874E+00 a       123     0     7     1     3
 -3.3879947094326940E-01 a       124     0     7     1     4
  5.3892331551316042E-01 a       125     0     7     1     5
  4.2238344415336476E-01 a       126     0     7     1     6
  2.1415789709876418E+00 a       127     0     7     1     7
  2.4441721398267262E+00 a       128     0     7     1     8
 -2.2229465506225541E+00 a       129     0     7     1     9
  3.6202296983777376E+00 a       130     0     7     1    10
  5.9762283258351854E+00 a       131     0     7     1    11
 -1.1950544273390107E+00 a       132     0     7     1    12
 -3.2747486896922688E+00 a       133     0     7     1    13
  1.6836932217721842E-01 a       134     0     7     1    14
  6.0277190606150981E+00 a       135     0     7     1    15
 -7.1076462414076136E-01 a       136     0     7     1    16
 -5.1257618254847459E-01 a       137     0     7     1    17
 -5.5305897177371932E-01 a       138     0     7     1    18
 -4.8609103835097661E-01 a       139     0     7     1    19
 -2.8069951636218273E+00 a       140     0     7     1    20
 -8.3923260115949416E-02 a       141     0     8     1     1
 -2.9120967935636211E+00 a       142     0     8     1     2
 -2.1329628947498604E+00 a       143     0     8     1     3
  1.0975330149435891E+00 a       144     0     8     1     4
 -1.1741825843941882E+00 a       145     0     8     1     5
  2.4562571639950672E+00 a       146     0     8     1     6
 -3.1113338775912340E+00 a       147     0     8     1     7
 -2.2539795790065646E+00 a       148     0     8     1     8
  1.4067021054396587E+00 a       149     0     8     1     9
  1.6354846524583275E+00 a       150     0     8     1    10
  7.7348029528428799E-02 a       151     0     8     1    11
  1.7597115866738740E+00 a       152     0     8     1    12
  3.0243658257405348E-01 a       153     0     8     1    13
 -8.4363215083755860E-01 a       154     0     8     1    14
 -5.2046737453105518E-01 a       155     0     8     1    15
  1.7370863169051012E+00 a       156     0     8     1    16
 -1.4290174367393131E+00 a       157     0     8     1    17
  1.1981192430843290E+00 a       158     0     8     1    18
  8.7283915392005540E-01 a       159     0     8     1    19
  1.2084966885529387E+00 a       160     0     8     1    20
 -1.7539970200254638E+00 a       161     0     9     1     1
  3.0427935662591334E+00 a       162     0     9     1     2
  5.0398670334272511E-01 a       163     0     9     1     3
  8.3661839950079064E-01 a       164     0     9     1     4
 -1.7762351734079989E+00 a       165     0     9     1     5
  1.5935886038399758E+00 a       166     0     9     1     6
  2.1113297683742194E+00 a       167     0     9     1     7
  2.0414016563095250E+00 a       168     0     9     1     8
  2.6804855778531738E+00 a       169     0     9     1     9
 -1.8943963212638035E+00 a       170     0     9     1    10
 -1.6626631583771507E+00 a       171     0     9     1    11
 -1.8881064733444466E+00 a       172     0     9     1    12
  3.1680382978889993E-01 a       173     0     9     1    13
 -1.1861178300681112E+00 a       174     0     9     1    14
  4.5778649454247278E-01 a       175     0     9     1    15
 -1.5813039876729602E+00 a       176     0     9     1    16
  2.3047121480025146E+00 a       177     0     9     1    17
  7.6087986421750609E-01 a       178     0     9     1    18
 -5.4509689811040229E-01 a       179     0     9     1    19
 -1.1346192398644623E+00 a       180     0     9     1    20
 -2.6335440728051305E+00 a       181     0    10     1     1
  3.0903944381585489E+00 a       182     0    10     1     2
 -8.7965976846066141E-01 a       183     0    10     1     3
  6.4212249957459402E-02 a       184     0    10     1     4
  3.2422701089514805E-01 a       185     0    10     1     5
  5.5612762536391602E-01 a       186     0    10     1     6
  1.1508027251997874E-01 a       187     0    10     1     7
  2.5261971505140551E-01 a       188     0    10     1     8
  1.1377113299636685E+00 a       189     0    10     1     9
 -1.4724279442187340E+00 a       190     0    10     1    10
 -2.4250420573403764E+00 a       191     0    10     1    11
  1.3470249268866250E-01 a       192     0    10     1    12
  9.4767381870289380E-01 a       193     0    10     1    13
  8.4686437295131067E-01 a       194     0    10     1    14
 -1.4950786686452162E+00 a       195     0    10     1    15
  1.5394177845611184E-01 a       196     0    10     1    16
  7.3516732135428708E-01 a       197     0    10     1    17
 -1.1076404442085620E-01 a       198     0    10     1    18
 -1.1253584933021274E-01 a       199     0    10     1    19
  1.6774992444402308E+00 a       200     0    10     1    20
  7.8483941386362677E-01 a       201     0    11     1     1
 -2.2294535234871691E+00 a       202     0    11     1     2
 -4.5756392840020416E-01 a       203     0    11     1     3
  3.0409418488154522E-01 a       204     0    11     1     4
  3.7271411666105608E-01 a       205     0    11     1     5
 -5.8959209883084283E+00 a       206     0    11     1     6
  2.2648100310191741E-01 a       207     0    11     1     7
 -2.1040231407259391E+00 a       208     0    11     1     8
 -2.0565557115332456E+00 a       209     0    11     1     9
  1.5696600001564813E+00 a       210     0    11     1    10
  1.4458414943540249E-01 a       211     0    11     1    11
  1.6794421607846926E+00 a       212     0    11     1    12
  5.4877260529467953E-01 a       213     0    11     1    13
 -2.5612199260758683E-01 a       214     0    11     1    14
 -8.8343236947524340E-01 a       215     0    11     1    15
  1.6349952563012278E+00 a       216     0    11     1    16
 -5.5603203258098399E-01 a       217     0    11     1    17
  1.1117451098294422E+00 a       218     0    11     1    18
  2.8322306432645739E-01 a       219     0    11     1    19
 -1.0852932901420320E+00 a       220     0    11     1    20
  8.4674980882819884E-01 a       221     0    12     1     1
 -2.1161801567751075E+00 a       222     0    12     1     2
  3.9426474225717906E-01 a       223     0    12     1     3
  2.1081868898074729E-01 a       224     0    12     1     4
 -4.3288464484749134E-01 a       225     0    12     1     5
 -2.3432298830616666E-01 a       226     0    12     1     6
 -1.0535066582106571E+00 a       227     0    12     1     7
 -5.7863512004936633E-02 a       228     0    12     1     8
 -2.2510725227964348E-01 a       229     0    12     1     9
 -8.8144788122659315E-02 a       230     0    12     1    10
  4.4486359778712042E-01 a       231     0    12     1    11
 -4.9349388827694163E-01 a       232     0    12     1    12
 -1.6543773584038127E-01 a       233     0    12     1    13
 -1.6944899759881077E-01 a       234     0    12     1    14
  4.8738788864146232E-02 a       235     0    12     1    15
 -1.9144425909725571E-01 a       236     0    12     1    16
 -1.2495617494780258E-01 a       237     0    12     1    17
  3.7778354395318470E-01 a       238     0    12     1    18
  1.6697469606929299E-01 a       239     0    12     1    19
 -1.2317155782788298E+00 a       240     0    12     1    20
 -1.2828728413201820E-01 a       241     0    13     1     1
  3.8511120983535052E-01 a       242     0    13     1     2
  7.4367810027726866E-01 a       243     0    13     1     3
 -6.3026089854032030E-01 a       244     0    13     1     4
 -1.8247476142850416E-01 a       245     0    13     1     5
  2.4879727192241927E+00 a       246     0    13     1     6
 -6.3186053657208097E-01 a       247     0    13     1     7
  1.1384950398619378E+00 a       248     0    13     1     8
  9.0787273231933652E-01 a       249     0    13     1     9
 -1.3527761203451973E+00 a       250     0    13     1    10
  6.4410355363830732E-02 a       251     0    13     1    11
 -7.9124979328526457E-01 a       252     0    13     1    12
 -2.4804961549743446E-01 a       253     0    13     1    13
 -6.1379658218647648E-01 a       254     0    13     1    14
  2.0488680448560226E-01 a       255     0    13     1    15
 -6.5802527455953730E-01 a       256     0    13     1    16
 -4.4921924472013824E-01 a       257     0    13     1    17
  8.2788230149341002E-02 a       258     0    13     1    18
  6.3616913780182680E-02 a       259     0    13     1    19
 -8.8652678210548830E-01 a       260     0    13     1    20
 -1.2702737212994910E+00 a       261     0    14     1     1
  1.4483944491688538E+00 a       262     0    14     1     2
 -5.8216192425144232E-02 a       263     0    14     1     3
  3.4899237882197587E-01 a       264     0    14     1     4
  5.7596237986250876E-01 a       265     0    14     1     5
 -2.0946224151061665E+00 a       266     0    14     1     6
  1.2099924536517093E+00 a       267     0    14     1     7
 -7.8493791820282932E-02 a       268     0    14     1     8
  5.6078736741572655E-01 a       269     0    14     1     9
 -1.2306114283759134E-01 a       270     0    14     1    10
  5.1515237827917593E-01 a       271     0    14     1    11
  4.3995770878068896E-01 a       272     0    14     1    12
 -3.5364075450870353E-01 a       273     0    14     1    13
 -2.8888470863697746E-01 a       274     0    14     1    14
  6.4219201977624563E-01 a       275     0    14     1    15
  1.0254799184237187E+00 a       276     0    14     1    16
 -7.8224074621879780E-01 a       277     0    14     1    17
  8.3699924306830389E-02 a       278     0    14     1    18
 -2.3588364678394047E-01 a       279     0    14     1    19
  1.8160534587758008E+00 a       280     0    14     1    20
  1.0558001152037520E-01 a       281     0    15     1     1
  5.4440163750138482E-01 a       282     0    15     1     2
 -9.9097946342001766E-02 a       283     0    15     1     3
  3.1618401766997101E-01 a       284     0    15     1     4
  6.4355097703451525E-01 a       285     0    15     1     5
  6.1447541382051041E-01 a       286     0    15     1     6
  6.8688745619718894E-01 a       287     0    15     1     7
 -1.9490765053397241E-01 a       288     0    15     1     8
 -2.8132302012598237E-01 a       289     0    15     1     9
  1.4935796280985585E+00 a       290     0    15     1    10
  1.0605909390286213E-01 a       291     0    15     1    11
 -2.9101879454552469E-02 a       292     0    15     1    12
  4.0896039584325911E-01 a       293     0    15     1    13
  3.8022437248146174E-01 a       294     0    15     1    14
  4.5002043845333628E-02 a       295     0    15     1    15
  6.9366302964159443E-01 a       296     0    15     1    16
  6.3522504182936901E-01 a       297     0    15     1    17
  1.8976199121779261E-01 a       298     0    15     1    18
  3.6971492996150884E-01 a       299     0    15     1    19
  1.2818133281928639E+00 a       300     0    15     1    20
 -3.5408711060555521E-02 a       301     0    16     1     1
 -1.6719467268548954E-01 a       302     0    16     1     2
  3.6234615179977336E-02 a       303     0    16     1     3
 -7.7146929603813738E-03 a       304     0    16     1     4
 -8.3550943744568423E-02 a       305     0    16     1     5
  2.0868383315920442E+00 a       306     0    16     1     6
  7.6209684291085295E-02 a       307     0    16     1     7
  4.9840373961972939E-01 a       308     0    16     1     8
  1.2745666751624224E-01 a       309     0    16     1     9
 -2.5664948849602781E-01 a       310     0    16     1    10
 -1.9984749723964065E-01 a       311     0    16     1    11
 -2.6082743070267023E-01 a       312     0    16     1    12
  2.0161075783367288E-02 a       313     0    16     1    13
  2.7638330334411426E-01 a       314     0    16     1    14
  5.9844994964292064E-01 a       315     0    16     1    15
  7.7771952606901076E-02 a       316     0    16     1    16
  2.0212582618235242E-01 a       317     0    16     1    17
  5.9783551813191595E-02 a       318     0    16     1    18
 -5.2866074337103254E-02 a       319     0    16     1    19
 -1.4853190713229765E+00 a       320     0    16     1    20
  4.7469737388433492E-02 a       321     0    17     1     1
  2.4074252064530033E-01 a       322     0    17     1     2
  1.1306015228956814E-01 a       323     0    17     1     3
  3.7213320116341625E-02 a       324     0    17     1     4
  1.9521819957812836E-01 a       325     0    17     1     5
  3.5411242167653657E-02 a       326     0    17     1     6
 -3.2144740928306804E-02 a       327     0    17     1     7
  5.1203278587050260E-01 a       328     0    17     1     8
  1.6420526244054959E-01 a       329     0    17     1     9
 -2.0931301732315602E-01 a       330     0    17     1    10
  1.0870481068009306E-01 a       331     0    17     1    11
  1.7958761288570990E-02 a       332     0    17     1    12
  3.2181887972653467E-01 a       333     0    17     1    13
 -2.3639827698365976E-01 a       334     0    17     1    14
  1.0541835187005191E-01 a       335     0    17     1    15
  3.7041618240542551E-01 a       336     0    17     1    16
 -2.7872612493969251E-01 a       337     0    17     1    17
  1.2896052480494857E-01 a       338     0    17     1    18
 -1.8359055444514863E-01 a       339     0    17     1    19
 -1.3457527569846612E+00 a       340     0    17     1    20
 -4.5304859857692364E-01 a       341     0    18     1     1
 -6.9786382722216755E-01 a       342     0    18     1     2
  7.9910615785411337E-02 a       343     0    18     1     3
 -1.0293548032245210E-01 a       344     0    18     1     4
 -2.3519356260757759E-01 a       345     0    18     1     5
 -1.7178020429690100E-01 a       346     0    18     1     6
 -3.3532240702904065E-01 a       347     0    18     1     7
  2.8964775557584083E-01 a       348     0    18     1     8
  5.2200208729085085E-01 a       349     0    18     1     9
 -8.9044727563905801E-02 a       350     0    18     1    10
  7.5220987905905945E-01 a       351     0    18     1    11
  3.5053308915643200E-01 a       352     0    18     1    12
 -1.7392115438240843E-01 a       353     0    18     1    13
 -5.7174774797756367E-01 a       354     0    18     1    14
  1.6810786373804018E-01 a       355     0    18     1    15
  3.5343568794949171E-01 a       356     0    18     1    16
 -2.2486660223007873E-01 a       357     0    18     1    17
  9.2928726438352358E-02 a       358     0    18     1    18
  2.4962222884467442E-01 a       359     0    18     1    19
  2.5183893805923446E-01 a       360     0    18     1    20
 -1.2890557221573187E-01 a       361     0    19     1     1
 -5.7872616486892743E-02 a       362     0    19     1     2
 -2.4428775604851669E-01 a       363     0    19     1     3
  7.6049821421461272E-02 a       364     0    19     1     4
 -5.0429215424399831E-01 a       365     0    19     1     5
  6.4807396328278299E-01 a       366     0    19     1     6
 -5.0582933240409900E-01 a       367     0    19     1     7
  5.6440478564672596E-02 a       368     0    19     1     8
  1.3331306526383863E-01 a       369     0    19     1     9
  2.1883941242556731E-01 a       370     0    19     1    10
 -4.5476031720958215E-01 a       371     0    19     1    11
 -3.8878815927152019E-02 a       372     0    19     1    12
  4.5662426830949443E-01 a       373     0    19     1    13
  1.0670886670256534E-01 a       374     0    19     1    14
 -3.5992113089402550E-01 a       375     0    19     1    15
 -6.3797646376214767E-01 a       376     0    19     1    16
  1.1532975120562865E-01 a       377     0    19     1    17
  2.3843114028583086E-02 a       378     0    19     1    18
  1.8978502617748291E-01 a       379     0    19     1    19
  5.6540735920229054E-02 a       380     0    19     1    20
  9.1366968470074417E-01 a       381     0    20     1     1
  1.2448256270742708E+00 a       382     0    20     1     2
  7.0457795847659932E-02 a       383     0    20     1     3
  9.8412520776503712E-02 a       384     0    20     1     4
  6.9852279954960972E-01 a       385     0    20     1     5
  1.7468284822948399E+00 a       386     0    20     1     6
  1.1100554150824209E+00 a       387     0    20     1     7
  2.7570465522692705E-01 a       388     0    20     1     8
 -8.5137196368395396E-01 a       389     0    20     1     9
 -1.6263652401137824E-01 a       390     0    20     1    10
 -1.1300198205706224E+00 a       391     0    20     1    11
 -1.0987373035336445E+00 a       392     0    20     1    12
 -1.3471309409784496E-01 a       393     0    20     1    13
  1.4703747341230298E+00 a       394     0    20     1    14
 -6.9194364948832882E-02 a       395     0    20     1    15
  4.6668506774119618E-03 a       396     0    20     1    16
  2.1416389430891258E-01 a       397     0    20     1    17
 -4.7647382358296414E-01 a       398     0    20     1    18
 -5.8989546064789167E-01 a       399     0    20     1    19
 -2.9002018523173283E+00 a       400     0    20     1    20
 -5.8872972885917996E-01 a       401     0    21     1     1
 -1.4876293553206899E+00 a       402     0    21     1     2
  4.9220376408737843E-01 a       403     0    21     1     3
  1.1599570411337974E-01 a       404     0    21     1     4
 -4.5086474291170181E-01 a       405     0    21     1     5
 -1.6018878564866277E+00 a       406     0    21     1     6
 -6.1079608528594376E-01 a       407     0    21     1     7
  7.4509387729815291E-01 a       408     0    21     1     8
  6.9960306950234796E-01 a       409     0    21     1     9
  9.0865350137809123E-02 a       410     0    21     1    10
 -3.5079819938558909E-01 a       411     0    21     1    11
  3.4150306874307379E-01 a       412     0    21     1    12
  6.9324220072168108E-01 a       413     0    21     1    13
 -9.8883003441962936E-01 a       414     0    21     1    14
 -6.1636185045318995E-02 a       415     0    21     1    15
  2.5626446973614520E-01 a       416     0    21     1    16
  5.9243218504083227E-02 a       417     0    21     1    17
 -1.2199510831154592E+00 a       418     0    21     1    18
 -2.7327740348281904E-01 a       419     0    21     1    19
 -5.9130496558417383E+00 a       420     0    21     1    20
  7.5043255714187540E-01 a       421     0    22     1     1
 -4.8344393606950593E-02 a       422     0    22     1     2
  6.2325033640540906E-01 a       423     0    22     1     3
 -4.5474313346702100E-01 a       424     0    22     1     4
  9.9872304807413559E-01 a       425     0    22     1     5
  5.1775979837866054E-02 a       426     0    22     1     6
  8.4342015669884496E-01 a       427     0    22     1     7
 -2.8532778451539192E-01 a       428     0    22     1     8
 -1.1718207628730493E+00 a       429     0    22     1     9
  5.4852804250605375E-02 a       430     0    22     1    10
  1.1905243609210650E+00 a       431     0    22     1    11
 -6.3651446106010290E-01 a       432     0    22     1    12
  2.1175731206889779E-02 a       433     0    22     1    13
  2.1012719992094393E+00 a       434     0    22     1    14
  1.1764645475583398E-01 a       435     0    22     1    15
 -2.4915902391438266E-01 a       436     0    22     1    16
  3.7038268834071358E-01 a       437     0    22     1    17
 -2.2235825729032024E-01 a       438     0    22     1    18
 -3.4693591285998104E-01 a       439     0    22     1    19
  2.3277328991665502E+00 a       440     0    22     1    20
  1.0364609429542708E+00 a       441     0    23     1     1
  5.3520654682567614E-01 a       442     0    23     1     2
 -4.2542226968779068E-01 a       443     0    23     1     3
  2.7423372203656105E-01 a       444     0    23     1     4
  4.8795471685022979E-01 a       445     0    23     1     5
  7.9024966918442949E-02 a       446     0    23     1     6
  8.9693174042090196E-01 a       447     0    23     1     7
 -9.4206650827743188E-01 a       448     0    23     1     8
 -9.7785970360063923E-01 a       449     0    23     1     9
 -1.5772108449698524E-01 a       450     0    23     1    10
 -8.7419822785832013E-01 a       451     0    23     1    11
  1.1127215058790323E-01 a       452     0    23     1    12
 -2.8714223634892239E-01 a       453     0    23     1    13
 -2.3421672622310072E-01 a       454     0    23     1    14
 -1.0825899144115023E+00 a       455     0    23     1    15
 -4.0007158339979282E-01 a       456     0    23     1    16
  7.2670581072179607E-01 a       457     0    23     1    17
  1.3078801275318923E+00 a       458     0    23     1    18
  5.3593271904109629E-01 a       459     0    23     1    19
  7.8937078269366747E+00 a       460     0    23     1    20
 -7.1958846815214128E-01 a       461     0    24     1     1
  1.0022070840396737E+00 a       462     0    24     1     2
 -2.8096475401917742E-01 a       463     0    24     1     3
  7.9278108856297780E-01 a       464     0    24     1     4
  1.7898578299876342E-01 a       465     0    24     1     5
 -5.9846224716113783E-01 a       466     0    24     1     6
  3.4813614035754720E-01 a       467     0    24     1     7
  8.4910034392436695E-01 a       468     0    24     1     8
  7.7968337748276573E-01 a       469     0    24     1     9
  2.7164138121557480E-01 a       470     0    24     1    10
 -1.0828091544647580E+00 a       471     0    24     1    11
 -5.3316242717665357E-02 a       472     0    24     1    12
  3.4025515203889584E-01 a       473     0    24     1    13
 -5.3855196667046834E-01 a       474     0    24     1    14
  2.4509618534171657E-01 a       475     0    24     1    15
  2.4590596241052304E-01 a       476     0    24     1    16
 -1.2231113317827522E-01 a       477     0    24     1    17
  1.3632063790024512E-01 a       478     0    24     1    18
 -5.3507890964335103E-01 a       479     0    24     1    19
 -3.9745798900702449E+00 a       480     0    24     1    20
  5.6701765133371350E-02 a       481     0    25     1     1
  8.8245431376518857E-01 a       482     0    25     1     2
 -2.3333914741940681E-01 a       483     0    25     1     3
  7.2335523955113640E-02 a       484     0    25     1     4
  1.3646402522429797E+00 a       485     0    25     1     5
  1.6732371762088616E+00 a       486     0    25     1     6
  1.3411865398300078E+00 a       487     0    25     1     7
 -5.4771022022410565E-01 a       488     0    25     1     8
 -1.1032752345887396E+00 a       489     0    25     1     9
 -4.6134829516921418E-02 a       490     0    25     1    10
 -8.0442635260298645E-01 a       491     0    25     1    11
 -2.8852046025097937E-02 a       492     0    25     1    12
 -1.4951889640701613E-01 a       493     0    25     1    13
  5.1051647844762738E-01 a       494     0    25     1    14
 -1.1550834814636233E+00 a       495     0    25     1    15
  1.9241090950020895E-01 a       496     0    25     1    16
  6.8971642479755835E-01 a       497     0    25     1    17
  5.5879145957343490E-01 a       498     0    25     1    18
  2.2641041454265440E-01 a       499     0    25     1    19
  3.5360606593521351E+00 a       500     0    25     1    20
  1.5181531646796040E-01 a       501     0    26     1     1
 -6.5517732053302080E-01 a       502     0    26     1     2
  1.8422748645202432E-02 a       503     0    26     1     3
 -1.2385091839421245E+00 a       504     0    26     1     4
 -3.9131709991404828E-01 a       505     0    26     1     5
  1.0173082730525316E+00 a       506     0    26     1     6
 -1.1558922840398467E+00 a       507     0    26     1     7
 -2.3514645188482927E-01 a       508     0    26     1     8
  1.4188644502067815E-01 a       509     0    26     1     9
 -3.6031737105311277E-03 a       510     0    26     1    10
  1.5144857075491946E+00 a       511     0    26     1    11
  3.3931349770549352E-01 a       512     0    26     1    12
  4.6946350768067352E-01 a       513     0    26     1    13
  3.7184223022417345E-01 a       514     0    26     1    14
  9.2474152983919367E-01 a       515     0    26     1    15
 -4.2950597018320429E-02 a       516     0    26     1    16
 -2.6853468958100513E-01 a       517     0    26     1    17
 -1.1921048602803213E+00 a       518     0    26     1    18
 -2.5733909215619932E-01 a       519     0    26     1    19
 -1.7906809024998562E+00 a       520     0    26     1    20
  8.5473881034430294E-02 a       521     0    27     1     1
  5.8608752740061598E-01 a       522     0    27     1     2
 -1.8152957444015302E-01 a       523     0    27     1     3
  1.8931003181689285E-01 a       524     0    27     1     4
 -1.3101520009286918E-01 a       525     0    27     1     5
 -1.6653303092004328E+00 a       526     0    27     1     6
 -2.7982002649748267E-01 a       527     0    27     1     7
 -5.3170622257913962E-02 a       528     0    27     1     8
  1.2960105080653303E-01 a       529     0    27     1     9
  5.8803395369901479E-02 a       530     0    27     1    10
  3.3475690004137365E-01 a       531     0    27     1    11
  2.5690703359804107E-01 a       532     0    27     1    12
  5.1649454930425565E-01 a       533     0    27     1    13
 -2.1725349975810976E-01 a       534     0    27     1    14
 -5.5967942786689229E-01 a       535     0    27     1    15
 -1.6112803163123549E-01 a       536     0    27     1    16
 -7.8022601952144693E-02 a       537     0    27     1    17
  9.2910433200155865E-02 a       538     0    27     1    18
  4.2944314315892976E-02 a       539     0    27     1    19
 -1.3822456289576408E+00 a       540     0    27     1    20
 -9.2321964370410237E-01 b       541     1     1
  7.6560021620927710E-01 b       542     1     2
  5.7819540043546636E-01 b       543     1     3
  2.7090400548526267E-01 b       544     1     4
 -9.3937743752234582E-01 b       545     1     5
  1.6676421267064256E+00 b       546     1     6
 -4.6635040594534555E-01 b       547     1     7
 -1.8541650821656372E-01 b       548     1     8
 -3.9513522051928082E-02 b       549     1     9
 -1.7215949314576362E+00 b       550     1    10
  1.4136464455223070E+00 b       551     1    11
  1.2696195548869568E-01 b       552     1    12
  1.3989472903305089E+00 b       553     1    13
 -1.1330032773764687E+00 b       554     1    14
  1.3621758974449476E+00 b       555     1    15
 -8.9034612803631141E-01 b       556     1    16
  1.4415471590042204E+00 b       557     1    17
  9.8616932592399509E-01 b       558     1    18
 -4.9572001726754517E-01 b       559     1    19
 -2.3137345927167901E+00 b       560     1    20
  2.2997243128919104E-01 a       561     1     1     2     1
  1.3497585710729054E-01 a       562     1     1     2     2
  2.3068841308426447E-01 a       563     1     1     2     3
 -1.4988959697138834E-02 a       564     1     1     2     4
 -1.7950356878874801E-01 a       565     1     1     2     5
  5.2320361527463521E-01 a       566     1     1     2     6
  2.0774286385696306E-01 a       567     1     1     2     7
  5.4843565253246940E-01 a       568     1     1     2     8
 -6.5908670766776853E-02 a       569     1     1     2     9
 -5.4741104110288330E-01 a       570     1     1     2    10
 -6.4848353195987932E-03 a       571     1     1     2    11
  1.8648431215823233E-01 a       572     1     1     2    12
  7.5367501501476131E-01 a       573     1     1     2    13
 -5.1503444097839512E-01 a       574     1     1     2    14
 -3.8369330610358326E-01 a       575     1     1     2    15
 -7.6452781753235236E-02 a       576     1     1     2    16
  2.1286504049313856E-01 a       577     1     1     2    17
  4.0196530375754264E-01 a       578     1     1     2    18
  6.9240443179251643E-01 a       579     1     1     2    19
 -4.2843529311480877E-01 a       580     1     1     2    20
  1.7329772200645874E-01 a       581     1     2     2     1
 -5.8305482218452087E-01 a       582     1     2     2     2
 -2.8688082427252520E-01 a       583     1     2     2     3
  1.4894725275932568E-02 a       584     1     2     2     4
 -4.0676275277881813E-01 a       585     1     2     2     5
  5.3204739599539275E-01 a       586     1     2     2     6
  6.7884489438838991E-01 a       587     1     2     2     7
 -1.3761352029512594E-01 a       588     1     2     2     8
 -1.6067720710751623E-01 a       589     1     2     2     9
 -4.3292468392235123E-01 a       590     1     2     2    10
  6.5694954110480597E-01 a       591     1     2     2    11
  3.1300837084290278E-01 a       592     1     2     2    12
  2.0987630237272806E-01 a       593     1     2     2    13
  3.2584168705199074E-01 a       594     1     2     2    14
 -1.9877161939076260E-01 a       595     1     2     2    15
 -2.9696793498348328E-01 a       596     1     2     2    16
 -7.4489950289058943E-02 a       597     1     2     2    17
  1.3271743815617928E-01 a       598     1     2     2    18
  1.4449031765801579E-01 a       599     1     2     2    19
 -4.2258550028874625E-01 a       600     1     2     2    20
  1.2919689984967569E-01 a       601     1     3     2     1
 -7.4776144970564251E-01 a       602     1     3     2     2
  2.0077616242255439E-01 a       603     1     3     2     3
  5.7260442176778548E-01 a       604     1     3     2     4
  2.1128464680278016E+00 a       605     1     3     2     5
 -1.9239067576272620E-01 a       606     1     3     2     6
 -4.9823940631715791E-01 a       607     1     3     2     7
 -1.5030560052160927E-01 a       608     1     3     2     8
  3.8641348924275370E-01 a       609     1     3     2     9
 -5.7864531907954098E-01 a       610     1     3     2    10
  6.5982132750751210E-01 a       611     1     3     2    11
  6.4010451108474942E-01 a       612     1     3     2    12
  1.8799558309515432E+00 a       613     1     3     2    13
  2.7790344734844236E-01 a       614     1     3     2    14
 -3.3139079477409589E-01 a       615     1     3     2    15
  6.0460415150781743E-01 a       616     1     3     2    16
  1.5566445529952866E-01 a       617     1     3     2    17
 -8.2886431657357795E-01 a       618     1     3     2    18
  7.9521274540708808E-01 a       619     1     3     2    19
  1.3306202103629774E+00 a       620     1     3     2    20
 -1.9813172080389937E-01 a       621     1     4     2     1
  3.4705380886007877E-03 a       622     1     4     2     2
 -4.3458643879865361E-01 a       623     1     4     2     3
 -5.2445309113738225E-01 a       624     1     4     2     4
 -6.3515018072716278E-01 a       625     1     4     2     5
 -6.1694673895580654E-01 a       626     1     4     2     6
  3.2605616144218852E-01 a       627     1     4     2     7
  6.5672828116059623E-01 a       628     1     4     2     8
  5.0191721054327267E-02 a       629     1     4     2     9
 -3.3960996290845719E-01 a       630     1     4     2    10
  1.4137325034446363E-01 a       631     1     4     2    11
  4.5343361547841082E-01 a       632     1     4     2    12
 -4.0848163089204798E-01 a       633     1     4     2    13
 -3.8435845300315380E-01 a       634     1     4     2    14
  3.7273058764475071E-02 a       635     1     4     2    15
  6.8910739588043490E-01 a       636     1     4     2    16
 -3.1698639883051033E-01 a       637     1     4     2    17
  7.3802272821314652E-01 a       638     1     4     2    18
 -4.5052469744602736E-01 a       639     1     4     2    19
  4.7001420704568120E-01 a       640     1     4     2    20
 -8.9747873242962639E-01 a       641     1     5     2     1
  7.8790720649733137E-01 a       642     1     5     2     2
  4.8030624401794797E-01 a       643     1     5     2     3
  5.9339756416000122E-01 a       644     1     5     2     4
 -3.8441415622657473E+00 a       645     1     5     2     5
 -6.8132151715974698E-01 a       646     1     5     2     6
  8.5910187910477873E-02 a       647     1     5     2     7
  4.7717512190959382E-01 a       648     1     5     2     8
 -5.1535081984142772E-01 a       649     1     5     2     9
  2.0273425201396325E-01 a       650     1     5     2    10
 -9.0353908842367681E-01 a       651     1     5     2    11
 -9.6093966600755115E-02 a       652     1     5     2    12
  1.6935365927227650E+00 a       653     1     5     2    13
 -4.5686982657565101E-01 a       654     1     5     2    14
 -4.0662738438594892E-01 a       655     1     5     2    15
 -1.1004962867735324E-01 a       656     1     5     2    16
  7.7638249773290313E-02 a       657     1     5     2    17
 -1.8957610510565723E-01 a       658     1     5     2    18
 -2.7816647524023569E-01 a       659     1     5     2    19
  2.9092601739542173E-01 a       660     1     5     2    20
  1.9218704688955032E-01 a       661     1     6     2     1
  6.6451918111603905E-02 a       662     1     6     2     2
 -5.1580525081114804E-02 a       663     1     6     2     3
 -1.9779071720199906E-01 a       664     1     6     2     4
  1.1951729920009115E+00 a       665     1     6     2     5
 -2.1787106669995224E-01 a       666     1     6     2     6
 -1.1344440729826075E-01 a       667     1     6     2     7
  4.2450448598975116E-01 a       668     1     6     2     8
  7.1297265034213256E-02 a       669     1     6     2     9
  1.2009225046170760E-01 a       670     1     6     2    10
 -1.5078899017630893E+00 a       671     1     6     2    11
 -3.2150652864255669E-01 a       672     1     6     2    12
 -9.9892909744406622E-01 a       673     1     6     2    13
  1.7311200775681852E+00 a       674     1     6     2    14
  1.6881999849487567E-01 a       675     1     6     2    15
  1.7039242279307490E-01 a       676     1     6     2    16
  6.4299898832816435E-02 a       677     1     6     2    17
  1.1006699510611799E-02 a       678     1     6     2    18
 -2.0282974574738630E-01 a       679     1     6     2    19
  9.9298936600187973E-02 a       680     1     6     2    20
  6.4942842122960898E-01 a       681     1     7     2     1
  3.5479862122876654E-01 a       682     1     7     2     2
 -1.3352884183708683E-01 a       683     1     7     2     3
  2.4169661032977824E-01 a       684     1     7     2     4
 -9.3084467467821652E-01 a       685     1     7     2     5
  5.7086786495263153E-01 a       686     1     7     2     6
 -1.0399532753411626E-02 a       687     1     7     2     7
 -5.6612159455502986E-01 a       688     1     7     2     8
  3.9427681454344221E-01 a       689     1     7     2     9
 -3.4972128322510565E-01 a       690     1     7     2    10
 -3.4489583376766553E-01 a       691     1     7     2    11
  1.6217773829268106E-01 a       692     1     7     2    12
 -1.3718906440690712E-01 a       693     1     7     2    13
  8.5860307711579864E-01 a       694     1     7     2    14
  9.5938057642996857E-02 a       695     1     7     2    15
  2.9458959217841185E-01 a       696     1     7     2    16
 -1.0224107737605403E-02 a       697     1     7     2    17
  2.3726153012694468E-01 a       698     1     7     2    18
  2.4816708162139406E-01 a       699     1     7     2    19
 -2.7011024071578804E-01 a       700     1     7     2    20
 -3.8128093250441912E-02 a       701     1     8     2     1
  1.6976284768625352E-01 a       702     1     8     2     2
 -2.8534427338706039E-03 a       703     1     8     2     3
  1.2999735032545104E-01 a       704     1     8     2     4
 -1.8610852835702313E-01 a       705     1     8     2     5
 -2.3831719245235380E-01 a       706     1     8     2     6
 -7.0822234931450470E-02 a       707     1     8     2     7
 -6.9796712179020737E-01 a       708     1     8     2     8
 -8.8796396945039699E-02 a       709     1     8     2     9
  3.3227869061161136E-01 a       710     1     8     2    10
  9.5924618604375245E-01 a       711     1     8     2    11
  1.1668478651327600E-01 a       712     1     8     2    12
  3.6464037954884221E-01 a       713     1     8     2    13
 -1.3226762815176274E+00 a       714     1     8     2    14
 -1.0581103889707719E-01 a       715     1     8     2    15
 -2.5415964675843022E-01 a       716     1     8     2    16
 -1.7553109731951824E-01 a       717     1     8     2    17
  2.2102830338873156E-01 a       718     1     8     2    18
 -7.7461534420156408E-01 a       719     1     8     2    19
 -3.7283300285889354E-01 a       720     1     8     2    20
 -9.2982921341508729E-01 a       721     1     9     2     1
  4.6137695110640758E-01 a       722     1     9     2     2
  6.0410393206898649E-01 a       723     1     9     2     3
  5.1288689591636927E-01 a       724     1     9     2     4
 -9.8538612996969988E-01 a       725     1     9     2     5
 -9.3561248379992146E-01 a       726     1     9     2     6
 -1.9170893827619465E-01 a       727     1     9     2     7
  9.4472975122662439E-01 a       728     1     9     2     8
  2.8453379483605318E-01 a       729     1     9     2     9
  3.6758883003242809E-01 a       730     1     9     2    10
  3.1025093492156503E-02 a       731     1     9     2    11
  2.0730125902872151E-01 a       732     1     9     2    12
  5.6336922733304551E-01 a       733     1     9     2    13
 -4.0831933964764944E-01 a       734     1     9     2    14
 -3.4928420030290952E-01 a       735     1     9     2    15
  1.0528924933457358E-01 a       736     1     9     2    16
  2.8093689190240995E-01 a       737     1     9     2    17
 -3.7525598481444628E-01 a       738     1     9     2    18
  9.2679213885240330E-01 a       739     1     9     2    19
 -1.0074677472101291E-01 a       740     1     9     2    20
 -9.2954833221985544E-01 a       741     1    10     2     1
 -2.6051125459582508E-01 a       742     1    10     2     2
  7.7331847890672267E-01 a       743     1    10     2     3
  1.0086353222451514E+00 a       744     1    10     2     4
  2.2006172549713483E+00 a       745     1    10     2     5
 -2.5334358232900280E+00 a       746     1    10     2     6
 -4.4353850345330431E-01 a       747     1    10     2     7
  3.5181039456789259E-01 a       748     1    10     2     8
 -2.7039822055091811E-01 a       749     1    10     2     9
  2.4255769045788153E-01 a       750     1    10     2    10
  4.0939622027332923E-02 a       751     1    10     2    11
  6.1120983544445295E-01 a       752     1    10     2    12
  2.1100492928931339E-01 a       753     1    10     2    13
 -3.0416090724780926E+00 a       754     1    10     2    14
 -3.3884316471286174E-01 a       755     1    10     2    15
  1.2756097496398244E-01 a       756     1    10     2    16
  3.3316989540248483E-02 a       757     1    10     2    17
 -1.1994482688484762E+00 a       758     1    10     2    18
 -4.4575634965712041E-01 a       759     1    10     2    19
  5.6096217687204031E-01 a       760     1    10     2    20
 -1.1607369785685127E+00 a       761     1    11     2     1
  6.5762521933417739E-01 a       762     1    11     2     2
  1.0149091961429912E+00 a       763     1    11     2     3
 -4.9349701325070128E-01 a       764     1    11     2     4
  1.1351528952023467E-01 a       765     1    11     2     5
 -2.1743088364769772E-01 a       766     1    11     2     6
  1.1911499287439314E-01 a       767     1    11     2     7
  8.2945370595716161E-01 a       768     1    11     2     8
  2.9959529203427905E-02 a       769     1    11     2     9
  1.4372936070623981E+00 a       770     1    11     2    10
  6.1021559679549053E-01 a       771     1    11     2    11
 -1.2867251131892163E+00 a       772     1    11     2    12
 -9.6479812813763144E-01 a       773     1    11     2    13
 -1.5374653209883415E+00 a       774     1    11     2    14
 -2.8865889912354503E-01 a       775     1    11     2    15
  1.2028101607162074E-01 a       776     1    11     2    16
 -7.6420091795682057E-02 a       777     1    11     2    17
 -1.7251349054017104E-01 a       778     1    11     2    18
 -3.5435325114177468E-01 a       779     1    11     2    19
  3.5053818455564567E-01 a       780     1    11     2    20
  2.2931943180852596E-01 a       781     1    12     2     1
  4.4434497218036018E-01 a       782     1    12     2     2
 -1.8303466578240821E-01 a       783     1    12     2     3
  9.5198936810572274E-02 a       784     1    12     2     4
  1.3592226070436164E+00 a       785     1    12     2     5
  1.2340396979866208E-01 a       786     1    12     2     6
  3.1642942084336989E-01 a       787     1    12     2     7
 -2.0560405351736019E-01 a       788     1    12     2     8
 -1.5817633457973336E-03 a       789     1    12     2     9
 -5.5668534093766675E-01 a       790     1    12     2    10
 -1.1878914367555002E-01 a       791     1    12     2    11
 -4.2516580430132161E-01 a       792     1    12     2    12
  1.4156399542438729E+00 a       793     1    12     2    13
  7.6614673806318179E-01 a       794     1    12     2    14
 -1.4073412158883532E-02 a       795     1    12     2    15
  6.3170676867004216E-01 a       796     1    12     2    16
 -4.8408593910749018E-02 a       797     1    12     2    17
  8.0877527722183318E-01 a       798     1    12     2    18
 -2.9255366655828491E-01 a       799     1    12     2    19
 -1.1233819303455315E-02 a       800     1    12     2    20
  8.5449305836059175E-01 a       801     1    13     2     1
  3.4623552191298645E-01 a       802     1    13     2     2
  5.9858133684999981E-02 a       803     1    13     2     3
  1.3048665113193186E-01 a       804     1    13     2     4
 -9.9528821241280663E-01 a       805     1    13     2     5
 -4.8277891290966529E-01 a       806     1    13     2     6
 -1.3183163877924100E+00 a       807     1    13     2     7
  3.6652736130980079E-01 a       808     1    13     2     8
  2.4686893177492597E-01 a       809     1    13     2     9
 -6.5171139237287321E-03 a       810     1    13     2    10
 -5.0134351129242261E-01 a       811     1    13     2    11
  1.6209656941618858E-01 a       812     1    13     2    12
 -3.5957924701127519E-01 a       813     1    13     2    13
 -3.8549568737795359E-01 a       814     1    13     2    14
 -1.9208567964869944E-01 a       815     1    13     2    15
  2.6775132642322341E-01 a       816     1    13     2    16
 -8.2566631558301323E-02 a       817     1    13     2    17
 -3.8119488507555815E-01 a       818     1    13     2    18
 -4.7139883478253586E-01 a       819     1    13     2    19
  7.3767506843532915E-01 a       820     1    13     2    20
 -3.8469894257618063E-02 a       821     1    14     2     1
  9.3721219687407564E-01 a       822     1    14     2     2
 -6.3251069154955986E-02 a       823     1    14     2     3
 -3.7530956015433478E-02 a       824     1    14     2     4
 -2.9640021505828262E-01 a       825     1    14     2     5
 -4.3667074894904739E-01 a       826     1    14     2     6
 -3.2839724890335942E-01 a       827     1    14     2     7
  4.0933369408434156E-01 a       828     1    14     2     8
  1.2652383846396528E-01 a       829     1    14     2     9
  1.4477462385567594E-01 a       830     1    14     2    10
 -4.3304369598019959E-01 a       831     1    14     2    11
 -5.5010268858381739E-01 a       832     1    14     2    12
  1.5833189113394716E-01 a       833     1    14     2    13
  2.0497486653257879E+00 a       834     1    14     2    14
  2.6528205004664890E-01 a       835     1    14     2    15
  1.3541600598980073E+00 a       836     1    14     2    16
  1.3355270826568727E-01 a       837     1    14     2    17
  5.5465209830780693E-01 a       838     1    14     2    18
  2.9009031664360779E-01 a       839     1    14     2    19
  3.7796790320376313E-02 a       840     1    14     2    20
 -1.8330103772172704E-01 a       841     1    15     2     1
 -2.7172267560612362E-01 a       842     1    15     2     2
 -1.8574650569539721E+00 a       843     1    15     2     3
  9.0211772231036458E-01 a       844     1    15     2     4
  2.2457947510621499E+00 a       845     1    15     2     5
  6.4756732550269824E-01 a       846     1    15     2     6
 -7.8918980280710227E-01 a       847     1    15     2     7
 -2.0548815913040621E+00 a       848     1    15     2     8
 -1.6720277786759068E+00 a       849     1    15     2     9
 -2.7160143779629999E+00 a       850     1    15     2    10
  4.3605965129410168E-01 a       851     1    15     2    11
  1.3915687838560853E+00 a       852     1    15     2    12
  1.1261300292238556E+00 a       853     1    15     2    13
  1.2121752336043434E+00 a       854     1    15     2    14
  2.3597934835607737E-01 a       855     1    15     2    15
  6.7855023371630097E-01 a       856     1    15     2    16
 -1.0952536909504962E+00 a       857     1    15     2    17
  6.3091447479312224E-01 a       858     1    15     2    18
  3.5809346699078484E+00 a       859     1    15     2    19
 -7.8434492279206069E-02 a       860     1    15     2    20
  2.7279398242192654E-01 a       861     1    16     2     1
 -8.1962740932106637E-01 a       862     1    16     2     2
 -1.3884133411536206E-01 a       863     1    16     2     3
 -8.4063222117629821E-01 a       864     1    16     2     4
  9.6152232112284408E-01 a       865     1    16     2     5
  8.2820588533929373E-01 a       866     1    16     2     6
 -1.3011417960682300E-01 a       867     1    16     2     7
  9.9585593286396767E-01 a       868     1    16     2     8
 -3.4576170364755721E-01 a       869     1    16     2     9
  2.2526907716912176E-01 a       870     1    16     2    10
  4.2476391164939176E-01 a       871     1    16     2    11
 -3.5199511869834516E-01 a       872     1    16     2    12
 -1.2244899813578787E+00 a       873     1    16     2    13
  4.8360794790872419E-01 a       874     1    16     2    14
  4.1339062592760140E-01 a       875     1    16     2    15
 -6.3309275754228025E-02 a       876     1    16     2    16
  2.5336290729666289E-01 a       877     1    16     2    17
 -4.3295885340011342E-01 a       878     1    16     2    18
  3.0149756911672371E-01 a       879     1    16     2    19
  7.2759118911022755E-02 a       880     1    16     2    20
 -1.8669126729307577E+00 a       881     1    17     2     1
 -7.9718771791422205E-01 a       882     1    17     2     2
  2.1556437721286423E-01 a       883     1    17     2     3
 -5.3389245793750173E-01 a       884     1    17     2     4
 -8.9621195578195967E-01 a       885     1    17     2     5
 -1.4159239793137239E+00 a       886     1    17     2     6
  1.1346490933744533E+00 a       887     1    17     2     7
 -2.5624205187419291E-01 a       888     1    17     2     8
 -1.7186586115489957E+00 a       889     1    17     2     9
  2.9789784764046351E-01 a       890     1    17     2    10
  1.4775230061956550E+00 a       891     1    17     2    11
 -1.0022580154983931E+00 a       892     1    17     2    12
 -7.0808615913363160E-01 a       893     1    17     2    13
 -2.6289651321274703E+00 a       894     1    17     2    14
  3.4122443098298255E-01 a       895     1    17     2    15
 -9.6172814679549368E-01 a       896     1    17     2    16
  7.4274501792904679E-01 a       897     1    17     2    17
 -8.4612986770620702E-01 a       898     1    17     2    18
 -7.7991634693091572E-01 a       899     1    17     2    19
 -5.6117380549400486E-01 a       900     1    17     2    20
 -5.3545288519597341E-02 a       901     1    18     2     1
  6.4000027158813499E-01 a       902     1    18     2     2
  1.2965587031685619E-01 a       903     1    18     2     3
  3.4052778709320741E-01 a       904     1    18     2     4
  4.5733744945727678E-01 a       905     1    18     2     5
 -2.8719909729067106E-01 a       906     1    18     2     6
  1.2009009648024853E-01 a       907     1    18     2     7
  1.5476270231620615E-01 a       908     1    18     2     8
  2.7840762780911288E-01 a       909     1    18     2     9
  3.3771849329682468E-01 a       910     1    18     2    10
 -3.4854086605001666E-02 a       911     1    18     2    11
  6.4775347798479055E-01 a       912     1    18     2    12
  2.1616305240453633E+00 a       913     1    18     2    13
  1.6555196721414440E+00 a       914     1    18     2    14
 -8.2210138904944080E-02 a       915     1    18     2    15
  1.5947672692200177E-01 a       916     1    18     2    16
  1.1354271281163716E-01 a       917     1    18     2    17
 -6.0960013350157383E-01 a       918     1    18     2    18
  5.2891881779217076E-01 a       919     1    18     2    19
  1.9806385449339069E-02 a       920     1    18     2    20
  7.9512199791831173E-01 a       921     1    19     2     1
  1.6989626960745513E-01 a       922     1    19     2     2
 -3.1053372394328105E-01 a       923     1    19     2     3
  3.8713315118468278E-01 a       924     1    19     2     4
  5.9703979760438086E-01 a       925     1    19     2     5
  6.5533883852418234E-02 a       926     1    19     2     6
  1.7721387047856976E-01 a       927     1    19     2     7
 -5.0537297621531474E-01 a       928     1    19     2     8
  2.7131474719100990E-01 a       929     1    19     2     9
 -3.1304226309197825E-01 a       930     1    19     2    10
 -7.5890491135565918E-01 a       931     1    19     2    11
 -9.9775234411798044E-02 a       932     1    19     2    12
 -6.0775650403744774E-01 a       933     1    19     2    13
  3.5361114787873893E-01 a       934     1    19     2    14
 -2.3090889631083025E-01 a       935     1    19     2    15
  5.3068128636164258E-01 a       936     1    19     2    16
 -7.5078431537194221E-02 a       937     1    19     2    17
 -2.3896555200025107E-02 a       938     1    19     2    18
 -2.5642341460990453E-01 a       939     1    19     2    19
 -5.0366458638490552E-01 a       940     1    19     2    20
  4.5853802269669952E-01 a       941     1    20     2     1
  4.9190989429552280E-02 a       942     1    20     2     2
 -2.2762818248244718E-01 a       943     1    20     2     3
  1.0781867568219801E+00 a       944     1    20     2     4
  1.1836964151078981E+00 a       945     1    20     2     5
  4.0377211792141421E-01 a       946     1    20     2     6
 -6.6672181513983175E-01 a       947     1    20     2     7
 -1.9362390038777172E-01 a       948     1    20     2     8
 -1.3513701257817162E-01 a       949     1    20     2     9
 -1.7312645895887973E+00 a       950     1    20     2    10
 -6.8646921426000029E-01 a       951     1    20     2    11
 -5.7262313155735756E-01 a       952     1    20     2    12
 -5.0190531745569733E-01 a       953     1    20     2    13
 -1.7263529892128648E-01 a       954     1    20     2    14
 -4.1852500233096063E-01 a       955     1    20     2    15
 -7.0420600608964534E-01 a       956     1    20     2    16
 -3.0410281160248276E-01 a       957     1    20     2    17
  1.1603869018845381E-02 a       958     1    20     2    18
  9.8141243037971881E-01 a       959     1    20     2    19
  7.9503522744130320E-02 a       960     1    20     2    20
 -6.3778855652698507E-01 b       961     2     1
 -1.1819336943146908E-03 b       962     2     2
 -6.1262565225174459E-01 b       963     2     3
  3.1092985367012052E+00 b       964     2     4
 -5.2117628708056367E+00 b       965     2     5
 -1.1007498102114530E+00 b       966     2     6
 -1.6173877706435926E+00 b       967     2     7
  3.9900322162956745E+00 b       968     2     8
  4.0961590358921190E-01 b       969     2     9
 -2.6516868902258461E+00 b       970     2    10
  1.5244219384346460E+00 b       971     2    11
  1.5294046563830521E+00 b       972     2    12
  2.3652724278954471E+00 b       973     2    13
 -1.0701695762513055E+00 b       974     2    14
 -2.6779548972949818E-01 b       975     2    15
  1.5904803882820908E+00 b       976     2    16
  9.4514270692669489E-01 b       977     2    17
  1.3275831670970042E-01 b       978     2    18
 -3.2481638895621954E+00 b       979     2    19
  1.1788102993391960E+00 b       980     2    20
 -1.4220686432653067E+00 a       981     2     1     3     1
 -8.9440018405370109E-02 a       982     2     2     3     1
 -1.0670072229281602E+00 a       983     2     3     3     1
  1.8731857854034715E+00 a       984     2     4     3     1
 -1.3139575374294381E+00 a       985     2     5     3     1
 -1.6480733321359578E-01 a       986     2     6     3     1
 -6.4918530591959145E-01 a       987     2     7     3     1
  1.4539824588825021E+00 a       988     2     8     3     1
 -9.6198669924180769E-01 a       989     2     9     3     1
 -1.9319599718939549E+00 a       990     2    10     3     1
  2.2496047197819542E+00 a       991     2    11     3     1
  1.2867353956971885E+00 a       992     2    12     3     1
  1.6649761305465585E+00 a       993     2    13     3     1
 -1.2678140664340379E-01 a       994     2    14     3     1
  2.2875531984054806E-01 a       995     2    15     3     1
  1.3695832948221069E+00 a       996     2    16     3     1
  1.2735963576472398E+00 a       997     2    17     3     1
  6.1696870489623767E-01 a       998     2    18     3     1
 -1.0843566964412872E+00 a       999     2    19     3     1
  1.5209587235068012E+00 a      1000     2    20     3     1
  3.3589331414083161E+00 b      1001     3     1
