################################################################################
# Neural network connection values (weights and biases).
################################################################################
# Col  Name       Description
################################################################################
# 1    connection Neural network connection value.
# 2    t          Connection type (a = weight, b = bias).
# 3    index      Index enumerating weights.
# 4    l_s        Starting point layer (end point layer for biases).
# 5    n_s        Starting point neuron in starting layer (end point neuron for biases).
# 6    l_e        End point layer.
# 7    n_e        End point neuron in end layer.
################################################################################
#                      1 2         3     4     5     6     7
#             connection t     index   l_s   n_s   l_e   n_e
############################################################
 -9.7182080582767483E-01 a         1     0     1     1     1
 -1.4239615153417511E+00 a         2     0     1     1     2
  1.0983593339430593E+00 a         3     0     1     1     3
  1.3860781409279455E+00 a         4     0     1     1     4
  1.5610356418510123E+00 a         5     0     1     1     5
 -6.5025492990036671E-01 a         6     0     1     1     6
 -5.4015790089525162E-01 a         7     0     1     1     7
  7.6507824748430409E-01 a         8     0     1     1     8
  2.1277725834523367E-01 a         9     0     1     1     9
 -1.0645060104172289E-01 a        10     0     1     1    10
 -1.8407838350330247E-01 a        11     0     1     1    11
  2.3793978147871639E+00 a        12     0     1     1    12
  2.7762512510214079E+00 a        13     0     1     1    13
 -1.6375805821105438E-01 a        14     0     1     1    14
  1.5574349290122078E+00 a        15     0     1     1    15
 -1.0638060361675692E+00 a        16     0     1     1    16
 -4.6618495173924740E-01 a        17     0     1     1    17
  2.7769090600043849E+00 a        18     0     1     1    18
  1.1299981164776738E+00 a        19     0     1     1    19
  6.8552778276841031E-01 a        20     0     1     1    20
 -3.6624300758570488E-01 a        21     0     2     1     1
  1.9563692876332957E+00 a        22     0     2     1     2
  2.0274088288900494E+00 a        23     0     2     1     3
  9.7460870779321085E-01 a        24     0     2     1     4
 -1.5683135305248932E+00 a        25     0     2     1     5
 -8.8347655427483052E-01 a        26     0     2     1     6
  1.5332799883712556E+00 a        27     0     2     1     7
  1.2194456351520724E+00 a        28     0     2     1     8
  5.6434850365280542E-01 a        29     0     2     1     9
 -9.3959881380107579E-01 a        30     0     2     1    10
 -5.2634149580664191E-01 a        31     0     2     1    11
 -8.9272659503807295E-01 a        32     0     2     1    12
 -2.6808000385762143E+00 a        33     0     2     1    13
  7.4937633332827813E-01 a        34     0     2     1    14
  7.6238668972615475E-01 a        35     0     2     1    15
  7.1806771843330608E-01 a        36     0     2     1    16
 -9.4657991127280683E-01 a        37     0     2     1    17
 -1.2610526959458270E+00 a        38     0     2     1    18
 -3.4497436289577457E+00 a        39     0     2     1    19
 -1.0869168237206464E+00 a        40     0     2     1    20
  1.4429633718909922E+00 a        41     0     3     1     1
  1.7989423575843435E+00 a        42     0     3     1     2
  3.4938969919853979E-01 a        43     0     3     1     3
 -1.5678107643912609E+00 a        44     0     3     1     4
 -2.9236833511425218E+00 a        45     0     3     1     5
  3.7009992463469978E+00 a        46     0     3     1     6
 -3.6324353141114951E-01 a        47     0     3     1     7
 -1.6008673332475649E+00 a        48     0     3     1     8
  2.6604008682071095E-01 a        49     0     3     1     9
 -1.4745646776967629E+00 a        50     0     3     1    10
  2.4326359186864844E-03 a        51     0     3     1    11
 -2.6100492765917727E+00 a        52     0     3     1    12
 -2.2755307303572163E+00 a        53     0     3     1    13
 -7.1274188130731786E-01 a        54     0     3     1    14
 -3.0770666315770474E+00 a        55     0     3     1    15
  6.6019904699913390E-01 a        56     0     3     1    16
  1.4428140066160022E+00 a        57     0     3     1    17
 -6.6908800922889788E-01 a        58     0     3     1    18
  8.6391487715949911E-01 a        59     0     3     1    19
 -7.5724506186747853E-01 a        60     0     3     1    20
  1.5407902803800155E+00 a        61     0     4     1     1
 -2.2407922650168128E+00 a        62     0     4     1     2
 -2.1828681736375732E+00 a        63     0     4     1     3
 -1.2989274768299428E+00 a        64     0     4     1     4
  2.4875134862970367E+00 a        65     0     4     1     5
  9.2579806258587138E-01 a        66     0     4     1     6
 -2.2953896116615531E+00 a        67     0     4     1     7
 -6.3697076268432795E-01 a        68     0     4     1     8
 -2.0013695076870159E+00 a        69     0     4     1     9
  1.6752522188338743E+00 a        70     0     4     1    10
  2.1095238715891837E-01 a        71     0     4     1    11
  6.9403455068076481E-01 a        72     0     4     1    12
  6.5070691887997201E-01 a        73     0     4     1    13
 -1.8321601209224987E+00 a        74     0     4     1    14
  3.2910063856500021E-01 a        75     0     4     1    15
  2.7516326140463254E-01 a        76     0     4     1    16
  4.8732519531723661E-01 a        77     0     4     1    17
  7.4699763027157584E-01 a        78     0     4     1    18
  5.2283617815550070E+00 a        79     0     4     1    19
  1.9119515605292978E+00 a        80     0     4     1    20
 -8.8705837758097295E-01 a        81     0     5     1     1
 -1.1257299786887218E+00 a        82     0     5     1     2
 -3.8276561060030048E+00 a        83     0     5     1     3
 -1.9984455002073878E-01 a        84     0     5     1     4
  2.1390566936166362E+00 a        85     0     5     1     5
 -5.6231151125392964E+00 a        86     0     5     1     6
  5.5515447444832555E-01 a        87     0     5     1     7
  5.0962724958315941E-01 a        88     0     5     1     8
 -1.4054935076709949E+00 a        89     0     5     1     9
  7.6381168050677928E-01 a        90     0     5     1    10
  5.9832323562093281E-01 a        91     0     5     1    11
  1.0221111392260822E+00 a        92     0     5     1    12
 -4.4121441840913816E-01 a        93     0     5     1    13
 -3.8248102815156676E-01 a        94     0     5     1    14
  1.6884943570738680E+00 a        95     0     5     1    15
  4.5094553943358977E-02 a        96     0     5     1    16
 -2.6812741069884050E+00 a        97     0     5     1    17
 -2.4502555286206151E+00 a        98     0     5     1    18
 -4.7163018456631143E+00 a        99     0     5     1    19
 -6.1234632842226000E-01 a       100     0     5     1    20
 -2.0407336446944622E+00 a       101     0     6     1     1
  2.7949366647698831E-01 a       102     0     6     1     2
  2.5153344926836119E-01 a       103     0     6     1     3
  1.9112324448977203E+00 a       104     0     6     1     4
 -2.2304896080835226E+00 a       105     0     6     1     5
 -1.5682780371080276E+00 a       106     0     6     1     6
  2.0345970975109897E+00 a       107     0     6     1     7
  3.8122655139492928E-01 a       108     0     6     1     8
  2.7132056262683961E+00 a       109     0     6     1     9
  8.0461407896049209E-01 a       110     0     6     1    10
 -1.7436856910173371E+00 a       111     0     6     1    11
  5.5611697007333416E-01 a       112     0     6     1    12
  3.1661044551026190E+00 a       113     0     6     1    13
  9.9758631107691775E-01 a       114     0     6     1    14
 -1.6585154277646188E+00 a       115     0     6     1    15
 -2.3576745923372355E+00 a       116     0     6     1    16
  1.4633038803080773E+00 a       117     0     6     1    17
  8.9766161551214951E-01 a       118     0     6     1    18
 -3.3191890916797924E+00 a       119     0     6     1    19
 -4.6912402615522941E-01 a       120     0     6     1    20
  7.5769633056019636E-02 a       121     0     7     1     1
  2.0797997837979429E+00 a       122     0     7     1     2
  4.4770726683170103E+00 a       123     0     7     1     3
  1.6452698535633012E+00 a       124     0     7     1     4
  1.8316746273700362E+00 a       125     0     7     1     5
  5.3953981203450585E+00 a       126     0     7     1     6
  1.8718092375826209E-01 a       127     0     7     1     7
 -3.3691255317975921E-01 a       128     0     7     1     8
  1.5311384856611654E+00 a       129     0     7     1     9
  5.9107760833092104E-01 a       130     0     7     1    10
  1.5653480195154701E-01 a       131     0     7     1    11
 -1.2473196740528039E+00 a       132     0     7     1    12
  1.5107352649191137E+00 a       133     0     7     1    13
  2.2743060585474923E+00 a       134     0     7     1    14
  2.8215035623068568E-01 a       135     0     7     1    15
  3.6656969734899536E-01 a       136     0     7     1    16
  2.2087135502245734E+00 a       137     0     7     1    17
 -1.7440234364456078E+00 a       138     0     7     1    18
  5.3019247703935486E+00 a       139     0     7     1    19
  1.8863877335315087E+00 a       140     0     7     1    20
  5.3213245608480897E-01 a       141     0     8     1     1
 -4.2595168572673830E-01 a       142     0     8     1     2
 -7.9465877359016238E-02 a       143     0     8     1     3
 -2.4563623591044808E+00 a       144     0     8     1     4
 -2.7063295286548845E+00 a       145     0     8     1     5
  4.7305499164219871E+00 a       146     0     8     1     6
 -1.4127453031876209E+00 a       147     0     8     1     7
 -1.4475279430281713E+00 a       148     0     8     1     8
  2.0604206193993644E+00 a       149     0     8     1     9
  1.3347993856213405E+00 a       150     0     8     1    10
  1.2008091689629812E+00 a       151     0     8     1    11
  8.2131887102004553E-01 a       152     0     8     1    12
 -2.6575794579649048E+00 a       153     0     8     1    13
 -5.9305852080326460E-01 a       154     0     8     1    14
  1.3691047593946231E+00 a       155     0     8     1    15
  2.2993536044215666E+00 a       156     0     8     1    16
 -1.0224784351024852E+00 a       157     0     8     1    17
  1.0299504661869725E+00 a       158     0     8     1    18
  4.3871451521307687E+00 a       159     0     8     1    19
  2.4518022629412442E-01 a       160     0     8     1    20
 -1.4304937847050556E+00 a       161     0     9     1     1
 -1.2415637388251086E+00 a       162     0     9     1     2
 -2.0615278456484472E+00 a       163     0     9     1     3
 -2.9468639591803001E+00 a       164     0     9     1     4
  1.2066798875475618E-01 a       165     0     9     1     5
 -1.8807034856026599E+00 a       166     0     9     1     6
  5.5123299841150564E-01 a       167     0     9     1     7
 -1.4217989971231664E+00 a       168     0     9     1     8
 -2.6388286961316312E+00 a       169     0     9     1     9
 -1.3548592640137784E+00 a       170     0     9     1    10
  4.8890214667570750E-02 a       171     0     9     1    11
  8.0361826870313036E-01 a       172     0     9     1    12
 -1.2182212134030932E+00 a       173     0     9     1    13
 -9.7934481789933547E-01 a       174     0     9     1    14
 -1.7899547305591545E+00 a       175     0     9     1    15
  4.5660551476468453E-01 a       176     0     9     1    16
 -1.1278747761620078E+00 a       177     0     9     1    17
  1.0113805240377722E+00 a       178     0     9     1    18
 -2.3786657394020398E+00 a       179     0     9     1    19
 -6.4531263780159676E-01 a       180     0     9     1    20
  1.3329833842867214E+00 a       181     0    10     1     1
  1.3835272471988136E+00 a       182     0    10     1     2
  1.8253045942511517E-01 a       183     0    10     1     3
  4.9122506925358100E-01 a       184     0    10     1     4
  1.5756745690133700E+00 a       185     0    10     1     5
 -8.5854707070548020E-01 a       186     0    10     1     6
 -1.2619973062770977E+00 a       187     0    10     1     7
  5.4822519400551620E-02 a       188     0    10     1     8
 -1.9149492985111753E+00 a       189     0    10     1     9
 -2.7680527046111414E+00 a       190     0    10     1    10
  6.8621527369658097E-01 a       191     0    10     1    11
  2.9319009139838781E-01 a       192     0    10     1    12
  3.0563674922027861E-01 a       193     0    10     1    13
 -5.5939057870772613E-01 a       194     0    10     1    14
  3.0528955205218111E-01 a       195     0    10     1    15
 -1.4016585151964994E-02 a       196     0    10     1    16
 -7.9771238842286629E-01 a       197     0    10     1    17
 -1.7794561522122838E-02 a       198     0    10     1    18
 -1.9808987927699131E+00 a       199     0    10     1    19
 -9.9882565931773237E-01 a       200     0    10     1    20
  4.8705125113064712E-01 a       201     0    11     1     1
 -1.8366298659699729E-01 a       202     0    11     1     2
  1.2828823663095235E+00 a       203     0    11     1     3
  6.8310929945047294E-01 a       204     0    11     1     4
 -2.7818782634100052E+00 a       205     0    11     1     5
  1.5956959338326449E+00 a       206     0    11     1     6
  9.6038274853284880E-02 a       207     0    11     1     7
 -9.1508399024560827E-01 a       208     0    11     1     8
  8.0430011108858324E-01 a       209     0    11     1     9
  1.9150709966682963E-01 a       210     0    11     1    10
 -7.1045102022783702E-01 a       211     0    11     1    11
 -6.1969165836366602E-01 a       212     0    11     1    12
  2.9477578088838192E+00 a       213     0    11     1    13
  2.3913800982573125E-01 a       214     0    11     1    14
  2.0676518131226800E+00 a       215     0    11     1    15
 -1.9878351942899863E+00 a       216     0    11     1    16
  5.8810737324740070E-01 a       217     0    11     1    17
  2.4856081121311396E-01 a       218     0    11     1    18
  2.2788863560628010E+00 a       219     0    11     1    19
  6.0909427538773886E-01 a       220     0    11     1    20
 -6.2280009535119762E-01 a       221     0    12     1     1
 -8.0315948848859142E-01 a       222     0    12     1     2
  4.1709204541601635E-01 a       223     0    12     1     3
 -1.1431521504721710E-01 a       224     0    12     1     4
 -1.8151083140109758E+00 a       225     0    12     1     5
 -2.8967535643710107E-01 a       226     0    12     1     6
  1.5930642981513210E+00 a       227     0    12     1     7
 -6.7102944376158588E-02 a       228     0    12     1     8
  8.7048129008281405E-01 a       229     0    12     1     9
  1.7313655520480111E+00 a       230     0    12     1    10
 -1.1825262269125765E+00 a       231     0    12     1    11
 -1.0256768937128287E+00 a       232     0    12     1    12
  9.7002402057656090E-02 a       233     0    12     1    13
  5.2337074526483918E-01 a       234     0    12     1    14
  5.4439380327088027E-01 a       235     0    12     1    15
 -1.1300373277597447E-01 a       236     0    12     1    16
 -1.7725290554578313E-01 a       237     0    12     1    17
 -2.5792360684485932E-01 a       238     0    12     1    18
  1.6882321643255391E+00 a       239     0    12     1    19
  1.4532755040541341E+00 a       240     0    12     1    20
 -4.9029648847180340E-01 a       241     0    13     1     1
  5.5450911903327704E-01 a       242     0    13     1     2
 -8.4079282315435766E-01 a       243     0    13     1     3
  2.1097808245147501E-01 a       244     0    13     1     4
  3.4532202938908139E+00 a       245     0    13     1     5
 -8.3259741295033141E-01 a       246     0    13     1     6
  3.1382336139109113E-01 a       247     0    13     1     7
  6.9879079701129387E-01 a       248     0    13     1     8
 -9.4497055193498414E-01 a       249     0    13     1     9
 -3.2671159456787069E-01 a       250     0    13     1    10
  3.4319739863407001E-01 a       251     0    13     1    11
 -1.0962724782033684E+00 a       252     0    13     1    12
 -2.2206430843385019E+00 a       253     0    13     1    13
  3.1950215644215291E-01 a       254     0    13     1    14
 -1.4751641351456497E+00 a       255     0    13     1    15
  1.0582608145615706E+00 a       256     0    13     1    16
  5.4968142225860092E-02 a       257     0    13     1    17
 -6.4634448660887445E-01 a       258     0    13     1    18
 -1.1264517372578475E+00 a       259     0    13     1    19
 -1.6433526006720298E-01 a       260     0    13     1    20
  2.5647824745556269E-01 a       261     0    14     1     1
  2.8531811066631807E-01 a       262     0    14     1     2
 -1.8119514028560893E-02 a       263     0    14     1     3
  2.8758494712519239E-01 a       264     0    14     1     4
  6.3337784171670752E-01 a       265     0    14     1     5
  1.0120134712597839E-02 a       266     0    14     1     6
 -6.1401081230459498E-01 a       267     0    14     1     7
  2.0390790367486164E-01 a       268     0    14     1     8
 -5.0115502618398255E-01 a       269     0    14     1     9
 -5.5958539438541488E-01 a       270     0    14     1    10
  2.9426722960677644E-02 a       271     0    14     1    11
  4.1401351906329747E-01 a       272     0    14     1    12
  2.0189490485117822E-02 a       273     0    14     1    13
 -9.8676295228048563E-02 a       274     0    14     1    14
 -2.9664702496325190E-01 a       275     0    14     1    15
  1.9732874774545999E-03 a       276     0    14     1    16
 -2.2730224720265219E-02 a       277     0    14     1    17
 -1.0830379438133687E-01 a       278     0    14     1    18
 -6.8512610169233479E-01 a       279     0    14     1    19
 -4.1012924443423987E-01 a       280     0    14     1    20
 -1.5830617727408502E-01 a       281     0    15     1     1
 -1.1611427647589403E-01 a       282     0    15     1     2
 -1.8995437018281305E-01 a       283     0    15     1     3
  6.8345828481632953E-02 a       284     0    15     1     4
 -1.0459129118640618E+00 a       285     0    15     1     5
 -1.5966460338606381E-01 a       286     0    15     1     6
 -2.0501323908604860E-01 a       287     0    15     1     7
 -4.0039174815633176E-02 a       288     0    15     1     8
 -3.7918982650076072E-01 a       289     0    15     1     9
 -1.0021449746705612E-01 a       290     0    15     1    10
 -1.4072177475237754E-01 a       291     0    15     1    11
  3.2425660993982292E-01 a       292     0    15     1    12
  4.6682702419609051E-01 a       293     0    15     1    13
 -4.9929662129526664E-01 a       294     0    15     1    14
  4.1786814796464394E-01 a       295     0    15     1    15
 -6.0164443182540328E-01 a       296     0    15     1    16
  1.3058159133784342E-01 a       297     0    15     1    17
  4.5728611928983881E-01 a       298     0    15     1    18
 -6.5002987379857635E-01 a       299     0    15     1    19
 -9.1493742390026431E-02 a       300     0    15     1    20
  4.0841221744243032E-02 a       301     0    16     1     1
 -3.6400282695003144E-02 a       302     0    16     1     2
  1.4810261029610189E-01 a       303     0    16     1     3
 -6.9485469109946407E-02 a       304     0    16     1     4
 -4.9848509697218063E-01 a       305     0    16     1     5
 -9.9754777014366247E-02 a       306     0    16     1     6
  2.8497211435467928E-01 a       307     0    16     1     7
 -1.9706718217926472E-01 a       308     0    16     1     8
 -2.9216029398520024E-03 a       309     0    16     1     9
  2.0918022716622772E-01 a       310     0    16     1    10
 -1.7793521088163286E-01 a       311     0    16     1    11
 -3.2333252311727606E-01 a       312     0    16     1    12
  4.8110930321801047E-02 a       313     0    16     1    13
  2.4413756023330738E-01 a       314     0    16     1    14
  1.4125277628658317E-01 a       315     0    16     1    15
 -1.3031152024677740E-02 a       316     0    16     1    16
 -2.8699151811377943E-01 a       317     0    16     1    17
 -6.2683451659126851E-02 a       318     0    16     1    18
  2.3490012458043033E-01 a       319     0    16     1    19
  3.1358375504560715E-01 a       320     0    16     1    20
 -3.4417055580701855E-01 a       321     0    17     1     1
  2.9201514047454077E-02 a       322     0    17     1     2
 -4.9813385297793655E-01 a       323     0    17     1     3
 -2.9315778417045874E-01 a       324     0    17     1     4
  1.3608358893680992E+00 a       325     0    17     1     5
 -9.8319146186930351E-01 a       326     0    17     1     6
  1.7835391488743918E-01 a       327     0    17     1     7
 -2.5425492024605484E-01 a       328     0    17     1     8
  1.1923659500305286E-02 a       329     0    17     1     9
 -1.5439134986195088E-01 a       330     0    17     1    10
  7.6072583756422851E-01 a       331     0    17     1    11
 -9.6130421649470021E-01 a       332     0    17     1    12
 -9.6617043279074155E-01 a       333     0    17     1    13
  3.9449394830961931E-01 a       334     0    17     1    14
 -5.8951277726012385E-01 a       335     0    17     1    15
  8.5546745129367344E-02 a       336     0    17     1    16
  2.9292587305534290E-01 a       337     0    17     1    17
 -8.2077310976297990E-01 a       338     0    17     1    18
 -2.0652860455460681E-01 a       339     0    17     1    19
 -4.3130449132192650E-01 a       340     0    17     1    20
 -5.5122886758445289E-01 a       341     0    18     1     1
 -2.4001346630422460E-01 a       342     0    18     1     2
  1.3929476565410055E+00 a       343     0    18     1     3
  6.8233122241867794E-01 a       344     0    18     1     4
 -5.2237992543347556E-01 a       345     0    18     1     5
  6.0735150484002043E-01 a       346     0    18     1     6
 -5.6546656681902263E-01 a       347     0    18     1     7
 -5.1915858867503961E-01 a       348     0    18     1     8
 -3.4872900145921676E-02 a       349     0    18     1     9
 -1.7693901140942317E-01 a       350     0    18     1    10
  7.5460950624172041E-01 a       351     0    18     1    11
  8.0711235429958439E-01 a       352     0    18     1    12
  3.5009308799249689E-01 a       353     0    18     1    13
 -3.3740088729674611E-01 a       354     0    18     1    14
 -2.2636091420815366E-02 a       355     0    18     1    15
 -5.3463281340850910E-01 a       356     0    18     1    16
  2.9413101300826866E-01 a       357     0    18     1    17
  1.0214438650282918E+00 a       358     0    18     1    18
 -2.2553049829599086E-02 a       359     0    18     1    19
 -4.0337565745218096E-01 a       360     0    18     1    20
 -6.7599392930281565E-01 a       361     0    19     1     1
 -1.1001353061943255E+00 a       362     0    19     1     2
  4.8389133013111219E-01 a       363     0    19     1     3
 -4.5914083991624610E-01 a       364     0    19     1     4
  2.8712185494239012E-01 a       365     0    19     1     5
  1.0911437253784124E+00 a       366     0    19     1     6
  8.9013137759728411E-01 a       367     0    19     1     7
  5.8509427926350033E-01 a       368     0    19     1     8
 -2.0537516865692043E-01 a       369     0    19     1     9
  1.0613047556035415E+00 a       370     0    19     1    10
  3.1572979394043854E-01 a       371     0    19     1    11
 -7.6021774529612696E-01 a       372     0    19     1    12
 -8.0223585040379097E-01 a       373     0    19     1    13
  1.8882183084644832E+00 a       374     0    19     1    14
 -2.5512895783040063E-01 a       375     0    19     1    15
  1.5434821389661526E+00 a       376     0    19     1    16
  4.1572236671364321E-01 a       377     0    19     1    17
  2.8850405075279206E-01 a       378     0    19     1    18
  8.4957527051490778E-01 a       379     0    19     1    19
 -4.1984059713114769E-01 a       380     0    19     1    20
  1.0864473862113089E-01 a       381     0    20     1     1
  5.2682516547233260E-01 a       382     0    20     1     2
 -7.3630978077784703E-01 a       383     0    20     1     3
  3.0201939255563681E-01 a       384     0    20     1     4
  5.1662808537268723E-01 a       385     0    20     1     5
 -1.8693939222410236E-01 a       386     0    20     1     6
 -4.4604082629096251E-02 a       387     0    20     1     7
  3.2648705218637004E-02 a       388     0    20     1     8
  2.3226184292454324E-01 a       389     0    20     1     9
 -3.1370202416990306E-01 a       390     0    20     1    10
  1.3373501570036322E-01 a       391     0    20     1    11
 -1.2968256266451131E-01 a       392     0    20     1    12
  2.7648171175862910E-02 a       393     0    20     1    13
 -3.8172288505885799E-01 a       394     0    20     1    14
 -3.0665050893655432E-01 a       395     0    20     1    15
 -4.6957976338865720E-01 a       396     0    20     1    16
 -4.7181209198326649E-02 a       397     0    20     1    17
 -3.5421534272713558E-02 a       398     0    20     1    18
 -3.0700421582000326E-01 a       399     0    20     1    19
  4.0341698760920186E-01 a       400     0    20     1    20
  5.3722461369727537E-01 a       401     0    21     1     1
 -2.5913748838988382E-01 a       402     0    21     1     2
  7.1622617963790502E-01 a       403     0    21     1     3
  7.0345142388375903E-01 a       404     0    21     1     4
 -1.1849842206272554E+00 a       405     0    21     1     5
  1.0593013015833999E+00 a       406     0    21     1     6
 -3.8717020916546663E-01 a       407     0    21     1     7
  4.5569394196762564E-01 a       408     0    21     1     8
 -3.0728642944044643E-01 a       409     0    21     1     9
 -7.5462821562061022E-02 a       410     0    21     1    10
 -7.0594742557129730E-01 a       411     0    21     1    11
  1.0452866150389915E+00 a       412     0    21     1    12
  1.2974001710749590E+00 a       413     0    21     1    13
  6.2035995286346068E-02 a       414     0    21     1    14
  5.1458326350809747E-01 a       415     0    21     1    15
 -7.7785432546463543E-02 a       416     0    21     1    16
 -4.1613343330698038E-01 a       417     0    21     1    17
  8.2205618802953218E-01 a       418     0    21     1    18
  5.3286428208086205E-02 a       419     0    21     1    19
  1.8655565890324038E-01 a       420     0    21     1    20
 -5.4867734076094554E-01 a       421     0    22     1     1
 -7.8361904683379821E-02 a       422     0    22     1     2
 -3.2625839665125494E-01 a       423     0    22     1     3
 -1.0702914499064504E+00 a       424     0    22     1     4
 -3.5007219664148231E-01 a       425     0    22     1     5
 -8.3451992640049166E-01 a       426     0    22     1     6
  3.6435418856537460E-01 a       427     0    22     1     7
 -5.4572861798219952E-01 a       428     0    22     1     8
  6.7862502451101170E-01 a       429     0    22     1     9
 -2.6591744204146193E-02 a       430     0    22     1    10
  6.8537859792065858E-01 a       431     0    22     1    11
  1.3909396272446728E-01 a       432     0    22     1    12
  3.1235162816690920E-01 a       433     0    22     1    13
 -3.4738511542367512E-01 a       434     0    22     1    14
  1.0244173132656866E-01 a       435     0    22     1    15
  1.0721462115584772E-01 a       436     0    22     1    16
  2.2283873888715544E-01 a       437     0    22     1    17
  6.6836873823590270E-01 a       438     0    22     1    18
  3.4052281621961222E-01 a       439     0    22     1    19
  7.7360610846509481E-01 a       440     0    22     1    20
 -2.6905351258313298E-01 a       441     0    23     1     1
 -5.4502971574382342E-01 a       442     0    23     1     2
 -2.1358631915112229E+00 a       443     0    23     1     3
  1.5496240143034925E+00 a       444     0    23     1     4
 -4.6704455360567543E-01 a       445     0    23     1     5
  8.5218633951121114E-01 a       446     0    23     1     6
 -6.6856913898514370E-01 a       447     0    23     1     7
  3.0842297938668692E+00 a       448     0    23     1     8
  9.3074110618829631E-01 a       449     0    23     1     9
  2.0265089917810825E-01 a       450     0    23     1    10
 -3.6737318108437583E-01 a       451     0    23     1    11
 -3.3832919319125432E-01 a       452     0    23     1    12
 -1.4202409610053730E+00 a       453     0    23     1    13
 -8.4592792052764043E-01 a       454     0    23     1    14
  5.6414653155695560E-01 a       455     0    23     1    15
 -5.8203413707501372E-01 a       456     0    23     1    16
  2.7933729148725067E-01 a       457     0    23     1    17
  2.1077696874003147E+00 a       458     0    23     1    18
 -1.5783734512321970E+00 a       459     0    23     1    19
 -1.0552070782451015E+00 a       460     0    23     1    20
  8.8555703897255655E-01 a       461     0    24     1     1
 -5.6345414339616362E-01 a       462     0    24     1     2
  6.9944589108624700E-01 a       463     0    24     1     3
  5.8485322462006684E-01 a       464     0    24     1     4
  2.0188578477011254E+00 a       465     0    24     1     5
 -7.2554378471387493E-01 a       466     0    24     1     6
  9.6516325687126359E-01 a       467     0    24     1     7
  1.0399116299515503E+00 a       468     0    24     1     8
 -4.8771920076247854E-01 a       469     0    24     1     9
 -7.0764195232801266E-02 a       470     0    24     1    10
 -1.0379065937946080E-01 a       471     0    24     1    11
  2.6805490777805370E-02 a       472     0    24     1    12
  6.0621363556962093E-01 a       473     0    24     1    13
  1.9097380535811523E-01 a       474     0    24     1    14
  3.9486421258505336E-02 a       475     0    24     1    15
  3.1915540253723079E-01 a       476     0    24     1    16
 -7.7123067967841533E-02 a       477     0    24     1    17
 -2.5239480952089755E-01 a       478     0    24     1    18
  3.1868477930004252E-01 a       479     0    24     1    19
 -1.1866278290199979E-01 a       480     0    24     1    20
 -2.2091019043253865E-01 a       481     0    25     1     1
  1.5405715337350290E-01 a       482     0    25     1     2
 -5.1943735456213991E-01 a       483     0    25     1     3
  6.6837071826720593E-02 a       484     0    25     1     4
 -7.9481193431445318E-01 a       485     0    25     1     5
 -1.0475132796089665E-01 a       486     0    25     1     6
  1.0662481595868191E-01 a       487     0    25     1     7
 -2.7469370125677040E-01 a       488     0    25     1     8
  3.3003722570538935E-01 a       489     0    25     1     9
  4.6923496511596205E-02 a       490     0    25     1    10
  3.8523612760103750E-02 a       491     0    25     1    11
 -3.1689731744805916E-01 a       492     0    25     1    12
  5.8489654522936041E-01 a       493     0    25     1    13
  4.2440293951354024E-01 a       494     0    25     1    14
  1.0304884563796037E-01 a       495     0    25     1    15
  4.1878386783329266E-02 a       496     0    25     1    16
 -6.7426576602927202E-01 a       497     0    25     1    17
 -1.2735279409555926E+00 a       498     0    25     1    18
 -1.5160163884790856E-01 a       499     0    25     1    19
  5.7175109792549506E-01 a       500     0    25     1    20
  5.0176887697905903E-01 a       501     0    26     1     1
 -4.1616163725015826E-01 a       502     0    26     1     2
  8.7793059661234563E-01 a       503     0    26     1     3
 -3.1381788197957478E-01 a       504     0    26     1     4
 -2.2432014909298554E+00 a       505     0    26     1     5
  9.8705227577095644E-01 a       506     0    26     1     6
 -2.7911092646063274E-01 a       507     0    26     1     7
 -1.9551616041239439E+00 a       508     0    26     1     8
 -3.2803344207172691E-01 a       509     0    26     1     9
  2.4285621371410399E-01 a       510     0    26     1    10
 -4.7090779763151858E-01 a       511     0    26     1    11
  8.4054244246030707E-01 a       512     0    26     1    12
  1.8367988573442757E+00 a       513     0    26     1    13
  1.1815455283711858E-01 a       514     0    26     1    14
 -5.0232413387894870E-01 a       515     0    26     1    15
 -7.0865675825644492E-01 a       516     0    26     1    16
 -3.8774550697296427E-02 a       517     0    26     1    17
  6.0579729604854293E-01 a       518     0    26     1    18
  1.2039742641192792E+00 a       519     0    26     1    19
 -1.1531621862619601E+00 a       520     0    26     1    20
  5.4234332576215782E-01 a       521     0    27     1     1
  9.7505464375144779E-01 a       522     0    27     1     2
 -1.0389305335032473E+00 a       523     0    27     1     3
  5.2118919124445973E-01 a       524     0    27     1     4
  1.3491496776607963E+00 a       525     0    27     1     5
 -2.0268703904097478E+00 a       526     0    27     1     6
 -1.1381778866745784E+00 a       527     0    27     1     7
  1.4881946610820025E+00 a       528     0    27     1     8
 -1.2524330968949096E+00 a       529     0    27     1     9
 -1.3144870543115739E+00 a       530     0    27     1    10
  9.6918228843394155E-02 a       531     0    27     1    11
  3.7954208840844120E-02 a       532     0    27     1    12
 -1.7936427519568166E+00 a       533     0    27     1    13
 -1.3149904441341376E-01 a       534     0    27     1    14
 -5.9315981730871559E-01 a       535     0    27     1    15
 -6.5839723569390296E-01 a       536     0    27     1    16
  7.3046777887332215E-01 a       537     0    27     1    17
 -5.5416316832174052E-02 a       538     0    27     1    18
 -3.5200584970151296E+00 a       539     0    27     1    19
 -2.0774073942311519E-01 a       540     0    27     1    20
 -1.5385327945715455E-01 a       541     0    28     1     1
 -6.1803553663810651E-01 a       542     0    28     1     2
  8.1826605537773955E-01 a       543     0    28     1     3
 -1.9660635878213031E-01 a       544     0    28     1     4
 -4.3004570308052992E-01 a       545     0    28     1     5
  2.7972187196004394E-01 a       546     0    28     1     6
 -7.7147492437643378E-02 a       547     0    28     1     7
 -2.5862041721648787E-01 a       548     0    28     1     8
  1.1165991250533011E-01 a       549     0    28     1     9
  4.2570193958968233E-01 a       550     0    28     1    10
 -2.2516884430360065E-01 a       551     0    28     1    11
  2.6322715965513038E-01 a       552     0    28     1    12
 -1.9253026924644676E-01 a       553     0    28     1    13
  4.0777991612172805E-02 a       554     0    28     1    14
  1.3297851823623100E-01 a       555     0    28     1    15
 -6.6525883328193485E-03 a       556     0    28     1    16
  2.2720318705557341E-02 a       557     0    28     1    17
  3.0143678905595428E-01 a       558     0    28     1    18
  9.1227622473496739E-01 a       559     0    28     1    19
 -2.5669822791096814E-01 a       560     0    28     1    20
 -4.1093082513882168E-01 a       561     0    29     1     1
  3.2564931694483057E-01 a       562     0    29     1     2
 -2.0421881466806950E-02 a       563     0    29     1     3
 -1.3916525601535776E+00 a       564     0    29     1     4
  5.6886269994406624E-01 a       565     0    29     1     5
 -1.5441779402888600E+00 a       566     0    29     1     6
 -2.5255079810623016E-01 a       567     0    29     1     7
 -1.5755081578122174E+00 a       568     0    29     1     8
  1.4097768612042398E+00 a       569     0    29     1     9
  8.7231749464434849E-01 a       570     0    29     1    10
  8.3575456716536667E-01 a       571     0    29     1    11
  3.5545849213385783E-01 a       572     0    29     1    12
 -3.9186128154659557E-02 a       573     0    29     1    13
  1.8974795257451441E-01 a       574     0    29     1    14
 -1.2058742976827663E-02 a       575     0    29     1    15
  1.1189331323499014E+00 a       576     0    29     1    16
  1.7056922144805431E-01 a       577     0    29     1    17
 -1.6211833832369826E+00 a       578     0    29     1    18
  1.4747818576885132E+00 a       579     0    29     1    19
  4.4731421964209461E-01 a       580     0    29     1    20
 -4.3613590191031887E-01 a       581     0    30     1     1
 -1.3679080551779810E-01 a       582     0    30     1     2
 -6.0234375001647145E-01 a       583     0    30     1     3
  2.9588805466021512E-01 a       584     0    30     1     4
  8.3239569229774379E-01 a       585     0    30     1     5
 -1.5231692430611066E-01 a       586     0    30     1     6
 -1.9578118979291648E-01 a       587     0    30     1     7
  1.3664894414941633E+00 a       588     0    30     1     8
  5.3415579022963167E-01 a       589     0    30     1     9
  3.4595201381781604E-01 a       590     0    30     1    10
  2.0545063574349604E-01 a       591     0    30     1    11
 -5.0950915340609704E-01 a       592     0    30     1    12
 -1.3071875468112049E+00 a       593     0    30     1    13
  2.5500151729673320E-01 a       594     0    30     1    14
  1.3217789893176260E-01 a       595     0    30     1    15
  2.5784135545138015E-01 a       596     0    30     1    16
 -2.3527904702004401E-01 a       597     0    30     1    17
 -6.6793338458478169E-01 a       598     0    30     1    18
 -5.0143731623808674E-01 a       599     0    30     1    19
  4.8874105650856137E-01 a       600     0    30     1    20
 -6.2345756872272329E-01 b       601     1     1
 -6.5302760658315040E-01 b       602     1     2
 -6.5843549837483006E-01 b       603     1     3
  2.5366689823731575E-01 b       604     1     4
 -7.8494817002383244E-01 b       605     1     5
 -2.9238011983973738E-01 b       606     1     6
 -5.3059765210204224E-01 b       607     1     7
 -9.1289995874366736E-01 b       608     1     8
  7.1077289289359036E-01 b       609     1     9
  1.2779116712674869E+00 b       610     1    10
 -5.7379886978813126E-02 b       611     1    11
 -1.9494036752533409E-01 b       612     1    12
 -7.6862758169606682E-01 b       613     1    13
  7.1356219757468831E-01 b       614     1    14
  5.9870056791557380E-01 b       615     1    15
  9.8157389675680606E-02 b       616     1    16
 -2.5881998141472112E-01 b       617     1    17
 -6.6949336070239140E-01 b       618     1    18
  6.6386580165610731E-01 b       619     1    19
  8.2457117517869138E-01 b       620     1    20
  5.5267945136905561E-01 a       621     1     1     2     1
  6.8786064915080214E-01 a       622     1     1     2     2
  1.5961561216914473E+00 a       623     1     1     2     3
  1.5994671444493988E-01 a       624     1     1     2     4
  1.7521413099042363E-01 a       625     1     1     2     5
 -9.0722792418694786E-01 a       626     1     1     2     6
 -1.3870199211404348E+00 a       627     1     1     2     7
 -1.4870089562225126E+00 a       628     1     1     2     8
  5.5721903258239347E-01 a       629     1     1     2     9
  1.1629392319422263E+00 a       630     1     1     2    10
  4.7697008336982893E-01 a       631     1     1     2    11
 -5.9259200555393798E-01 a       632     1     1     2    12
 -2.1596359625062356E-01 a       633     1     1     2    13
 -6.7310310522647909E-02 a       634     1     1     2    14
  7.4594311744270392E-01 a       635     1     1     2    15
 -1.5248352144181931E+00 a       636     1     1     2    16
 -4.1229390573874686E-01 a       637     1     1     2    17
 -4.2647837119023008E-02 a       638     1     1     2    18
  5.0499820272256135E-01 a       639     1     1     2    19
  4.0875200904632258E-01 a       640     1     1     2    20
  6.3788689841848001E-01 a       641     1     2     2     1
 -2.2581349772421119E-01 a       642     1     2     2     2
  2.2540172289858434E-01 a       643     1     2     2     3
  3.9612073891972777E-01 a       644     1     2     2     4
 -5.1675660530627554E-02 a       645     1     2     2     5
  6.6830750403726658E-01 a       646     1     2     2     6
  1.7862148660655162E+00 a       647     1     2     2     7
  1.9222330656473265E+00 a       648     1     2     2     8
  9.4155304972749976E-01 a       649     1     2     2     9
  1.4531044297777667E+00 a       650     1     2     2    10
  7.0747188565298963E-03 a       651     1     2     2    11
  5.1139709035908443E-01 a       652     1     2     2    12
 -1.0356534913270741E+00 a       653     1     2     2    13
  3.9976355853037562E-02 a       654     1     2     2    14
 -9.1454595635539215E-01 a       655     1     2     2    15
 -4.0034914580749453E-01 a       656     1     2     2    16
  5.5660300696908860E-01 a       657     1     2     2    17
 -2.4946942550275852E-02 a       658     1     2     2    18
  6.5688742014532397E-01 a       659     1     2     2    19
 -8.5459359045056660E-01 a       660     1     2     2    20
  1.0501273146944157E-01 a       661     1     3     2     1
  4.2812647969879031E-01 a       662     1     3     2     2
  1.1451189102409612E-01 a       663     1     3     2     3
  3.8017787385189333E-01 a       664     1     3     2     4
  6.1706519635072887E-01 a       665     1     3     2     5
  5.5609631782698410E-01 a       666     1     3     2     6
  1.3202404654767533E-01 a       667     1     3     2     7
  9.1750527502279633E-02 a       668     1     3     2     8
  6.5598191153019947E-01 a       669     1     3     2     9
  9.1928618651142513E-01 a       670     1     3     2    10
 -2.6943871983179563E-01 a       671     1     3     2    11
 -5.2536749346359701E-01 a       672     1     3     2    12
 -1.8458773545345775E-01 a       673     1     3     2    13
  1.1412941062712325E+00 a       674     1     3     2    14
  1.5089975349859730E+00 a       675     1     3     2    15
 -7.9534306273010635E-01 a       676     1     3     2    16
 -3.0549805114316331E-01 a       677     1     3     2    17
 -5.7907755439879005E-01 a       678     1     3     2    18
  3.5125525632970728E-01 a       679     1     3     2    19
  7.6718297340059227E-01 a       680     1     3     2    20
 -3.0725600513848591E-02 a       681     1     4     2     1
  6.9242990578231856E-01 a       682     1     4     2     2
  8.8383055415381861E-01 a       683     1     4     2     3
  6.7086712967920703E-01 a       684     1     4     2     4
  9.7106941852335468E-02 a       685     1     4     2     5
  7.6957554785831031E-03 a       686     1     4     2     6
 -3.6268355621320825E-01 a       687     1     4     2     7
  1.0012426832350649E-01 a       688     1     4     2     8
 -3.1881368575599794E-01 a       689     1     4     2     9
 -2.0460489773326637E-01 a       690     1     4     2    10
  3.1652164758157891E-01 a       691     1     4     2    11
  5.8517628011921161E-02 a       692     1     4     2    12
  1.1308279254892237E-02 a       693     1     4     2    13
 -1.4073922720229102E+00 a       694     1     4     2    14
 -5.3277616980633113E-01 a       695     1     4     2    15
  7.5053452861251990E-01 a       696     1     4     2    16
  4.6886442979046800E-01 a       697     1     4     2    17
 -5.4090603694977357E-01 a       698     1     4     2    18
 -1.1953741447142167E-01 a       699     1     4     2    19
 -7.6824589045536462E-01 a       700     1     4     2    20
 -4.1000287382705156E-02 a       701     1     5     2     1
  7.2767260030559819E-02 a       702     1     5     2     2
  1.4153693684776968E-02 a       703     1     5     2     3
 -3.7030619165395073E-01 a       704     1     5     2     4
  6.1938624689633559E-01 a       705     1     5     2     5
 -2.2040022244058843E-01 a       706     1     5     2     6
  3.4127041530708063E-01 a       707     1     5     2     7
  4.5380563678027841E-01 a       708     1     5     2     8
 -4.5802382278825399E-01 a       709     1     5     2     9
  8.5354451145641985E-01 a       710     1     5     2    10
 -8.6828433673905400E-02 a       711     1     5     2    11
 -1.5483641463202896E-02 a       712     1     5     2    12
  4.1087821151600235E-01 a       713     1     5     2    13
  1.5830025483964894E-01 a       714     1     5     2    14
  5.7225690235308302E-01 a       715     1     5     2    15
 -1.6428112120423359E+00 a       716     1     5     2    16
 -6.6875845127181011E-01 a       717     1     5     2    17
 -1.7402698536467270E-01 a       718     1     5     2    18
 -7.7315922005012264E-02 a       719     1     5     2    19
  1.8483328843399258E-01 a       720     1     5     2    20
  7.4029654098581490E-02 a       721     1     6     2     1
  4.0801334323960346E-02 a       722     1     6     2     2
 -9.4336758446323821E-01 a       723     1     6     2     3
  5.7832518783540204E-02 a       724     1     6     2     4
  1.2842986528524536E-01 a       725     1     6     2     5
 -1.4953737290864980E-01 a       726     1     6     2     6
 -9.9502685815073566E-01 a       727     1     6     2     7
 -8.9117764986805126E-01 a       728     1     6     2     8
 -2.6493571125639870E-01 a       729     1     6     2     9
 -1.9280368894207889E-01 a       730     1     6     2    10
  1.0319907394510885E-01 a       731     1     6     2    11
 -1.4979537911553131E-01 a       732     1     6     2    12
 -1.1648593124157720E-01 a       733     1     6     2    13
 -1.0953052252840709E-01 a       734     1     6     2    14
  1.2798027824454963E+00 a       735     1     6     2    15
 -5.4069677821363726E-01 a       736     1     6     2    16
 -2.7516157922161050E-01 a       737     1     6     2    17
  1.8926371977054446E-01 a       738     1     6     2    18
 -2.3511176752801927E-01 a       739     1     6     2    19
 -3.1615673976555891E-01 a       740     1     6     2    20
  4.5111825094289215E-01 a       741     1     7     2     1
  2.4380147561562085E-01 a       742     1     7     2     2
  1.3482902163519619E+00 a       743     1     7     2     3
  6.9385164792748411E-01 a       744     1     7     2     4
 -1.4115255144491443E-01 a       745     1     7     2     5
 -8.8141340671158230E-01 a       746     1     7     2     6
  9.0848083121188283E-01 a       747     1     7     2     7
 -7.2156103731049792E-01 a       748     1     7     2     8
 -1.1361226335576322E+00 a       749     1     7     2     9
 -7.1902777729492595E-01 a       750     1     7     2    10
  2.7188411066414375E-01 a       751     1     7     2    11
 -1.1228964072538923E+00 a       752     1     7     2    12
  1.5668696151277459E-01 a       753     1     7     2    13
 -1.1145549584879112E-01 a       754     1     7     2    14
 -1.1127415289493547E+00 a       755     1     7     2    15
 -4.3831079917833221E-01 a       756     1     7     2    16
  8.1237049612797363E-01 a       757     1     7     2    17
 -5.8202894729795196E-01 a       758     1     7     2    18
  1.3084325939857238E+00 a       759     1     7     2    19
  1.8844942422145405E-01 a       760     1     7     2    20
 -1.0901659911326798E-02 a       761     1     8     2     1
 -3.9867958364084405E-01 a       762     1     8     2     2
  5.6084770780525919E-03 a       763     1     8     2     3
  2.9414197990153816E-02 a       764     1     8     2     4
  1.8068509766770882E-01 a       765     1     8     2     5
  9.9604085178769575E-01 a       766     1     8     2     6
  9.1075715886625608E-01 a       767     1     8     2     7
 -3.3720027681695042E-01 a       768     1     8     2     8
  6.1142233174915306E-01 a       769     1     8     2     9
 -1.7966480472082774E-01 a       770     1     8     2    10
 -6.4952413369640394E-01 a       771     1     8     2    11
 -2.2283000057274990E-01 a       772     1     8     2    12
 -8.9682026962263817E-01 a       773     1     8     2    13
  6.4185814139685315E-01 a       774     1     8     2    14
  6.0040391312845076E-01 a       775     1     8     2    15
  1.6945245760243295E+00 a       776     1     8     2    16
  5.3328711128738060E-01 a       777     1     8     2    17
  2.8779232794606141E-01 a       778     1     8     2    18
  5.4576990114396373E-02 a       779     1     8     2    19
 -1.9790760718090467E-01 a       780     1     8     2    20
 -4.6061781093206788E-01 a       781     1     9     2     1
 -8.6452155978814860E-01 a       782     1     9     2     2
 -6.3839993093955349E-01 a       783     1     9     2     3
  9.3432714577847062E-03 a       784     1     9     2     4
  2.2616345475318811E-01 a       785     1     9     2     5
  1.0782410011466417E-01 a       786     1     9     2     6
 -3.8748721436838990E-01 a       787     1     9     2     7
  9.2322312473207990E-01 a       788     1     9     2     8
  6.9655232676448270E-02 a       789     1     9     2     9
 -2.0891475635908852E-01 a       790     1     9     2    10
 -4.8409179225296405E-03 a       791     1     9     2    11
  5.9380029136015355E-01 a       792     1     9     2    12
 -2.0484302814539768E-01 a       793     1     9     2    13
 -5.1487364220975729E-01 a       794     1     9     2    14
  3.1707213691496268E+00 a       795     1     9     2    15
 -2.8429543088446596E-01 a       796     1     9     2    16
 -6.0228500169307631E-01 a       797     1     9     2    17
 -7.1905395195601837E-02 a       798     1     9     2    18
  2.6551669465885042E-01 a       799     1     9     2    19
  6.8129174720196328E-01 a       800     1     9     2    20
  3.8873492718784386E-01 a       801     1    10     2     1
  6.8502452261261848E-01 a       802     1    10     2     2
 -1.7047637349050579E+00 a       803     1    10     2     3
  3.1080960165945209E-01 a       804     1    10     2     4
  1.1719368789189961E-01 a       805     1    10     2     5
  5.9939796516423105E-01 a       806     1    10     2     6
 -4.6388796747827149E-01 a       807     1    10     2     7
 -6.1494745742898460E-01 a       808     1    10     2     8
 -1.3459732692095048E+00 a       809     1    10     2     9
  2.1822248886005866E+00 a       810     1    10     2    10
 -4.0478890045420152E-01 a       811     1    10     2    11
  2.1494636454683702E-01 a       812     1    10     2    12
  3.7364782512822076E-01 a       813     1    10     2    13
  1.0168413571704196E+00 a       814     1    10     2    14
  2.5756858221296874E+00 a       815     1    10     2    15
 -1.2591728298503544E+00 a       816     1    10     2    16
 -8.0904500593975401E-02 a       817     1    10     2    17
  2.6967264704477611E-01 a       818     1    10     2    18
 -6.6724956964477256E-01 a       819     1    10     2    19
  1.7254678587057952E+00 a       820     1    10     2    20
 -2.0236271259258684E-01 a       821     1    11     2     1
  4.4085191346215891E-01 a       822     1    11     2     2
 -9.7406024121083845E-01 a       823     1    11     2     3
  6.7639185968623960E-01 a       824     1    11     2     4
 -5.8910940455325367E-01 a       825     1    11     2     5
  6.1093851141800926E-01 a       826     1    11     2     6
 -1.2830063397695587E-01 a       827     1    11     2     7
 -1.8540619424862004E-01 a       828     1    11     2     8
  4.3160170676356618E-01 a       829     1    11     2     9
  4.4006497847245002E-01 a       830     1    11     2    10
  6.7832572025188081E-02 a       831     1    11     2    11
  9.8751167602895540E-01 a       832     1    11     2    12
  2.8528499807093483E-01 a       833     1    11     2    13
  1.3521953519506572E-01 a       834     1    11     2    14
 -1.0120313620037706E+00 a       835     1    11     2    15
  5.3795204313095446E-01 a       836     1    11     2    16
  4.0706755768537384E-01 a       837     1    11     2    17
 -4.4436253050340380E-01 a       838     1    11     2    18
 -7.1909180918764984E-02 a       839     1    11     2    19
  1.2218906813884006E-01 a       840     1    11     2    20
 -5.8211420955938002E-02 a       841     1    12     2     1
  1.6122352710526294E-01 a       842     1    12     2     2
 -6.2807621019957394E-01 a       843     1    12     2     3
  8.4238122726733880E-02 a       844     1    12     2     4
 -1.0142341024974859E+00 a       845     1    12     2     5
 -2.5925219423104218E-01 a       846     1    12     2     6
  1.1840896076835759E+00 a       847     1    12     2     7
 -3.0078545898665793E-01 a       848     1    12     2     8
  3.8136742799519570E-02 a       849     1    12     2     9
  5.4070610995494515E-03 a       850     1    12     2    10
  1.8503064255714324E-01 a       851     1    12     2    11
 -5.0334920543161310E-01 a       852     1    12     2    12
  5.8816877223032027E-01 a       853     1    12     2    13
 -2.5371627479556119E-01 a       854     1    12     2    14
 -9.3576960685178356E-01 a       855     1    12     2    15
 -2.5728125929482325E-02 a       856     1    12     2    16
  4.8873848642040502E-01 a       857     1    12     2    17
 -3.8301665029289361E-01 a       858     1    12     2    18
 -1.3347292066648883E-01 a       859     1    12     2    19
 -1.3010519767481645E+00 a       860     1    12     2    20
 -1.2267648569129437E-02 a       861     1    13     2     1
 -4.6448363944997545E-01 a       862     1    13     2     2
 -3.2136811892938633E-01 a       863     1    13     2     3
 -1.1461382749824772E-01 a       864     1    13     2     4
 -2.9031810388287244E-01 a       865     1    13     2     5
  2.5471574149467902E-01 a       866     1    13     2     6
  6.8968253062111118E-01 a       867     1    13     2     7
 -6.6466171241314070E-02 a       868     1    13     2     8
 -3.6115463951504051E-01 a       869     1    13     2     9
  4.9500472369713433E-01 a       870     1    13     2    10
 -3.7447281346755540E-01 a       871     1    13     2    11
  8.2125100799211204E-01 a       872     1    13     2    12
 -6.6497768189574064E-02 a       873     1    13     2    13
  8.1722527165834391E-02 a       874     1    13     2    14
  7.7046144770712255E-01 a       875     1    13     2    15
  7.6992036239594508E-01 a       876     1    13     2    16
  3.9040984585706123E-01 a       877     1    13     2    17
  6.3650239769749073E-01 a       878     1    13     2    18
  5.7848633765514723E-01 a       879     1    13     2    19
 -1.6999948518863797E-01 a       880     1    13     2    20
  3.3434870974644298E-01 a       881     1    14     2     1
 -1.6010570010023595E-01 a       882     1    14     2     2
  1.2752861775516231E+00 a       883     1    14     2     3
  2.1713370518229708E-01 a       884     1    14     2     4
  2.6204484601638911E-01 a       885     1    14     2     5
  5.9460179277641623E-01 a       886     1    14     2     6
  1.3532730090025658E+00 a       887     1    14     2     7
  1.4526289294779766E+00 a       888     1    14     2     8
 -8.1783147600945377E-02 a       889     1    14     2     9
  8.7463386502718132E-01 a       890     1    14     2    10
 -7.0250947948390985E-02 a       891     1    14     2    11
  4.2148796585065573E-01 a       892     1    14     2    12
 -2.1833974713099891E-01 a       893     1    14     2    13
 -3.7314653024992711E-01 a       894     1    14     2    14
 -3.0105239705780568E-01 a       895     1    14     2    15
 -7.5717852785835782E-01 a       896     1    14     2    16
  1.1636473921591128E+00 a       897     1    14     2    17
 -7.2633128049028806E-01 a       898     1    14     2    18
  6.5466743317550236E-01 a       899     1    14     2    19
  3.2947189062271587E-01 a       900     1    14     2    20
  9.7131420492925447E-02 a       901     1    15     2     1
 -1.3477047838490547E-02 a       902     1    15     2     2
  8.1390326221773635E-01 a       903     1    15     2     3
  1.8479031520663869E-01 a       904     1    15     2     4
 -6.3232291831136622E-01 a       905     1    15     2     5
  8.5449324901900814E-01 a       906     1    15     2     6
 -4.2514882105995366E-01 a       907     1    15     2     7
  1.8292520074162252E-01 a       908     1    15     2     8
  1.3531234489153932E-01 a       909     1    15     2     9
  2.0945727008806203E-02 a       910     1    15     2    10
 -7.2391626294348935E-02 a       911     1    15     2    11
  1.0159450535017645E+00 a       912     1    15     2    12
  1.0587781463231079E-01 a       913     1    15     2    13
  1.0577972539464680E+00 a       914     1    15     2    14
 -1.7932314490329743E-01 a       915     1    15     2    15
 -2.1152422260547052E-01 a       916     1    15     2    16
  6.9659951796289199E-01 a       917     1    15     2    17
  3.2761392920816762E-01 a       918     1    15     2    18
  4.2438026408672697E-01 a       919     1    15     2    19
  7.5730785381668009E-01 a       920     1    15     2    20
 -2.9430100553053473E-01 a       921     1    16     2     1
  9.7688903953038655E-02 a       922     1    16     2     2
 -8.4971693808096138E-01 a       923     1    16     2     3
 -3.0692113220837153E-01 a       924     1    16     2     4
  8.1927774893782213E-01 a       925     1    16     2     5
 -1.3276423908144971E-01 a       926     1    16     2     6
 -6.5260514690403992E-01 a       927     1    16     2     7
 -4.6839451308323427E-01 a       928     1    16     2     8
 -2.8769844207523243E-01 a       929     1    16     2     9
 -6.4330194621401893E-01 a       930     1    16     2    10
  1.9172440018196329E-01 a       931     1    16     2    11
  5.2165501331549327E-03 a       932     1    16     2    12
  8.4210195086507927E-02 a       933     1    16     2    13
  4.8316950151245608E-01 a       934     1    16     2    14
 -1.7351270086507575E-01 a       935     1    16     2    15
  1.0049579551623014E+00 a       936     1    16     2    16
 -2.2854970114826473E-01 a       937     1    16     2    17
  6.5058654699077945E-01 a       938     1    16     2    18
 -2.2944239199542327E-01 a       939     1    16     2    19
 -1.0064309667367153E+00 a       940     1    16     2    20
  6.1687830709399416E-01 a       941     1    17     2     1
  8.6656388268983375E-01 a       942     1    17     2     2
  9.5804759956140151E-01 a       943     1    17     2     3
  2.4270061792077388E-01 a       944     1    17     2     4
  9.0941631275614287E-01 a       945     1    17     2     5
  5.3094426331436108E-02 a       946     1    17     2     6
 -1.3007955700769336E+00 a       947     1    17     2     7
 -2.0444105554580698E+00 a       948     1    17     2     8
  2.5855655262364474E-01 a       949     1    17     2     9
  5.7479997992716057E-03 a       950     1    17     2    10
  5.3468723852449807E-01 a       951     1    17     2    11
 -6.7903323863357867E-01 a       952     1    17     2    12
 -3.7864927554359357E-01 a       953     1    17     2    13
 -5.8476046769363932E-01 a       954     1    17     2    14
  8.3098423298279522E-01 a       955     1    17     2    15
 -6.1130693762636933E-02 a       956     1    17     2    16
  6.0624974753314009E-01 a       957     1    17     2    17
 -6.2012330492563751E-02 a       958     1    17     2    18
  1.7528529756446723E-01 a       959     1    17     2    19
 -9.4861628052225144E-01 a       960     1    17     2    20
  1.5298058149688156E-02 a       961     1    18     2     1
 -2.4583080249666900E-01 a       962     1    18     2     2
  5.9314649146248044E-01 a       963     1    18     2     3
 -1.9875021791735964E-01 a       964     1    18     2     4
  2.0398226214545850E-01 a       965     1    18     2     5
 -7.4710101069119988E-02 a       966     1    18     2     6
 -7.6815359276379822E-02 a       967     1    18     2     7
  2.9754992030811089E-01 a       968     1    18     2     8
 -1.2648364062130480E-02 a       969     1    18     2     9
  3.2663239954373546E-01 a       970     1    18     2    10
 -6.1221022928221631E-02 a       971     1    18     2    11
  2.9532997704569092E-01 a       972     1    18     2    12
  5.0704489250818115E-02 a       973     1    18     2    13
  1.5003643813524847E-01 a       974     1    18     2    14
 -1.4715892467400962E-01 a       975     1    18     2    15
 -6.9119290548817425E-01 a       976     1    18     2    16
 -4.2506071292772070E-02 a       977     1    18     2    17
  1.1801353278857056E-01 a       978     1    18     2    18
  4.0659114682045444E-01 a       979     1    18     2    19
  7.3752816296610613E-01 a       980     1    18     2    20
  6.7550086033438450E-01 a       981     1    19     2     1
  5.1474739252626289E-01 a       982     1    19     2     2
  5.8388798028868627E-01 a       983     1    19     2     3
  6.7309521792829452E-01 a       984     1    19     2     4
 -1.2262168899130463E+00 a       985     1    19     2     5
 -2.3500256584224721E-01 a       986     1    19     2     6
  9.6592906774956300E-01 a       987     1    19     2     7
  6.1853045431505882E-01 a       988     1    19     2     8
  1.8202066269104888E-01 a       989     1    19     2     9
 -9.6580507565938778E-01 a       990     1    19     2    10
  2.9068751573650176E-01 a       991     1    19     2    11
 -4.5182065100073290E-02 a       992     1    19     2    12
  2.8665925308660380E-02 a       993     1    19     2    13
 -5.6496553634828972E-01 a       994     1    19     2    14
 -3.2742878272178655E+00 a       995     1    19     2    15
  1.3366932297298986E+00 a       996     1    19     2    16
  3.3191611171937851E-01 a       997     1    19     2    17
  5.9204252072148952E-02 a       998     1    19     2    18
  2.3838635073788891E-01 a       999     1    19     2    19
 -1.1309395840049983E+00 a      1000     1    19     2    20
  6.5711124403660323E-02 a      1001     1    20     2     1
  8.5079602953644373E-01 a      1002     1    20     2     2
 -1.7906782185568435E+00 a      1003     1    20     2     3
 -6.4409069741654701E-01 a      1004     1    20     2     4
  4.5114335245435166E-01 a      1005     1    20     2     5
  6.2760390431820179E-01 a      1006     1    20     2     6
 -1.0192421844184514E+00 a      1007     1    20     2     7
 -1.0555516909233285E+00 a      1008     1    20     2     8
  4.6081575531664987E-01 a      1009     1    20     2     9
  2.6857012854766776E-01 a      1010     1    20     2    10
  6.6555223180066847E-01 a      1011     1    20     2    11
 -4.3690917782107497E-01 a      1012     1    20     2    12
  1.4737059736594562E+00 a      1013     1    20     2    13
 -1.2191167897895143E+00 a      1014     1    20     2    14
  6.8130485263950505E-02 a      1015     1    20     2    15
 -1.9545687815975481E+00 a      1016     1    20     2    16
 -3.1853371744668418E-01 a      1017     1    20     2    17
 -3.0607667713125120E-01 a      1018     1    20     2    18
 -1.0512238964074243E+00 a      1019     1    20     2    19
  6.2560058523072137E-01 a      1020     1    20     2    20
 -3.2416443324373234E-01 b      1021     2     1
  5.8300503526088066E-01 b      1022     2     2
  1.7772931185843512E+00 b      1023     2     3
  9.5481922481617254E-01 b      1024     2     4
  1.4814673926449937E+00 b      1025     2     5
  1.0105106268554145E+00 b      1026     2     6
  8.3912289721319824E-02 b      1027     2     7
 -8.4612338299009826E-01 b      1028     2     8
 -4.4342745965402713E-01 b      1029     2     9
 -1.0969269966638611E+00 b      1030     2    10
 -1.5746123866851698E+00 b      1031     2    11
  8.0807412730662553E-01 b      1032     2    12
 -6.6842298427900615E-01 b      1033     2    13
 -6.2118163900318302E-01 b      1034     2    14
 -1.0148824345219400E+00 b      1035     2    15
  8.0977780042220004E-01 b      1036     2    16
  9.5847741045774637E-01 b      1037     2    17
  1.8500069827572385E-01 b      1038     2    18
  6.1986116681577608E-01 b      1039     2    19
  1.0342586053679104E+00 b      1040     2    20
 -5.7840007545174088E-01 a      1041     2     1     3     1
  1.0673658739891676E+00 a      1042     2     2     3     1
  1.7495638674153835E-01 a      1043     2     3     3     1
  5.1808978241877113E-01 a      1044     2     4     3     1
  1.0049463786073083E-01 a      1045     2     5     3     1
  1.3608034004265777E+00 a      1046     2     6     3     1
 -5.6374724109941510E-01 a      1047     2     7     3     1
  1.1149829745438188E-01 a      1048     2     8     3     1
 -5.1015337895435342E-01 a      1049     2     9     3     1
 -3.2625390795477238E-01 a      1050     2    10     3     1
 -6.9486242058604308E-01 a      1051     2    11     3     1
  2.0516253591875491E+00 a      1052     2    12     3     1
  1.1015671130134823E+00 a      1053     2    13     3     1
 -9.1270306831241899E-01 a      1054     2    14     3     1
  1.7471692867517002E-01 a      1055     2    15     3     1
 -1.7709754826869756E-01 a      1056     2    16     3     1
  2.4329689227448764E-01 a      1057     2    17     3     1
  5.4713591884859369E-01 a      1058     2    18     3     1
 -9.7412341290842530E-01 a      1059     2    19     3     1
  1.7985285919493719E+00 a      1060     2    20     3     1
  1.6794665856393594E+00 b      1061     3     1
