################################################################################
# Neural network connection values (weights and biases).
################################################################################
# Col  Name       Description
################################################################################
# 1    connection Neural network connection value.
# 2    t          Connection type (a = weight, b = bias).
# 3    index      Index enumerating weights.
# 4    l_s        Starting point layer (end point layer for biases).
# 5    n_s        Starting point neuron in starting layer (end point neuron for biases).
# 6    l_e        End point layer.
# 7    n_e        End point neuron in end layer.
################################################################################
#                      1 2         3     4     5     6     7
#             connection t     index   l_s   n_s   l_e   n_e
############################################################
 -2.2090977136677572E+00 a         1     0     1     1     1
  8.6920590923960472E-01 a         2     0     1     1     2
  3.3565521332448651E+00 a         3     0     1     1     3
 -2.2562552319239618E-01 a         4     0     1     1     4
 -6.7943045972994320E-01 a         5     0     1     1     5
  5.1035437292594055E-01 a         6     0     1     1     6
 -4.3341394465676721E+00 a         7     0     1     1     7
 -1.3478565408519452E+00 a         8     0     1     1     8
 -9.8031794737383426E-01 a         9     0     1     1     9
  2.0692835693348948E+00 a        10     0     1     1    10
 -5.1396828545539419E-01 a        11     0     1     1    11
  1.2163063419349742E+00 a        12     0     1     1    12
 -1.6060035647949336E-01 a        13     0     1     1    13
 -3.4791982470154198E-01 a        14     0     1     1    14
  8.8286216487219373E-03 a        15     0     1     1    15
 -4.3767928765565389E-01 a        16     0     1     1    16
  1.6096712797722410E+00 a        17     0     1     1    17
  3.8244306105167147E-01 a        18     0     1     1    18
 -1.3566211614588510E+00 a        19     0     1     1    19
  7.3187269050754600E-01 a        20     0     1     1    20
 -2.6243275810929317E-01 a        21     0     2     1     1
 -8.4407039699486175E-01 a        22     0     2     1     2
 -1.8815593004765558E+00 a        23     0     2     1     3
 -1.0088188206090927E+00 a        24     0     2     1     4
 -6.5587343256587283E-01 a        25     0     2     1     5
 -1.3906622498788672E+00 a        26     0     2     1     6
  3.4454472229923554E+00 a        27     0     2     1     7
  1.3911070071732976E+00 a        28     0     2     1     8
  3.0609580301163728E+00 a        29     0     2     1     9
  2.8060492361824524E-01 a        30     0     2     1    10
 -1.8110973577440976E+00 a        31     0     2     1    11
  3.5200462211005162E-01 a        32     0     2     1    12
  1.3816389886341876E-01 a        33     0     2     1    13
 -1.5142814771049284E-01 a        34     0     2     1    14
 -1.8354371354421140E-01 a        35     0     2     1    15
 -8.8561970371537280E-01 a        36     0     2     1    16
  5.2843077575206654E-01 a        37     0     2     1    17
  9.2510168319971064E-01 a        38     0     2     1    18
  1.6161266099462185E-01 a        39     0     2     1    19
  6.6357515119437283E-01 a        40     0     2     1    20
  3.1620451485743080E+00 a        41     0     3     1     1
 -2.4016003323952484E+00 a        42     0     3     1     2
 -3.0795589775345920E+00 a        43     0     3     1     3
  1.9319019957944696E+00 a        44     0     3     1     4
  3.1717817732283287E+00 a        45     0     3     1     5
 -2.2455738115327159E-01 a        46     0     3     1     6
  6.3892886678348457E+00 a        47     0     3     1     7
  1.8898305352257820E+00 a        48     0     3     1     8
  1.0254845932565364E+00 a        49     0     3     1     9
 -2.2291842927545522E+00 a        50     0     3     1    10
  2.8031875617240711E+00 a        51     0     3     1    11
 -3.6722019089802873E+00 a        52     0     3     1    12
  7.4835921861477117E-01 a        53     0     3     1    13
  1.1335296373478656E+00 a        54     0     3     1    14
  7.4632165397616779E-01 a        55     0     3     1    15
  1.3010021212917573E+00 a        56     0     3     1    16
 -2.6279249088523708E+00 a        57     0     3     1    17
  8.9842695562156127E-02 a        58     0     3     1    18
  1.8388915125075489E+00 a        59     0     3     1    19
 -1.6645471158827843E+00 a        60     0     3     1    20
  1.7254823625302880E+00 a        61     0     4     1     1
  2.2105760016808960E+00 a        62     0     4     1     2
  2.4310814538851866E+00 a        63     0     4     1     3
  8.6960585734717344E-01 a        64     0     4     1     4
  9.9834799093210580E-01 a        65     0     4     1     5
  1.4219611743950291E+00 a        66     0     4     1     6
 -4.3474555682023119E+00 a        67     0     4     1     7
 -1.8329318551757847E+00 a        68     0     4     1     8
 -4.2800442721090297E+00 a        69     0     4     1     9
  5.3340408830566932E-01 a        70     0     4     1    10
  2.9860965071972343E+00 a        71     0     4     1    11
  1.4189726230940436E-01 a        72     0     4     1    12
  2.1869019957212232E-01 a        73     0     4     1    13
 -2.7786147280486373E-01 a        74     0     4     1    14
 -4.1826795554842100E-01 a        75     0     4     1    15
  2.3333610282084654E+00 a        76     0     4     1    16
  1.3311662072944250E+00 a        77     0     4     1    17
 -6.1055391543920291E-02 a        78     0     4     1    18
  4.0706972140819458E-01 a        79     0     4     1    19
 -1.1503182956733711E+00 a        80     0     4     1    20
 -1.3714987270671672E+00 a        81     0     5     1     1
  3.2373178834398209E+00 a        82     0     5     1     2
 -4.3858657208357166E-01 a        83     0     5     1     3
 -3.1769929309972360E+00 a        84     0     5     1     4
 -3.2106858176267385E+00 a        85     0     5     1     5
  2.1722316345980496E-02 a        86     0     5     1     6
 -4.0366561758717285E+00 a        87     0     5     1     7
 -7.4507610513259981E-01 a        88     0     5     1     8
 -6.2940513066567039E-01 a        89     0     5     1     9
 -3.7267987573071890E+00 a        90     0     5     1    10
 -4.1707127895023994E+00 a        91     0     5     1    11
  3.3632037169401987E+00 a        92     0     5     1    12
 -9.6665721323686127E-01 a        93     0     5     1    13
 -4.4791383251704964E-01 a        94     0     5     1    14
 -1.2485521352793785E+00 a        95     0     5     1    15
 -1.8609605865940413E+00 a        96     0     5     1    16
  2.0950397675172838E+00 a        97     0     5     1    17
 -2.0999053465752850E+00 a        98     0     5     1    18
 -1.0748442760251573E+00 a        99     0     5     1    19
  9.2410383006946539E-01 a       100     0     5     1    20
 -2.5152015894700130E+00 a       101     0     6     1     1
 -1.8531431861416401E+00 a       102     0     6     1     2
 -2.6905240492140732E+00 a       103     0     6     1     3
  1.2704149343930862E+00 a       104     0     6     1     4
 -1.0607385452868714E+00 a       105     0     6     1     5
  1.9966067679385813E-01 a       106     0     6     1     6
  1.9492217506564378E+00 a       107     0     6     1     7
  1.2217903757099875E+00 a       108     0     6     1     8
 -7.4622214905637932E-02 a       109     0     6     1     9
 -1.5617078084849052E+00 a       110     0     6     1    10
 -1.2131435811179363E+00 a       111     0     6     1    11
 -1.6745033702326992E+00 a       112     0     6     1    12
 -2.4899084531346158E+00 a       113     0     6     1    13
  1.5397231722296381E+00 a       114     0     6     1    14
  1.9608066733445602E+00 a       115     0     6     1    15
 -3.2911489305127954E+00 a       116     0     6     1    16
 -4.4142110729131794E+00 a       117     0     6     1    17
 -7.3240418254577744E-01 a       118     0     6     1    18
 -5.1429080081786371E-01 a       119     0     6     1    19
  1.4769759612457429E+00 a       120     0     6     1    20
  2.3891884208047171E-01 a       121     0     7     1     1
 -3.8978222550390051E+00 a       122     0     7     1     2
  3.5950648946497656E+00 a       123     0     7     1     3
  2.5509589154217651E+00 a       124     0     7     1     4
  2.3140214576422546E+00 a       125     0     7     1     5
  2.4500907007776682E+00 a       126     0     7     1     6
  3.3614421942397672E+00 a       127     0     7     1     7
  4.2470131926292364E-02 a       128     0     7     1     8
  3.1299635431460029E+00 a       129     0     7     1     9
  2.8927660258084851E+00 a       130     0     7     1    10
  4.1033099492143057E+00 a       131     0     7     1    11
  1.4358074484871619E+00 a       132     0     7     1    12
 -7.6348596190274021E-01 a       133     0     7     1    13
  2.3624935500095373E-01 a       134     0     7     1    14
  1.0763037723118997E-01 a       135     0     7     1    15
  2.6250049238100468E+00 a       136     0     7     1    16
 -2.9954203177653156E+00 a       137     0     7     1    17
  8.9016326034337634E-01 a       138     0     7     1    18
  9.5576595666207587E-01 a       139     0     7     1    19
 -9.9088166496426056E-01 a       140     0     7     1    20
  2.0611785233148434E+00 a       141     0     8     1     1
  4.2318438913609685E-01 a       142     0     8     1     2
  1.5201577286516295E+00 a       143     0     8     1     3
 -3.6440224009326201E+00 a       144     0     8     1     4
 -9.4996795655636190E-01 a       145     0     8     1     5
 -1.1268237760933568E+00 a       146     0     8     1     6
 -1.6250239851250438E-02 a       147     0     8     1     7
 -9.5618226683552521E-01 a       148     0     8     1     8
  4.3858025181931461E+00 a       149     0     8     1     9
 -1.2895786110786660E+00 a       150     0     8     1    10
 -2.8244246950821199E+00 a       151     0     8     1    11
  3.7702590813314178E+00 a       152     0     8     1    12
  4.3313694516061254E+00 a       153     0     8     1    13
 -2.0907667881901295E+00 a       154     0     8     1    14
 -3.0225112393820659E+00 a       155     0     8     1    15
  2.6085599149197858E+00 a       156     0     8     1    16
  1.6785906624201801E+00 a       157     0     8     1    17
 -1.3908464440563271E+00 a       158     0     8     1    18
 -7.6083954272918941E-01 a       159     0     8     1    19
 -1.2821147293012842E+00 a       160     0     8     1    20
 -1.1209796080351411E+00 a       161     0     9     1     1
  1.6984952975131662E+00 a       162     0     9     1     2
 -2.7336436981703596E+00 a       163     0     9     1     3
  1.5910069842419972E+00 a       164     0     9     1     4
  3.0007943051653814E+00 a       165     0     9     1     5
 -4.2573535848734245E-01 a       166     0     9     1     6
  1.6948970649179123E+00 a       167     0     9     1     7
  9.1039282587686721E-01 a       168     0     9     1     8
 -3.1971016077343486E+00 a       169     0     9     1     9
  4.2010064415208610E-02 a       170     0     9     1    10
  2.4104447453620748E+00 a       171     0     9     1    11
  1.3330752323350237E-01 a       172     0     9     1    12
 -5.1788303140104608E+00 a       173     0     9     1    13
  9.2225067848707609E-01 a       174     0     9     1    14
  8.3340258384471821E-01 a       175     0     9     1    15
 -2.1305095781941517E+00 a       176     0     9     1    16
  2.9242885662560631E+00 a       177     0     9     1    17
  1.8296516655487753E+00 a       178     0     9     1    18
  1.7334807860555421E+00 a       179     0     9     1    19
 -4.5024315005875809E-01 a       180     0     9     1    20
  4.1386045746957328E-01 a       181     0    10     1     1
  4.3011570882960093E-01 a       182     0    10     1     2
 -2.1979001652461507E+00 a       183     0    10     1     3
 -1.1092758041689770E+00 a       184     0    10     1     4
  9.5054928647421520E-03 a       185     0    10     1     5
 -1.2334465956704856E+00 a       186     0    10     1     6
 -1.8675537068293453E+00 a       187     0    10     1     7
 -8.4176331105043689E-01 a       188     0    10     1     8
 -1.1075241728973013E+00 a       189     0    10     1     9
 -1.9434394670465989E+00 a       190     0    10     1    10
 -2.3184393973658985E+00 a       191     0    10     1    11
 -1.4737576350083117E+00 a       192     0    10     1    12
  4.1541713437777833E-01 a       193     0    10     1    13
  1.6927420076136160E-01 a       194     0    10     1    14
  2.6455241902863247E-03 a       195     0    10     1    15
 -1.8293545882445905E+00 a       196     0    10     1    16
  2.5171390835693188E+00 a       197     0    10     1    17
  2.1103461528825194E+00 a       198     0    10     1    18
 -3.8553499612704839E-01 a       199     0    10     1    19
 -4.2785369416231395E-01 a       200     0    10     1    20
  4.4999410637880916E-01 a       201     0    11     1     1
 -7.7849695438928102E-03 a       202     0    11     1     2
  1.9723045877588090E+00 a       203     0    11     1     3
 -1.2993179118617799E+00 a       204     0    11     1     4
 -2.7374937398845405E+00 a       205     0    11     1     5
 -1.2912595974909744E+00 a       206     0    11     1     6
  6.6548047221926351E-02 a       207     0    11     1     7
 -8.3110832627673625E-01 a       208     0    11     1     8
  2.8595253673438261E+00 a       209     0    11     1     9
  1.4304530249336316E+00 a       210     0    11     1    10
 -1.6151548148644372E+00 a       211     0    11     1    11
 -6.2867205784571459E-02 a       212     0    11     1    12
  3.4377215028363342E+00 a       213     0    11     1    13
 -6.6021436135358147E-01 a       214     0    11     1    14
 -9.4130909096433801E-01 a       215     0    11     1    15
  2.0747003822751044E+00 a       216     0    11     1    16
 -6.8381433796293365E+00 a       217     0    11     1    17
 -2.0516363060061220E+00 a       218     0    11     1    18
 -3.4687887421495484E-01 a       219     0    11     1    19
  8.1740675706702681E-01 a       220     0    11     1    20
 -3.5379420192966565E-01 a       221     0    12     1     1
  1.2127955038532166E-02 a       222     0    12     1     2
  2.8753120305251828E-01 a       223     0    12     1     3
  3.1663059257811310E-01 a       224     0    12     1     4
 -6.9356750511038046E-01 a       225     0    12     1     5
  5.9048674932119738E-01 a       226     0    12     1     6
  2.2222167599422654E-01 a       227     0    12     1     7
  2.7309494301591442E-01 a       228     0    12     1     8
 -5.0692122064779077E-01 a       229     0    12     1     9
 -9.1682974677599638E-01 a       230     0    12     1    10
 -4.7873929112555343E-02 a       231     0    12     1    11
  1.3400306351619037E-01 a       232     0    12     1    12
 -2.7332393897449225E-01 a       233     0    12     1    13
 -1.5512781162784786E-01 a       234     0    12     1    14
  1.0093314199097182E-01 a       235     0    12     1    15
 -8.6447399378354439E-02 a       236     0    12     1    16
 -1.0864432569913014E+00 a       237     0    12     1    17
 -2.1034457914046429E+00 a       238     0    12     1    18
  6.5237615541576488E-01 a       239     0    12     1    19
  4.3658164939153399E-01 a       240     0    12     1    20
 -3.2423633092036325E-01 a       241     0    13     1     1
 -1.3589155134447103E-01 a       242     0    13     1     2
 -7.8502042862486998E-01 a       243     0    13     1     3
 -1.8143543692607222E-01 a       244     0    13     1     4
  1.2157139217883937E+00 a       245     0    13     1     5
  1.3812736231377569E+00 a       246     0    13     1     6
  1.5410618381480415E-01 a       247     0    13     1     7
  6.3729949985697942E-01 a       248     0    13     1     8
 -6.4938301696828321E-02 a       249     0    13     1     9
 -1.6567051079910582E+00 a       250     0    13     1    10
  1.5583916075727833E-02 a       251     0    13     1    11
  4.5627785492938511E-01 a       252     0    13     1    12
 -4.0512981373804138E+00 a       253     0    13     1    13
  2.6042318730733460E-01 a       254     0    13     1    14
  4.1375696834141990E-01 a       255     0    13     1    15
 -2.4584420178785034E+00 a       256     0    13     1    16
  2.6995330811607365E+00 a       257     0    13     1    17
  1.2212950160229502E-01 a       258     0    13     1    18
  7.9116657557695413E-01 a       259     0    13     1    19
 -5.6702983161562470E-01 a       260     0    13     1    20
  8.3767613623201426E-02 a       261     0    14     1     1
  1.2618298306762060E-01 a       262     0    14     1     2
  2.2178345934842683E-01 a       263     0    14     1     3
 -6.0479561950702954E-01 a       264     0    14     1     4
  1.0150146910385309E+00 a       265     0    14     1     5
  4.7325647158702001E-02 a       266     0    14     1     6
 -3.3416947026296340E-01 a       267     0    14     1     7
 -5.0292697658001144E-02 a       268     0    14     1     8
  1.0699317718418033E+00 a       269     0    14     1     9
  1.3226206820613942E-01 a       270     0    14     1    10
 -8.4758601502187159E-01 a       271     0    14     1    11
  3.4417667085535086E-01 a       272     0    14     1    12
 -3.5455454854917950E-01 a       273     0    14     1    13
 -4.9135388491488419E-01 a       274     0    14     1    14
 -3.2141335270894861E-01 a       275     0    14     1    15
 -4.5245906984681844E-01 a       276     0    14     1    16
 -2.0570257387485813E+00 a       277     0    14     1    17
  1.2429973657277608E-01 a       278     0    14     1    18
  9.9205432551853567E-01 a       279     0    14     1    19
  4.1447114960805935E-02 a       280     0    14     1    20
 -1.3535367740323382E-02 a       281     0    15     1     1
  8.7508974165217329E-02 a       282     0    15     1     2
  4.3610252120553344E-01 a       283     0    15     1     3
  1.2042767295438199E+00 a       284     0    15     1     4
 -5.2688457677398562E-02 a       285     0    15     1     5
 -3.8075911110031063E-01 a       286     0    15     1     6
 -1.0877604538317485E-01 a       287     0    15     1     7
  5.7860385969361931E-02 a       288     0    15     1     8
 -6.2094746174040061E-01 a       289     0    15     1     9
  8.9329755414797385E-01 a       290     0    15     1    10
  6.1853619789530234E-01 a       291     0    15     1    11
 -5.5615784346279340E-01 a       292     0    15     1    12
  2.1546930297737577E+00 a       293     0    15     1    13
 -4.7898279395063609E-02 a       294     0    15     1    14
 -6.0495192710699652E-01 a       295     0    15     1    15
  1.0860993892339810E+00 a       296     0    15     1    16
  4.4097893094017676E-01 a       297     0    15     1    17
  9.1723762725486491E-01 a       298     0    15     1    18
 -3.7666887136380239E-01 a       299     0    15     1    19
  1.2220386904596200E-01 a       300     0    15     1    20
 -1.4233439764447187E-01 a       301     0    16     1     1
 -7.9852687478273399E-01 a       302     0    16     1     2
 -3.0085073719252836E-01 a       303     0    16     1     3
  3.6784622282466629E-02 a       304     0    16     1     4
 -5.5953423546614212E-01 a       305     0    16     1     5
 -4.2121722212025181E-01 a       306     0    16     1     6
 -4.5410780127694345E-01 a       307     0    16     1     7
  4.0076687779606247E-02 a       308     0    16     1     8
 -4.3997591219603616E-01 a       309     0    16     1     9
  6.9304844241717534E-01 a       310     0    16     1    10
 -3.0216308177234964E-02 a       311     0    16     1    11
 -5.4713244659869698E-01 a       312     0    16     1    12
  2.2984616777375838E-01 a       313     0    16     1    13
 -5.2419057249607569E-02 a       314     0    16     1    14
  3.4331916343632918E-01 a       315     0    16     1    15
 -3.2532835854588382E-01 a       316     0    16     1    16
  2.6929044221645992E+00 a       317     0    16     1    17
  1.0015030166351452E-01 a       318     0    16     1    18
 -6.4737362941093646E-01 a       319     0    16     1    19
 -8.9980915705209363E-01 a       320     0    16     1    20
  2.3722160165084832E-01 a       321     0    17     1     1
 -8.6232229853098183E-02 a       322     0    17     1     2
 -6.0481686288644398E-01 a       323     0    17     1     3
 -1.9146570095734014E-01 a       324     0    17     1     4
 -1.9198383640510047E-02 a       325     0    17     1     5
 -5.5732607835183834E-01 a       326     0    17     1     6
  2.9094257249882843E-01 a       327     0    17     1     7
  8.8210328624775319E-02 a       328     0    17     1     8
  4.2689266272371534E-01 a       329     0    17     1     9
  5.3157979695345980E-01 a       330     0    17     1    10
  1.5922840068711810E-01 a       331     0    17     1    11
  2.2052705888120522E-01 a       332     0    17     1    12
 -1.4078057995896895E-01 a       333     0    17     1    13
 -1.9257437835330911E-02 a       334     0    17     1    14
 -2.5983751940041395E-02 a       335     0    17     1    15
  3.8129637547520023E-02 a       336     0    17     1    16
 -1.0384707064166268E-01 a       337     0    17     1    17
  2.2486616839966705E-01 a       338     0    17     1    18
  2.1486843184196502E-01 a       339     0    17     1    19
 -2.2526976845287809E-02 a       340     0    17     1    20
 -6.2343762620267425E-02 a       341     0    18     1     1
 -1.4327745278719287E-01 a       342     0    18     1     2
 -2.5071441869344391E-01 a       343     0    18     1     3
 -2.7578728991410234E-01 a       344     0    18     1     4
  3.3699433879207286E-01 a       345     0    18     1     5
  3.6981525952095756E-01 a       346     0    18     1     6
  3.1019842675457826E-01 a       347     0    18     1     7
 -1.0256789064636194E-01 a       348     0    18     1     8
  3.2358669534262952E-01 a       349     0    18     1     9
 -7.7807249253548882E-01 a       350     0    18     1    10
 -7.3770889047590393E-01 a       351     0    18     1    11
  8.2730368325289583E-01 a       352     0    18     1    12
 -1.4394955164684770E-01 a       353     0    18     1    13
 -3.7425620001668718E-03 a       354     0    18     1    14
 -1.4119007345568355E-01 a       355     0    18     1    15
 -1.9177027966566085E-01 a       356     0    18     1    16
 -1.1268324739064546E+00 a       357     0    18     1    17
 -1.5513603168757961E-01 a       358     0    18     1    18
 -3.9593371885200540E-01 a       359     0    18     1    19
  1.6203800360225018E-01 a       360     0    18     1    20
 -1.9467472687169220E-02 a       361     0    19     1     1
  2.5596615886346019E-01 a       362     0    19     1     2
  9.8454208832637918E-02 a       363     0    19     1     3
 -1.8451655951289937E-02 a       364     0    19     1     4
  8.3314108654624769E-02 a       365     0    19     1     5
  2.5490623265045437E-01 a       366     0    19     1     6
 -1.1954220492398766E-01 a       367     0    19     1     7
  1.3531469854035411E-01 a       368     0    19     1     8
 -2.5984062983657369E-01 a       369     0    19     1     9
 -7.9773783031652765E-02 a       370     0    19     1    10
  7.4525341520428201E-01 a       371     0    19     1    11
  2.3846195306899942E-01 a       372     0    19     1    12
 -6.1027130772720983E-02 a       373     0    19     1    13
  4.7551002754027316E-01 a       374     0    19     1    14
 -7.7644824402522447E-02 a       375     0    19     1    15
  1.5561649730648286E-01 a       376     0    19     1    16
  5.4600329856379282E-01 a       377     0    19     1    17
  1.1743756078172239E-01 a       378     0    19     1    18
  1.2989468438085092E-01 a       379     0    19     1    19
 -3.7956813568619990E-01 a       380     0    19     1    20
 -1.3442017696875541E-01 a       381     0    20     1     1
 -2.4196440487959070E-01 a       382     0    20     1     2
  1.6913239418378398E-01 a       383     0    20     1     3
  3.5287538058429935E-01 a       384     0    20     1     4
  1.2312811850567598E-01 a       385     0    20     1     5
 -5.9910141536592143E-01 a       386     0    20     1     6
 -1.0125942669442274E+00 a       387     0    20     1     7
  2.6844216904143736E-01 a       388     0    20     1     8
 -6.9750799294809085E-01 a       389     0    20     1     9
  1.8562360203909656E+00 a       390     0    20     1    10
  5.7862027677914915E-02 a       391     0    20     1    11
 -1.7064949723823486E+00 a       392     0    20     1    12
  8.3832885409562452E-01 a       393     0    20     1    13
 -1.0956318730979673E+00 a       394     0    20     1    14
  5.4022696246841841E-02 a       395     0    20     1    15
 -1.7150974923849038E-01 a       396     0    20     1    16
  2.1848391063157928E+00 a       397     0    20     1    17
  2.3403951147443416E-01 a       398     0    20     1    18
  9.3506803661742399E-01 a       399     0    20     1    19
  1.4787552096307677E-01 a       400     0    20     1    20
  6.4071749001364597E-01 a       401     0    21     1     1
  3.8129080058770609E-01 a       402     0    21     1     2
 -3.8677413845358353E+00 a       403     0    21     1     3
 -8.1013244602506895E-01 a       404     0    21     1     4
 -1.8710822736230801E+00 a       405     0    21     1     5
 -2.1411347279916186E+00 a       406     0    21     1     6
  8.5697137966682402E-01 a       407     0    21     1     7
  1.7842859453779941E-01 a       408     0    21     1     8
 -7.4587916164307200E-01 a       409     0    21     1     9
 -2.1734787556474164E-01 a       410     0    21     1    10
 -2.9717467464465894E+00 a       411     0    21     1    11
  7.1684683514501835E-01 a       412     0    21     1    12
  1.3069838451688964E+00 a       413     0    21     1    13
 -1.0523670792648219E+00 a       414     0    21     1    14
  4.0561963279732050E-02 a       415     0    21     1    15
  5.5406573296846708E-02 a       416     0    21     1    16
 -2.0899709066844885E+00 a       417     0    21     1    17
 -3.7416750962111028E-01 a       418     0    21     1    18
  6.0949504978756952E-02 a       419     0    21     1    19
 -3.5995130569916578E-01 a       420     0    21     1    20
  2.5696273486660016E-02 a       421     0    22     1     1
  1.5920213802071709E-01 a       422     0    22     1     2
  2.4335505204787977E+00 a       423     0    22     1     3
  8.0195175437523492E-01 a       424     0    22     1     4
  1.3240106462927399E+00 a       425     0    22     1     5
  2.1260998223437495E+00 a       426     0    22     1     6
 -1.6983043604023402E+00 a       427     0    22     1     7
 -1.7202131033695625E-01 a       428     0    22     1     8
 -4.2706805916506517E-02 a       429     0    22     1     9
 -9.1571034368131388E-01 a       430     0    22     1    10
  7.1358897941740806E-01 a       431     0    22     1    11
 -1.0810722620561559E+00 a       432     0    22     1    12
 -5.5978330814782529E-01 a       433     0    22     1    13
  4.5361377390331480E-03 a       434     0    22     1    14
  2.7473603588579676E-01 a       435     0    22     1    15
  2.8013197541058876E-01 a       436     0    22     1    16
 -1.5619755459154432E+00 a       437     0    22     1    17
 -4.9404931128205461E-03 a       438     0    22     1    18
  3.3198562740916421E-01 a       439     0    22     1    19
  5.0562811752727777E-01 a       440     0    22     1    20
 -1.5411526955116051E+00 a       441     0    23     1     1
  1.4982293041077372E+00 a       442     0    23     1     2
  4.8620571667078485E+00 a       443     0    23     1     3
  1.5233214392994354E+00 a       444     0    23     1     4
 -3.4131065984462533E-01 a       445     0    23     1     5
  1.0102980887587538E+00 a       446     0    23     1     6
 -8.1111850622233556E-02 a       447     0    23     1     7
  6.9753717026551171E-02 a       448     0    23     1     8
 -6.6520306300955634E-01 a       449     0    23     1     9
  3.6781532179120999E+00 a       450     0    23     1    10
  2.7852297168377680E+00 a       451     0    23     1    11
 -2.0253570342990046E+00 a       452     0    23     1    12
 -6.3787047748087611E-01 a       453     0    23     1    13
  1.1801263665700508E+00 a       454     0    23     1    14
  7.8402370776340535E-01 a       455     0    23     1    15
  5.1302184632298520E-01 a       456     0    23     1    16
  2.4607346852218317E+00 a       457     0    23     1    17
  7.6522866080690310E-01 a       458     0    23     1    18
 -1.2239818753899616E+00 a       459     0    23     1    19
  1.5137422177769910E+00 a       460     0    23     1    20
  8.1276121362833775E-01 a       461     0    24     1     1
 -3.8985754960675029E-01 a       462     0    24     1     2
 -1.5742302179885637E+00 a       463     0    24     1     3
 -3.9027473659770240E-01 a       464     0    24     1     4
  1.3116728137465099E+00 a       465     0    24     1     5
 -9.8643948717600893E-01 a       466     0    24     1     6
  1.3598954112225721E+00 a       467     0    24     1     7
  1.6106430195892607E-01 a       468     0    24     1     8
  8.7649208996789174E-01 a       469     0    24     1     9
  3.3652713435110518E-02 a       470     0    24     1    10
 -9.2381878515930949E-01 a       471     0    24     1    11
  2.2135640945371601E-01 a       472     0    24     1    12
 -1.4105754372217177E-01 a       473     0    24     1    13
 -4.1388064331005302E-02 a       474     0    24     1    14
 -2.6938434187679461E-01 a       475     0    24     1    15
 -6.3910486154908297E-02 a       476     0    24     1    16
  2.6299035073819732E-01 a       477     0    24     1    17
  1.1200255597799706E+00 a       478     0    24     1    18
  2.3122872574111880E-01 a       479     0    24     1    19
 -2.1825034906861163E-01 a       480     0    24     1    20
 -4.9478980161736813E-01 a       481     0    25     1     1
  4.3545212231785413E-01 a       482     0    25     1     2
  1.9161129452634771E+00 a       483     0    25     1     3
  1.1955061011980099E+00 a       484     0    25     1     4
  1.0425426882386839E+00 a       485     0    25     1     5
  8.7040244312068904E-01 a       486     0    25     1     6
 -9.8817784035005324E-02 a       487     0    25     1     7
  2.1736673768396972E-01 a       488     0    25     1     8
  1.8884478153238751E-01 a       489     0    25     1     9
  1.2505188567557197E+00 a       490     0    25     1    10
  1.4583874064629565E+00 a       491     0    25     1    11
 -1.0913056751031507E+00 a       492     0    25     1    12
 -3.8746209426929468E-01 a       493     0    25     1    13
  1.6334372004233197E-01 a       494     0    25     1    14
 -6.4546042572123610E-02 a       495     0    25     1    15
  7.9360106063827807E-01 a       496     0    25     1    16
  2.4334544533911520E+00 a       497     0    25     1    17
  1.5552493103301207E-01 a       498     0    25     1    18
 -3.1820073984550619E-02 a       499     0    25     1    19
  4.0990214924565560E-01 a       500     0    25     1    20
  6.6093475838485571E-01 a       501     0    26     1     1
 -1.4351667694712567E+00 a       502     0    26     1     2
 -2.1904491350863387E+00 a       503     0    26     1     3
 -5.5359894763064332E-01 a       504     0    26     1     4
 -4.7015297689157526E-01 a       505     0    26     1     5
 -8.6657947237412103E-01 a       506     0    26     1     6
 -5.9060481458228220E-01 a       507     0    26     1     7
 -5.4674505507096904E-02 a       508     0    26     1     8
 -8.9537887867555754E-01 a       509     0    26     1     9
 -1.9267732022789237E+00 a       510     0    26     1    10
 -3.7645109398571652E-01 a       511     0    26     1    11
  7.3346783659724701E-01 a       512     0    26     1    12
  7.7436698806258475E-01 a       513     0    26     1    13
  2.3570905174181708E-01 a       514     0    26     1    14
  3.1869016721386666E-02 a       515     0    26     1    15
 -2.2392253875106932E-01 a       516     0    26     1    16
  6.2180968205513831E-01 a       517     0    26     1    17
  4.2872747198311745E-01 a       518     0    26     1    18
 -1.2072207113356948E+00 a       519     0    26     1    19
 -1.3410563622556841E+00 a       520     0    26     1    20
 -5.0116887100983380E-02 a       521     0    27     1     1
  6.0769789161546961E-01 a       522     0    27     1     2
 -3.7725311179996152E-01 a       523     0    27     1     3
 -8.6640820464522872E-02 a       524     0    27     1     4
 -2.5229586406361909E-01 a       525     0    27     1     5
  1.0208558473073852E-01 a       526     0    27     1     6
  1.8033621884655149E-01 a       527     0    27     1     7
 -2.4086229240544571E-01 a       528     0    27     1     8
  2.0415295511655798E-01 a       529     0    27     1     9
 -6.5653776455501522E-02 a       530     0    27     1    10
  2.2969033744524825E-01 a       531     0    27     1    11
  3.7926565841145193E-01 a       532     0    27     1    12
 -4.8356867104003567E-02 a       533     0    27     1    13
  1.9104314270480847E-02 a       534     0    27     1    14
 -2.1042459611863187E-01 a       535     0    27     1    15
  1.5084190329225655E-01 a       536     0    27     1    16
 -1.9361450756549010E+00 a       537     0    27     1    17
 -5.9855113380978364E-01 a       538     0    27     1    18
  5.3879902004880120E-01 a       539     0    27     1    19
  6.1040780177622966E-01 a       540     0    27     1    20
  4.6594453774070099E-01 b       541     1     1
 -8.8695446611743478E-01 b       542     1     2
  7.7095688656664330E-01 b       543     1     3
 -1.1145057890457220E+00 b       544     1     4
  2.5344451317497545E+00 b       545     1     5
 -8.1424902562675205E-02 b       546     1     6
  1.2988517374095245E+00 b       547     1     7
  7.0631551493900246E-01 b       548     1     8
  1.4389021575646797E+00 b       549     1     9
  9.9912310058702580E-01 b       550     1    10
  1.0521546746596715E+00 b       551     1    11
 -1.5780323694101414E-01 b       552     1    12
 -1.1574680814784248E+00 b       553     1    13
 -1.1169407111130927E+00 b       554     1    14
 -2.8816675907985723E-01 b       555     1    15
  1.2617364341697135E+00 b       556     1    16
  1.8407371018652956E+00 b       557     1    17
  1.8206967067376230E+00 b       558     1    18
 -1.5899291145243546E+00 b       559     1    19
 -1.5554565240028153E+00 b       560     1    20
  1.1622120439590904E+00 a       561     1     1     2     1
  3.0447114398088948E-01 a       562     1     1     2     2
 -6.0946315066342571E-01 a       563     1     1     2     3
 -5.0367599683215325E-01 a       564     1     1     2     4
 -9.4391901408791123E-01 a       565     1     1     2     5
  1.0950253732913626E+00 a       566     1     1     2     6
 -2.3475985660186668E-01 a       567     1     1     2     7
 -1.1046587599055159E-01 a       568     1     1     2     8
  5.2679677507216138E-01 a       569     1     1     2     9
 -7.4838994425408323E-01 a       570     1     1     2    10
 -3.7288434996616232E-01 a       571     1     1     2    11
  3.3398864869745393E+00 a       572     1     1     2    12
  3.1155918011225032E+00 a       573     1     1     2    13
  8.9794746930602831E-01 a       574     1     1     2    14
  5.3492569790948041E-01 a       575     1     1     2    15
  1.1914359420172589E+00 a       576     1     1     2    16
  3.3026842859031663E-01 a       577     1     1     2    17
 -5.0590474068663271E-01 a       578     1     1     2    18
  4.7667090803003645E-02 a       579     1     1     2    19
 -2.1666005638324236E-02 a       580     1     1     2    20
 -6.7346908051145418E-02 a       581     1     2     2     1
 -9.5570880950485948E-01 a       582     1     2     2     2
  3.5408623624408597E-01 a       583     1     2     2     3
 -8.2333556872506958E-02 a       584     1     2     2     4
  7.4108822239160865E-01 a       585     1     2     2     5
 -2.1600239768547795E+00 a       586     1     2     2     6
  1.8034573017890751E-01 a       587     1     2     2     7
 -2.2060869348085368E-01 a       588     1     2     2     8
 -1.4249370318361685E+00 a       589     1     2     2     9
 -4.4978962768047553E-01 a       590     1     2     2    10
 -5.4795065480394223E-01 a       591     1     2     2    11
  3.5344247440972987E-01 a       592     1     2     2    12
 -1.8886009421642688E-02 a       593     1     2     2    13
 -9.9979062938609875E-01 a       594     1     2     2    14
  6.3488057439301526E-01 a       595     1     2     2    15
  3.1518855617987596E-01 a       596     1     2     2    16
  1.4107258447479789E-02 a       597     1     2     2    17
 -6.6098490525730447E-01 a       598     1     2     2    18
  6.6266987058685578E-01 a       599     1     2     2    19
 -2.7449941018835890E-02 a       600     1     2     2    20
  4.2440399538126194E-01 a       601     1     3     2     1
  2.2931642269947075E-01 a       602     1     3     2     2
 -1.8582835517600454E-01 a       603     1     3     2     3
  1.9264842258592904E-01 a       604     1     3     2     4
 -1.1142593398661255E-01 a       605     1     3     2     5
  6.4973539591194029E-01 a       606     1     3     2     6
  3.5873317616091388E-01 a       607     1     3     2     7
  6.8445325959933212E-01 a       608     1     3     2     8
  2.8546500576875999E-01 a       609     1     3     2     9
  3.3619744964450367E-02 a       610     1     3     2    10
 -9.4765987457567664E-03 a       611     1     3     2    11
  5.8137503149185407E-02 a       612     1     3     2    12
  5.2027799998210233E-01 a       613     1     3     2    13
  5.5837260022184232E-01 a       614     1     3     2    14
  2.9328648469047116E-02 a       615     1     3     2    15
  1.6209970886783950E-01 a       616     1     3     2    16
  2.7618038099968234E-01 a       617     1     3     2    17
  2.3386598966425631E-01 a       618     1     3     2    18
  1.0113346648181243E-01 a       619     1     3     2    19
 -5.8356161169643161E-01 a       620     1     3     2    20
 -4.5428908381946292E-01 a       621     1     4     2     1
 -2.9509933734762500E-01 a       622     1     4     2     2
  6.7228264489274069E-03 a       623     1     4     2     3
  2.9893646665370194E-01 a       624     1     4     2     4
 -1.0555422819907694E-01 a       625     1     4     2     5
 -2.3439814286544349E+00 a       626     1     4     2     6
 -1.4827482137516155E+00 a       627     1     4     2     7
 -2.2884051645979775E-01 a       628     1     4     2     8
 -2.4009871431018412E-01 a       629     1     4     2     9
 -3.9310843189172268E-01 a       630     1     4     2    10
 -1.9615956078800026E-02 a       631     1     4     2    11
  1.0801707499494417E+00 a       632     1     4     2    12
  5.2404786905768486E-01 a       633     1     4     2    13
 -3.5351213460347014E-01 a       634     1     4     2    14
 -2.3818749322811836E-02 a       635     1     4     2    15
  2.3000028494206706E-01 a       636     1     4     2    16
 -2.8857685073114053E-01 a       637     1     4     2    17
  5.7741472872548782E-03 a       638     1     4     2    18
 -8.7562626090249285E-01 a       639     1     4     2    19
  1.5427702305207571E+00 a       640     1     4     2    20
 -7.5630782373465166E-01 a       641     1     5     2     1
  1.6957023994400733E+00 a       642     1     5     2     2
  1.4365564652172802E+00 a       643     1     5     2     3
  6.5738796518296627E-01 a       644     1     5     2     4
 -8.2185641405512666E-01 a       645     1     5     2     5
 -2.2437669061065790E+00 a       646     1     5     2     6
 -1.4703208798575282E+00 a       647     1     5     2     7
 -4.5078441521540977E+00 a       648     1     5     2     8
  1.4009465440891822E+00 a       649     1     5     2     9
 -2.0755648030062588E+00 a       650     1     5     2    10
 -7.1724999572143755E-01 a       651     1     5     2    11
  2.6525930588840794E+00 a       652     1     5     2    12
  2.2911165014375841E+00 a       653     1     5     2    13
  8.8845384346093947E-01 a       654     1     5     2    14
 -5.2529232596325948E-01 a       655     1     5     2    15
 -6.9089392672079752E-01 a       656     1     5     2    16
 -4.2192988872828713E-01 a       657     1     5     2    17
  7.0612778320341119E-01 a       658     1     5     2    18
  1.4943452311659666E+00 a       659     1     5     2    19
  5.9100306098093269E-01 a       660     1     5     2    20
  6.0845202793259438E-02 a       661     1     6     2     1
  3.7451090428059414E-01 a       662     1     6     2     2
  9.3420607943358672E-02 a       663     1     6     2     3
 -1.9063014116471522E-01 a       664     1     6     2     4
 -6.2167854657577770E-01 a       665     1     6     2     5
  5.0846776032536134E-01 a       666     1     6     2     6
  3.0194761050279412E-01 a       667     1     6     2     7
 -5.6320940469477565E-01 a       668     1     6     2     8
 -7.1444851830562109E-02 a       669     1     6     2     9
 -1.5707164419404451E-01 a       670     1     6     2    10
 -1.1762288306320363E-01 a       671     1     6     2    11
  2.6009447837206701E-01 a       672     1     6     2    12
 -1.9948337811405139E+00 a       673     1     6     2    13
 -2.3750838386858003E-01 a       674     1     6     2    14
  4.3566698995775377E-01 a       675     1     6     2    15
 -4.9561356295778965E-02 a       676     1     6     2    16
 -2.3922678025351021E-01 a       677     1     6     2    17
 -5.6927583062976950E-01 a       678     1     6     2    18
  9.9336314393988198E-02 a       679     1     6     2    19
  5.8553451613077023E-01 a       680     1     6     2    20
 -3.9544448178875341E-02 a       681     1     7     2     1
  3.3148033204036942E-01 a       682     1     7     2     2
  3.9856959487313781E-01 a       683     1     7     2     3
 -4.6499514406934284E-01 a       684     1     7     2     4
 -1.2661623159376689E+00 a       685     1     7     2     5
  1.4911045708715145E+00 a       686     1     7     2     6
  1.5326147575423812E+00 a       687     1     7     2     7
  1.4142883573852192E+00 a       688     1     7     2     8
  1.2234545946348547E+00 a       689     1     7     2     9
  7.4427106365773266E-01 a       690     1     7     2    10
  5.7493153281654122E-02 a       691     1     7     2    11
 -4.3083603803300879E-01 a       692     1     7     2    12
 -9.3169184074476696E-01 a       693     1     7     2    13
  5.3606530065966007E-01 a       694     1     7     2    14
 -1.2979824976520360E+00 a       695     1     7     2    15
  4.8918594222725398E-01 a       696     1     7     2    16
 -7.8828524626921881E-01 a       697     1     7     2    17
  7.0837911566728418E-01 a       698     1     7     2    18
 -4.0777343676111494E-02 a       699     1     7     2    19
  1.6602337330950190E+00 a       700     1     7     2    20
 -2.5207952756866453E-01 a       701     1     8     2     1
 -5.7876462946654583E-01 a       702     1     8     2     2
 -1.1881318307714199E-01 a       703     1     8     2     3
  4.8323512231646709E-01 a       704     1     8     2     4
  3.2786798328846611E-01 a       705     1     8     2     5
 -3.4948372985498638E-01 a       706     1     8     2     6
 -8.5415096003296365E-01 a       707     1     8     2     7
  6.6370543409414084E-01 a       708     1     8     2     8
 -5.4378433935184489E-01 a       709     1     8     2     9
  2.7300120193970900E-01 a       710     1     8     2    10
  4.9691160056852124E-01 a       711     1     8     2    11
 -1.4026867943669021E+00 a       712     1     8     2    12
  9.6100411439207789E-01 a       713     1     8     2    13
 -9.3997637611485232E-02 a       714     1     8     2    14
  1.2106604043727896E-01 a       715     1     8     2    15
 -5.6651796567915991E-01 a       716     1     8     2    16
 -3.3257861478398054E-01 a       717     1     8     2    17
  4.9274006136645732E-01 a       718     1     8     2    18
  1.9185426563157795E-01 a       719     1     8     2    19
 -3.7230054705849136E-01 a       720     1     8     2    20
 -2.2492306763471999E+00 a       721     1     9     2     1
  6.3418118942376922E-01 a       722     1     9     2     2
 -6.4411248113438913E-01 a       723     1     9     2     3
 -4.2838363581160122E-01 a       724     1     9     2     4
  5.7576359511480457E-01 a       725     1     9     2     5
 -8.7234352562083328E-01 a       726     1     9     2     6
 -2.2030284355010651E-01 a       727     1     9     2     7
  5.8726344831203336E-01 a       728     1     9     2     8
  5.8483204844365511E-01 a       729     1     9     2     9
  4.4128738084079433E-01 a       730     1     9     2    10
  9.6846324953697704E-01 a       731     1     9     2    11
 -2.5639661879700206E+00 a       732     1     9     2    12
 -1.5722422416940315E-01 a       733     1     9     2    13
 -1.2370922891952949E+00 a       734     1     9     2    14
  2.2537297400289921E-01 a       735     1     9     2    15
 -1.8001729321392150E+00 a       736     1     9     2    16
  1.9889390774422098E+00 a       737     1     9     2    17
  4.2000085976777907E-01 a       738     1     9     2    18
 -8.7429111705604612E-01 a       739     1     9     2    19
 -7.0168095394592095E-02 a       740     1     9     2    20
  8.9326457692660310E-01 a       741     1    10     2     1
  3.0937689003896779E-01 a       742     1    10     2     2
  2.0053436922138436E-02 a       743     1    10     2     3
  2.8426029655300319E-02 a       744     1    10     2     4
 -5.2355293124943492E-01 a       745     1    10     2     5
  8.4728289569071003E-01 a       746     1    10     2     6
 -2.7285102359044588E-02 a       747     1    10     2     7
 -5.8273359829710913E-01 a       748     1    10     2     8
 -1.3901590344536988E-01 a       749     1    10     2     9
 -3.4604629144076837E-01 a       750     1    10     2    10
 -6.5029825168183408E-01 a       751     1    10     2    11
  1.1327307955301773E+00 a       752     1    10     2    12
  2.7083901569688329E-01 a       753     1    10     2    13
 -1.0852990509190594E-01 a       754     1    10     2    14
  3.3196849186787586E-01 a       755     1    10     2    15
  1.6609518231535331E-01 a       756     1    10     2    16
 -9.0503804943855737E-02 a       757     1    10     2    17
 -6.1350503060169348E-01 a       758     1    10     2    18
  1.2470615843327504E-01 a       759     1    10     2    19
 -2.2531286071060788E-01 a       760     1    10     2    20
 -2.7008291054705980E-01 a       761     1    11     2     1
  5.3250246474157226E-01 a       762     1    11     2     2
 -6.6418553911613692E-02 a       763     1    11     2     3
 -1.4086307999890024E-01 a       764     1    11     2     4
  5.8118345650135010E-02 a       765     1    11     2     5
  2.1051519876560135E-01 a       766     1    11     2     6
  1.8722301887279558E-01 a       767     1    11     2     7
 -6.9984132456303930E-02 a       768     1    11     2     8
 -1.9286543565107908E-01 a       769     1    11     2     9
  2.5732210149683027E-01 a       770     1    11     2    10
  8.4616888346084086E-03 a       771     1    11     2    11
 -4.8150321348058162E-01 a       772     1    11     2    12
 -5.5895880148067151E-02 a       773     1    11     2    13
 -1.8979173366330000E-02 a       774     1    11     2    14
 -2.1521821203371808E-01 a       775     1    11     2    15
 -1.3775364850083083E-01 a       776     1    11     2    16
 -1.2088277462236997E-01 a       777     1    11     2    17
 -6.2473043620943955E-02 a       778     1    11     2    18
 -2.7858559034472358E-01 a       779     1    11     2    19
  3.4290907515383551E-01 a       780     1    11     2    20
  2.7763458251817053E-01 a       781     1    12     2     1
 -4.3012007603863661E-01 a       782     1    12     2     2
 -4.5703190283628259E-01 a       783     1    12     2     3
 -1.5098535603759486E-01 a       784     1    12     2     4
  1.8839436081606928E-01 a       785     1    12     2     5
  7.0895782383398318E-02 a       786     1    12     2     6
 -3.2900419400919279E-01 a       787     1    12     2     7
 -3.5745082868640238E-01 a       788     1    12     2     8
  1.0310874117968935E-01 a       789     1    12     2     9
 -4.0299735710930301E-01 a       790     1    12     2    10
 -7.6287073321034847E-03 a       791     1    12     2    11
  1.1701773868872534E+00 a       792     1    12     2    12
  8.7086654382342477E-01 a       793     1    12     2    13
  3.0202587207011977E-01 a       794     1    12     2    14
 -9.0027534188880765E-02 a       795     1    12     2    15
  7.3826439530098306E-02 a       796     1    12     2    16
  1.5543821212590800E-01 a       797     1    12     2    17
  3.7359232097640381E-02 a       798     1    12     2    18
 -1.6603225136217491E-02 a       799     1    12     2    19
 -1.0651143541946893E+00 a       800     1    12     2    20
 -2.2181033391679381E-01 a       801     1    13     2     1
  3.0415055106724548E-01 a       802     1    13     2     2
 -6.6441862817209996E-01 a       803     1    13     2     3
  1.0200585143688022E-01 a       804     1    13     2     4
 -2.0509657710217952E-01 a       805     1    13     2     5
  1.7025884492544507E-01 a       806     1    13     2     6
  6.8575383883902008E-01 a       807     1    13     2     7
  4.4205454675083472E-01 a       808     1    13     2     8
  3.0429495865607048E-01 a       809     1    13     2     9
 -3.9346736499814711E-02 a       810     1    13     2    10
  2.9621184957250668E-01 a       811     1    13     2    11
 -4.1306062135551841E-01 a       812     1    13     2    12
 -1.3155479069923566E+00 a       813     1    13     2    13
  7.1043538147250163E-01 a       814     1    13     2    14
  2.5787589179727255E-01 a       815     1    13     2    15
 -4.5613796668216311E-01 a       816     1    13     2    16
  3.7372648714630824E-01 a       817     1    13     2    17
  1.6322771035243977E-01 a       818     1    13     2    18
  3.0797012308977190E-01 a       819     1    13     2    19
 -6.2087865178560353E-01 a       820     1    13     2    20
 -1.0245194622482212E-01 a       821     1    14     2     1
 -1.5048252209752906E+00 a       822     1    14     2     2
  4.5515649979901318E-01 a       823     1    14     2     3
  7.5402331733227557E-01 a       824     1    14     2     4
  2.2815046028606939E-01 a       825     1    14     2     5
 -6.9506385288615335E-01 a       826     1    14     2     6
  5.5843479235456706E-01 a       827     1    14     2     7
 -2.6012935920614746E+00 a       828     1    14     2     8
  1.4829174053569580E+00 a       829     1    14     2     9
 -8.2440712578112796E-01 a       830     1    14     2    10
 -1.7334713593897635E+00 a       831     1    14     2    11
 -1.1962630823183220E+00 a       832     1    14     2    12
  4.3437755444280723E-01 a       833     1    14     2    13
 -2.4300556507824598E+00 a       834     1    14     2    14
 -1.4318571741370159E+00 a       835     1    14     2    15
 -1.8250214375216678E+00 a       836     1    14     2    16
  1.0578092459740338E+00 a       837     1    14     2    17
  1.4505463041371973E+00 a       838     1    14     2    18
  1.2427506277878528E+00 a       839     1    14     2    19
  1.8181319616684888E+00 a       840     1    14     2    20
 -3.5349716064343401E-01 a       841     1    15     2     1
  2.7136905515833210E-01 a       842     1    15     2     2
 -1.3364616740070647E+00 a       843     1    15     2     3
  2.4875737829148131E-01 a       844     1    15     2     4
  1.7862586520662951E-01 a       845     1    15     2     5
 -8.7428201104857461E-01 a       846     1    15     2     6
  6.9221291954654290E-02 a       847     1    15     2     7
  2.4446596517863478E-01 a       848     1    15     2     8
  2.7087814410935362E-01 a       849     1    15     2     9
 -1.9186188387354626E-03 a       850     1    15     2    10
  1.6371125277437104E-01 a       851     1    15     2    11
 -3.0748531342630636E-01 a       852     1    15     2    12
 -9.2179939992735549E-01 a       853     1    15     2    13
 -6.9955269385960889E-02 a       854     1    15     2    14
 -2.1336309788590932E-01 a       855     1    15     2    15
 -2.3582175971377725E-01 a       856     1    15     2    16
 -2.6102133713989114E-02 a       857     1    15     2    17
  6.3829985266202383E-01 a       858     1    15     2    18
 -2.2466018303480195E-01 a       859     1    15     2    19
 -3.7667022959458268E-01 a       860     1    15     2    20
 -1.0812647319954873E+00 a       861     1    16     2     1
  7.3207009098906672E-01 a       862     1    16     2     2
  1.9618342634603432E+00 a       863     1    16     2     3
  8.8993796532079872E-01 a       864     1    16     2     4
  9.9972986424131313E-02 a       865     1    16     2     5
  6.3957806214821811E-01 a       866     1    16     2     6
 -3.2565821246776733E-01 a       867     1    16     2     7
  4.5713802689241190E-01 a       868     1    16     2     8
  6.7150314193055793E-01 a       869     1    16     2     9
  8.9458513773997064E-02 a       870     1    16     2    10
  7.8032140652750759E-01 a       871     1    16     2    11
 -8.5498547979302597E-01 a       872     1    16     2    12
 -2.0226036990474765E+00 a       873     1    16     2    13
  8.9173840481049327E-01 a       874     1    16     2    14
 -8.5183113945969269E-01 a       875     1    16     2    15
 -1.6520596383961512E+00 a       876     1    16     2    16
 -3.4509157011265895E-01 a       877     1    16     2    17
  5.0848968091592961E-01 a       878     1    16     2    18
 -2.2843094843770193E-01 a       879     1    16     2    19
  2.1461393613095328E-01 a       880     1    16     2    20
  2.7829690785165111E-02 a       881     1    17     2     1
 -1.1738231379712832E-02 a       882     1    17     2     2
 -1.5513494415213239E-01 a       883     1    17     2     3
 -2.3219640457012300E-01 a       884     1    17     2     4
 -1.4456039182601149E-01 a       885     1    17     2     5
  8.2948354873893304E-01 a       886     1    17     2     6
  3.5214205402427950E-01 a       887     1    17     2     7
 -5.1484371298725816E-02 a       888     1    17     2     8
  1.9960600699535225E-01 a       889     1    17     2     9
  4.7103576411329770E-02 a       890     1    17     2    10
  5.5217361364423095E-02 a       891     1    17     2    11
  7.8433982849698547E-01 a       892     1    17     2    12
  2.8836727454120098E-01 a       893     1    17     2    13
  2.0807694781239569E-01 a       894     1    17     2    14
 -7.5869977451485482E-01 a       895     1    17     2    15
 -2.0588549241823609E-01 a       896     1    17     2    16
  3.5079599866406741E-01 a       897     1    17     2    17
  7.3269933051321345E-02 a       898     1    17     2    18
 -2.3598277125577316E-01 a       899     1    17     2    19
 -1.0130466601969934E-01 a       900     1    17     2    20
 -9.1089600261654824E-01 a       901     1    18     2     1
  4.5888570093242365E-01 a       902     1    18     2     2
 -4.0042239016982839E-01 a       903     1    18     2     3
  8.5001123509061449E-01 a       904     1    18     2     4
 -4.9791576157653200E-02 a       905     1    18     2     5
  2.0515401886481280E-01 a       906     1    18     2     6
 -6.8561253222365148E-01 a       907     1    18     2     7
  1.1131160440835808E+00 a       908     1    18     2     8
  8.6012016554679871E-01 a       909     1    18     2     9
  1.4993896133121911E+00 a       910     1    18     2    10
 -1.0692854528883906E+00 a       911     1    18     2    11
 -1.8028536239823030E+00 a       912     1    18     2    12
 -1.7783397808322980E+00 a       913     1    18     2    13
 -2.9264310595444365E+00 a       914     1    18     2    14
  8.7095188249722066E-01 a       915     1    18     2    15
  5.5038795679610353E-01 a       916     1    18     2    16
 -1.9918609981568041E+00 a       917     1    18     2    17
  8.3919376185603600E-01 a       918     1    18     2    18
 -5.8903571417722310E-02 a       919     1    18     2    19
  9.0041670066715407E-01 a       920     1    18     2    20
 -6.7091169423951247E-01 a       921     1    19     2     1
  2.7153222965321233E+00 a       922     1    19     2     2
 -1.1424755028085321E+00 a       923     1    19     2     3
 -1.6313098703968601E-01 a       924     1    19     2     4
  7.0354811543859877E-02 a       925     1    19     2     5
  1.0388845880897726E+00 a       926     1    19     2     6
  1.4581030744202574E+00 a       927     1    19     2     7
 -2.7716721011854378E-01 a       928     1    19     2     8
  2.0229272602619899E-01 a       929     1    19     2     9
  3.0108336964440641E-01 a       930     1    19     2    10
 -1.8538563765831215E+00 a       931     1    19     2    11
  7.9663790874917439E-01 a       932     1    19     2    12
  1.0662517092644448E+00 a       933     1    19     2    13
 -3.2893889934052389E-01 a       934     1    19     2    14
 -1.8353774415997108E+00 a       935     1    19     2    15
 -9.7400112835631480E-01 a       936     1    19     2    16
 -1.7390047370508238E-01 a       937     1    19     2    17
  1.0983952127029122E-02 a       938     1    19     2    18
 -7.6019444862446761E-01 a       939     1    19     2    19
  2.8340570396290451E-02 a       940     1    19     2    20
 -8.2895937494883820E-01 a       941     1    20     2     1
 -6.3622798777755218E-01 a       942     1    20     2     2
  6.2989420212126634E-01 a       943     1    20     2     3
 -1.5148333787729642E+00 a       944     1    20     2     4
 -5.2526249910881695E-01 a       945     1    20     2     5
  1.0955637229727628E+00 a       946     1    20     2     6
 -3.0998607542322765E-01 a       947     1    20     2     7
 -2.9935146906911632E+00 a       948     1    20     2     8
  1.1755347526891133E+00 a       949     1    20     2     9
 -9.9313027289348529E-02 a       950     1    20     2    10
 -3.9916178130898552E-02 a       951     1    20     2    11
 -3.7883971779536074E-01 a       952     1    20     2    12
  4.6594842112168058E+00 a       953     1    20     2    13
  8.6348236323535277E-01 a       954     1    20     2    14
 -2.6790424997815512E+00 a       955     1    20     2    15
 -1.4038262727413164E+00 a       956     1    20     2    16
  2.1000519486012976E+00 a       957     1    20     2    17
 -3.2797080046091487E-01 a       958     1    20     2    18
 -1.1011215050285148E+00 a       959     1    20     2    19
 -9.5913021906924667E-01 a       960     1    20     2    20
  9.0397754655509643E-01 b       961     2     1
 -5.9366497381113126E+00 b       962     2     2
 -4.7417758279893656E+00 b       963     2     3
 -2.3222993659030178E-01 b       964     2     4
  1.3331631510789224E-01 b       965     2     5
 -1.4761110793472800E+00 b       966     2     6
  1.5955499888277599E-01 b       967     2     7
 -1.4966901511699080E+00 b       968     2     8
  4.5707722516259597E-01 b       969     2     9
 -1.7388369851741912E+00 b       970     2    10
  1.5163465656093256E-01 b       971     2    11
  3.8444608000922145E+00 b       972     2    12
  7.6649021264740806E+00 b       973     2    13
  1.7419259555158060E+00 b       974     2    14
 -1.0956648110353093E+00 b       975     2    15
 -2.9203211962668907E+00 b       976     2    16
  3.0113550541566307E+00 b       977     2    17
  4.3966117307762542E-01 b       978     2    18
 -1.7314785259707750E+00 b       979     2    19
  4.2006518493878081E-01 b       980     2    20
 -3.1902394335420015E-01 a       981     2     1     3     1
 -8.8679870546802086E-01 a       982     2     2     3     1
 -2.4207494422321494E+00 a       983     2     3     3     1
  1.3734982644938554E+00 a       984     2     4     3     1
 -1.3387238441489229E+00 a       985     2     5     3     1
 -7.1326051459644407E-02 a       986     2     6     3     1
 -1.6750342186264238E+00 a       987     2     7     3     1
  1.5117900929819863E+00 a       988     2     8     3     1
  2.0096811888059900E+00 a       989     2     9     3     1
 -6.2432119067936753E-01 a       990     2    10     3     1
  2.0584126833609493E+00 a       991     2    11     3     1
  1.5955335776468713E+00 a       992     2    12     3     1
  4.7670256759341378E-01 a       993     2    13     3     1
  2.0565934157707635E+00 a       994     2    14     3     1
  1.7096340831087444E+00 a       995     2    15     3     1
 -4.3779174466277809E-01 a       996     2    16     3     1
 -4.8535243911688247E-01 a       997     2    17     3     1
  1.0851287962970064E+00 a       998     2    18     3     1
 -4.8210668085674818E-01 a       999     2    19     3     1
  1.3727828506550080E-01 a      1000     2    20     3     1
  1.1150830819960564E+00 b      1001     3     1
